FANN_FLO_2.1
num_layers=3
learning_rate=0.700000
connection_rate=1.000000
network_type=0
learning_momentum=0.000000
training_algorithm=2
train_error_function=1
train_stop_function=1
cascade_output_change_fraction=0.010000
quickprop_decay=-0.000100
quickprop_mu=1.750000
rprop_increase_factor=1.200000
rprop_decrease_factor=0.500000
rprop_delta_min=0.000000
rprop_delta_max=50.000000
rprop_delta_zero=0.100000
cascade_output_stagnation_epochs=12
cascade_candidate_change_fraction=0.010000
cascade_candidate_stagnation_epochs=12
cascade_max_out_epochs=150
cascade_min_out_epochs=50
cascade_max_cand_epochs=150
cascade_min_cand_epochs=50
cascade_num_candidate_groups=2
bit_fail_limit=1.00000000000000005551e-01
cascade_candidate_limit=1.00000000000000000000e+03
cascade_weight_multiplier=4.00000000000000022204e-01
cascade_activation_functions_count=10
cascade_activation_functions=3 5 7 8 10 11 14 15 16 17 
cascade_activation_steepnesses_count=4
cascade_activation_steepnesses=2.50000000000000000000e-01 5.00000000000000000000e-01 7.50000000000000000000e-01 1.00000000000000000000e+00 
layer_sizes=24 11 2 
scale_included=0
neurons (num_inputs, activation_function, activation_steepness)=(0, 0, 0.00000000000000000000e+00) (0, 0, 0.00000000000000000000e+00) (0, 0, 0.00000000000000000000e+00) (0, 0, 0.00000000000000000000e+00) (0, 0, 0.00000000000000000000e+00) (0, 0, 0.00000000000000000000e+00) (0, 0, 0.00000000000000000000e+00) (0, 0, 0.00000000000000000000e+00) (0, 0, 0.00000000000000000000e+00) (0, 0, 0.00000000000000000000e+00) (0, 0, 0.00000000000000000000e+00) (0, 0, 0.00000000000000000000e+00) (0, 0, 0.00000000000000000000e+00) (0, 0, 0.00000000000000000000e+00) (0, 0, 0.00000000000000000000e+00) (0, 0, 0.00000000000000000000e+00) (0, 0, 0.00000000000000000000e+00) (0, 0, 0.00000000000000000000e+00) (0, 0, 0.00000000000000000000e+00) (0, 0, 0.00000000000000000000e+00) (0, 0, 0.00000000000000000000e+00) (0, 0, 0.00000000000000000000e+00) (0, 0, 0.00000000000000000000e+00) (0, 0, 0.00000000000000000000e+00) (24, 6, 5.00000000000000000000e-01) (24, 6, 5.00000000000000000000e-01) (24, 6, 5.00000000000000000000e-01) (24, 6, 5.00000000000000000000e-01) (24, 6, 5.00000000000000000000e-01) (24, 6, 5.00000000000000000000e-01) (24, 6, 5.00000000000000000000e-01) (24, 6, 5.00000000000000000000e-01) (24, 6, 5.00000000000000000000e-01) (24, 6, 5.00000000000000000000e-01) (0, 6, 0.00000000000000000000e+00) (11, 6, 5.00000000000000000000e-01) (0, 6, 0.00000000000000000000e+00) 
connections (connected_to_neuron, weight)=(0, -6.27486770813851402195e-01) (1, -8.84846181309686535821e-02) (2, -1.70775384343129187081e-02) (3, -5.41140765583970895225e-02) (4, -2.05691176716134821456e-01) (5, 2.82491200840196121646e+00) (6, 2.33929904045200948159e-01) (7, -1.72896425258711461392e-01) (8, 2.19923528447928706697e+00) (9, 2.32164510620448938383e+00) (10, -3.59037494526589118227e-01) (11, -1.61532103331428977810e-01) (12, 6.46786241309125875532e-01) (13, 1.59427091472832321850e-01) (14, 1.76243325468742356721e-01) (15, 3.52768739754823923427e-01) (16, 2.18638426006577368810e+00) (17, -3.60868760457153728294e-02) (18, 3.71271907233625642064e+00) (19, 4.67668408497731058482e-01) (20, -5.36372020267945059935e-01) (21, 8.63170863095968687873e-01) (22, -3.27311319887461005251e+00) (23, -2.42707457340166826709e-01) (0, -3.64921388341955443835e+00) (1, -7.32705771429315810828e-01) (2, -5.81151864928976968905e-01) (3, -7.17183507485166793494e-01) (4, -6.94864347083345768041e-01) (5, 3.47180725978982140933e-01) (6, -2.37351394354479561244e+00) (7, -2.71827869943921884843e-01) (8, 4.75346782908932574685e+00) (9, -7.21803479921844126643e-01) (10, 2.66520062131764379210e-01) (11, -1.50000000000000000000e+03) (12, -1.10881622164722437596e+00) (13, -6.82746621382530394229e-01) (14, 5.06437264281499321950e-02) (15, 3.06784771920824450575e+00) (16, 1.19187211511443358347e+01) (17, 2.11376966528743298612e-01) (18, 3.88621242363991736823e+00) (19, 1.36797111326803144671e+00) (20, 4.38799392337730420621e+00) (21, -7.12233795150822590614e+00) (22, -1.48147502636429180711e+03) (23, -5.12020312311657455062e-01) (0, 7.95751775160733476611e+00) (1, 6.33453069182734362919e-01) (2, 5.88004024627308718998e-01) (3, 7.72869648339848169805e-01) (4, 7.52564312818150171758e-01) (5, 3.21900628909348718310e+00) (6, 2.10184327440043405844e+00) (7, -3.49688804067322855929e+00) (8, 4.26492473196689569903e+00) (9, -7.99867180097429564256e+00) (10, 1.58595935721279723829e+00) (11, 2.50973843617813097140e+00) (12, 1.59182984084122525203e+00) (13, 2.46503956686496161765e+00) (14, 2.96349590496543457974e+00) (15, 1.36867564811616837517e+00) (16, -2.22330952195618447575e+00) (17, 6.52758748245981834657e+00) (18, 4.32044462838758125400e+00) (19, 1.72258355424108433596e+00) (20, 1.50000000000000000000e+03) (21, 7.82427075342968578298e+02) (22, 3.65323385065877737077e+00) (23, -6.75436589808102394450e-01) (0, 7.71393846731658072713e+00) (1, 1.01356505947301678283e+00) (2, 9.22278839816548900998e-01) (3, 9.15213044454553426021e-01) (4, 1.01639909641931325268e+00) (5, 1.50000000000000000000e+03) (6, -6.13865245890695465647e-01) (7, 6.06652981899962195911e+00) (8, -2.36311429798229566401e+00) (9, -8.87796957012562337752e-01) (10, 1.50000000000000000000e+03) (11, 1.50000000000000000000e+03) (12, 1.91992894646508927003e-01) (13, -2.40265075796523586149e+00) (14, 5.07528219474872255290e-01) (15, -3.51458291029320157861e+00) (16, 1.50000000000000000000e+03) (17, 1.91484289023161902143e+00) (18, 1.49930213535314646833e+03) (19, -5.63664683815890388274e+00) (20, 9.54414420792422002471e-01) (21, 4.33981623359268041895e+02) (22, 1.49865425073622600394e+03) (23, 1.70246345564606804679e+00) (0, 3.03839936985692169458e+01) (1, 1.35631804984123444102e-01) (2, 1.81607743423492618007e-01) (3, 2.61336182873757205680e-01) (4, 1.87855345826656555674e-01) (5, -5.66518759791821868710e-01) (6, -1.15355783490053309670e+00) (7, 4.67925262542478392902e+00) (8, -1.30156092510657259709e+01) (9, -5.30176817841431269329e+00) (10, 1.13228903956290816168e+00) (11, -7.00635666675540114134e-01) (12, -6.99220798098031082191e+00) (13, -3.03246754577665533770e-01) (14, -1.09390582328465657547e+00) (15, -8.79516721569430792727e+00) (16, 5.69590694051739010462e+00) (17, -1.19397178387592606263e+00) (18, -1.81363740352467104344e+01) (19, 2.16402254984847663977e+00) (20, -3.31761512734525165769e+00) (21, 4.03959617480964539027e+00) (22, -2.75260256206232289955e-01) (23, 3.50211791319133658451e-01) (0, 8.63357896547163683465e+00) (1, 5.77662614269888408103e-01) (2, 5.85416396244204051413e-01) (3, 7.32192550881540560326e-01) (4, 5.77272807343637950339e-01) (5, 3.42400569460772041808e+00) (6, 1.49363858926934911509e+00) (7, -2.46536285892408768561e+00) (8, 1.24145817246693536617e+03) (9, -7.04845298484845450560e+00) (10, 2.11206575629894244273e+00) (11, 2.77591574075780078701e+00) (12, 1.88748207127525158278e+00) (13, 3.38454338522648168208e+00) (14, 3.80814566493196027253e+00) (15, 1.58337516311996817642e+00) (16, -2.36780576476511983586e+00) (17, 5.13359070491835289829e+00) (18, 4.10835467818042499033e+00) (19, 2.46408459183644312773e+00) (20, 1.50000000000000000000e+03) (21, 8.72075841150395604018e+02) (22, 3.96495917321122615107e+00) (23, -1.06648160159263905022e+00) (0, 7.92791633060718936576e+00) (1, 8.50496519826071994963e-01) (2, 8.34312160037177341643e-01) (3, 8.78747750542777317229e-01) (4, 8.74775875828879612151e-01) (5, 1.50000000000000000000e+03) (6, -8.17557586928743251775e-01) (7, 5.97975888215288886585e+00) (8, -2.29657015774945216791e+00) (9, -8.42096069074137254518e-01) (10, 1.50000000000000000000e+03) (11, 1.50000000000000000000e+03) (12, -1.79428356199286742623e+00) (13, -1.13646373805769335119e-01) (14, 5.30022633395822312385e-02) (15, -4.17919665655207595023e+00) (16, 1.50000000000000000000e+03) (17, 2.17334605621362619843e+00) (18, 1.49930213535314646833e+03) (19, -5.43378473478301771138e+00) (20, 1.10813448038984430077e+00) (21, 4.33787175581102701472e+02) (22, 1.49865425073622600394e+03) (23, 1.79632314303189621896e+00) (0, 3.61858065294212210006e+01) (1, 2.94611705745166707615e-01) (2, 2.87339566553539205174e-01) (3, 1.53314082230035148013e-01) (4, 1.54722860361043296207e-01) (5, -2.34867398547532646447e+00) (6, -3.84632881666578940738e+00) (7, -1.68489809697271986089e+00) (8, -3.28820768447665212619e+00) (9, -1.61434749925503240320e+00) (10, -2.42679317715696596380e+00) (11, -5.06811386705130839658e+00) (12, -1.30944961422433747700e+00) (13, -2.95054515639940895255e-02) (14, -3.63881225572462940754e-01) (15, -4.33167896484497028098e+00) (16, -5.61137753072773026730e+00) (17, -3.27516875442452948253e-01) (18, -3.48961063056367137847e+00) (19, -1.13601935727676135457e+01) (20, 4.35193436126694699340e+00) (21, 4.72150500147249108096e+00) (22, -5.44118520653761983397e+00) (23, 4.91325062320510141944e+00) (0, 7.85073678698381982599e+00) (1, 8.14107723502723201747e-01) (2, 7.03667640654651260768e-01) (3, 8.53119917182532772060e-01) (4, 8.19270126490203365321e-01) (5, 1.50000000000000000000e+03) (6, -2.62930891596044657987e-01) (7, 5.98814252876028785266e+00) (8, -2.01322239836860283901e+00) (9, -2.46923230528131421035e-01) (10, 6.68934383402484566972e-01) (11, 1.50000000000000000000e+03) (12, -5.86367155783584692585e+00) (13, 4.38262471539547712740e-02) (14, -1.80917902606671510135e+00) (15, -4.18134178285044377787e+00) (16, 1.50000000000000000000e+03) (17, 2.27357384323785050029e+00) (18, 1.49930213535314646833e+03) (19, -4.66031529505749908537e+00) (20, 1.61410786582846554893e+00) (21, 4.33861226506774755762e+02) (22, 1.49865425073622600394e+03) (23, 1.37083092354741165053e+00) (0, -6.36486766921134816677e-01) (1, -8.77608376399465206497e-02) (2, -7.34083744541592919663e-02) (3, -9.58070325509496056871e-02) (4, -1.49648995961326775062e-01) (5, 3.46581427811341402645e+00) (6, 1.68376030559234268758e+00) (7, -1.44021883834204444952e-01) (8, -6.37112078527144376494e+00) (9, -9.64815268086859312291e+00) (10, -3.74169041342913677450e-01) (11, 4.31971306420652378932e+00) (12, 7.11250284770235885468e-01) (13, 1.78026478603785065502e-01) (14, 2.07502963872301382509e-01) (15, -1.50000000000000000000e+03) (16, -4.03194536582521312340e+00) (17, -8.84295950953514937887e-03) (18, 4.53558444098159530000e+00) (19, 5.39465973806737331131e-01) (20, -5.05860650633183706049e+00) (21, -2.29126786338129697640e+01) (22, 4.90511560459969597758e+00) (23, -6.09049399568174429365e-02) (24, 8.33683209821757698066e-01) (25, -6.26610130933395348407e-01) (26, -1.86648980161392974431e-01) (27, 4.33333900204373012599e-01) (28, -4.66423793897073890591e-01) (29, -1.99958321006349831750e-01) (30, 4.37689956656170497951e-01) (31, -1.52902018826379149097e+00) (32, 4.68681668208788204666e-01) (33, -7.50473509141487360452e-01) (34, 4.84183619135417964152e-01) 
