FANN_FLO_2.1
num_layers=3
learning_rate=0.700000
connection_rate=1.000000
network_type=0
learning_momentum=0.000000
training_algorithm=2
train_error_function=1
train_stop_function=1
cascade_output_change_fraction=0.010000
quickprop_decay=-0.000100
quickprop_mu=1.750000
rprop_increase_factor=1.200000
rprop_decrease_factor=0.500000
rprop_delta_min=0.000000
rprop_delta_max=50.000000
rprop_delta_zero=0.100000
cascade_output_stagnation_epochs=12
cascade_candidate_change_fraction=0.010000
cascade_candidate_stagnation_epochs=12
cascade_max_out_epochs=150
cascade_min_out_epochs=50
cascade_max_cand_epochs=150
cascade_min_cand_epochs=50
cascade_num_candidate_groups=2
bit_fail_limit=1.00000000000000005551e-01
cascade_candidate_limit=1.00000000000000000000e+03
cascade_weight_multiplier=4.00000000000000022204e-01
cascade_activation_functions_count=10
cascade_activation_functions=3 5 7 8 10 11 14 15 16 17 
cascade_activation_steepnesses_count=4
cascade_activation_steepnesses=2.50000000000000000000e-01 5.00000000000000000000e-01 7.50000000000000000000e-01 1.00000000000000000000e+00 
layer_sizes=16 11 2 
scale_included=0
neurons (num_inputs, activation_function, activation_steepness)=(0, 0, 0.00000000000000000000e+00) (0, 0, 0.00000000000000000000e+00) (0, 0, 0.00000000000000000000e+00) (0, 0, 0.00000000000000000000e+00) (0, 0, 0.00000000000000000000e+00) (0, 0, 0.00000000000000000000e+00) (0, 0, 0.00000000000000000000e+00) (0, 0, 0.00000000000000000000e+00) (0, 0, 0.00000000000000000000e+00) (0, 0, 0.00000000000000000000e+00) (0, 0, 0.00000000000000000000e+00) (0, 0, 0.00000000000000000000e+00) (0, 0, 0.00000000000000000000e+00) (0, 0, 0.00000000000000000000e+00) (0, 0, 0.00000000000000000000e+00) (0, 0, 0.00000000000000000000e+00) (16, 6, 5.00000000000000000000e-01) (16, 6, 5.00000000000000000000e-01) (16, 6, 5.00000000000000000000e-01) (16, 6, 5.00000000000000000000e-01) (16, 6, 5.00000000000000000000e-01) (16, 6, 5.00000000000000000000e-01) (16, 6, 5.00000000000000000000e-01) (16, 6, 5.00000000000000000000e-01) (16, 6, 5.00000000000000000000e-01) (16, 6, 5.00000000000000000000e-01) (0, 6, 0.00000000000000000000e+00) (11, 6, 5.00000000000000000000e-01) (0, 6, 0.00000000000000000000e+00) 
connections (connected_to_neuron, weight)=(0, 3.76891044144431641705e-01) (1, 6.94640583922318088916e-01) (2, 7.06830836464813816455e-01) (3, 8.46038385857990848926e-01) (4, 7.11002617706707584766e-01) (5, -1.91229002729372443703e+00) (6, 5.61112774287095938952e-01) (7, 6.01294080312082090956e-01) (8, 6.04469563340296223153e-01) (9, 4.44664186480626222320e-01) (10, 3.46926982255255111909e+00) (11, 2.79820494850879386561e+00) (12, -1.30702400626194847888e+01) (13, 5.30274269774196338467e-01) (14, 2.66559804997091598366e+00) (15, -4.89227295126263950209e-01) (0, -4.00325651787384162450e-01) (1, 4.85749401888852828935e-03) (2, 5.90777256331449524690e-03) (3, -9.53309773580073849253e-02) (4, -5.20593761579036459763e-02) (5, -4.37540551109668884866e-02) (6, 4.02720191653772197071e+00) (7, 2.00647597253649330185e+01) (8, 1.60386344156136478878e-01) (9, -1.59915355655892182929e-01) (10, -3.22055618586361766531e-02) (11, 8.34279522831073983014e-01) (12, 2.07148018806620770604e+00) (13, -9.25905368499911063385e-02) (14, 3.21981555717042899900e+00) (15, -3.68004932086969493987e-01) (0, -9.06124770014161473597e-01) (1, -1.89150387162065669600e-01) (2, -1.32821628564691651686e-01) (3, -2.81536215657091248854e-01) (4, -1.85352677220201655928e-01) (5, 2.12028236977368611527e-01) (6, 1.50777566960553022213e+00) (7, 1.42424327676757145333e+00) (8, 5.00185299558367102435e-01) (9, 1.55077694870053267584e-01) (10, 1.17710112461301164011e+00) (11, 9.97970515955346249015e-01) (12, 1.16495504109726955022e+00) (13, -5.93934308144401304497e-02) (14, 1.85905172647530880781e+00) (15, -6.09831789505448806921e-01) (0, 1.63620191108204915409e+00) (1, 3.97429308703328987296e-01) (2, 2.19763955881978723106e-01) (3, 3.84992561152364631827e-01) (4, 3.51766547968770881827e-01) (5, 1.47952388656121036625e+00) (6, -4.48098439079441046573e+00) (7, 3.93078572975728590677e+00) (8, 1.73938417234105742182e+01) (9, 5.86779932770256973384e-01) (10, -3.22136511600513442133e+00) (11, -2.33577344305003320457e+00) (12, 1.13555047126038903826e+01) (13, 1.24807247708509899686e-01) (14, -5.10441465829338714144e+00) (15, 3.93893777342267832620e-03) (0, -6.49857582325636151666e+00) (1, -1.80894253859053055766e-01) (2, -2.99002273091802828198e-01) (3, -2.29595406064520307643e-01) (4, -1.32535694250593527599e-01) (5, 3.84168722959580877241e-01) (6, 1.38008350451146566407e+00) (7, 1.06721059910052096242e+00) (8, 8.05097657133743815905e-01) (9, 2.69697212036032363258e-01) (10, 1.20109182259285773853e+00) (11, 1.21797465018990735963e+00) (12, 1.51676031075241191104e+00) (13, -1.94674318300917748026e-01) (14, 1.37962262528056833766e+00) (15, -6.84612068626574754582e-01) (0, -5.42324856868553695222e-01) (1, -1.56823967911856987367e-01) (2, -3.19683482267516305697e-01) (3, -2.06838575520175343980e-01) (4, -1.47129212834494926820e-01) (5, 1.81654551571612532523e-01) (6, 1.37404313466051908321e+00) (7, 1.39264201169474888253e+00) (8, 6.65855919033110588146e-01) (9, 1.48554562545834489828e-01) (10, 8.59818578501627905908e-01) (11, 1.08164487974728884545e+00) (12, 1.30096383200300014238e+00) (13, -1.51737847909800632751e-01) (14, 1.97046224272443537551e+00) (15, -4.66412370456523839302e-01) (0, 2.53373126420667005299e-01) (1, -4.26198699554481488794e-02) (2, -2.07102038808731098163e-01) (3, -7.64419295867958259461e-02) (4, -7.10857369979896736023e-02) (5, 5.90856177442183119752e-02) (6, -2.78513398024332792247e+00) (7, -1.22556142222543247300e+01) (8, 5.23119060699874571796e-01) (9, 4.07629518461410933483e-01) (10, 6.41190523646802068569e-01) (11, -8.21463560206962739585e+00) (12, -2.20344845085903564552e+01) (13, -1.73727289939442974820e-01) (14, -6.86471796982452442393e+00) (15, 3.99263043682290402758e-02) (0, 3.16759618328428693701e+00) (1, 2.08917588495509537472e-01) (2, 1.66510642074840037319e-01) (3, 2.22751722239749400112e-01) (4, 2.38910377525584666225e-01) (5, 2.45091557442649626841e-01) (6, 5.52961131017153473266e+00) (7, 6.12027615404470193283e+00) (8, -2.46000908994853606515e+00) (9, 7.27310399897356796295e-02) (10, 3.22091488725934765869e-02) (11, 3.28353568029742870493e+00) (12, 2.13979959206470233823e+01) (13, 3.63414234333518382236e-01) (14, 2.60239626564917614360e+00) (15, 1.77139937599900890164e-02) (0, -1.32981392964693014846e+01) (1, -1.58127559432516495708e-01) (2, -2.43721162983904310328e-01) (3, -3.01169974812994234448e-01) (4, -3.01082750865946047192e-01) (5, 4.52546893657286841695e-01) (6, 1.48871738410154264010e+00) (7, 1.15841325949171314313e+00) (8, 7.96423477510889488151e-01) (9, 2.67488728940060427330e-01) (10, 1.80674672766382338196e+00) (11, 1.36390695206883649782e+00) (12, 1.80922193049613588833e+00) (13, -1.19739742919101749274e-02) (14, 1.39677703389786622701e+00) (15, -7.17016461584261910467e-01) (0, 1.00337376780400155951e+00) (1, 3.29549511815935225467e-01) (2, 3.99731649007230849246e-01) (3, 2.51587754036813826541e-01) (4, 2.75715386416345686893e-01) (5, 8.51474059936676130889e-01) (6, -2.55469183353260520519e+00) (7, 3.96768806057307799051e+00) (8, 8.22492002353395812442e-01) (9, 8.73948232886742504277e-01) (10, -2.10479257011892073592e-01) (11, 2.91750541800126272918e-01) (12, 1.12953667999728555316e+01) (13, 2.43758277784059812499e-01) (14, -2.62723883555830894920e+00) (15, 1.05051227748458866559e-03) (16, -1.13498374589127898338e-01) (17, 4.39106699547161694053e-01) (18, 3.46037224806915122421e-01) (19, 4.15815728449235755271e-01) (20, 3.57306781001456574831e-01) (21, 4.13510859884391623886e-01) (22, -8.26833339624101631982e-02) (23, 4.82699498584199471196e-01) (24, 4.00614175798523208805e-01) (25, 4.85500566066156769018e-01) (26, 3.91613017462258794499e-01) 
