FANN_FLO_2.1
num_layers=3
learning_rate=0.700000
connection_rate=1.000000
network_type=0
learning_momentum=0.000000
training_algorithm=2
train_error_function=1
train_stop_function=1
cascade_output_change_fraction=0.010000
quickprop_decay=-0.000100
quickprop_mu=1.750000
rprop_increase_factor=1.200000
rprop_decrease_factor=0.500000
rprop_delta_min=0.000000
rprop_delta_max=50.000000
rprop_delta_zero=0.100000
cascade_output_stagnation_epochs=12
cascade_candidate_change_fraction=0.010000
cascade_candidate_stagnation_epochs=12
cascade_max_out_epochs=150
cascade_min_out_epochs=50
cascade_max_cand_epochs=150
cascade_min_cand_epochs=50
cascade_num_candidate_groups=2
bit_fail_limit=1.00000000000000005551e-01
cascade_candidate_limit=1.00000000000000000000e+03
cascade_weight_multiplier=4.00000000000000022204e-01
cascade_activation_functions_count=10
cascade_activation_functions=3 5 7 8 10 11 14 15 16 17 
cascade_activation_steepnesses_count=4
cascade_activation_steepnesses=2.50000000000000000000e-01 5.00000000000000000000e-01 7.50000000000000000000e-01 1.00000000000000000000e+00 
layer_sizes=7 11 2 
scale_included=0
neurons (num_inputs, activation_function, activation_steepness)=(0, 0, 0.00000000000000000000e+00) (0, 0, 0.00000000000000000000e+00) (0, 0, 0.00000000000000000000e+00) (0, 0, 0.00000000000000000000e+00) (0, 0, 0.00000000000000000000e+00) (0, 0, 0.00000000000000000000e+00) (0, 0, 0.00000000000000000000e+00) (7, 6, 5.00000000000000000000e-01) (7, 6, 5.00000000000000000000e-01) (7, 6, 5.00000000000000000000e-01) (7, 6, 5.00000000000000000000e-01) (7, 6, 5.00000000000000000000e-01) (7, 6, 5.00000000000000000000e-01) (7, 6, 5.00000000000000000000e-01) (7, 6, 5.00000000000000000000e-01) (7, 6, 5.00000000000000000000e-01) (7, 6, 5.00000000000000000000e-01) (0, 6, 0.00000000000000000000e+00) (11, 6, 5.00000000000000000000e-01) (0, 6, 0.00000000000000000000e+00) 
connections (connected_to_neuron, weight)=(0, 9.05643867263067336992e-01) (1, 5.56289025196395781059e-01) (2, 3.63588624247871139428e-01) (3, 4.50511135706268051049e-01) (4, 3.76772128590903976342e-01) (5, -2.53030364378111771728e+00) (6, 7.52869789322642257723e-01) (0, 1.00087739079229853800e-01) (1, 3.19575136651291391576e-01) (2, 3.19094678510918161596e-01) (3, 4.11056390156044504369e-01) (4, 3.52063460399403116430e-01) (5, 2.84593644181949922967e+00) (6, -1.74856558363572389680e-01) (0, 9.27911089667547206439e-01) (1, 5.08356817612014566521e-01) (2, 5.24685241827331338982e-01) (3, 4.03788287737928131005e-01) (4, 5.58437668332420256156e-01) (5, -2.51495149894373826172e+00) (6, 7.48319146057394912752e-01) (0, 5.30638355007100326333e-02) (1, 2.86863034714951059545e-01) (2, 3.34674617399467966283e-01) (3, 3.82942190517677805150e-01) (4, 2.35978035380138895238e-01) (5, 2.87860910038215944695e+00) (6, -2.18823000710145210146e-01) (0, 3.35405351044261890170e-01) (1, 1.70650914000594178255e-01) (2, 1.67912110375487366731e-01) (3, 2.50659085499369660432e-01) (4, 1.64187628465020218904e-01) (5, 1.31468342674127525171e+00) (6, -4.45581026658173895427e-02) (0, 6.16944900648731878179e-02) (1, 1.27707379211677990449e-01) (2, 1.17896067251457653535e-01) (3, 1.60179289330734664354e-01) (4, 1.68589374916691507600e-02) (5, 1.05153255926700905931e+00) (6, 3.35490232363572504770e-02) (0, -1.42301203416096699872e-01) (1, -1.18093700812565788327e-01) (2, -2.22269693122612965741e-01) (3, -1.47756265209424031415e-01) (4, -1.72489197657811177411e-01) (5, 1.35369977337044300469e+00) (6, 3.47616718532169299838e-01) (0, -2.43266893957532481796e-01) (1, -1.69512713061081898847e-01) (2, -2.15279804275738728681e-01) (3, -1.25342951820599568524e-01) (4, -1.13073246286618217527e-01) (5, 1.50300776940506519708e+00) (6, 2.81512656630599933383e-01) (0, -1.07518793748127922116e-01) (1, -9.11312646707469753427e-04) (2, 2.22330964137707337569e-02) (3, -1.47683345745410268823e-02) (4, -1.37196923143705351578e-01) (5, 2.06322264376053343682e+00) (6, 3.28448636581196329320e-01) (0, 7.95485845701832394727e-02) (1, 1.04514980961574993623e-01) (2, 1.19930016149773083223e-01) (3, 1.50819512357010299120e-01) (4, 4.17987911896843603032e-02) (5, 1.09236789511772469652e+00) (6, 1.33121734515061762583e-02) (7, -5.99092945388236763904e-01) (8, 4.24851750343005762911e-01) (9, -5.96363350680747750232e-01) (10, 3.77615061907928095675e-01) (11, 1.16334480546871399387e-01) (12, 2.60376171677272283400e-01) (13, 2.14573547945149767369e-01) (14, 2.09360048875935900181e-01) (15, 2.24754155383237230748e-01) (16, 2.63891445009868108595e-01) (17, 6.01881782690612876507e-01) 
