FANN_FLO_2.1
num_layers=3
learning_rate=0.700000
connection_rate=1.000000
network_type=0
learning_momentum=0.000000
training_algorithm=2
train_error_function=1
train_stop_function=1
cascade_output_change_fraction=0.010000
quickprop_decay=-0.000100
quickprop_mu=1.750000
rprop_increase_factor=1.200000
rprop_decrease_factor=0.500000
rprop_delta_min=0.000000
rprop_delta_max=50.000000
rprop_delta_zero=0.100000
cascade_output_stagnation_epochs=12
cascade_candidate_change_fraction=0.010000
cascade_candidate_stagnation_epochs=12
cascade_max_out_epochs=150
cascade_min_out_epochs=50
cascade_max_cand_epochs=150
cascade_min_cand_epochs=50
cascade_num_candidate_groups=2
bit_fail_limit=1.00000000000000005551e-01
cascade_candidate_limit=1.00000000000000000000e+03
cascade_weight_multiplier=4.00000000000000022204e-01
cascade_activation_functions_count=10
cascade_activation_functions=3 5 7 8 10 11 14 15 16 17 
cascade_activation_steepnesses_count=4
cascade_activation_steepnesses=2.50000000000000000000e-01 5.00000000000000000000e-01 7.50000000000000000000e-01 1.00000000000000000000e+00 
layer_sizes=23 4 2 
scale_included=0
neurons (num_inputs, activation_function, activation_steepness)=(0, 0, 0.00000000000000000000e+00) (0, 0, 0.00000000000000000000e+00) (0, 0, 0.00000000000000000000e+00) (0, 0, 0.00000000000000000000e+00) (0, 0, 0.00000000000000000000e+00) (0, 0, 0.00000000000000000000e+00) (0, 0, 0.00000000000000000000e+00) (0, 0, 0.00000000000000000000e+00) (0, 0, 0.00000000000000000000e+00) (0, 0, 0.00000000000000000000e+00) (0, 0, 0.00000000000000000000e+00) (0, 0, 0.00000000000000000000e+00) (0, 0, 0.00000000000000000000e+00) (0, 0, 0.00000000000000000000e+00) (0, 0, 0.00000000000000000000e+00) (0, 0, 0.00000000000000000000e+00) (0, 0, 0.00000000000000000000e+00) (0, 0, 0.00000000000000000000e+00) (0, 0, 0.00000000000000000000e+00) (0, 0, 0.00000000000000000000e+00) (0, 0, 0.00000000000000000000e+00) (0, 0, 0.00000000000000000000e+00) (0, 0, 0.00000000000000000000e+00) (23, 6, 5.00000000000000000000e-01) (23, 6, 5.00000000000000000000e-01) (23, 6, 5.00000000000000000000e-01) (0, 6, 0.00000000000000000000e+00) (4, 4, 5.00000000000000000000e-01) (0, 4, 0.00000000000000000000e+00) 
connections (connected_to_neuron, weight)=(0, 5.66145833729107428312e-01) (1, 3.40252690337319807501e-01) (2, 5.26007023167354947901e+00) (3, 1.34328117419696599910e+01) (4, 3.41549883124401958412e+01) (5, -9.57644432823518132469e-02) (6, 1.09297741683089171261e+01) (7, -4.07254203909071943457e+00) (8, -5.23828366594710839732e-02) (9, -1.48295086468921670786e+01) (10, 3.41488233562436818147e+01) (11, 3.40366372304114790381e+01) (12, 3.22112911370315257997e+00) (13, 1.63007168192579765531e+00) (14, 1.57206885380972565258e+01) (15, -1.90972868040614400797e+01) (16, -8.93897260938313564793e+01) (17, -2.84215034720415404834e+00) (18, 1.72073453243465901430e+00) (19, -2.86931998348228312068e+00) (20, -2.88719436186747779871e+00) (21, 1.50000000000000000000e+03) (22, -2.42787525547441429552e+00) (0, 7.36981995371190201638e+00) (1, -4.79019129402016652364e+00) (2, 1.07396494380111140465e+00) (3, 1.81709274773557738492e+00) (4, 2.73516803437147926203e+00) (5, 6.69873113816473964022e-01) (6, 3.13219770530966012956e+00) (7, -2.82747910727688622767e-01) (8, 1.63318976923181735650e+00) (9, 6.12705150077076821091e-01) (10, 2.74506364869367658343e+00) (11, 2.73673813105348351371e+00) (12, 7.16952375309857670160e-01) (13, -8.35340940850877178292e-02) (14, 1.08810153268822684680e+00) (15, 4.11090255719041786087e-01) (16, 3.30745477447666580417e+00) (17, -8.13972980416554192651e-01) (18, 8.32932837640202650142e-01) (19, -1.11723337217709879354e+01) (20, -1.20170058504444750014e+01) (21, 4.39013798658142206932e+00) (22, -1.90829524827524443786e+00) (0, 1.11837010256794560092e+01) (1, 2.27647492482494318011e+00) (2, 7.72355697381676087332e-01) (3, 1.37311713136017576886e+00) (4, 2.09964010158909708537e+00) (5, 8.14962243513780104642e-01) (6, -4.28238423012544666690e-01) (7, 1.07683486463836075586e+00) (8, 5.41878971152053079408e-01) (9, -9.88321700977035200175e-01) (10, 2.06773794649957443070e+00) (11, 2.09432121268146831383e+00) (12, 9.80360954657424565895e-01) (13, 1.06132425761100481765e+01) (14, 3.03938317079259245901e+00) (15, 4.11148416601062827169e+00) (16, 5.08782683521205036925e+00) (17, -1.00821753479216713600e+01) (18, -1.37851333976790897395e+01) (19, 1.58335960282815708666e+01) (20, 1.14185715721766616326e+01) (21, 4.23135225763976379199e+01) (22, -9.44038568521696430658e-01) (23, 1.05255785679175843939e+01) (24, -1.30895510827203214177e+01) (25, -7.83550415910684439069e+00) (26, 3.85350688578443068000e-01) 
