FANN_FLO_2.1
num_layers=3
learning_rate=0.700000
connection_rate=1.000000
network_type=0
learning_momentum=0.000000
training_algorithm=2
train_error_function=1
train_stop_function=1
cascade_output_change_fraction=0.010000
quickprop_decay=-0.000100
quickprop_mu=1.750000
rprop_increase_factor=1.200000
rprop_decrease_factor=0.500000
rprop_delta_min=0.000000
rprop_delta_max=50.000000
rprop_delta_zero=0.100000
cascade_output_stagnation_epochs=12
cascade_candidate_change_fraction=0.010000
cascade_candidate_stagnation_epochs=12
cascade_max_out_epochs=150
cascade_min_out_epochs=50
cascade_max_cand_epochs=150
cascade_min_cand_epochs=50
cascade_num_candidate_groups=2
bit_fail_limit=1.00000000000000005551e-01
cascade_candidate_limit=1.00000000000000000000e+03
cascade_weight_multiplier=4.00000000000000022204e-01
cascade_activation_functions_count=10
cascade_activation_functions=3 5 7 8 10 11 14 15 16 17 
cascade_activation_steepnesses_count=4
cascade_activation_steepnesses=2.50000000000000000000e-01 5.00000000000000000000e-01 7.50000000000000000000e-01 1.00000000000000000000e+00 
layer_sizes=8 4 2 
scale_included=0
neurons (num_inputs, activation_function, activation_steepness)=(0, 0, 0.00000000000000000000e+00) (0, 0, 0.00000000000000000000e+00) (0, 0, 0.00000000000000000000e+00) (0, 0, 0.00000000000000000000e+00) (0, 0, 0.00000000000000000000e+00) (0, 0, 0.00000000000000000000e+00) (0, 0, 0.00000000000000000000e+00) (0, 0, 0.00000000000000000000e+00) (8, 6, 5.00000000000000000000e-01) (8, 6, 5.00000000000000000000e-01) (8, 6, 5.00000000000000000000e-01) (0, 6, 0.00000000000000000000e+00) (4, 4, 5.00000000000000000000e-01) (0, 4, 0.00000000000000000000e+00) 
connections (connected_to_neuron, weight)=(0, 7.32845525059162672399e-01) (1, 8.64041296428035998645e+00) (2, 1.70191949247920026878e+00) (3, -2.39183123603076497332e+00) (4, 3.35033065722668466080e+00) (5, 1.43433940105663637610e+00) (6, -2.42449008630749007764e+00) (7, -9.53564344645992711946e-01) (0, 2.38621244255747710916e-01) (1, 2.45224466706091215329e+00) (2, -1.16787214468033279102e-01) (3, -1.76417877585476934321e+00) (4, 9.76633704262610891078e+00) (5, 2.46373997138116002104e-01) (6, -1.54902843270916634744e+00) (7, -2.12557634861772148938e-01) (0, -5.66436873245828365064e-01) (1, 3.92086869766619194877e+00) (2, -2.03475819541347718866e-01) (3, 1.56795156303629656946e+01) (4, -3.72420325044866729058e+00) (5, -7.62649604517774137857e-02) (6, 1.57441172677860041773e+01) (7, -3.17234383566118349762e+00) (8, 7.46854203187918130880e+00) (9, 1.34591786141957148182e+00) (10, 5.91231082013571374034e+00) (11, -6.90817298738089569099e+00) 
