FANN_FLO_2.1
num_layers=3
learning_rate=0.700000
connection_rate=1.000000
network_type=0
learning_momentum=0.000000
training_algorithm=2
train_error_function=1
train_stop_function=1
cascade_output_change_fraction=0.010000
quickprop_decay=-0.000100
quickprop_mu=1.750000
rprop_increase_factor=1.200000
rprop_decrease_factor=0.500000
rprop_delta_min=0.000000
rprop_delta_max=50.000000
rprop_delta_zero=0.100000
cascade_output_stagnation_epochs=12
cascade_candidate_change_fraction=0.010000
cascade_candidate_stagnation_epochs=12
cascade_max_out_epochs=150
cascade_min_out_epochs=50
cascade_max_cand_epochs=150
cascade_min_cand_epochs=50
cascade_num_candidate_groups=2
bit_fail_limit=1.00000000000000005551e-01
cascade_candidate_limit=1.00000000000000000000e+03
cascade_weight_multiplier=4.00000000000000022204e-01
cascade_activation_functions_count=10
cascade_activation_functions=3 5 7 8 10 11 14 15 16 17 
cascade_activation_steepnesses_count=4
cascade_activation_steepnesses=2.50000000000000000000e-01 5.00000000000000000000e-01 7.50000000000000000000e-01 1.00000000000000000000e+00 
layer_sizes=12 11 2 
scale_included=0
neurons (num_inputs, activation_function, activation_steepness)=(0, 0, 0.00000000000000000000e+00) (0, 0, 0.00000000000000000000e+00) (0, 0, 0.00000000000000000000e+00) (0, 0, 0.00000000000000000000e+00) (0, 0, 0.00000000000000000000e+00) (0, 0, 0.00000000000000000000e+00) (0, 0, 0.00000000000000000000e+00) (0, 0, 0.00000000000000000000e+00) (0, 0, 0.00000000000000000000e+00) (0, 0, 0.00000000000000000000e+00) (0, 0, 0.00000000000000000000e+00) (0, 0, 0.00000000000000000000e+00) (12, 6, 5.00000000000000000000e-01) (12, 6, 5.00000000000000000000e-01) (12, 6, 5.00000000000000000000e-01) (12, 6, 5.00000000000000000000e-01) (12, 6, 5.00000000000000000000e-01) (12, 6, 5.00000000000000000000e-01) (12, 6, 5.00000000000000000000e-01) (12, 6, 5.00000000000000000000e-01) (12, 6, 5.00000000000000000000e-01) (12, 6, 5.00000000000000000000e-01) (0, 6, 0.00000000000000000000e+00) (11, 6, 5.00000000000000000000e-01) (0, 6, 0.00000000000000000000e+00) 
connections (connected_to_neuron, weight)=(0, -8.99660873399377081228e+00) (1, -2.65034872727567850925e-02) (2, -6.57309431271726890555e-02) (3, -1.88857591493623994117e-01) (4, -2.22787845568830668308e-02) (5, 2.32696026402663580512e+00) (6, -8.37402265558577496574e-02) (7, 5.13703206514198762456e-01) (8, 9.01212550832044434479e-01) (9, 2.43801199376582333755e+00) (10, -1.98527836989626504938e-01) (11, -4.11860962254640972091e-01) (0, 7.74246226712708929263e-01) (1, 1.36830194623312861868e-01) (2, 1.74867770404658229300e-01) (3, 1.04223443896613032766e-01) (4, 1.91633670360884578177e-01) (5, -8.82218206151067052545e-01) (6, 6.36672101304812332323e-01) (7, 1.50244610392944372146e-01) (8, -6.40655167053523655341e-01) (9, 4.97968040923804200482e-01) (10, 5.52044644368725578865e-01) (11, 5.35653686705625742270e-01) (0, -9.07444272921681616140e+00) (1, -1.42126273565041122415e-01) (2, -1.22299131207214875627e-01) (3, -6.62279615328184440015e-02) (4, -1.54237967185722885111e-01) (5, 2.89714662714406845367e+00) (6, -8.92520827343188383196e-02) (7, 5.96017001834422632811e-01) (8, 7.44777777502083293548e-01) (9, 2.67078388949025491428e+00) (10, 1.97624257472927278290e-01) (11, -2.01575438084437674746e-01) (0, -9.11820797608494970632e+00) (1, -8.19204736190016075126e-02) (2, -2.10457879738981425144e-02) (3, -4.75819844441587522232e-02) (4, -1.29362753375070804740e-01) (5, 2.15862361007742808994e+00) (6, -1.24151266742739740945e-01) (7, 5.62837557827312817693e-01) (8, 9.48456910859068025310e-01) (9, 2.42795210063456723404e+00) (10, -2.23932875137791254083e-01) (11, -2.99113539511796644454e-01) (0, 7.70192669185564948720e+00) (1, 8.37230938920702105754e-01) (2, 7.43671964356626635784e-01) (3, 7.67801951119627124065e-01) (4, 7.44035940119947558635e-01) (5, -3.42217690143811603676e+00) (6, -3.69679291951079569412e-01) (7, 4.15558996432787886022e+00) (8, 4.32433385659241320553e+00) (9, 1.23247604665779642019e+00) (10, 1.61286929541359813634e+00) (11, -7.33681499846917550833e-01) (0, -8.99196499572396490407e+00) (1, -1.06748867981182618547e-01) (2, -1.86826180867897567728e-01) (3, -2.14588236264931259134e-01) (4, -1.33748468212830123880e-01) (5, 2.94001888467475769318e+00) (6, -3.27593657276248079874e-03) (7, 5.97078193719634220393e-01) (8, 7.32233056137108317962e-01) (9, 2.60144517292369226169e+00) (10, 2.37790106502945131073e-01) (11, -1.21204132737948652720e-01) (0, 7.64758692535326911610e+00) (1, 8.11055439958299762004e-01) (2, 8.01680925736154681438e-01) (3, 7.33796156445469027751e-01) (4, 7.53553259620393878215e-01) (5, -3.58045304901826799693e+00) (6, -8.88529898431009601545e-01) (7, 3.95897070378655557832e+00) (8, 5.03878351941343005649e+00) (9, 1.87996621783632966718e+00) (10, 1.57287273762286150536e+00) (11, -3.58210765647452994420e-02) (0, 7.50918005260394050282e+00) (1, 7.94574241587843066448e-01) (2, 7.94210995981420642131e-01) (3, 8.08898884305681353801e-01) (4, 8.63683599481310015911e-01) (5, -3.06440969809154584169e+00) (6, -8.40422132816023292889e-01) (7, 3.63911003134069011011e+00) (8, 4.91607108809781756520e+00) (9, 1.17614986596130899343e+00) (10, 1.57121300158560717186e+00) (11, -2.07252275681609837710e-01) (0, 1.33391039532832103021e+01) (1, 2.98420680962763584798e-01) (2, 2.45474880837164677327e-01) (3, 2.24841391943655766195e-01) (4, 4.02082367144785679525e-01) (5, -2.28688045821519825296e+00) (6, 7.08937419686191117041e-02) (7, -1.68548361969195137355e+00) (8, -2.79847585069024695770e+00) (9, -1.86723921707864048969e+00) (10, -2.28842691408892261185e-02) (11, 4.46744167936234948257e-01) (0, 3.77146776032424357883e-01) (1, 1.44067764963013017487e-01) (2, 8.18776420606197735674e-02) (3, 1.92253173078399980378e-01) (4, 1.22223601425987662972e-01) (5, -5.23210547320945962291e-01) (6, 4.80927586051160649294e-01) (7, 1.59581498269534216572e-01) (8, -1.22025323259365992001e-01) (9, -2.34833165363627360822e-01) (10, 2.65291410032382268813e-01) (11, 5.57685771525132323312e-01) (12, 4.54840986980863171141e-01) (13, -3.28735579461727350781e-03) (14, 4.32602155013747768919e-01) (15, 4.32175206943221645872e-01) (16, 4.91217768975813262600e-01) (17, 4.05173762692876415770e-01) (18, 4.57372165509779327053e-01) (19, 4.30174476691801421779e-01) (20, -9.99123764763337474104e-02) (21, 1.34603920069519024383e-02) (22, 4.13134000995791228483e-01) 
