FANN_FLO_2.1
num_layers=3
learning_rate=0.700000
connection_rate=1.000000
network_type=0
learning_momentum=0.000000
training_algorithm=2
train_error_function=1
train_stop_function=1
cascade_output_change_fraction=0.010000
quickprop_decay=-0.000100
quickprop_mu=1.750000
rprop_increase_factor=1.200000
rprop_decrease_factor=0.500000
rprop_delta_min=0.000000
rprop_delta_max=50.000000
rprop_delta_zero=0.100000
cascade_output_stagnation_epochs=12
cascade_candidate_change_fraction=0.010000
cascade_candidate_stagnation_epochs=12
cascade_max_out_epochs=150
cascade_min_out_epochs=50
cascade_max_cand_epochs=150
cascade_min_cand_epochs=50
cascade_num_candidate_groups=2
bit_fail_limit=1.00000000000000005551e-01
cascade_candidate_limit=1.00000000000000000000e+03
cascade_weight_multiplier=4.00000000000000022204e-01
cascade_activation_functions_count=10
cascade_activation_functions=3 5 7 8 10 11 14 15 16 17 
cascade_activation_steepnesses_count=4
cascade_activation_steepnesses=2.50000000000000000000e-01 5.00000000000000000000e-01 7.50000000000000000000e-01 1.00000000000000000000e+00 
layer_sizes=18 11 2 
scale_included=0
neurons (num_inputs, activation_function, activation_steepness)=(0, 0, 0.00000000000000000000e+00) (0, 0, 0.00000000000000000000e+00) (0, 0, 0.00000000000000000000e+00) (0, 0, 0.00000000000000000000e+00) (0, 0, 0.00000000000000000000e+00) (0, 0, 0.00000000000000000000e+00) (0, 0, 0.00000000000000000000e+00) (0, 0, 0.00000000000000000000e+00) (0, 0, 0.00000000000000000000e+00) (0, 0, 0.00000000000000000000e+00) (0, 0, 0.00000000000000000000e+00) (0, 0, 0.00000000000000000000e+00) (0, 0, 0.00000000000000000000e+00) (0, 0, 0.00000000000000000000e+00) (0, 0, 0.00000000000000000000e+00) (0, 0, 0.00000000000000000000e+00) (0, 0, 0.00000000000000000000e+00) (0, 0, 0.00000000000000000000e+00) (18, 6, 5.00000000000000000000e-01) (18, 6, 5.00000000000000000000e-01) (18, 6, 5.00000000000000000000e-01) (18, 6, 5.00000000000000000000e-01) (18, 6, 5.00000000000000000000e-01) (18, 6, 5.00000000000000000000e-01) (18, 6, 5.00000000000000000000e-01) (18, 6, 5.00000000000000000000e-01) (18, 6, 5.00000000000000000000e-01) (18, 6, 5.00000000000000000000e-01) (0, 6, 0.00000000000000000000e+00) (11, 6, 5.00000000000000000000e-01) (0, 6, 0.00000000000000000000e+00) 
connections (connected_to_neuron, weight)=(0, 1.37802123884659244446e+00) (1, 2.90999340560725183735e-01) (2, 2.31279897239497100880e-01) (3, 1.35176739391377337407e-01) (4, 1.28894920196822054814e-01) (5, 1.32266093811696407556e+02) (6, 7.59173510822005255250e+01) (7, 3.24629083258857686900e+00) (8, -1.36672317466827086818e+00) (9, 3.54365992301147125776e-01) (10, -1.20451815646171489504e+00) (11, 1.35952030592811556886e+00) (12, 6.65040329606897131498e+01) (13, 4.26718266737151352697e-01) (14, 9.23057808968376178882e+01) (15, 1.34995897613211901511e-01) (16, 3.85641788195071285372e+02) (17, 2.14273265684551045274e-01) (0, -1.27264090503239790664e+00) (1, -3.42717172814163750783e-01) (2, -2.60303387654576001697e-01) (3, -2.24058056486401313556e-01) (4, -3.72490925950560103352e-01) (5, 7.60680799825396469771e+00) (6, -7.93106930850854124904e-02) (7, -1.01924736663376407364e+01) (8, 1.97961805690626468923e+00) (9, 6.65623007076485556643e-02) (10, 4.66946275995425263972e+00) (11, -4.67891603995946925298e-01) (12, -1.24070673931393741896e+02) (13, -3.40276340613489325371e-01) (14, -2.71179634139867209441e+00) (15, -1.38998376527201172870e+00) (16, 9.56395515210894164859e-01) (17, -5.01293119222429445214e-02) (0, 6.79241036072310011562e-01) (1, 7.62389077703895856608e-01) (2, 7.81234255890789319743e-01) (3, 7.41457360695543576945e-01) (4, 8.86350679110231465252e-01) (5, -3.40351090679663981220e+00) (6, -1.83177090622508664808e+00) (7, -5.83323658059563321387e+00) (8, -6.44094817226431137769e-01) (9, -3.01432321338328368387e-01) (10, -2.10667019861087823074e+00) (11, 1.03990607033458637432e+00) (12, -6.06342866705312300013e+00) (13, 5.88331772011904674535e-01) (14, -4.45947931924709717322e+00) (15, 2.27907355348910822812e+00) (16, -3.33661930555820473998e+00) (17, 1.13966216502891914963e+00) (0, 2.28153084971526709523e+00) (1, 2.73679664818594181597e-01) (2, 2.92745409993478922228e-01) (3, 1.76885327784368634463e-01) (4, 1.90151384560415359637e-01) (5, -3.65675371493152123747e+00) (6, -3.66961755310179071898e+00) (7, -7.10102926738236051030e-01) (8, -9.16108102086389930463e-01) (9, -9.77311331268467496647e-03) (10, -2.19005578255567812107e+00) (11, 3.55875281118082142928e-01) (12, -2.31150034296941786494e+00) (13, 1.85596501639419764196e-01) (14, 1.59060207680439880118e-01) (15, 9.25352117137848040329e-01) (16, -3.82165360006509269297e+00) (17, 2.01618396271034117095e-01) (0, 1.18643411671443632649e+00) (1, 2.61319957158975990641e-01) (2, 1.25577702603750590571e-01) (3, 2.95955590389185396738e-01) (4, 1.25063716850691231119e-01) (5, -3.21660695192257151120e+00) (6, -3.34144644407472446446e+00) (7, -5.01280514884722028235e-01) (8, -8.86815876248682410932e-01) (9, -8.70508013544107894788e-02) (10, -2.61370062201987662931e+00) (11, 8.63039735576249356086e-01) (12, -2.37829439575934875606e+00) (13, 2.22257468593519302846e-01) (14, -4.20467356213097276374e-01) (15, 7.37324662009202547175e-01) (16, -3.11287064966409232625e+00) (17, 2.63616146510428250860e-01) (0, -1.26300483817839781508e+00) (1, -2.44757581984565486533e-01) (2, -3.32945187127158648277e-01) (3, -3.46579488849208361412e-01) (4, -3.67970604931876665855e-01) (5, -4.84595868074571001216e+01) (6, -1.63674321382139957848e+01) (7, -8.36779709334025589840e+00) (8, 7.37318807330323178206e-01) (9, 3.29361668456459255605e-01) (10, 3.65960797883421973253e+00) (11, -1.40198269954073739818e+00) (12, -1.24109466064725040724e+02) (13, -3.43097458253030951347e-01) (14, -2.49714714472204224460e-01) (15, -2.48467008486869822548e+00) (16, 2.85332940976282978252e-01) (17, 9.79052173123287211576e-02) (0, 8.18195933369512240496e-01) (1, 5.00639566058507096136e-02) (2, 4.51494015997556171621e-03) (3, 1.44534073846994959300e-01) (4, 9.01721716696610858799e-02) (5, 3.03325404769862132071e+02) (6, 7.01443733528799100441e+01) (7, -1.02859907929044225305e+00) (8, 2.53096515099590857467e-01) (9, -1.21350727033892380469e-01) (10, 1.11971465302368988759e+00) (11, 1.51323783801696531981e-01) (12, 6.14970374916028248435e+01) (13, 7.27052567951666506296e-02) (14, -1.01042676852935930931e+00) (15, 9.60225270524219104429e-02) (16, 3.80021090043900017008e+02) (17, -1.40377394973554114888e-01) (0, 1.16360978316787955222e+00) (1, 1.70551041791754093291e-01) (2, 2.08269226084070530058e-01) (3, 2.90427672396021352430e-01) (4, 2.97847452292757497450e-01) (5, -3.39633579334658008975e+00) (6, -3.54765834292699455688e+00) (7, -3.49651608169458172348e-01) (8, -9.80016327464631631372e-01) (9, 5.85566440859828993282e-02) (10, -3.10992972435456982438e+00) (11, 7.18440580543868834162e-01) (12, -2.37606039125156431879e+00) (13, 2.02612451339673788064e-01) (14, -3.11694072552685497168e-01) (15, 8.14186109321056172838e-01) (16, -3.23790630814282920369e+00) (17, 2.32480379693550343045e-01) (0, 9.17516122132531530831e-01) (1, 1.94052254935399154379e-01) (2, 1.27183785816327249441e-01) (3, 1.63370708157912353231e-01) (4, 3.07928277333870903387e-01) (5, 2.03278712962790120145e+00) (6, -4.51471403680252691970e+00) (7, 7.81218285405481527306e+00) (8, 1.21415596030243298081e-02) (9, -2.64216878468526206181e-01) (10, -2.40610162445113839880e+00) (11, 3.00939837217894812227e+00) (12, -6.45113327937723823879e+00) (13, 1.91006929798049535085e-01) (14, 1.43036508809175000323e+01) (15, 1.27696743793571965142e+00) (16, 6.29379927063937714138e+01) (17, 3.67116853669519722578e-03) (0, 5.53462573751205111350e-01) (1, 9.76772548312061367204e-02) (2, 2.42230886375319393045e-01) (3, 1.64848701810252101785e-01) (4, 8.40518043989055690934e-02) (5, 1.32134094721382496118e+02) (6, 7.57371605786032660035e+01) (7, -2.88088674629082774903e-01) (8, -4.89406397384141766960e-01) (9, 3.76835011058772872961e-01) (10, 1.05296580316620125295e+00) (11, 1.02521568631904891333e+00) (12, 6.64782399894363180692e+01) (13, 3.82822604218697404299e-01) (14, 4.76523138432893289540e-01) (15, 6.63021038761143904905e-02) (16, 3.85669315497574871188e+02) (17, 2.59262698340888053661e-01) (18, 2.35667184981560279278e-01) (19, -4.34533660228949125681e-01) (20, -3.09579632480350475099e-01) (21, -5.13093241128664501183e-01) (22, -5.52449443015794794398e-01) (23, -4.37592537047930663086e-01) (24, 1.62099700443546962392e-01) (25, -5.06560713622313141258e-01) (26, 2.64176927642190487178e-02) (27, 2.36038284560036226711e-01) (28, 4.33408333668281076090e-01) 
