FANN_FLO_2.1
num_layers=3
learning_rate=0.700000
connection_rate=1.000000
network_type=0
learning_momentum=0.000000
training_algorithm=2
train_error_function=1
train_stop_function=1
cascade_output_change_fraction=0.010000
quickprop_decay=-0.000100
quickprop_mu=1.750000
rprop_increase_factor=1.200000
rprop_decrease_factor=0.500000
rprop_delta_min=0.000000
rprop_delta_max=50.000000
rprop_delta_zero=0.100000
cascade_output_stagnation_epochs=12
cascade_candidate_change_fraction=0.010000
cascade_candidate_stagnation_epochs=12
cascade_max_out_epochs=150
cascade_min_out_epochs=50
cascade_max_cand_epochs=150
cascade_min_cand_epochs=50
cascade_num_candidate_groups=2
bit_fail_limit=1.00000000000000005551e-01
cascade_candidate_limit=1.00000000000000000000e+03
cascade_weight_multiplier=4.00000000000000022204e-01
cascade_activation_functions_count=10
cascade_activation_functions=3 5 7 8 10 11 14 15 16 17 
cascade_activation_steepnesses_count=4
cascade_activation_steepnesses=2.50000000000000000000e-01 5.00000000000000000000e-01 7.50000000000000000000e-01 1.00000000000000000000e+00 
layer_sizes=31 11 2 
scale_included=0
neurons (num_inputs, activation_function, activation_steepness)=(0, 0, 0.00000000000000000000e+00) (0, 0, 0.00000000000000000000e+00) (0, 0, 0.00000000000000000000e+00) (0, 0, 0.00000000000000000000e+00) (0, 0, 0.00000000000000000000e+00) (0, 0, 0.00000000000000000000e+00) (0, 0, 0.00000000000000000000e+00) (0, 0, 0.00000000000000000000e+00) (0, 0, 0.00000000000000000000e+00) (0, 0, 0.00000000000000000000e+00) (0, 0, 0.00000000000000000000e+00) (0, 0, 0.00000000000000000000e+00) (0, 0, 0.00000000000000000000e+00) (0, 0, 0.00000000000000000000e+00) (0, 0, 0.00000000000000000000e+00) (0, 0, 0.00000000000000000000e+00) (0, 0, 0.00000000000000000000e+00) (0, 0, 0.00000000000000000000e+00) (0, 0, 0.00000000000000000000e+00) (0, 0, 0.00000000000000000000e+00) (0, 0, 0.00000000000000000000e+00) (0, 0, 0.00000000000000000000e+00) (0, 0, 0.00000000000000000000e+00) (0, 0, 0.00000000000000000000e+00) (0, 0, 0.00000000000000000000e+00) (0, 0, 0.00000000000000000000e+00) (0, 0, 0.00000000000000000000e+00) (0, 0, 0.00000000000000000000e+00) (0, 0, 0.00000000000000000000e+00) (0, 0, 0.00000000000000000000e+00) (0, 0, 0.00000000000000000000e+00) (31, 6, 5.00000000000000000000e-01) (31, 6, 5.00000000000000000000e-01) (31, 6, 5.00000000000000000000e-01) (31, 6, 5.00000000000000000000e-01) (31, 6, 5.00000000000000000000e-01) (31, 6, 5.00000000000000000000e-01) (31, 6, 5.00000000000000000000e-01) (31, 6, 5.00000000000000000000e-01) (31, 6, 5.00000000000000000000e-01) (31, 6, 5.00000000000000000000e-01) (0, 6, 0.00000000000000000000e+00) (11, 6, 5.00000000000000000000e-01) (0, 6, 0.00000000000000000000e+00) 
connections (connected_to_neuron, weight)=(0, 2.19628324285666849391e+01) (1, 5.48437128433610920908e-01) (2, 5.45035729774858479502e-01) (3, 6.43377217122937938854e-01) (4, 6.93751590916539928600e-01) (5, -4.54897432644812194091e-01) (6, 1.08349262733440115936e-01) (7, 4.27030770553585070637e-01) (8, -2.59382843271507568250e-01) (9, -4.37372122092272053173e-01) (10, 2.05292960273037028429e+00) (11, -9.22927776242169173315e+00) (12, -1.32878127617869457033e+00) (13, -1.12527393303723166618e+00) (14, -9.15698159297931013612e+00) (15, -8.19425157440334217540e+00) (16, -8.73518690766693861605e-01) (17, 4.46039597291349676489e-01) (18, -1.17420267202921890792e+00) (19, 6.08279571791290107896e-01) (20, -3.93753763190785033288e-01) (21, -4.44578026190851516297e-01) (22, 1.14371625815685562522e+00) (23, 1.66473717856007785709e-01) (24, 1.23436249761370020472e+00) (25, -4.36856528269433719291e-01) (26, -2.72457949393561382756e-01) (27, 1.65893177999040863924e+00) (28, -7.03378718173969574856e-01) (29, -6.57704299542127834854e-01) (30, 2.93754570616415655593e+00) (0, -2.52889074754885250229e+01) (1, 2.72729418156644927429e-02) (2, 5.86531928656598838812e-02) (3, -7.82516651870707319327e-02) (4, -1.07063704254129667820e-02) (5, 2.70563429297157043152e+00) (6, 5.22800675149804328079e-01) (7, 2.49958670679139149939e+00) (8, -2.89436919183427454616e-01) (9, 1.25065769996303344236e+00) (10, 6.56346786138911131303e+00) (11, 6.90001307882564862695e-01) (12, 8.59840833588771530360e-02) (13, -1.04176914109345208903e-01) (14, 7.06540620443254274718e-01) (15, 7.59832426201426325285e-01) (16, 4.10096807552008058018e-01) (17, 2.49010989850981534488e+00) (18, -1.16297356736494120200e-01) (19, 1.87780177078139920432e+00) (20, 9.59798288040867308979e-01) (21, 9.01307842218491250819e-01) (22, 3.94354727799035797986e+00) (23, 6.86586860167118895326e-01) (24, 3.95166541422992834143e+00) (25, 6.91015478508496261423e-02) (26, 7.20269596581619847564e-02) (27, 2.32383395267142578433e+00) (28, 3.09859565980155904352e-01) (29, -2.36574550032405656053e-01) (30, -1.14594982996152534582e+01) (0, 1.84640020764681693777e+01) (1, 5.26313354589304838171e-01) (2, 6.68142018236479451332e-01) (3, 6.74508822478613545570e-01) (4, 6.41668227829298665199e-01) (5, 9.83011986220887701293e-01) (6, -4.03878829595154531518e+00) (7, -3.04546393640605317366e-01) (8, -1.11340088071282061755e+00) (9, 2.24043683131341930803e+00) (10, -9.16010893109974411175e+00) (11, -4.80290255767814144860e+00) (12, -2.00360740380284818585e+00) (13, -3.98366426781100790855e-01) (14, -4.77172957112026985271e+00) (15, -3.45860968506304455872e+00) (16, -1.07759353659567125305e+00) (17, -2.49193153704878295196e-01) (18, 1.70991606203472246150e+00) (19, -2.56975690659138444882e-01) (20, -4.32856535922672203132e-01) (21, -6.39490027406169558866e-01) (22, 8.24816167187773618963e-01) (23, 6.25565494056347870533e-01) (24, 8.62540101221380361984e-01) (25, -5.57823525584448920434e-01) (26, -1.75778942051655312495e-01) (27, -3.77451814659447826283e-01) (28, -4.92941624613772666486e-01) (29, -4.96817389684826138385e-01) (30, 7.38338858348279836186e-01) (0, 2.46991715371175892813e+01) (1, 3.28527724337921600561e-01) (2, 4.04253562879906824801e-01) (3, 3.45100151342497385443e-01) (4, 4.44145781886922053072e-01) (5, -1.31979522123750769858e+00) (6, 1.55301620038968168913e+00) (7, -1.47334173775254487909e-02) (8, 3.11951743873368769755e-01) (9, -4.16698106767524500960e-01) (10, -9.05163462168682997344e+00) (11, -1.35588153139432798788e+00) (12, -2.29819344929129976141e-01) (13, 1.04313506420709273259e-01) (14, -1.41705547463260561614e+00) (15, 1.63933102419730083454e+01) (16, -1.29862228759454773064e-01) (17, 9.44520734468839218145e-01) (18, 7.71126022515218667586e-01) (19, 3.02666416526550963173e-01) (20, 1.12072798069775858565e+00) (21, 2.27597592791591907257e+00) (22, -3.72283495058632341035e-01) (23, 3.41443054435803028390e-01) (24, -2.78713963967023914403e-01) (25, -1.10308162128835290927e-01) (26, -4.50933548120719895902e-01) (27, -2.00077871771149107261e+00) (28, -2.49206421356750390528e-01) (29, 7.25027599963151692108e-02) (30, 4.01978223391116529228e+00) (0, 2.10540175277328494019e+01) (1, 6.41578754354402480686e-01) (2, 5.33328739870474022311e-01) (3, 5.76020548064395843113e-01) (4, 5.89450595844671187962e-01) (5, -7.25556214002756161285e-01) (6, -4.28911799241415203632e-01) (7, -7.44151559495063730232e-02) (8, -2.28668649963039394279e+00) (9, -1.97372807589473481249e-01) (10, -1.06867780213752583407e+00) (11, -6.90598067466681708737e+00) (12, -2.04542180845068477524e+00) (13, -6.41914969183633887795e-01) (14, -6.73612944258663581820e+00) (15, -3.14221505838124759435e+00) (16, -8.73647282268828262453e-01) (17, -2.01043275922326708516e-01) (18, -1.20570151114867973874e+00) (19, 1.57081086098265015893e-01) (20, -3.97243584600651289396e-01) (21, -4.05510126693254535635e-01) (22, 5.85687629777309259893e-01) (23, -8.94490662049985396642e-02) (24, 3.03247180040213559771e-01) (25, -1.92133006430904806905e-01) (26, -7.07045995772428215176e-01) (27, -1.60998849831077284200e+00) (28, -6.81393493734793964656e-01) (29, -7.10117386947126227881e-01) (30, 2.68036471885142546512e+00) (0, 1.50000000000000000000e+03) (1, 1.50000000000000000000e+03) (2, 1.50000000000000000000e+03) (3, 1.50000000000000000000e+03) (4, 1.50000000000000000000e+03) (5, 1.50000000000000000000e+03) (6, 1.44985533946381929127e+03) (7, 1.50000000000000000000e+03) (8, 1.32777378235082528590e+03) (9, 1.50000000000000000000e+03) (10, 6.38673700476215458366e+02) (11, 4.56711446780618643970e+01) (12, 7.55497569923894275234e+02) (13, 8.77880404958971571894e-01) (14, 9.21801241091329330857e+01) (15, 1.50000000000000000000e+03) (16, 1.49820755574613440331e+03) (17, 1.50000000000000000000e+03) (18, 1.20081500973777883701e+03) (19, 1.50000000000000000000e+03) (20, 1.46523787156899629736e+03) (21, 1.49247150266458515944e+03) (22, 1.44256963005200964290e+03) (23, 1.00038711810104780398e+03) (24, 1.74936153089760644264e+01) (25, 1.49159416300457496618e+03) (26, 1.50000000000000000000e+03) (27, -4.80436788974454742629e-01) (28, 1.24976007106781916711e+00) (29, 4.32142698819952153499e-01) (30, 6.09162302646791147254e+01) (0, 3.04373151005035111893e+01) (1, 1.80171248365887437526e-01) (2, 2.11775191922434630198e-01) (3, 2.22871427287110263071e-01) (4, 2.04153102685459941767e-01) (5, -5.81999162004327175168e+00) (6, -3.57829694801065495424e-02) (7, -3.19974561125144774110e-01) (8, 4.48702942986270281178e-01) (9, 4.00538160182557112510e-01) (10, -2.81330802981685179631e+00) (11, -4.34787589512433481076e+00) (12, -5.97565707617083496928e-01) (13, 3.67445172120704099950e-01) (14, -4.20680530630207982767e+00) (15, -3.64753605659565494079e+00) (16, -1.44958383924360750816e-01) (17, -1.17096834941553096243e-01) (18, -2.15062473180036839437e+00) (19, 7.34275352784075518997e-01) (20, 1.82807544938186350425e-01) (21, 4.82110946793929545651e-02) (22, -6.63764239901447705705e+00) (23, 1.16890192865255571064e+00) (24, -6.49773281150799242312e+00) (25, -8.82086991354070204530e-01) (26, -1.03792344923444623817e+00) (27, -6.13915934016885778135e+00) (28, -7.92190599076633694686e-01) (29, -1.05429740012288886142e+00) (30, 7.18752514901888339693e+00) (0, -1.10028444065879682512e+00) (1, 1.94182781237251592121e-02) (2, 5.60693679112085202609e-02) (3, 7.40692553776392953457e-02) (4, 7.16096548098215796019e-02) (5, -2.70836722504292859437e-01) (6, -1.67165101140119676248e-01) (7, -1.26830664490363721059e-02) (8, -1.66429338793175583822e-02) (9, -3.16062619512038844860e-01) (10, -2.10165029082574051245e+02) (11, -4.93206803639145152651e-02) (12, -6.01313687791420192763e-02) (13, 2.07445202349604285175e-02) (14, -3.31647919480831804284e-02) (15, -1.01532925992726827391e-01) (16, -1.94702976044894254803e-01) (17, 2.24673170599826339811e-02) (18, -2.13368975738340349579e-01) (19, -2.93921571112464696807e-01) (20, -2.28778291818656692724e-01) (21, -1.48182901328710314726e-01) (22, -3.83660762610322447763e-01) (23, -1.42709126762609272987e-01) (24, -4.68427117521888369822e-01) (25, -2.09553505691723485072e-01) (26, -1.83043447919033208660e-01) (27, -2.71591305676505523348e-01) (28, -7.14811605452622955692e-02) (29, -9.35533833148344956543e-02) (30, 4.84845081060328908507e+00) (0, 2.69853092551603417348e+01) (1, 1.93685286893974933919e-01) (2, 1.81217641785275135335e-01) (3, 3.23971064045560419586e-01) (4, 2.73869001522195398834e-01) (5, -6.57965667862210867867e+00) (6, -5.92751953937963316221e-01) (7, -2.35526492353249572442e-01) (8, 4.65971498115359122894e-02) (9, -6.00432505785378281549e-02) (10, -3.80252521777321739194e+00) (11, -3.12226470183133786307e+00) (12, -3.70865273838269560169e-01) (13, -4.47749836900681805196e-03) (14, -3.11821075725759255803e+00) (15, -2.87580664963917653765e+00) (16, -1.88151638319380115627e-01) (17, 2.86644706853217273723e-02) (18, -2.13906081131735836820e+00) (19, -1.56666813801418364216e-01) (20, -2.47340922049129996463e-01) (21, -3.50058320771882924838e-01) (22, -4.63780114856604264162e+00) (23, -2.36817207154154640847e+00) (24, -4.45326582244269442157e+00) (25, -7.21542781044976155869e-01) (26, -8.61480342648075048118e-01) (27, -6.98931604258680305719e+00) (28, -1.47461986961691859932e+00) (29, -7.18158231594598017722e-01) (30, 8.35275667575411873145e+00) (0, 1.50000000000000000000e+03) (1, 1.50000000000000000000e+03) (2, 1.50000000000000000000e+03) (3, 1.50000000000000000000e+03) (4, 1.50000000000000000000e+03) (5, 1.50000000000000000000e+03) (6, 3.60597333813771342648e+02) (7, 1.50000000000000000000e+03) (8, 1.06037537004081059422e+03) (9, 1.50000000000000000000e+03) (10, 6.38600866766796684715e+02) (11, 4.57548234898504233570e+01) (12, 7.55556256672041286038e+02) (13, 1.52286271714648324682e+00) (14, 9.22800063839990372117e+01) (15, 1.50000000000000000000e+03) (16, 9.82986298799884750110e+00) (17, 1.50000000000000000000e+03) (18, 1.20081500973777883701e+03) (19, 1.50000000000000000000e+03) (20, 1.12927021108871554134e+03) (21, 1.49247150266458515944e+03) (22, 1.44256963005200964290e+03) (23, 7.39634868295013689021e+02) (24, 3.26372819165012160170e+01) (25, 2.48668357327736622153e+00) (26, 1.50000000000000000000e+03) (27, 1.09536180841693249022e+03) (28, -1.19251301997718481829e+01) (29, -1.25862860467308799173e+01) (30, 3.59170029561084946934e+00) (31, -7.69858688455871131850e-02) (32, 1.60851083963455643300e+00) (33, -8.79272001834083688498e-02) (34, 6.63250549972750902405e-01) (35, -1.77801454459191154989e-01) (36, 8.99034249944917984720e-01) (37, -3.20993688567423440805e-01) (38, -7.34594949618258330482e-01) (39, -2.39113700429005870962e-01) (40, 8.05616013771381367370e-01) (41, 8.37175961001150659158e-01) 
