FANN_FLO_2.1
num_layers=3
learning_rate=0.700000
connection_rate=1.000000
network_type=0
learning_momentum=0.000000
training_algorithm=2
train_error_function=1
train_stop_function=1
cascade_output_change_fraction=0.010000
quickprop_decay=-0.000100
quickprop_mu=1.750000
rprop_increase_factor=1.200000
rprop_decrease_factor=0.500000
rprop_delta_min=0.000000
rprop_delta_max=50.000000
rprop_delta_zero=0.100000
cascade_output_stagnation_epochs=12
cascade_candidate_change_fraction=0.010000
cascade_candidate_stagnation_epochs=12
cascade_max_out_epochs=150
cascade_min_out_epochs=50
cascade_max_cand_epochs=150
cascade_min_cand_epochs=50
cascade_num_candidate_groups=2
bit_fail_limit=1.00000000000000005551e-01
cascade_candidate_limit=1.00000000000000000000e+03
cascade_weight_multiplier=4.00000000000000022204e-01
cascade_activation_functions_count=10
cascade_activation_functions=3 5 7 8 10 11 14 15 16 17 
cascade_activation_steepnesses_count=4
cascade_activation_steepnesses=2.50000000000000000000e-01 5.00000000000000000000e-01 7.50000000000000000000e-01 1.00000000000000000000e+00 
layer_sizes=25 11 2 
scale_included=0
neurons (num_inputs, activation_function, activation_steepness)=(0, 0, 0.00000000000000000000e+00) (0, 0, 0.00000000000000000000e+00) (0, 0, 0.00000000000000000000e+00) (0, 0, 0.00000000000000000000e+00) (0, 0, 0.00000000000000000000e+00) (0, 0, 0.00000000000000000000e+00) (0, 0, 0.00000000000000000000e+00) (0, 0, 0.00000000000000000000e+00) (0, 0, 0.00000000000000000000e+00) (0, 0, 0.00000000000000000000e+00) (0, 0, 0.00000000000000000000e+00) (0, 0, 0.00000000000000000000e+00) (0, 0, 0.00000000000000000000e+00) (0, 0, 0.00000000000000000000e+00) (0, 0, 0.00000000000000000000e+00) (0, 0, 0.00000000000000000000e+00) (0, 0, 0.00000000000000000000e+00) (0, 0, 0.00000000000000000000e+00) (0, 0, 0.00000000000000000000e+00) (0, 0, 0.00000000000000000000e+00) (0, 0, 0.00000000000000000000e+00) (0, 0, 0.00000000000000000000e+00) (0, 0, 0.00000000000000000000e+00) (0, 0, 0.00000000000000000000e+00) (0, 0, 0.00000000000000000000e+00) (25, 6, 5.00000000000000000000e-01) (25, 6, 5.00000000000000000000e-01) (25, 6, 5.00000000000000000000e-01) (25, 6, 5.00000000000000000000e-01) (25, 6, 5.00000000000000000000e-01) (25, 6, 5.00000000000000000000e-01) (25, 6, 5.00000000000000000000e-01) (25, 6, 5.00000000000000000000e-01) (25, 6, 5.00000000000000000000e-01) (25, 6, 5.00000000000000000000e-01) (0, 6, 0.00000000000000000000e+00) (11, 6, 5.00000000000000000000e-01) (0, 6, 0.00000000000000000000e+00) 
connections (connected_to_neuron, weight)=(0, 1.65815126428134562708e+00) (1, 1.57233878627428741437e-01) (2, 1.76302723243841830136e-01) (3, 2.73329369381079378964e-01) (4, 2.14787162497648898007e-01) (5, 8.02283202571974218831e-02) (6, 6.58725449567115095562e-01) (7, 3.87119558884972847501e-01) (8, -5.22580033801092369572e+00) (9, 6.83786232157534423770e-01) (10, 5.63125533820766666082e+00) (11, 9.73398412453726491478e-01) (12, 6.53994596610644229884e+00) (13, 5.14821084397427242152e-01) (14, 2.44103842272605398023e-01) (15, 3.88472717553295687765e+00) (16, 2.71646235540409286546e-01) (17, 2.90822205224325847084e+00) (18, 2.99116592541561310270e+00) (19, -6.82958745318104111510e-03) (20, 2.38294135807233287139e+00) (21, 3.30905980160641877141e-01) (22, 9.45888867736776745021e-02) (23, 1.15200663030261593600e-01) (24, 5.49633546363144209757e-01) (0, -3.38371455883216376570e-01) (1, -1.52587493532739315594e-01) (2, -2.93188368552766587261e-01) (3, -1.84716356569371881191e-01) (4, -1.11367722624383699848e-01) (5, -4.32581284855166781078e-01) (6, -1.03805156756283456509e+00) (7, 1.22141088653084182308e-02) (8, 3.82797486401371456211e+00) (9, 5.88931689820543335934e-01) (10, 9.06085455322467425709e-01) (11, 1.43135724908683314993e+00) (12, 1.65640948833687762232e+00) (13, -4.77736372407430651132e-02) (14, 4.16770034147894596899e-01) (15, 1.07570375925083738800e+00) (16, 1.62578797838520716645e+00) (17, 1.02369451165293431916e-01) (18, -2.61011670195539724482e-01) (19, -5.56166420436468911248e-01) (20, -4.02085338401073216774e-02) (21, 4.23615967760807898834e-01) (22, 3.61812076537054438941e-02) (23, 5.25620508682325904282e-01) (24, -1.74183037706584253890e+00) (0, -1.11705863845739870044e+01) (1, -3.08982473869296725422e-01) (2, -3.27317548055621798664e-01) (3, -2.68714447576972659260e-01) (4, -2.87632954378101046711e-01) (5, 2.08052347358407896394e+00) (6, 1.88787490357015835807e-01) (7, 9.64111991472906715295e-01) (8, 2.87589771698314278225e+00) (9, 2.77033226999500481469e+00) (10, 1.94461433633476343807e+00) (11, 8.02531860903063498647e-01) (12, 3.02531066281907445870e+00) (13, -1.10730024793563794350e-01) (14, 2.15251640297774132771e-01) (15, 3.03000813309142413843e+00) (16, 3.01524991622301508087e+00) (17, 2.60425632512331395318e+00) (18, 2.75084614198026855547e+00) (19, 4.73794950738878728469e-01) (20, 1.04935684548666544047e-01) (21, 8.33033954148468813727e-01) (22, 1.08840325952333172310e+00) (23, 2.24189164009966335200e+00) (24, -4.92119466027147378639e+00) (0, 4.86934967647359051579e-01) (1, 1.71224298448075046286e-01) (2, 1.58862399429787359839e-01) (3, 2.68527674049843512183e-01) (4, 1.50865374625433645850e-01) (5, 1.06873600510076230408e-01) (6, 1.52695853613943471894e-01) (7, -2.20118181152095970798e-01) (8, -1.37204949203608150832e+00) (9, -6.27724861375869469526e-01) (10, -1.17346694767519466041e+00) (11, 1.00977928707277397891e-01) (12, 1.50195919968095614738e-01) (13, -2.45341159297017386010e-01) (14, -5.71958385946346514750e-01) (15, -2.54764409615106601770e-01) (16, -1.51767465790956435079e+00) (17, -2.80626874839298212638e-01) (18, -1.82045202863315797037e-01) (19, 4.24595848708922002368e-02) (20, -1.21376084538406467384e-01) (21, -1.70554243613635414523e-01) (22, 1.48806235400194636354e-01) (23, -8.81438581118799135972e-02) (24, 4.11309449126710913180e-01) (0, 8.09568831085428874950e-01) (1, 2.65446201091809719230e-01) (2, 3.52389693385167568351e-01) (3, 3.71936395889325477349e-01) (4, 4.27564248567624427544e-01) (5, 1.72631275906684922283e+00) (6, 1.08329201817373688144e+00) (7, 1.60310922571697167527e+00) (8, -4.00884374112152297442e+00) (9, 1.28898802087679502648e+01) (10, -3.89807716508231427710e+00) (11, 1.17882730552213677022e+00) (12, 1.96270445300600365757e-01) (13, 2.07954552483192861567e-01) (14, -4.10054000255715533907e-01) (15, 6.28322858509893578116e+00) (16, 9.44223830755413717775e-01) (17, 3.78839884259333292693e-01) (18, 1.25971135826176161565e+00) (19, 2.47051786138586315644e+00) (20, 3.64562452942843417958e+00) (21, 2.10073428577728427147e-01) (22, 1.00040200096819309472e+00) (23, 3.02853861643565536177e-01) (24, 1.23688489628712039448e+00) (0, 1.27076143056139767573e+00) (1, 6.48396082304900644999e-01) (2, 6.90215636127179621440e-01) (3, 7.21894551150983332377e-01) (4, 7.87598688237851618510e-01) (5, 1.56339905192440176140e-01) (6, 4.22121767094673194798e-01) (7, -1.05991680909911969999e-01) (8, 5.72181898880765205107e-01) (9, 5.90217671903557061786e-02) (10, 4.93609586106258468874e+00) (11, 2.54270725593533974962e-01) (12, 8.47950454138198139731e+00) (13, 1.30844794274785819477e-01) (14, 7.88708224075924224650e-01) (15, 5.25204668862135237717e-01) (16, 2.44623188949290693017e-01) (17, 1.09821877296612147035e+00) (18, 6.24366634820309407417e-01) (19, 1.16480642775387401855e+01) (20, -6.92781335749022364467e+00) (21, 3.48412365012981950496e-01) (22, 3.45256931327217131411e-01) (23, 8.14907482175637465360e-01) (24, 3.03140381458117325053e+00) (0, 5.24410523984298126976e+00) (1, 2.29274969514873139254e-01) (2, 2.17773485895659979494e-01) (3, 3.21013767239120284547e-01) (4, 3.11963830110099649140e-01) (5, 4.21044389141711272728e-01) (6, 1.44795667573584174725e+00) (7, -3.25462563070460841885e-01) (8, -3.55928638670398855837e+00) (9, -3.29578931861703172679e-01) (10, -1.82596413903284804370e+00) (11, -1.21630260322935945805e-01) (12, -1.54725586335730724841e+00) (13, -6.90232420339244368002e-01) (14, -6.14763787655011162414e-01) (15, -7.98121793767656351193e-01) (16, -1.13156526472358498481e+00) (17, -1.43735832399187468678e-01) (18, 8.65111050462666786309e-01) (19, 3.53393273194878343446e-01) (20, -1.73263710587316988043e-01) (21, -1.77376740882858402459e-01) (22, -1.17548618576356886378e-01) (23, 3.49442269368755997760e-02) (24, 3.36740412443013892307e-01) (0, 8.93661300560538496285e-01) (1, 2.13862423696312947685e-01) (2, 2.26604533293042170738e-01) (3, 3.37490041651520800148e-01) (4, 3.80499680437836773628e-01) (5, 3.11251347102738717965e+00) (6, 1.37950615540211196652e+00) (7, 1.87901184610318416901e+00) (8, -1.03710574717147352430e+00) (9, 8.96506886633489541438e-01) (10, -2.29554138055495071669e+00) (11, 2.37736927550237342466e-01) (12, 3.63085698885496022115e-01) (13, 1.50280286471657420488e-01) (14, 3.24384869867797437371e-02) (15, -1.65360047425875800187e+00) (16, -1.35860064743198172277e-01) (17, 1.68617105979283010697e+00) (18, 6.59875706768447534145e-01) (19, 5.11707682762947957400e+00) (20, -4.18711501954712295159e-01) (21, -3.66565397334633752413e-02) (22, 2.42284120729379637282e+00) (23, 7.19737120425682497249e-01) (24, -1.37524555687238314583e+00) (0, 1.14908383816466153071e+00) (1, 6.10025551252549647074e-01) (2, 6.92172352307027338725e-01) (3, 6.10776182346528528910e-01) (4, 7.91687373154347895365e-01) (5, 2.22279540230816086144e-01) (6, 4.94265981158556022557e-01) (7, -1.06968668093005994657e-01) (8, 6.99750946865283496301e-01) (9, -4.41691711035209377822e-01) (10, 4.51643109169770173850e+00) (11, 2.56170029952652034133e-01) (12, 8.35565911315360310141e+00) (13, 1.33345320881822299031e-01) (14, 8.01413028615604705607e-01) (15, 5.92303707373649901413e-01) (16, 2.73840719014586175817e-01) (17, 2.12044517649739905352e+00) (18, 7.11477489505615956489e-01) (19, 5.09648247547183341766e+00) (20, -4.45231544335048745609e+00) (21, 4.81208071404316428676e-01) (22, 3.76892759643428720828e-01) (23, 8.06860273985673170927e-01) (24, 2.99412602665736038432e+00) (0, 4.48328352218686276842e-01) (1, 9.46104277815430216858e-02) (2, 7.36689169849961134062e-02) (3, 1.96978834732970509158e-01) (4, 2.61506137713393316258e-01) (5, -2.48294536305357499417e-01) (6, 4.99838621210663192063e-01) (7, 8.95889268416617201574e-01) (8, -2.28011470516002283659e+01) (9, 1.54976631221170713104e+00) (10, 1.35738764088816008524e+01) (11, 1.63451968677955750131e+00) (12, 1.60869891713630757124e+01) (13, 2.97977215458891997457e-01) (14, 3.54434637028585408647e-01) (15, 8.16610093787140911559e+00) (16, 5.61440472082031583057e+00) (17, 2.12153050329100301141e+00) (18, 1.92268941564506201658e+00) (19, 6.95447647259300527622e-01) (20, 3.66054334499992972685e-01) (21, 2.12837035090935960957e-01) (22, 5.31907777642129264706e-01) (23, 3.22349840261140330178e-01) (24, 2.12988194063836705494e-01) (25, 9.88810752794334613114e-01) (26, 4.30805278772100397333e-01) (27, 4.09031161992779723757e-01) (28, -1.40155062029664427559e-02) (29, 1.09458547667518730183e-03) (30, -6.39471135351749458975e-02) (31, -4.91636475281860385600e-01) (32, 3.05456846065242038080e-01) (33, -5.73994091961475341734e-02) (34, -5.89411063328813433770e-01) (35, 7.18845708471134492434e-01) 
