FANN_FLO_2.1
num_layers=3
learning_rate=0.700000
connection_rate=1.000000
network_type=0
learning_momentum=0.000000
training_algorithm=2
train_error_function=1
train_stop_function=1
cascade_output_change_fraction=0.010000
quickprop_decay=-0.000100
quickprop_mu=1.750000
rprop_increase_factor=1.200000
rprop_decrease_factor=0.500000
rprop_delta_min=0.000000
rprop_delta_max=50.000000
rprop_delta_zero=0.100000
cascade_output_stagnation_epochs=12
cascade_candidate_change_fraction=0.010000
cascade_candidate_stagnation_epochs=12
cascade_max_out_epochs=150
cascade_min_out_epochs=50
cascade_max_cand_epochs=150
cascade_min_cand_epochs=50
cascade_num_candidate_groups=2
bit_fail_limit=1.00000000000000005551e-01
cascade_candidate_limit=1.00000000000000000000e+03
cascade_weight_multiplier=4.00000000000000022204e-01
cascade_activation_functions_count=10
cascade_activation_functions=3 5 7 8 10 11 14 15 16 17 
cascade_activation_steepnesses_count=4
cascade_activation_steepnesses=2.50000000000000000000e-01 5.00000000000000000000e-01 7.50000000000000000000e-01 1.00000000000000000000e+00 
layer_sizes=9 4 2 
scale_included=0
neurons (num_inputs, activation_function, activation_steepness)=(0, 0, 0.00000000000000000000e+00) (0, 0, 0.00000000000000000000e+00) (0, 0, 0.00000000000000000000e+00) (0, 0, 0.00000000000000000000e+00) (0, 0, 0.00000000000000000000e+00) (0, 0, 0.00000000000000000000e+00) (0, 0, 0.00000000000000000000e+00) (0, 0, 0.00000000000000000000e+00) (0, 0, 0.00000000000000000000e+00) (9, 6, 5.00000000000000000000e-01) (9, 6, 5.00000000000000000000e-01) (9, 6, 5.00000000000000000000e-01) (0, 6, 0.00000000000000000000e+00) (4, 4, 5.00000000000000000000e-01) (0, 4, 0.00000000000000000000e+00) 
connections (connected_to_neuron, weight)=(0, -3.99809592946998026974e-02) (1, 1.03602037008125282824e+01) (2, 7.52464724563411513358e-01) (3, 2.45646448112148280130e-01) (4, 1.30507332304070300388e+00) (5, 2.65431989226374120960e-01) (6, 8.74339805610913178846e-01) (7, 4.25515479761440107431e-01) (8, -8.15988370760909464963e-02) (0, -1.52126838520154339385e+00) (1, 1.41833011660714134905e+02) (2, 5.86768316512559895415e-01) (3, 2.11192966760563827222e+00) (4, 1.52291880549635827435e+00) (5, 1.77017850221709527325e+00) (6, 9.64188999134200919183e-02) (7, 7.11168441269561579787e-01) (8, -1.79449095011396786425e+00) (0, 5.33812640551205655481e-02) (1, 5.88503281794414334627e+01) (2, 4.77470278448349993994e-01) (3, 1.48297561544820166723e+00) (4, 7.28329911634125970465e-01) (5, 9.43716195549203828996e-01) (6, 5.70212576516100466684e-01) (7, 1.31802102816330268809e+00) (8, -3.87452026594019449668e-01) (9, 7.83246056921912514603e-01) (10, 2.62964253748134026978e+01) (11, 1.38788103224244907530e+00) (12, -1.11129219630898101734e+00) 
