FANN_FLO_2.1
num_layers=3
learning_rate=0.700000
connection_rate=1.000000
network_type=0
learning_momentum=0.000000
training_algorithm=2
train_error_function=1
train_stop_function=1
cascade_output_change_fraction=0.010000
quickprop_decay=-0.000100
quickprop_mu=1.750000
rprop_increase_factor=1.200000
rprop_decrease_factor=0.500000
rprop_delta_min=0.000000
rprop_delta_max=50.000000
rprop_delta_zero=0.100000
cascade_output_stagnation_epochs=12
cascade_candidate_change_fraction=0.010000
cascade_candidate_stagnation_epochs=12
cascade_max_out_epochs=150
cascade_min_out_epochs=50
cascade_max_cand_epochs=150
cascade_min_cand_epochs=50
cascade_num_candidate_groups=2
bit_fail_limit=1.00000000000000005551e-01
cascade_candidate_limit=1.00000000000000000000e+03
cascade_weight_multiplier=4.00000000000000022204e-01
cascade_activation_functions_count=10
cascade_activation_functions=3 5 7 8 10 11 14 15 16 17 
cascade_activation_steepnesses_count=4
cascade_activation_steepnesses=2.50000000000000000000e-01 5.00000000000000000000e-01 7.50000000000000000000e-01 1.00000000000000000000e+00 
layer_sizes=7 4 2 
scale_included=0
neurons (num_inputs, activation_function, activation_steepness)=(0, 0, 0.00000000000000000000e+00) (0, 0, 0.00000000000000000000e+00) (0, 0, 0.00000000000000000000e+00) (0, 0, 0.00000000000000000000e+00) (0, 0, 0.00000000000000000000e+00) (0, 0, 0.00000000000000000000e+00) (0, 0, 0.00000000000000000000e+00) (7, 6, 5.00000000000000000000e-01) (7, 6, 5.00000000000000000000e-01) (7, 6, 5.00000000000000000000e-01) (0, 6, 0.00000000000000000000e+00) (4, 4, 5.00000000000000000000e-01) (0, 4, 0.00000000000000000000e+00) 
connections (connected_to_neuron, weight)=(0, 5.90949704010641152507e+00) (1, -8.43513669979148694722e+00) (2, -4.19124848037354613695e+00) (3, -4.27270944803349639329e+00) (4, -1.15241041662188496986e+01) (5, -7.82743732820826831897e+00) (6, 1.12025464219207719907e+01) (0, 2.13285846394902361967e-01) (1, 3.46095361233490439457e-01) (2, 1.69827154507469346711e+00) (3, 7.74833757519599375385e-01) (4, 3.02215981364879038296e+00) (5, 4.35022033698209631414e-01) (6, -9.39843714772750637998e-02) (0, 5.05921869936587498273e-01) (1, -1.71952596309378291650e+00) (2, -1.03241514378509968708e+00) (3, -8.77612886225797694806e-01) (4, -2.19420119412891612143e+00) (5, -4.57950634507744092083e-01) (6, 7.59394087917249493991e-01) (7, -5.12618256953367268380e+00) (8, 2.82921215937704750853e-01) (9, -3.90572787072516325324e+00) (10, -2.56056927777912957112e+00) 
