FANN_FLO_2.1
num_layers=3
learning_rate=0.700000
connection_rate=1.000000
network_type=0
learning_momentum=0.000000
training_algorithm=2
train_error_function=1
train_stop_function=1
cascade_output_change_fraction=0.010000
quickprop_decay=-0.000100
quickprop_mu=1.750000
rprop_increase_factor=1.200000
rprop_decrease_factor=0.500000
rprop_delta_min=0.000000
rprop_delta_max=50.000000
rprop_delta_zero=0.100000
cascade_output_stagnation_epochs=12
cascade_candidate_change_fraction=0.010000
cascade_candidate_stagnation_epochs=12
cascade_max_out_epochs=150
cascade_min_out_epochs=50
cascade_max_cand_epochs=150
cascade_min_cand_epochs=50
cascade_num_candidate_groups=2
bit_fail_limit=1.00000000000000005551e-01
cascade_candidate_limit=1.00000000000000000000e+03
cascade_weight_multiplier=4.00000000000000022204e-01
cascade_activation_functions_count=10
cascade_activation_functions=3 5 7 8 10 11 14 15 16 17 
cascade_activation_steepnesses_count=4
cascade_activation_steepnesses=2.50000000000000000000e-01 5.00000000000000000000e-01 7.50000000000000000000e-01 1.00000000000000000000e+00 
layer_sizes=13 11 2 
scale_included=0
neurons (num_inputs, activation_function, activation_steepness)=(0, 0, 0.00000000000000000000e+00) (0, 0, 0.00000000000000000000e+00) (0, 0, 0.00000000000000000000e+00) (0, 0, 0.00000000000000000000e+00) (0, 0, 0.00000000000000000000e+00) (0, 0, 0.00000000000000000000e+00) (0, 0, 0.00000000000000000000e+00) (0, 0, 0.00000000000000000000e+00) (0, 0, 0.00000000000000000000e+00) (0, 0, 0.00000000000000000000e+00) (0, 0, 0.00000000000000000000e+00) (0, 0, 0.00000000000000000000e+00) (0, 0, 0.00000000000000000000e+00) (13, 6, 5.00000000000000000000e-01) (13, 6, 5.00000000000000000000e-01) (13, 6, 5.00000000000000000000e-01) (13, 6, 5.00000000000000000000e-01) (13, 6, 5.00000000000000000000e-01) (13, 6, 5.00000000000000000000e-01) (13, 6, 5.00000000000000000000e-01) (13, 6, 5.00000000000000000000e-01) (13, 6, 5.00000000000000000000e-01) (13, 6, 5.00000000000000000000e-01) (0, 6, 0.00000000000000000000e+00) (11, 6, 5.00000000000000000000e-01) (0, 6, 0.00000000000000000000e+00) 
connections (connected_to_neuron, weight)=(0, 6.29451286439428825403e-01) (1, 8.07236681334978278812e-01) (2, 8.48028472267395194706e-01) (3, 9.02340228312021430668e-01) (4, 9.11750229649549659428e-01) (5, -8.72058750669501847597e+00) (6, -1.90962385837815662448e+00) (7, 4.98845922742535086147e-01) (8, 5.21538282080377113559e-01) (9, -9.94745584200785494533e-03) (10, 5.00507619361873046238e-01) (11, 6.00025279168640235383e-01) (12, 5.43693260542588818751e-01) (0, 1.60355543428151370300e+00) (1, 4.73512650707165694275e-01) (2, 4.97822345474163818757e-01) (3, 5.30307353713909801485e-01) (4, 4.71193642595211958923e-01) (5, -4.78405993238869076123e+00) (6, 8.45775220312791908839e+00) (7, -2.10077120788231791471e-01) (8, -3.06057202045339371566e+00) (9, 8.73065781484393510503e-01) (10, 6.35072251245331842462e-01) (11, 1.44469372134322611601e+03) (12, 1.25855924363875992800e-01) (0, 2.26085762021485479067e+01) (1, 4.23004048239070340465e-01) (2, 3.20333781014758511851e-01) (3, 5.12268746565658017467e-01) (4, 4.00259772609549924205e-01) (5, -5.44051775120190317381e-01) (6, -7.48872006152785996136e+00) (7, -5.57987939948845879101e-01) (8, -5.60728273336049198861e+00) (9, -3.42507118896811268982e+00) (10, -6.91309484875981317131e-01) (11, -3.71539531094591424232e-01) (12, 2.05504005835667102886e+00) (0, 1.13713997306421599198e+00) (1, 2.68936296861096546529e-01) (2, 3.22802228789254352925e-01) (3, 3.17106096010132954000e-01) (4, 3.31856174330636188863e-01) (5, 4.58765667207373883940e-01) (6, -1.12140786497591959936e+00) (7, 1.72399458161620333652e-01) (8, -2.10320754790121888789e+00) (9, -3.27226064146798820143e-02) (10, 4.22244337345977549525e-01) (11, 1.44464452282006232053e+03) (12, 1.99025807072345156667e-01) (0, 1.31865298668171515573e+01) (1, 4.11065882105981716954e-01) (2, 2.17987960238611000463e-01) (3, 3.84311189909135708653e-01) (4, 3.54138394851838955724e-01) (5, -1.31130930599768458222e+00) (6, 4.99743838721692412719e+00) (7, 3.08599884784927946946e-01) (8, -2.11118447163334144179e+00) (9, 6.09311188018756610951e-01) (10, 4.73131410808581065464e-01) (11, 1.44464959904963461668e+03) (12, 7.63430705413750687605e-02) (0, 1.35163043569905672037e+00) (1, 2.04023331988717721019e-01) (2, 2.75817536402608587398e-01) (3, 2.87001483727361395015e-01) (4, 1.89476635892059014354e-01) (5, -2.12620506114171670120e+00) (6, -2.36104994668387052625e-01) (7, 1.09218101366239384031e-01) (8, -1.20580711067253469082e+03) (9, 1.63900255045294751532e+00) (10, 2.61033903848721882124e-01) (11, 2.47316910146567003892e+00) (12, 3.10020759612680607553e-01) (0, 1.06447842542895489970e+01) (1, 8.74683989465459554857e-01) (2, 8.41045210391505926317e-01) (3, 8.66421425968631475634e-01) (4, 8.26011995107158392138e-01) (5, -2.89437173990593032968e+00) (6, -4.87582781313355617669e+00) (7, -1.65715370046742438426e+00) (8, -5.26165039324669736587e-01) (9, -7.84374066035987804746e-01) (10, 2.87994356011968766218e-01) (11, 2.96964750147689082738e-01) (12, 1.03308056323008012889e+00) (0, -1.64960490798860859307e+00) (1, -3.10737013868601086308e-01) (2, -2.33013369194776776006e-01) (3, -2.95584149710447552373e-01) (4, -2.11598068527490856816e-01) (5, 2.55121115199290171560e+00) (6, 1.71206682428728523826e-01) (7, -1.54785520048461244791e-01) (8, 1.50000000000000000000e+03) (9, -3.75576330265116220541e-01) (10, -5.86330623903754344362e-01) (11, -2.22828239109744830060e+00) (12, -1.52351347150547516973e-01) (0, -1.69593841841727566155e+00) (1, -3.37987437456166939231e-01) (2, -2.06354386716401688728e-01) (3, -2.54561699538743635429e-01) (4, -2.01049677639520280037e-01) (5, 2.47807327833277435403e+00) (6, 8.75546591030760823493e-02) (7, -4.39783743164579507545e-02) (8, 1.50000000000000000000e+03) (9, -1.32219250590631753894e+00) (10, -4.80847747602942909850e-01) (11, -2.26035219338168946734e+00) (12, -1.40858755592274287327e-01) (0, -6.66359275646744464439e+00) (1, -5.45322283702179055886e-01) (2, -5.55397331314369302468e-01) (3, -6.69903702633663278299e-01) (4, -6.07031203406139474588e-01) (5, 4.32745999111569634721e+00) (6, 2.63818930401311213529e+00) (7, 3.52226968105727400449e-01) (8, -3.59070076977617280711e-01) (9, 5.20823746274259979927e-01) (10, -2.27087911350359796664e-03) (11, -1.16201278253058970513e+00) (12, -5.60824385217203125187e-01) (13, -7.66920879668168409271e-02) (14, 7.79991152050757641234e-01) (15, -3.04593881180554248989e-01) (16, 4.34958463049588406335e-01) (17, 4.41556927914585006789e-01) (18, -3.76272695311195698453e-02) (19, -2.62602185869580340150e-01) (20, 4.57004213035724082825e-01) (21, 4.50516411364695945618e-01) (22, 4.67770269970066321363e-01) (23, 4.04369680902225470120e-01) 
