FANN_FLO_2.1
num_layers=3
learning_rate=0.700000
connection_rate=1.000000
network_type=0
learning_momentum=0.000000
training_algorithm=2
train_error_function=1
train_stop_function=1
cascade_output_change_fraction=0.010000
quickprop_decay=-0.000100
quickprop_mu=1.750000
rprop_increase_factor=1.200000
rprop_decrease_factor=0.500000
rprop_delta_min=0.000000
rprop_delta_max=50.000000
rprop_delta_zero=0.100000
cascade_output_stagnation_epochs=12
cascade_candidate_change_fraction=0.010000
cascade_candidate_stagnation_epochs=12
cascade_max_out_epochs=150
cascade_min_out_epochs=50
cascade_max_cand_epochs=150
cascade_min_cand_epochs=50
cascade_num_candidate_groups=2
bit_fail_limit=1.00000000000000005551e-01
cascade_candidate_limit=1.00000000000000000000e+03
cascade_weight_multiplier=4.00000000000000022204e-01
cascade_activation_functions_count=10
cascade_activation_functions=3 5 7 8 10 11 14 15 16 17 
cascade_activation_steepnesses_count=4
cascade_activation_steepnesses=2.50000000000000000000e-01 5.00000000000000000000e-01 7.50000000000000000000e-01 1.00000000000000000000e+00 
layer_sizes=14 4 2 
scale_included=0
neurons (num_inputs, activation_function, activation_steepness)=(0, 0, 0.00000000000000000000e+00) (0, 0, 0.00000000000000000000e+00) (0, 0, 0.00000000000000000000e+00) (0, 0, 0.00000000000000000000e+00) (0, 0, 0.00000000000000000000e+00) (0, 0, 0.00000000000000000000e+00) (0, 0, 0.00000000000000000000e+00) (0, 0, 0.00000000000000000000e+00) (0, 0, 0.00000000000000000000e+00) (0, 0, 0.00000000000000000000e+00) (0, 0, 0.00000000000000000000e+00) (0, 0, 0.00000000000000000000e+00) (0, 0, 0.00000000000000000000e+00) (0, 0, 0.00000000000000000000e+00) (14, 6, 5.00000000000000000000e-01) (14, 6, 5.00000000000000000000e-01) (14, 6, 5.00000000000000000000e-01) (0, 6, 0.00000000000000000000e+00) (4, 4, 5.00000000000000000000e-01) (0, 4, 0.00000000000000000000e+00) 
connections (connected_to_neuron, weight)=(0, 1.91142910802357701705e+00) (1, -8.89066088017206324068e-01) (2, -7.36188651913295522000e-01) (3, 1.19523430812568651205e-01) (4, -1.53418640398934025271e+00) (5, -1.07368180938631652133e+00) (6, -1.86836766609092519431e+00) (7, -3.33136766611700607665e-01) (8, -7.48721659853603171975e-01) (9, -9.95476378292744823462e-01) (10, 4.69046384771302449224e-01) (11, -8.48456383263109126247e-01) (12, -1.01935229155251150246e+00) (13, 1.24604534912691233828e+00) (0, -1.62154355703331165550e+00) (1, 2.97375168979988124818e+00) (2, 4.17736035510778602742e+00) (3, -2.51626677343287896704e+00) (4, 4.31518156711713285478e-01) (5, 1.05073809022244590849e+00) (6, 9.51564549686230662928e+01) (7, 3.80220629304624468947e-01) (8, 1.10181075220644856927e+02) (9, 6.26286844156042188381e-01) (10, -4.55689098796365765764e+00) (11, 4.49641774251777626148e+00) (12, 1.88759923533724949252e+00) (13, -6.17387437390822801930e-01) (0, 2.04416546493092399217e+00) (1, -1.02508284197662002946e+00) (2, -8.48345325621087997803e-01) (3, -1.32661133725550817869e-02) (4, -1.88536745186123044782e+00) (5, -1.07700768231048016332e+00) (6, -1.96623581432839333871e+00) (7, -3.29714260993403063260e-01) (8, -7.79132221564199478614e-01) (9, -2.20144967073704433957e+00) (10, 1.28571371807069734228e-01) (11, -7.91248478507039942897e-01) (12, -1.01544256958195333596e+00) (13, 1.24963211823091624453e+00) (14, -7.03365279255179132178e+01) (15, 1.61159974993966343959e+01) (16, -1.07484422930390479678e+02) (17, -5.97337514490006826762e-01) 
