FANN_FLO_2.1
num_layers=3
learning_rate=0.700000
connection_rate=1.000000
network_type=0
learning_momentum=0.000000
training_algorithm=2
train_error_function=1
train_stop_function=1
cascade_output_change_fraction=0.010000
quickprop_decay=-0.000100
quickprop_mu=1.750000
rprop_increase_factor=1.200000
rprop_decrease_factor=0.500000
rprop_delta_min=0.000000
rprop_delta_max=50.000000
rprop_delta_zero=0.100000
cascade_output_stagnation_epochs=12
cascade_candidate_change_fraction=0.010000
cascade_candidate_stagnation_epochs=12
cascade_max_out_epochs=150
cascade_min_out_epochs=50
cascade_max_cand_epochs=150
cascade_min_cand_epochs=50
cascade_num_candidate_groups=2
bit_fail_limit=1.00000000000000005551e-01
cascade_candidate_limit=1.00000000000000000000e+03
cascade_weight_multiplier=4.00000000000000022204e-01
cascade_activation_functions_count=10
cascade_activation_functions=3 5 7 8 10 11 14 15 16 17 
cascade_activation_steepnesses_count=4
cascade_activation_steepnesses=2.50000000000000000000e-01 5.00000000000000000000e-01 7.50000000000000000000e-01 1.00000000000000000000e+00 
layer_sizes=26 11 2 
scale_included=0
neurons (num_inputs, activation_function, activation_steepness)=(0, 0, 0.00000000000000000000e+00) (0, 0, 0.00000000000000000000e+00) (0, 0, 0.00000000000000000000e+00) (0, 0, 0.00000000000000000000e+00) (0, 0, 0.00000000000000000000e+00) (0, 0, 0.00000000000000000000e+00) (0, 0, 0.00000000000000000000e+00) (0, 0, 0.00000000000000000000e+00) (0, 0, 0.00000000000000000000e+00) (0, 0, 0.00000000000000000000e+00) (0, 0, 0.00000000000000000000e+00) (0, 0, 0.00000000000000000000e+00) (0, 0, 0.00000000000000000000e+00) (0, 0, 0.00000000000000000000e+00) (0, 0, 0.00000000000000000000e+00) (0, 0, 0.00000000000000000000e+00) (0, 0, 0.00000000000000000000e+00) (0, 0, 0.00000000000000000000e+00) (0, 0, 0.00000000000000000000e+00) (0, 0, 0.00000000000000000000e+00) (0, 0, 0.00000000000000000000e+00) (0, 0, 0.00000000000000000000e+00) (0, 0, 0.00000000000000000000e+00) (0, 0, 0.00000000000000000000e+00) (0, 0, 0.00000000000000000000e+00) (0, 0, 0.00000000000000000000e+00) (26, 6, 5.00000000000000000000e-01) (26, 6, 5.00000000000000000000e-01) (26, 6, 5.00000000000000000000e-01) (26, 6, 5.00000000000000000000e-01) (26, 6, 5.00000000000000000000e-01) (26, 6, 5.00000000000000000000e-01) (26, 6, 5.00000000000000000000e-01) (26, 6, 5.00000000000000000000e-01) (26, 6, 5.00000000000000000000e-01) (26, 6, 5.00000000000000000000e-01) (0, 6, 0.00000000000000000000e+00) (11, 6, 5.00000000000000000000e-01) (0, 6, 0.00000000000000000000e+00) 
connections (connected_to_neuron, weight)=(0, -4.56474908184431246716e-02) (1, 2.30923239973367722122e-01) (2, 2.31625412491144211380e-01) (3, 2.61504390177310863663e-01) (4, 2.33013962295831655869e-01) (5, 7.06806968801478197051e-01) (6, 1.04061783753379621942e+00) (7, -5.81384009085833941555e+00) (8, 6.35977880801894879248e-01) (9, 2.07642740296484884510e+00) (10, 5.38345236066096965999e-01) (11, 1.76623357094506894249e+00) (12, 1.09061956579951413460e+00) (13, 1.27783804762351294038e+00) (14, -1.11732905515011915476e+00) (15, 1.07627151589946308263e+02) (16, 1.68588361192172242475e-01) (17, 1.35213988045900612711e+00) (18, -4.24547942570412784047e-01) (19, -1.65180989632484620522e-01) (20, -3.07576335348081097987e-01) (21, -2.55903732061138644571e-01) (22, 8.04780351988833020371e-01) (23, 1.07278020760320188742e+02) (24, 4.30008460671592995794e+00) (25, 5.34000077388110061527e-01) (0, 4.80920845691018961077e+00) (1, 3.86049149281259496025e-01) (2, 4.05807969815011937431e-01) (3, 3.91080906337972600273e-01) (4, 4.54005649036642033867e-01) (5, -2.60592346382643036407e+00) (6, 5.77238007924794627179e-01) (7, 8.55804948203327775502e+00) (8, 3.97325527603009431843e-01) (9, -1.91281964096081802396e+00) (10, 3.81304768570555341345e-01) (11, 2.47348771611061224451e-01) (12, 5.84499065873101297797e-01) (13, 2.86260927005709653326e-01) (14, 5.25471208632969366548e-01) (15, -7.92946302109564404859e-01) (16, 1.13770876940178067294e+00) (17, 5.05900999477379875735e-01) (18, -2.13892859115445865825e+00) (19, -3.05375275801982137835e+00) (20, 3.36325852215972886938e-01) (21, 3.21079983871255636441e-01) (22, 2.87472801011410983296e-01) (23, 1.96340215204366896895e-01) (24, -1.25822798286393111589e+00) (25, 3.92531812106795774397e+00) (0, 6.02658455652784974532e-01) (1, -3.31151594909463858896e-02) (2, 9.78096167055324539064e-02) (3, 1.00875441214199446094e-01) (4, 5.24201283661092781729e-02) (5, -4.84674984678016146367e-02) (6, 1.20963779546387817376e-01) (7, 4.11897147481759748344e-03) (8, 9.42090298847231416568e-02) (9, 3.89970186173911950722e-02) (10, 5.75790153793137322175e-03) (11, 1.41604786296291779157e-01) (12, 3.69950310796773179645e-02) (13, 5.99677938823321501904e-02) (14, -6.30162443223695328820e-02) (15, -2.84440644168534768899e-02) (16, -4.66694148254429980183e-02) (17, -2.85590101263017495659e-02) (18, -6.66909176576624268540e-02) (19, -2.43864134719841502141e-01) (20, 2.16520503664535592797e-03) (21, -1.38732175446624500514e-01) (22, 1.35114249415235060381e-02) (23, 1.11302540844801997610e-01) (24, 2.54623895858747499588e-02) (25, 2.49059588487384991895e-01) (0, 3.98161298231227647193e+01) (1, 2.00606124547374475853e-01) (2, 7.80906026038049039251e-02) (3, 6.62115384611008939153e-02) (4, 5.28871734413034547129e-02) (5, 8.94370419145989803411e-01) (6, -4.12648391698400895944e-01) (7, -7.25505519240351137711e+00) (8, -9.07804002238125629098e-02) (9, -5.84254587698428196063e-01) (10, -3.36510516535163450857e-01) (11, -5.54305039416007061526e-01) (12, -8.11370632330182695036e-01) (13, -1.05997372086523919399e-01) (14, -1.04054043128513828975e+00) (15, 5.27211150184477617131e-01) (16, 8.28714985945639553977e-02) (17, -2.82559126636536039889e-01) (18, -2.43353411146764980755e-01) (19, 2.99411412712983666939e-02) (20, -1.50271015994921963710e+00) (21, -1.72655003205131651889e+00) (22, -2.63978864568937210411e-01) (23, 1.92795391052735631821e-01) (24, -4.48329820942006462836e-01) (25, 5.01905818467824671458e-01) (0, 5.33372371932233235725e+00) (1, 4.59207271880384404472e-01) (2, 3.91339113659139592460e-01) (3, 3.86939344650979955009e-01) (4, 5.05779279119241254037e-01) (5, -2.43245414066845899725e+00) (6, 9.12658243935383195478e-01) (7, 8.61474059961798133145e+00) (8, 3.17671540072015090583e-01) (9, -1.82606443095771275864e+00) (10, 2.86488055313085132614e-01) (11, 3.58079012801273410815e-01) (12, 7.15044026371911334294e-01) (13, 4.82227098482718663508e-01) (14, 5.05981704236053930757e-01) (15, -3.59967712027708275357e-01) (16, 1.15756375457929783224e+00) (17, 4.51838811805720885761e-01) (18, -1.83327122090825644918e+00) (19, -2.47270964530100911816e+00) (20, 2.90375872144719715529e-01) (21, 1.38877675657918198127e-01) (22, 5.06491991056843615659e-01) (23, 1.22207397910861617629e-01) (24, -1.50351580591432898437e+00) (25, 3.59362643426684646997e+00) (0, -3.58929496620037924437e-02) (1, 9.38572973082788843124e-03) (2, 6.35185331176050908819e-03) (3, -1.26631459586786440652e-02) (4, -6.76353028409654444264e-02) (5, -1.22293110936450941106e-01) (6, -4.26549103635160853365e-01) (7, 5.85481068247995484199e+00) (8, -5.58215624239929708583e-02) (9, 7.08387267522387203966e-02) (10, 4.41256886022983185747e-02) (11, -8.15497242238335667830e-02) (12, -4.40715436013563721662e-01) (13, -1.89689495248096196001e-01) (14, -6.47489742732338668940e-02) (15, 2.53707331049311812787e-02) (16, 1.39935514250196041397e-01) (17, -3.81360858482557962823e-01) (18, -5.46551654601396333377e-02) (19, -6.07992191692535537129e-03) (20, -2.17301659194698487676e-01) (21, -2.04876626490173519013e-01) (22, 2.80339259308501169421e-02) (23, -2.36064461352717774867e-01) (24, 5.04819842947504884845e-02) (25, 2.38601702235504808947e-01) (0, -2.87509980675400400596e-01) (1, -6.87384773900339002273e-02) (2, 8.69206144310822118038e-03) (3, 4.80504239986124584427e-02) (4, -2.20022370030704336741e-02) (5, -9.77496780451122745936e-03) (6, -2.05299052886071461965e-02) (7, 6.70750955919641800307e+00) (8, -5.65683884436576148169e-02) (9, -6.17835201822352006462e-02) (10, 1.47152398582385112585e-02) (11, -3.76198847667975691533e-02) (12, 4.78381905134855622830e-02) (13, -2.02389261398666468750e-02) (14, 1.19876396927107331525e-01) (15, -5.07620090695191997221e-02) (16, 6.59071911770514953788e-03) (17, 7.25035091242194201788e-02) (18, 3.88467584992272102484e-02) (19, 1.07105477987542607732e-01) (20, 3.33865120164148973525e-02) (21, 1.10461457614891997436e-01) (22, -2.37482137655656254382e-02) (23, -7.68647684445662310315e-02) (24, -4.57897212121187932587e-02) (25, 6.43477443519609448863e-01) (0, 2.08679597090656399061e+00) (1, 1.58775791988218395456e-01) (2, -1.02897430802932812050e-02) (3, 1.59534406815417251213e-02) (4, 1.44310757959758954611e-04) (5, 1.07019342182534860086e+01) (6, 1.94022230836858766700e-01) (7, -5.88737657095410060748e+00) (8, 1.85066274035516675767e-01) (9, 4.84403186796164841876e-01) (10, 4.28048443035714321070e-01) (11, 3.81017557870471534898e-01) (12, 2.39283296852078691819e-01) (13, 1.12974278976435915656e-01) (14, 8.00039635557068390392e-02) (15, 2.94350000220599150591e-01) (16, 5.41456369942448834109e-01) (17, 6.21257991248514093718e-02) (18, 3.17192558952130776451e-01) (19, 1.13957847251969557334e+00) (20, 3.38008059257195903058e-01) (21, 8.50802834002303276506e-02) (22, 5.57757174381592890633e-02) (23, 3.30504427665524125324e-01) (24, 1.00774882016542194352e-01) (25, 8.32982610915448229427e-01) (0, 3.57473915045095047560e+00) (1, 1.07403232002293139158e-01) (2, 7.57155997991911799971e-02) (3, 2.15345381141058833663e-02) (4, 2.59267745852820342967e-02) (5, 6.33275061247730475245e-01) (6, 1.97326987941467052456e-01) (7, 3.95396360554000381171e+00) (8, 5.70356813808748031036e-01) (9, 5.32170743880347796306e-01) (10, 5.48854756402009869021e-01) (11, 3.63205220152721275362e-01) (12, 3.88627491660563373355e-01) (13, 5.37191524501971606753e-01) (14, 8.96483230731041913497e-02) (15, 3.06670197361135077330e+00) (16, 5.21830373531146474164e-01) (17, 3.54649150656740005938e-02) (18, 6.06182423485420063258e-01) (19, 5.29164034967478769111e-01) (20, 3.38531825317595735925e-01) (21, 1.47736334655464013332e-01) (22, 4.29753905201673724878e-01) (23, 1.03248359523193689036e+00) (24, 1.23530575152557986485e+00) (25, 2.74499792174763079800e+00) (0, 3.99006884341986918230e+01) (1, 5.41578797743931528164e-02) (2, 2.35174831573786435879e-01) (3, 1.78394508187594141857e-01) (4, 2.14478266064943995373e-01) (5, -4.54299987827622508973e+00) (6, -3.08832784056083331503e-01) (7, -1.43155414229053556951e+00) (8, -6.56208687714137650637e-01) (9, -3.27240326693456651252e-01) (10, -1.66319032732826055376e-01) (11, -1.04089156245618807972e+00) (12, -1.47230755842774174713e-01) (13, -3.41427155090547496119e-01) (14, -1.31665848930105622294e+00) (15, 3.51305387643641815407e-03) (16, -1.51713872556209022902e-01) (17, -1.20732995710956991786e+00) (18, -4.03231335476862684519e-01) (19, -2.79688304711685986614e-01) (20, -4.23260694405001691720e-01) (21, -5.78476611263360362969e-01) (22, 3.21679362495515402953e-02) (23, 5.79572494050866332538e-02) (24, 5.18984277219570258599e-02) (25, 4.48078812673572635106e+00) (26, 2.03196692304060955170e-01) (27, -1.50871395267639013538e-01) (28, 7.52418687248020412461e-01) (29, -5.15768530141113679122e-01) (30, -1.83414510585460516223e-01) (31, 1.92266886666501324310e-01) (32, 1.24734326991103183779e+00) (33, 7.63577662218888564283e-01) (34, 7.80946127745980489543e-01) (35, -1.28819174031715166784e+00) (36, 4.01038285070348110573e-02) 
