FANN_FLO_2.1
num_layers=3
learning_rate=0.700000
connection_rate=1.000000
network_type=0
learning_momentum=0.000000
training_algorithm=2
train_error_function=1
train_stop_function=1
cascade_output_change_fraction=0.010000
quickprop_decay=-0.000100
quickprop_mu=1.750000
rprop_increase_factor=1.200000
rprop_decrease_factor=0.500000
rprop_delta_min=0.000000
rprop_delta_max=50.000000
rprop_delta_zero=0.100000
cascade_output_stagnation_epochs=12
cascade_candidate_change_fraction=0.010000
cascade_candidate_stagnation_epochs=12
cascade_max_out_epochs=150
cascade_min_out_epochs=50
cascade_max_cand_epochs=150
cascade_min_cand_epochs=50
cascade_num_candidate_groups=2
bit_fail_limit=1.00000000000000005551e-01
cascade_candidate_limit=1.00000000000000000000e+03
cascade_weight_multiplier=4.00000000000000022204e-01
cascade_activation_functions_count=10
cascade_activation_functions=3 5 7 8 10 11 14 15 16 17 
cascade_activation_steepnesses_count=4
cascade_activation_steepnesses=2.50000000000000000000e-01 5.00000000000000000000e-01 7.50000000000000000000e-01 1.00000000000000000000e+00 
layer_sizes=16 4 2 
scale_included=0
neurons (num_inputs, activation_function, activation_steepness)=(0, 0, 0.00000000000000000000e+00) (0, 0, 0.00000000000000000000e+00) (0, 0, 0.00000000000000000000e+00) (0, 0, 0.00000000000000000000e+00) (0, 0, 0.00000000000000000000e+00) (0, 0, 0.00000000000000000000e+00) (0, 0, 0.00000000000000000000e+00) (0, 0, 0.00000000000000000000e+00) (0, 0, 0.00000000000000000000e+00) (0, 0, 0.00000000000000000000e+00) (0, 0, 0.00000000000000000000e+00) (0, 0, 0.00000000000000000000e+00) (0, 0, 0.00000000000000000000e+00) (0, 0, 0.00000000000000000000e+00) (0, 0, 0.00000000000000000000e+00) (0, 0, 0.00000000000000000000e+00) (16, 6, 5.00000000000000000000e-01) (16, 6, 5.00000000000000000000e-01) (16, 6, 5.00000000000000000000e-01) (0, 6, 0.00000000000000000000e+00) (4, 4, 5.00000000000000000000e-01) (0, 4, 0.00000000000000000000e+00) 
connections (connected_to_neuron, weight)=(0, -2.20907840915675335314e-02) (1, -7.64931199493360081121e-01) (2, 1.35881786197241255509e-01) (3, -3.77511352994952142925e-01) (4, -7.62107525549501341189e-01) (5, -7.58152604714062205993e-01) (6, -2.55411075326899661420e+00) (7, -2.25225171273154251006e-01) (8, -2.33865146807454227229e+00) (9, 3.58500104402779884438e+00) (10, -5.52112477009717994569e-01) (11, -5.70623698971142978564e+00) (12, -1.77900650925610515074e+00) (13, -7.29672012698149341503e+00) (14, -6.39938773775424252221e+00) (15, 4.96276917815637652609e-01) (0, 1.87378850144974329339e+00) (1, 1.02982449730578906610e+01) (2, 1.12177228385895347285e-01) (3, 2.18811426464606939568e-01) (4, 1.02076188496300925834e+01) (5, 1.00604342793964285363e+01) (6, 5.89608923120139571949e-01) (7, 1.50000000000000000000e+03) (8, 1.09982582496545614958e+03) (9, 6.92560248768771979933e-01) (10, -2.57746846714457633620e-01) (11, -3.60169434132388444070e+00) (12, -1.19826718784528996053e+00) (13, -1.53041063544868327639e+00) (14, -3.43675440680193755583e+00) (15, -2.05817899893153272162e-01) (0, 2.78353304165264177072e+01) (1, -7.99539111293936066716e-01) (2, 1.84636836446128316247e+00) (3, 5.02194351502267632981e+00) (4, -7.79928200172588459438e-01) (5, -8.72557674719292908350e-01) (6, -1.17170667260084204742e+01) (7, -8.09940033510783030657e-01) (8, 6.40143226324468095356e+00) (9, -7.34632203104608461075e+00) (10, 1.21301203702227064496e-01) (11, 2.45406869553489492830e+00) (12, 1.37566567849209953067e+00) (13, 1.69189957706151994365e+00) (14, 1.89499816200471959959e+00) (15, 1.70434886448177302931e+00) (16, 3.61454684899184499614e+01) (17, 1.84012234613877048162e+01) (18, -1.62229762137357269580e+01) (19, -4.48069831428321574407e-01) 
