FANN_FLO_2.1
num_layers=3
learning_rate=0.700000
connection_rate=1.000000
network_type=0
learning_momentum=0.000000
training_algorithm=2
train_error_function=1
train_stop_function=1
cascade_output_change_fraction=0.010000
quickprop_decay=-0.000100
quickprop_mu=1.750000
rprop_increase_factor=1.200000
rprop_decrease_factor=0.500000
rprop_delta_min=0.000000
rprop_delta_max=50.000000
rprop_delta_zero=0.100000
cascade_output_stagnation_epochs=12
cascade_candidate_change_fraction=0.010000
cascade_candidate_stagnation_epochs=12
cascade_max_out_epochs=150
cascade_min_out_epochs=50
cascade_max_cand_epochs=150
cascade_min_cand_epochs=50
cascade_num_candidate_groups=2
bit_fail_limit=1.00000000000000005551e-01
cascade_candidate_limit=1.00000000000000000000e+03
cascade_weight_multiplier=4.00000000000000022204e-01
cascade_activation_functions_count=10
cascade_activation_functions=3 5 7 8 10 11 14 15 16 17 
cascade_activation_steepnesses_count=4
cascade_activation_steepnesses=2.50000000000000000000e-01 5.00000000000000000000e-01 7.50000000000000000000e-01 1.00000000000000000000e+00 
layer_sizes=12 11 2 
scale_included=0
neurons (num_inputs, activation_function, activation_steepness)=(0, 0, 0.00000000000000000000e+00) (0, 0, 0.00000000000000000000e+00) (0, 0, 0.00000000000000000000e+00) (0, 0, 0.00000000000000000000e+00) (0, 0, 0.00000000000000000000e+00) (0, 0, 0.00000000000000000000e+00) (0, 0, 0.00000000000000000000e+00) (0, 0, 0.00000000000000000000e+00) (0, 0, 0.00000000000000000000e+00) (0, 0, 0.00000000000000000000e+00) (0, 0, 0.00000000000000000000e+00) (0, 0, 0.00000000000000000000e+00) (12, 6, 5.00000000000000000000e-01) (12, 6, 5.00000000000000000000e-01) (12, 6, 5.00000000000000000000e-01) (12, 6, 5.00000000000000000000e-01) (12, 6, 5.00000000000000000000e-01) (12, 6, 5.00000000000000000000e-01) (12, 6, 5.00000000000000000000e-01) (12, 6, 5.00000000000000000000e-01) (12, 6, 5.00000000000000000000e-01) (12, 6, 5.00000000000000000000e-01) (0, 6, 0.00000000000000000000e+00) (11, 6, 5.00000000000000000000e-01) (0, 6, 0.00000000000000000000e+00) 
connections (connected_to_neuron, weight)=(0, 1.82705005488621952114e-01) (1, -6.65742864912109155728e-02) (2, 5.83559239203377544403e-02) (3, -1.10095253294067180888e-02) (4, -7.22469722931938090893e-02) (5, -3.21159586551180709080e+00) (6, -3.32397576081319856556e+00) (7, -2.81385148079747127170e+00) (8, 1.03713722656105589159e+00) (9, -4.68609901777593318428e+00) (10, -2.44157460234193912640e+00) (11, -1.64341297480833231637e-01) (0, 9.73982252390155522903e+00) (1, 6.35394952171778104599e-01) (2, 6.46131983870005033310e-01) (3, 6.99648066335653684433e-01) (4, 5.82497431808447485579e-01) (5, -2.93484414571499563351e+00) (6, -1.78334909027726395969e+00) (7, -4.54814376828590205548e+00) (8, -4.02796511821144864740e+00) (9, -1.06946216082309475404e+00) (10, -1.60168761550025617879e+00) (11, 1.54529016671299879171e+00) (0, 6.20343893157728754062e+00) (1, 3.46280164087194641809e-01) (2, 1.93162455225366985756e-01) (3, 3.45790720546621521692e-01) (4, 3.72746295297521901269e-01) (5, -3.19717315288933545681e-01) (6, 3.16820198279174763956e-02) (7, -2.27978068255187737989e-01) (8, 3.36419241751587492217e+01) (9, 2.84286460225578387906e+01) (10, 6.94864262293521672831e+00) (11, -3.40668982142217774411e-02) (0, 9.79254929930934636673e+00) (1, 4.56074802810330526270e-01) (2, 5.46063526207585692163e-01) (3, 4.70116241509099141993e-01) (4, 4.62158544594426290431e-01) (5, -3.41228881320818189238e+00) (6, -1.05577910236492145124e+00) (7, -2.41836997935210673560e+00) (8, -3.10297103627886583510e+00) (9, -1.59431190312943593668e+00) (10, -1.88676311088638426483e+00) (11, 9.25006071977811483720e-01) (0, 1.04806679944379355085e+00) (1, 1.24607408757397716825e-01) (2, 5.55355347349139119584e-02) (3, 1.90455543215462735906e-01) (4, 5.41443027212115193803e-02) (5, 1.94722677358762452648e+00) (6, -1.11742741313806970282e+00) (7, 7.19561848202080023285e-01) (8, -4.84043875572739701330e-01) (9, 2.84209858124252399136e+01) (10, -7.16097249333676466598e-01) (11, 8.16205538719557255334e-01) (0, 6.31816695504445569043e+00) (1, 4.07402461763410661533e-01) (2, 4.24880026277093980624e-01) (3, 4.08004938062219713046e-01) (4, 3.43149675425081346347e-01) (5, -1.98957304040772187115e+00) (6, -9.43509405964491287833e-01) (7, -1.01690401314156164680e+00) (8, -1.22733413548951442174e+00) (9, -2.02877918488266999475e+01) (10, -1.13059609857796949939e+00) (11, 2.97725187841132887812e-01) (0, 6.09378635274656854648e+00) (1, 2.49985652977604305702e-01) (2, 3.27061048710722168664e-01) (3, 3.88706675732511830468e-01) (4, 3.65770584905523610253e-01) (5, -7.28506993943753511367e-01) (6, 1.01216555353606785239e+00) (7, -3.38371333557857312258e-01) (8, 3.36670366848862272491e+01) (9, 2.83280306776162227322e+01) (10, 5.27852373524216567091e+00) (11, 2.14422048660419611865e-01) (0, 2.57140420892527599150e+00) (1, 1.80269024177106357287e-01) (2, 2.13826506240876623721e-01) (3, 2.93558045132668921084e-01) (4, 3.08356030686410265140e-01) (5, 8.26040395139910010869e-01) (6, 1.28242174325635938104e+00) (7, -2.12562748491007491580e+00) (8, 1.70188213382190611789e+00) (9, 2.83109107931252559354e+01) (10, -2.11005793270933189598e-03) (11, 9.42818380131788313925e-01) (0, 6.26405147599466882724e+00) (1, 2.51540333448437514186e-01) (2, 2.93963224111584375819e-01) (3, 3.25210929332760523280e-01) (4, 3.58874336300877394557e-01) (5, 1.15956794949187003141e+00) (6, -1.72921965033501823239e-01) (7, -9.60404685661548018771e-01) (8, 3.35691062684214216461e+01) (9, 2.83839448188539584805e+01) (10, 4.37658651445377078204e+00) (11, 4.19896311066595639971e-01) (0, 1.98564240274016401422e+00) (1, 3.22053257433935369303e-01) (2, 4.80958577303453649332e-01) (3, 3.40765740780397674570e-01) (4, 3.57185136584802886972e-01) (5, -2.04264064262491906732e+00) (6, -7.70003265255567947989e-01) (7, -1.19424884774359574280e+00) (8, -1.21691046688449833191e+00) (9, -2.03163088417532975427e+01) (10, -4.68374919564125691274e-01) (11, 4.16282061539662406879e-01) (12, 3.83745049411019362173e-02) (13, -7.38583238804257913301e-01) (14, 3.60647589165180582071e-01) (15, -5.76710024996501924299e-01) (16, 3.30224460749179937746e-01) (17, -2.86085376046656403304e-01) (18, 3.02476883131473917032e-01) (19, 2.74375581626112086120e-01) (20, 2.84562474979369706141e-01) (21, -2.21027503860771273869e-01) (22, 2.76849865735820821477e-01) 
