FANN_FLO_2.1
num_layers=3
learning_rate=0.700000
connection_rate=1.000000
network_type=0
learning_momentum=0.000000
training_algorithm=2
train_error_function=1
train_stop_function=1
cascade_output_change_fraction=0.010000
quickprop_decay=-0.000100
quickprop_mu=1.750000
rprop_increase_factor=1.200000
rprop_decrease_factor=0.500000
rprop_delta_min=0.000000
rprop_delta_max=50.000000
rprop_delta_zero=0.100000
cascade_output_stagnation_epochs=12
cascade_candidate_change_fraction=0.010000
cascade_candidate_stagnation_epochs=12
cascade_max_out_epochs=150
cascade_min_out_epochs=50
cascade_max_cand_epochs=150
cascade_min_cand_epochs=50
cascade_num_candidate_groups=2
bit_fail_limit=1.00000000000000005551e-01
cascade_candidate_limit=1.00000000000000000000e+03
cascade_weight_multiplier=4.00000000000000022204e-01
cascade_activation_functions_count=10
cascade_activation_functions=3 5 7 8 10 11 14 15 16 17 
cascade_activation_steepnesses_count=4
cascade_activation_steepnesses=2.50000000000000000000e-01 5.00000000000000000000e-01 7.50000000000000000000e-01 1.00000000000000000000e+00 
layer_sizes=13 11 2 
scale_included=0
neurons (num_inputs, activation_function, activation_steepness)=(0, 0, 0.00000000000000000000e+00) (0, 0, 0.00000000000000000000e+00) (0, 0, 0.00000000000000000000e+00) (0, 0, 0.00000000000000000000e+00) (0, 0, 0.00000000000000000000e+00) (0, 0, 0.00000000000000000000e+00) (0, 0, 0.00000000000000000000e+00) (0, 0, 0.00000000000000000000e+00) (0, 0, 0.00000000000000000000e+00) (0, 0, 0.00000000000000000000e+00) (0, 0, 0.00000000000000000000e+00) (0, 0, 0.00000000000000000000e+00) (0, 0, 0.00000000000000000000e+00) (13, 6, 5.00000000000000000000e-01) (13, 6, 5.00000000000000000000e-01) (13, 6, 5.00000000000000000000e-01) (13, 6, 5.00000000000000000000e-01) (13, 6, 5.00000000000000000000e-01) (13, 6, 5.00000000000000000000e-01) (13, 6, 5.00000000000000000000e-01) (13, 6, 5.00000000000000000000e-01) (13, 6, 5.00000000000000000000e-01) (13, 6, 5.00000000000000000000e-01) (0, 6, 0.00000000000000000000e+00) (11, 6, 5.00000000000000000000e-01) (0, 6, 0.00000000000000000000e+00) 
connections (connected_to_neuron, weight)=(0, 7.68430730965555497392e+00) (1, 3.99277748255328635008e-01) (2, 3.58680905489520529539e-01) (3, 3.85388934700088003904e-01) (4, 4.07487200288371542722e-01) (5, -8.50972800984661326140e+00) (6, 2.59266648027902579798e+00) (7, -1.11183391229828432145e+00) (8, -3.94150114268848550392e-01) (9, -2.12967870381492729859e-02) (10, -1.69609941208172343430e+00) (11, -4.00382648243334582361e+00) (12, -1.70941486899748351647e+00) (0, 8.09483551632319020541e+00) (1, 4.23203757698090432537e-01) (2, 3.20315724904091714276e-01) (3, 3.72034898693116067303e-01) (4, 4.52993779177220223797e-01) (5, -3.43417447879668324973e+00) (6, 5.94174818461260856317e-01) (7, 2.68472916236942804602e-01) (8, -3.89356245873462292195e-01) (9, -2.34929369574227442374e-01) (10, -4.23913326525686973145e-01) (11, -4.10879845850836655785e+00) (12, -4.90052708884744725459e-01) (0, -1.07792608068534612187e+00) (1, 3.25559055013463979900e-02) (2, -4.06388367014123980114e-02) (3, 6.43075232906148291923e-02) (4, 8.54294573468968726493e-02) (5, 9.40573692058582189190e+00) (6, 5.25351403319558651894e-01) (7, -7.59764575139400544224e-01) (8, -5.36970866311827332851e+00) (9, -3.92062670231085430572e-01) (10, 6.73618481657296097609e-01) (11, 2.13669042866484346632e+02) (12, 1.78370722843490092657e-01) (0, 4.10888567408015887850e+01) (1, 6.49922877384353836483e-01) (2, 7.12708584798504074520e-01) (3, 8.24518948627639969295e-01) (4, 7.21885278655220230526e-01) (5, -9.49604220601156789883e+00) (6, -3.64739372143004780824e+00) (7, -2.92014863419843395675e+00) (8, 3.36912903013433684407e+00) (9, -8.41746174912181288619e-01) (10, -1.10384861607989059884e+00) (11, -9.70671552500853884737e+00) (12, 1.59573389304017099199e-01) (0, 1.61004900602608778115e+01) (1, 1.30588442544083993546e+00) (2, 1.25688434104066293351e+00) (3, 1.28083561817746560685e+00) (4, 1.13324153880219857804e+00) (5, -6.12272852382980836694e+00) (6, 4.07737814593969094545e+00) (7, 6.81967714921877465883e+00) (8, 1.00354489747961952162e+03) (9, 3.85743348486688106269e-02) (10, 1.44285621877120373568e+00) (11, 5.12660072339246653428e+02) (12, -2.38745582648685150673e+00) (0, 7.17284604194581909553e+00) (1, 1.00497250504716112429e-01) (2, 1.89137389011605483446e-01) (3, 1.47958298273308974657e-01) (4, 1.14410114534123585894e-01) (5, -1.89307287401366708401e+00) (6, 4.82288339358543449720e+00) (7, 1.05560403153874240445e+01) (8, -4.61977096065002257319e+00) (9, 1.25182552945648133402e+01) (10, 1.98032983798717587831e+00) (11, 8.83757491644248887042e+01) (12, -2.88209348387141917058e+00) (0, 3.72917565829730932592e+01) (1, 5.35292476020136853698e-01) (2, 4.06919683865586190308e-01) (3, 4.98762622080126505342e-01) (4, 5.02235307894030369447e-01) (5, -4.39249736691073611183e+00) (6, 5.52236590563417539812e+00) (7, 8.54827376513704351169e+00) (8, 6.79379365671699133600e+02) (9, -1.37450241560682390185e-01) (10, -1.27304722757732724503e+00) (11, 9.51754260464077560755e+02) (12, -2.43305984373047623492e+00) (0, 3.68184193055288417895e+01) (1, 4.25330688886410512861e-01) (2, 4.53188685409790681380e-01) (3, 4.80162923865086244124e-01) (4, 3.87031836144692220625e-01) (5, -4.45451188335375025673e+00) (6, 5.81816684619238788656e+00) (7, 1.04414528816121219279e+01) (8, 6.79455061752622214044e+02) (9, -2.37556305790885685658e-01) (10, -1.30425960590085598945e+00) (11, 9.51627598060732452723e+02) (12, -2.82178803108042997039e+00) (0, 1.57362821068262803692e+00) (1, -3.08946338062834197080e-03) (2, 8.19349977695409820155e-02) (3, 4.37645781361525459952e-02) (4, 5.99447357975905342764e-02) (5, -1.35926365824512735969e+01) (6, 1.05800026439712020476e+01) (7, -1.08693595845741994288e-01) (8, -5.16074763793857194116e+00) (9, 6.84491402868493969969e-02) (10, 2.04933411003820203922e-01) (11, -7.58469421523698429155e+02) (12, -5.17734452011454737708e-01) (0, 2.47523308021503147813e+01) (1, 5.53322089960950669330e-01) (2, 4.19598018875497191793e-01) (3, 5.20910648754018379414e-01) (4, 5.93449829271215145710e-01) (5, -3.02553796663058749417e+00) (6, 2.20288526431530762295e+00) (7, 1.62097041947288533770e+00) (8, 2.90189997653933540178e+00) (9, -7.28451942201586932768e-01) (10, -6.50324294246881318138e-01) (11, -3.02029589670708409344e+00) (12, -5.21629201703808753621e+00) (13, -4.15866307856149530764e-01) (14, -4.36586379819311753980e-01) (15, 2.54986377821225462803e-01) (16, -5.47621743765001167681e-01) (17, 4.77191273528057069431e-01) (18, 1.01691205478836602105e-01) (19, 5.15233694435692668456e-01) (20, 5.13240336300469279784e-01) (21, -1.50951220836912480827e-01) (22, -4.62633009328695332663e-01) (23, 4.07193980833542690245e-01) 
