FANN_FLO_2.1
num_layers=3
learning_rate=0.700000
connection_rate=1.000000
network_type=0
learning_momentum=0.000000
training_algorithm=2
train_error_function=1
train_stop_function=1
cascade_output_change_fraction=0.010000
quickprop_decay=-0.000100
quickprop_mu=1.750000
rprop_increase_factor=1.200000
rprop_decrease_factor=0.500000
rprop_delta_min=0.000000
rprop_delta_max=50.000000
rprop_delta_zero=0.100000
cascade_output_stagnation_epochs=12
cascade_candidate_change_fraction=0.010000
cascade_candidate_stagnation_epochs=12
cascade_max_out_epochs=150
cascade_min_out_epochs=50
cascade_max_cand_epochs=150
cascade_min_cand_epochs=50
cascade_num_candidate_groups=2
bit_fail_limit=1.00000000000000005551e-01
cascade_candidate_limit=1.00000000000000000000e+03
cascade_weight_multiplier=4.00000000000000022204e-01
cascade_activation_functions_count=10
cascade_activation_functions=3 5 7 8 10 11 14 15 16 17 
cascade_activation_steepnesses_count=4
cascade_activation_steepnesses=2.50000000000000000000e-01 5.00000000000000000000e-01 7.50000000000000000000e-01 1.00000000000000000000e+00 
layer_sizes=12 11 2 
scale_included=0
neurons (num_inputs, activation_function, activation_steepness)=(0, 0, 0.00000000000000000000e+00) (0, 0, 0.00000000000000000000e+00) (0, 0, 0.00000000000000000000e+00) (0, 0, 0.00000000000000000000e+00) (0, 0, 0.00000000000000000000e+00) (0, 0, 0.00000000000000000000e+00) (0, 0, 0.00000000000000000000e+00) (0, 0, 0.00000000000000000000e+00) (0, 0, 0.00000000000000000000e+00) (0, 0, 0.00000000000000000000e+00) (0, 0, 0.00000000000000000000e+00) (0, 0, 0.00000000000000000000e+00) (12, 6, 5.00000000000000000000e-01) (12, 6, 5.00000000000000000000e-01) (12, 6, 5.00000000000000000000e-01) (12, 6, 5.00000000000000000000e-01) (12, 6, 5.00000000000000000000e-01) (12, 6, 5.00000000000000000000e-01) (12, 6, 5.00000000000000000000e-01) (12, 6, 5.00000000000000000000e-01) (12, 6, 5.00000000000000000000e-01) (12, 6, 5.00000000000000000000e-01) (0, 6, 0.00000000000000000000e+00) (11, 6, 5.00000000000000000000e-01) (0, 6, 0.00000000000000000000e+00) 
connections (connected_to_neuron, weight)=(0, -1.98800289265021329355e-03) (1, -3.33627344505041056877e-01) (2, -3.18202310637681951011e-01) (3, -4.40516145364492461844e-01) (4, -4.33481180505006835624e-01) (5, -4.71183721254147869217e+01) (6, 1.20551173099666564248e+00) (7, -7.69850237794218195120e+00) (8, -1.74747637153173691615e+01) (9, 1.60321535708435458645e+00) (10, -3.90696394716252326518e+00) (11, -1.72849501613772937869e-01) (0, 6.46621940172542319925e-02) (1, -3.82394553558080607658e-01) (2, -4.31492940918653533622e-01) (3, -3.38879981474130564933e-01) (4, -3.77281376556604319816e-01) (5, -1.10219906999495208311e+02) (6, 1.29073783466011016152e+00) (7, -7.69558737553653848806e+00) (8, -1.74262754895294911250e+01) (9, 1.26416244367366270573e+00) (10, -4.20149400985557264221e+00) (11, -2.02195417213645839416e-01) (0, 7.98793518858478684974e-02) (1, 3.80857177139493838225e-02) (2, -1.86112485765245437574e-02) (3, 1.05668235576269323173e-01) (4, 1.32916141307470508925e-01) (5, 9.42188670499260716440e+00) (6, -3.20223524278082649630e+00) (7, 1.03867448292298014678e+01) (8, 1.89752205921432697266e+01) (9, -5.24234587983425925906e-01) (10, 2.61850295589220238845e-01) (11, 1.98095306021992517698e-01) (0, 2.50675107847242317760e+00) (1, 7.49424315294649812103e-01) (2, 7.57725126346972199798e-01) (3, 7.18575290641215058685e-01) (4, 6.98357722958948823333e-01) (5, 4.88948146347966385861e+01) (6, 1.20975223398002356134e+01) (7, -2.62123053170023023739e+00) (8, 9.01797747090561152561e+00) (9, -3.20829670797718236042e-01) (10, 2.67090987544756375272e+00) (11, -1.38761568323189443674e+00) (0, 2.41476002644090614879e+00) (1, 7.69835881194498750091e-01) (2, 7.63712517222788545013e-01) (3, 6.75072460672285767913e-01) (4, 6.94086498817827912688e-01) (5, 4.89461098630991173764e+01) (6, 1.20571718914600580774e+01) (7, -2.39864381172419571797e+00) (8, 9.07035474702818156345e+00) (9, -3.67696650247705647541e-01) (10, 1.98001551371198969420e+00) (11, -1.12206592919680447906e+00) (0, -5.92245639040653415464e-01) (1, -2.55512899467462029079e-01) (2, -2.17877751895898252865e-01) (3, -3.86511883446687187771e-01) (4, -2.63488298961633116146e-01) (5, 2.59516199804139757745e+00) (6, 3.97978770922024494006e-01) (7, 2.40393702257269081812e+00) (8, 1.84252189127425292092e+00) (9, 6.56262974424702383303e-01) (10, 5.57838935949661829383e-01) (11, 1.12728304726072148245e-01) (0, 9.71522864687719511778e+00) (1, 3.07254048530753609558e-01) (2, 3.12964955811198708435e-01) (3, 2.68173562829192746459e-01) (4, 2.07947174553569452682e-01) (5, -4.07690928994418655407e+00) (6, -1.24047380192741130145e+00) (7, -8.28393582089900326615e-01) (8, -2.14872718176602583995e+00) (9, -9.63968716660974833665e-01) (10, -4.15744619307416396481e+00) (11, 4.85912206265952828499e-01) (0, -2.65849866789676436696e+00) (1, -3.87413571113339683105e-01) (2, -3.63331171208611747314e-01) (3, -3.54667457276574338287e-01) (4, -3.33587421560279040467e-01) (5, -1.10245174026813685941e+02) (6, 8.98783307798969310909e-01) (7, -5.48918302418762316108e+00) (8, -1.74200022385026223048e+01) (9, 2.65563344754028740624e+00) (10, -6.02411323937139009388e+00) (11, 2.61327512448821797086e-01) (0, 9.54317814100065575644e+00) (1, 3.41579228706144877314e-01) (2, 2.98477865822100341120e-01) (3, 2.84802116520189940729e-01) (4, 3.02927754885935485163e-01) (5, -4.25337184881306118456e+00) (6, -1.19858416421874736102e+00) (7, -1.02996189175332331089e+00) (8, -1.76022139843737224219e+00) (9, -1.66443107235826825985e+00) (10, -3.32009343712548909977e+00) (11, 5.00286097256052664228e-01) (0, -6.93052566777016476607e+00) (1, -1.85725256681680189752e-01) (2, -2.73984998345612962289e-01) (3, -2.83850729346513230844e-01) (4, -3.65282185256719071909e-01) (5, 3.13421494307542092272e+00) (6, 8.31851508754971602499e-01) (7, 1.65047091276539892313e+00) (8, 1.36170875234732458026e+00) (9, 1.20594854293721320815e+00) (10, 2.06459253098482253819e+00) (11, -1.89536319888618992602e-01) (12, -2.78404050916331441412e-02) (13, -5.60328060239451489211e-02) (14, 3.09659796568539646966e-01) (15, 4.88169754554827695081e-01) (16, 4.76379397375409074922e-01) (17, 7.09975962275960936765e-01) (18, -2.21290634814075570791e-01) (19, -9.24062170822710221563e-02) (20, -2.57634924593738656728e-01) (21, 7.30956514140029822713e-01) (22, 5.80965880064004847050e-01) 
