FANN_FLO_2.1
num_layers=3
learning_rate=0.700000
connection_rate=1.000000
network_type=0
learning_momentum=0.000000
training_algorithm=2
train_error_function=1
train_stop_function=1
cascade_output_change_fraction=0.010000
quickprop_decay=-0.000100
quickprop_mu=1.750000
rprop_increase_factor=1.200000
rprop_decrease_factor=0.500000
rprop_delta_min=0.000000
rprop_delta_max=50.000000
rprop_delta_zero=0.100000
cascade_output_stagnation_epochs=12
cascade_candidate_change_fraction=0.010000
cascade_candidate_stagnation_epochs=12
cascade_max_out_epochs=150
cascade_min_out_epochs=50
cascade_max_cand_epochs=150
cascade_min_cand_epochs=50
cascade_num_candidate_groups=2
bit_fail_limit=1.00000000000000005551e-01
cascade_candidate_limit=1.00000000000000000000e+03
cascade_weight_multiplier=4.00000000000000022204e-01
cascade_activation_functions_count=10
cascade_activation_functions=3 5 7 8 10 11 14 15 16 17 
cascade_activation_steepnesses_count=4
cascade_activation_steepnesses=2.50000000000000000000e-01 5.00000000000000000000e-01 7.50000000000000000000e-01 1.00000000000000000000e+00 
layer_sizes=13 11 2 
scale_included=0
neurons (num_inputs, activation_function, activation_steepness)=(0, 0, 0.00000000000000000000e+00) (0, 0, 0.00000000000000000000e+00) (0, 0, 0.00000000000000000000e+00) (0, 0, 0.00000000000000000000e+00) (0, 0, 0.00000000000000000000e+00) (0, 0, 0.00000000000000000000e+00) (0, 0, 0.00000000000000000000e+00) (0, 0, 0.00000000000000000000e+00) (0, 0, 0.00000000000000000000e+00) (0, 0, 0.00000000000000000000e+00) (0, 0, 0.00000000000000000000e+00) (0, 0, 0.00000000000000000000e+00) (0, 0, 0.00000000000000000000e+00) (13, 6, 5.00000000000000000000e-01) (13, 6, 5.00000000000000000000e-01) (13, 6, 5.00000000000000000000e-01) (13, 6, 5.00000000000000000000e-01) (13, 6, 5.00000000000000000000e-01) (13, 6, 5.00000000000000000000e-01) (13, 6, 5.00000000000000000000e-01) (13, 6, 5.00000000000000000000e-01) (13, 6, 5.00000000000000000000e-01) (13, 6, 5.00000000000000000000e-01) (0, 6, 0.00000000000000000000e+00) (11, 6, 5.00000000000000000000e-01) (0, 6, 0.00000000000000000000e+00) 
connections (connected_to_neuron, weight)=(0, -3.45996611473722917585e-02) (1, -1.54367061958473494876e-01) (2, -1.58791335926216414798e-01) (3, -4.94994322516139340085e-02) (4, -1.70808027193706801761e-01) (5, 2.24419457368636710015e+00) (6, -6.83689873118006219421e-01) (7, -1.43767731245721264166e+00) (8, -5.02217893385228464354e+00) (9, 9.04032955100951607363e-01) (10, -1.36752755320851928644e+01) (11, 3.10078192468842106511e-01) (12, 1.65362332646370957523e-01) (0, 2.22910612992127221688e+00) (1, 5.88466812970661279358e-01) (2, 6.17626411023162957825e-01) (3, 7.41187636854671483277e-01) (4, 5.52380171718620638366e-01) (5, -2.03741361344346527673e+00) (6, -3.86423436235671458050e+00) (7, -5.76468802914228084511e-01) (8, 3.27366209838145572064e-01) (9, -7.35049785488726237226e-01) (10, -3.64174985071863588360e+00) (11, -2.12169412232592824452e+00) (12, 7.29445849273584356887e-01) (0, 4.02683027240680169179e-01) (1, -2.79990573498964945287e-02) (2, 2.28225598957776387721e-02) (3, -1.42823373052836065378e-02) (4, 1.10485489394902582083e-02) (5, -9.02879033206822056989e-01) (6, -5.16419519408527207815e+01) (7, 2.02842934591141554890e+00) (8, 3.88276928264318921258e-01) (9, 1.07151943035978414187e+00) (10, -1.44423757536327523887e+00) (11, -5.72118599333297161991e+00) (12, -9.54904278010371837526e-02) (0, 1.84544810385899404892e+00) (1, 5.61404747071289511595e-01) (2, 5.55447396936439852233e-01) (3, 6.63428281548046117067e-01) (4, 7.22709958555721287965e-01) (5, -2.47878856169783245988e+00) (6, -1.80742106931236490297e+00) (7, -6.26682016068352054639e-01) (8, -2.29065736298293520790e-01) (9, -2.09624610215177487049e+00) (10, -3.18556397223642706606e+00) (11, -1.63123026233200985047e+00) (12, 8.03576846236320418981e-01) (0, 4.29791857897573015279e-01) (1, 4.13546639290134798728e-01) (2, 4.59107684698383700095e-01) (3, 5.04017988946716677390e-01) (4, 5.08998836186211001120e-01) (5, -4.18699468790751616609e+00) (6, 9.97938593281821795244e+01) (7, 1.07599133859662243751e+00) (8, 5.18929787889448590477e+00) (9, -1.83365269997389601642e+00) (10, 1.51095856722870731659e+01) (11, 7.39632122142758507977e+00) (12, -1.28084568462199621663e-01) (0, 2.08071053771074987448e-01) (1, 1.02348867957641337378e-01) (2, -1.01311317038042681543e-02) (3, -5.04288858127100586559e-02) (4, -2.87028177034361620112e-02) (5, 7.65662470336524320080e-02) (6, -2.30803057103629214453e+01) (7, 6.26143056733149627746e-01) (8, 2.85231555642552536689e-01) (9, 9.82448484381619357997e-01) (10, -9.52356703575054086564e-01) (11, -3.13911511138203058735e+00) (12, -1.19485954508905506399e-01) (0, 3.29012394694383980553e-01) (1, -3.04731147336618872490e-02) (2, 3.05079242241723565254e-02) (3, 8.97866433513505451947e-02) (4, -3.68680599805282531098e-03) (5, 5.76963627214995694592e-02) (6, -2.30732882953460318731e+01) (7, 5.69479357285040954650e-01) (8, 3.07357340897964348425e-01) (9, 9.87116407236042880946e-01) (10, -6.85375735340424507847e-01) (11, -3.04069528862955484882e+00) (12, -8.21185025728989603788e-02) (0, -3.56599130206694037160e-01) (1, -5.04023164435016476914e-02) (2, 1.96117952541721984883e-02) (3, 1.39842376188648830071e-02) (4, -1.94631472154246712436e-02) (5, 2.21496681167128173229e+00) (6, -2.16046576721002736576e+00) (7, 5.56390853441624755327e-01) (8, -1.87679895382806605220e-01) (9, 1.45580290144414714604e+00) (10, -7.19753061616315803484e-01) (11, 3.65540241249214470365e-01) (12, 3.25636077975016036135e-01) (0, 3.73997114750789116933e-01) (1, -1.20111917230845098581e-02) (2, -2.54514020952940553388e-02) (3, -2.94175361368418375463e-02) (4, 5.02844388511418660670e-02) (5, -9.17667496918560643415e-01) (6, -5.16323156355801415884e+01) (7, 1.95784205732312988069e+00) (8, 4.76971410002622608904e-01) (9, 1.14915451743263341555e+00) (10, -1.50675217826952345668e+00) (11, -5.87612028922354223681e+00) (12, 2.18271444350239193777e-02) (0, 2.11497291348059457405e+00) (1, 5.36070832373471195531e-01) (2, 6.08466715874046992774e-01) (3, 5.13903514804215699741e-01) (4, 6.35733926059574794287e-01) (5, -2.03969226374659440282e+00) (6, -1.35451768134718064651e+00) (7, -7.57581721713355249470e-01) (8, 3.12558354497511681203e-01) (9, -3.40328209672683001941e+00) (10, -2.75192919375624045486e+00) (11, -1.85492916357705150965e+00) (12, 5.06196560966976405460e-01) (13, -2.11779174773018025180e-01) (14, -3.13710889066978970696e-01) (15, -2.23728274063361654012e-01) (16, -2.48675061158889876278e-01) (17, 6.82777014600893017437e-01) (18, -1.78399346170224987196e-01) (19, -2.47295109182067956999e-01) (20, 8.47901825584694179838e-01) (21, -2.10324329392207631795e-01) (22, -2.76950735214761045722e-01) (23, 3.24716392843144574520e-01) 
