FANN_FLO_2.1
num_layers=3
learning_rate=0.700000
connection_rate=1.000000
network_type=0
learning_momentum=0.000000
training_algorithm=2
train_error_function=1
train_stop_function=1
cascade_output_change_fraction=0.010000
quickprop_decay=-0.000100
quickprop_mu=1.750000
rprop_increase_factor=1.200000
rprop_decrease_factor=0.500000
rprop_delta_min=0.000000
rprop_delta_max=50.000000
rprop_delta_zero=0.100000
cascade_output_stagnation_epochs=12
cascade_candidate_change_fraction=0.010000
cascade_candidate_stagnation_epochs=12
cascade_max_out_epochs=150
cascade_min_out_epochs=50
cascade_max_cand_epochs=150
cascade_min_cand_epochs=50
cascade_num_candidate_groups=2
bit_fail_limit=1.00000000000000005551e-01
cascade_candidate_limit=1.00000000000000000000e+03
cascade_weight_multiplier=4.00000000000000022204e-01
cascade_activation_functions_count=10
cascade_activation_functions=3 5 7 8 10 11 14 15 16 17 
cascade_activation_steepnesses_count=4
cascade_activation_steepnesses=2.50000000000000000000e-01 5.00000000000000000000e-01 7.50000000000000000000e-01 1.00000000000000000000e+00 
layer_sizes=9 11 2 
scale_included=0
neurons (num_inputs, activation_function, activation_steepness)=(0, 0, 0.00000000000000000000e+00) (0, 0, 0.00000000000000000000e+00) (0, 0, 0.00000000000000000000e+00) (0, 0, 0.00000000000000000000e+00) (0, 0, 0.00000000000000000000e+00) (0, 0, 0.00000000000000000000e+00) (0, 0, 0.00000000000000000000e+00) (0, 0, 0.00000000000000000000e+00) (0, 0, 0.00000000000000000000e+00) (9, 6, 5.00000000000000000000e-01) (9, 6, 5.00000000000000000000e-01) (9, 6, 5.00000000000000000000e-01) (9, 6, 5.00000000000000000000e-01) (9, 6, 5.00000000000000000000e-01) (9, 6, 5.00000000000000000000e-01) (9, 6, 5.00000000000000000000e-01) (9, 6, 5.00000000000000000000e-01) (9, 6, 5.00000000000000000000e-01) (9, 6, 5.00000000000000000000e-01) (0, 6, 0.00000000000000000000e+00) (11, 6, 5.00000000000000000000e-01) (0, 6, 0.00000000000000000000e+00) 
connections (connected_to_neuron, weight)=(0, 2.14422579276879687882e+00) (1, 3.11327319232073962407e-01) (2, 2.99058612075892737980e-01) (3, 2.93602224079219098485e-01) (4, 3.12776546565142810064e-01) (5, 1.42274327361122976399e+00) (6, -8.49498596730733690485e-01) (7, 2.79529699798320929727e-01) (8, 2.43091345210598053228e-01) (0, 1.33954030674839880133e-01) (1, 2.86429099356011795940e-01) (2, 3.35000209127740256054e-01) (3, 2.78357401107625412884e-01) (4, 2.75503165637330460491e-01) (5, 1.68669452651393605436e+01) (6, 4.50218117741655010633e+00) (7, 2.84409820184211292737e-01) (8, -1.41822082851697217620e+00) (0, 2.05847866255362887955e+00) (1, 3.63770346728411853032e-01) (2, 3.40458538023081958013e-01) (3, 3.53809523967353045659e-01) (4, 2.65289011982527966893e-01) (5, 1.41296623432175505464e+00) (6, -8.23424529972577867731e-01) (7, 3.34105711641415725754e-01) (8, 1.60897346864214245421e-02) (0, -8.39841153442493570935e+00) (1, -1.59107633735653924978e-01) (2, -2.72766054477211972173e-01) (3, -2.52436444963929307317e-01) (4, -2.64143013264653336858e-01) (5, 2.59638595346719558421e+00) (6, 1.22403456504051932896e+00) (7, 3.07657590076489406705e-01) (8, -4.92001192424161071237e-01) (0, 2.21595438806958144884e-01) (1, -2.27755511114241360193e-01) (2, -2.12102526733519314295e-01) (3, -1.89600275764109371668e-01) (4, -1.41726592490317104822e-01) (5, 5.80312690405180742204e-01) (6, 9.78872496189297058855e-01) (7, -6.00489230997085621233e-01) (8, -3.83265057481622428703e-01) (0, 3.58866201645389981678e+00) (1, 4.03105675886053615997e-01) (2, 3.28753247568983719695e-01) (3, 3.84515523622412258575e-01) (4, 4.12323169122118526886e-01) (5, 2.21405420546655484770e+00) (6, -1.43268291095884348074e+00) (7, 5.97456494899879175797e-01) (8, -1.32354142872687152721e-01) (0, 2.24249542671760027090e+00) (1, 2.63286668447104688084e-01) (2, 3.87474152830687701421e-01) (3, 4.22814864305106341558e-01) (4, 4.00027218845931231694e-01) (5, 1.45161799871460805988e+00) (6, -8.29199445190931139216e-01) (7, 3.40811626728271754860e-01) (8, -7.51846907009611209460e-02) (0, -5.69785524915760710485e+00) (1, -2.26163461896112832905e-01) (2, -1.39652334245375042698e-01) (3, -1.18956767114332506718e-01) (4, -1.31536416801145916722e-01) (5, 2.12388068488145975721e+00) (6, 1.44672567421571640622e+00) (7, 2.40014755556567094263e-01) (8, -1.16510571544401120292e+00) (0, -1.72190524456577814805e-01) (1, 1.74868477307770081586e-01) (2, 1.35790759553645300206e-02) (3, 1.31953118168327609983e-01) (4, 1.73689527236435242719e-01) (5, -1.91448426796226867097e+00) (6, 7.31659901695165815205e-01) (7, -2.94417061581386363400e-01) (8, 3.87769163150269324802e-01) (0, 1.25853217450699315094e+01) (1, 4.25343598964923297334e-01) (2, 4.54378809574359332490e-01) (3, 4.44711167159789477754e-01) (4, 4.18577860835307513643e-01) (5, -5.46775113101816323535e+00) (6, -7.14504231825373814502e-01) (7, -2.06630178357539162626e-01) (8, 9.87418395088556333228e-01) (9, 4.13467722634570211682e-01) (10, -5.45991031536476600916e-02) (11, 3.02537736733022533109e-01) (12, 5.26070656758065968717e-01) (13, 3.55191318792603016874e-01) (14, 3.52278731505619335795e-01) (15, 3.65349454124036521208e-01) (16, 9.14346390868764569149e-01) (17, 1.87709568132691517750e-01) (18, -2.42631886023714965495e-01) (19, 4.51844175596299857389e-01) 
