FANN_FLO_2.1
num_layers=3
learning_rate=0.700000
connection_rate=1.000000
network_type=0
learning_momentum=0.000000
training_algorithm=2
train_error_function=1
train_stop_function=1
cascade_output_change_fraction=0.010000
quickprop_decay=-0.000100
quickprop_mu=1.750000
rprop_increase_factor=1.200000
rprop_decrease_factor=0.500000
rprop_delta_min=0.000000
rprop_delta_max=50.000000
rprop_delta_zero=0.100000
cascade_output_stagnation_epochs=12
cascade_candidate_change_fraction=0.010000
cascade_candidate_stagnation_epochs=12
cascade_max_out_epochs=150
cascade_min_out_epochs=50
cascade_max_cand_epochs=150
cascade_min_cand_epochs=50
cascade_num_candidate_groups=2
bit_fail_limit=1.00000000000000005551e-01
cascade_candidate_limit=1.00000000000000000000e+03
cascade_weight_multiplier=4.00000000000000022204e-01
cascade_activation_functions_count=10
cascade_activation_functions=3 5 7 8 10 11 14 15 16 17 
cascade_activation_steepnesses_count=4
cascade_activation_steepnesses=2.50000000000000000000e-01 5.00000000000000000000e-01 7.50000000000000000000e-01 1.00000000000000000000e+00 
layer_sizes=6 4 2 
scale_included=0
neurons (num_inputs, activation_function, activation_steepness)=(0, 0, 0.00000000000000000000e+00) (0, 0, 0.00000000000000000000e+00) (0, 0, 0.00000000000000000000e+00) (0, 0, 0.00000000000000000000e+00) (0, 0, 0.00000000000000000000e+00) (0, 0, 0.00000000000000000000e+00) (6, 6, 5.00000000000000000000e-01) (6, 6, 5.00000000000000000000e-01) (6, 6, 5.00000000000000000000e-01) (0, 6, 0.00000000000000000000e+00) (4, 4, 5.00000000000000000000e-01) (0, 4, 0.00000000000000000000e+00) 
connections (connected_to_neuron, weight)=(0, 2.40830438296336923898e+00) (1, -4.25701628875078785796e+00) (2, -1.15808518762367729238e+01) (3, 3.29598901703200442004e-01) (4, -7.23029533052354955736e-01) (5, 4.23792873521855906205e+00) (0, -4.94342660046497961446e+00) (1, 3.94654596869485496669e+00) (2, 9.70252224779755501061e+00) (3, 1.14734384610230422119e+00) (4, -6.08027299600910442479e+00) (5, -2.69020857895220677491e+00) (0, 9.02385035286762532403e-02) (1, -3.05793575940892625731e-01) (2, -2.37731981645075851617e+00) (3, -1.79630763642354907006e+00) (4, 5.83248704701553322138e-01) (5, 1.23818559441299025359e+00) (6, -1.47307748485284850659e+01) (7, 2.26448382835871830920e+00) (8, 2.36721114092093820602e+01) (9, -3.32129554844950636294e+00) 
