FANN_FLO_2.1
num_layers=3
learning_rate=0.700000
connection_rate=1.000000
network_type=0
learning_momentum=0.000000
training_algorithm=2
train_error_function=1
train_stop_function=1
cascade_output_change_fraction=0.010000
quickprop_decay=-0.000100
quickprop_mu=1.750000
rprop_increase_factor=1.200000
rprop_decrease_factor=0.500000
rprop_delta_min=0.000000
rprop_delta_max=50.000000
rprop_delta_zero=0.100000
cascade_output_stagnation_epochs=12
cascade_candidate_change_fraction=0.010000
cascade_candidate_stagnation_epochs=12
cascade_max_out_epochs=150
cascade_min_out_epochs=50
cascade_max_cand_epochs=150
cascade_min_cand_epochs=50
cascade_num_candidate_groups=2
bit_fail_limit=1.00000000000000005551e-01
cascade_candidate_limit=1.00000000000000000000e+03
cascade_weight_multiplier=4.00000000000000022204e-01
cascade_activation_functions_count=10
cascade_activation_functions=3 5 7 8 10 11 14 15 16 17 
cascade_activation_steepnesses_count=4
cascade_activation_steepnesses=2.50000000000000000000e-01 5.00000000000000000000e-01 7.50000000000000000000e-01 1.00000000000000000000e+00 
layer_sizes=20 11 2 
scale_included=0
neurons (num_inputs, activation_function, activation_steepness)=(0, 0, 0.00000000000000000000e+00) (0, 0, 0.00000000000000000000e+00) (0, 0, 0.00000000000000000000e+00) (0, 0, 0.00000000000000000000e+00) (0, 0, 0.00000000000000000000e+00) (0, 0, 0.00000000000000000000e+00) (0, 0, 0.00000000000000000000e+00) (0, 0, 0.00000000000000000000e+00) (0, 0, 0.00000000000000000000e+00) (0, 0, 0.00000000000000000000e+00) (0, 0, 0.00000000000000000000e+00) (0, 0, 0.00000000000000000000e+00) (0, 0, 0.00000000000000000000e+00) (0, 0, 0.00000000000000000000e+00) (0, 0, 0.00000000000000000000e+00) (0, 0, 0.00000000000000000000e+00) (0, 0, 0.00000000000000000000e+00) (0, 0, 0.00000000000000000000e+00) (0, 0, 0.00000000000000000000e+00) (0, 0, 0.00000000000000000000e+00) (20, 6, 5.00000000000000000000e-01) (20, 6, 5.00000000000000000000e-01) (20, 6, 5.00000000000000000000e-01) (20, 6, 5.00000000000000000000e-01) (20, 6, 5.00000000000000000000e-01) (20, 6, 5.00000000000000000000e-01) (20, 6, 5.00000000000000000000e-01) (20, 6, 5.00000000000000000000e-01) (20, 6, 5.00000000000000000000e-01) (20, 6, 5.00000000000000000000e-01) (0, 6, 0.00000000000000000000e+00) (11, 6, 5.00000000000000000000e-01) (0, 6, 0.00000000000000000000e+00) 
connections (connected_to_neuron, weight)=(0, -1.86347662575989869715e+00) (1, -2.48926340267541845730e-01) (2, -1.97367298081997100123e-01) (3, -2.28291070685270436336e-01) (4, -1.28607182428720573375e-01) (5, -2.39204474784525028541e-01) (6, 6.01497215130422202556e-01) (7, 8.03024768459284638000e-02) (8, 3.31640667909190689500e+00) (9, 7.44625995356273828740e-01) (10, -1.19878338469863870985e-01) (11, -1.06256982566937858792e+03) (12, 2.30965118711862066325e-02) (13, 7.39139021922934902342e-01) (14, 3.54976547224174643347e+00) (15, 2.08777764465039705755e+00) (16, 1.77650356602164460895e+00) (17, 4.01585399337382464857e-01) (18, -1.90344389395163370027e-02) (19, -3.74720128691945708610e-01) (0, 2.58917402416015596245e+00) (1, 3.98949483413035210777e-01) (2, 3.84087553251320656944e-01) (3, 4.77370353419119652916e-01) (4, 5.23497061807448815784e-01) (5, 7.44847310273771823219e-01) (6, 4.62381753341049606121e+00) (7, 3.95835351576777461080e-01) (8, 4.29325180298036457316e+01) (9, 5.87809220093134072727e+01) (10, -3.65703707613262984921e-02) (11, -7.89295505264243058008e+00) (12, -2.64415026676898867741e-01) (13, 9.18340404568465373814e+00) (14, 4.14172001292279006179e+01) (15, 1.14251786248591269413e+00) (16, 5.08940510256548428458e+00) (17, 1.45921470184638057965e+00) (18, 8.40345163859172572529e-01) (19, -1.27580982413456300861e+00) (0, 6.26692928824258532750e-01) (1, 4.42113235480802030386e-02) (2, -8.44983652346117664056e-02) (3, 1.01760204125167591505e-01) (4, -4.52179990820868044077e-02) (5, -8.98895150335441567302e-03) (6, 7.28534607882130435391e-03) (7, -2.52012137229429659946e-02) (8, -1.87534834985342264702e+01) (9, -5.27525029789098987010e-01) (10, 5.23963626663418863272e-02) (11, 3.37482668820391218389e+00) (12, -1.23568164130402668999e-01) (13, -2.04861236698054272054e+00) (14, -5.80652169864114231501e+00) (15, -7.41015738332293860680e+00) (16, -6.77639985693581525794e-01) (17, -1.00885755260491927210e-01) (18, 1.66490117710900775716e-01) (19, -1.48682101020787577061e-01) (0, -4.27453387741628461072e+01) (1, -1.85707344916622663078e-01) (2, -2.53386362698833689233e-01) (3, -1.01567483750145390320e-01) (4, -1.05381182637970402527e-01) (5, -9.15378742114743640390e-03) (6, 3.53707559350508460305e-01) (7, 2.16115017324248648301e-01) (8, 1.57073470210065591068e+00) (9, 1.02918383630942322782e+00) (10, 1.39261172345971107056e+00) (11, 1.79977688255209011814e+00) (12, 1.34006323854231368387e+00) (13, -6.95325062401027538250e-01) (14, 2.04837766998070724966e+00) (15, 6.18955775260079721356e-01) (16, 8.10123075554828986355e-01) (17, 4.39260071584747058271e-01) (18, -1.61380905490802195601e-02) (19, -1.13681006967032405264e+00) (0, 9.39802076062408620061e-01) (1, -5.71878720830047444085e-03) (2, 2.75851888506594630779e-02) (3, 1.05455788776177547539e-01) (4, -1.50027619750317600666e-02) (5, 1.51129437616228740060e-01) (6, -1.26475898740428423228e-02) (7, 1.37770889923262890298e-01) (8, -4.24931360845979284591e+01) (9, 3.43080951537684475383e-01) (10, 3.14877869462706572179e-01) (11, 5.22579452093988461314e+00) (12, 4.94665858654178447473e-01) (13, -2.54476300437155744660e+00) (14, -5.77694255273505419268e+01) (15, -1.09872885257227892453e+01) (16, -3.34305481756678735117e-01) (17, -4.89748504457006919588e-02) (18, 1.28861504818215594215e-01) (19, -1.46379008965947160492e-01) (0, 2.66495550801536884578e+00) (1, 1.00729717299144616582e+00) (2, 9.02056507615260017019e-01) (3, 9.29421678034476173025e-01) (4, 9.05009589938334357839e-01) (5, 1.50399317119549169597e+00) (6, 8.46451310116826327601e+00) (7, 1.88221003307211320887e+00) (8, 4.24045493283862455769e+01) (9, 5.78282162580416496667e+01) (10, -6.35027897054272116861e+00) (11, -8.46781753046312957167e+00) (12, -7.48292308825033103403e+00) (13, 7.40283568875592123959e+00) (14, 3.39264529910606356111e+01) (15, -3.12656873319968386937e-01) (16, 2.90037739300137120679e+00) (17, 1.07021664176267279345e+01) (18, 3.43904932867192814072e+00) (19, 2.30919817728067622298e+00) (0, 7.15443600679464086767e+00) (1, 3.88958695255249231604e-01) (2, 4.15683689437835901526e-01) (3, 4.05043813310592859533e-01) (4, 3.17006896160572260168e-01) (5, 7.04846639773041627741e-01) (6, 8.55022661485952517602e-01) (7, 3.61525604034320380276e-01) (8, 8.16910613251336314988e+01) (9, 5.86600995123540442933e+01) (10, -1.35182827109185899062e+00) (11, -7.54795507327195736025e+00) (12, -4.79111512674315509486e-01) (13, 9.26109641426909924178e+00) (14, 1.72796117057109341886e+01) (15, 3.61159668996443250499e-01) (16, 5.26220152449621192403e+00) (17, 2.14090266742425194835e+00) (18, 1.71809750673157046741e+00) (19, -1.29913726733706580418e+00) (0, -1.06528880303333828294e+01) (1, -1.74162391528211113467e-01) (2, -2.14446749493203636661e-01) (3, -1.12486395939908431774e-01) (4, -1.02739755019269393688e-01) (5, -6.78011306513446182498e-02) (6, 2.91410108706036008464e-01) (7, 1.42250104013386918789e-01) (8, 1.40048574948888182590e+00) (9, 4.56077738427950518663e-01) (10, 1.25843306783156760886e+00) (11, 1.49664979131744546592e+00) (12, 1.54377305864049541029e+00) (13, 4.91238773218626634254e-01) (14, 1.70833172073422612236e+00) (15, 5.87924044486845098767e-01) (16, 9.98257153774288696901e-01) (17, 4.68685713337304854509e-02) (18, 1.37764641251802461008e-01) (19, -1.59343132360000749870e+00) (0, -1.76504596052644124882e+01) (1, -1.45749566307351530181e-01) (2, -1.05973650863454088578e-01) (3, -2.02404198398873746978e-01) (4, -1.67994876554295985427e-01) (5, -5.36934966073580668966e-02) (6, 1.52240297345878128343e-01) (7, 3.29332350364697712397e-01) (8, 1.75259978813912664641e+00) (9, 7.68372524574337134595e-01) (10, 2.80908396576509344911e+00) (11, 1.65020808640788652077e+00) (12, 2.76239608609873465994e+00) (13, 4.32502418530980703437e-01) (14, 1.74297405974771546511e+00) (15, 6.49446431117643885322e-01) (16, 7.63685098684040997163e-01) (17, 2.09595958731083137350e-01) (18, 7.39204328185700827031e-03) (19, -3.78116649155764017465e+00) (0, -1.10604710047261889372e+00) (1, -1.83112351036067350085e-01) (2, -5.20073862731412067673e-02) (3, -1.53737442380185412860e-01) (4, -6.81309195220426294659e-02) (5, -2.84797585831639034348e-02) (6, -1.24697418072255331034e-01) (7, -1.09943936367365380224e-01) (8, 5.03133810068011166905e-01) (9, 5.38489552899061196811e-01) (10, -3.05608641513838118209e-02) (11, 4.84686526268826689545e+00) (12, 9.77076678306862053680e-03) (13, 4.82818500237479075743e-01) (14, 1.20065980262061788864e+00) (15, 1.00493665776349128116e+00) (16, 3.91552375207362080012e-01) (17, -7.01723757735940451008e-02) (18, -7.75740921650258652420e-02) (19, -2.95297658830386056117e-01) (20, -9.99397048173940927285e-01) (21, 1.57444954281555249409e-01) (22, -3.00334208461460139272e-01) (23, 4.33865772955803918887e-01) (24, -3.48920466228160308653e-01) (25, 1.59432262871601837517e-01) (26, 2.05032767056926024107e-01) (27, 6.95804835154275602704e-01) (28, 3.73379824545446936668e-01) (29, 3.42412411977851771638e-01) (30, 5.34540114405275601506e-01) 
