FANN_FLO_2.1
num_layers=3
learning_rate=0.700000
connection_rate=1.000000
network_type=0
learning_momentum=0.000000
training_algorithm=2
train_error_function=1
train_stop_function=1
cascade_output_change_fraction=0.010000
quickprop_decay=-0.000100
quickprop_mu=1.750000
rprop_increase_factor=1.200000
rprop_decrease_factor=0.500000
rprop_delta_min=0.000000
rprop_delta_max=50.000000
rprop_delta_zero=0.100000
cascade_output_stagnation_epochs=12
cascade_candidate_change_fraction=0.010000
cascade_candidate_stagnation_epochs=12
cascade_max_out_epochs=150
cascade_min_out_epochs=50
cascade_max_cand_epochs=150
cascade_min_cand_epochs=50
cascade_num_candidate_groups=2
bit_fail_limit=1.00000000000000005551e-01
cascade_candidate_limit=1.00000000000000000000e+03
cascade_weight_multiplier=4.00000000000000022204e-01
cascade_activation_functions_count=10
cascade_activation_functions=3 5 7 8 10 11 14 15 16 17 
cascade_activation_steepnesses_count=4
cascade_activation_steepnesses=2.50000000000000000000e-01 5.00000000000000000000e-01 7.50000000000000000000e-01 1.00000000000000000000e+00 
layer_sizes=14 11 2 
scale_included=0
neurons (num_inputs, activation_function, activation_steepness)=(0, 0, 0.00000000000000000000e+00) (0, 0, 0.00000000000000000000e+00) (0, 0, 0.00000000000000000000e+00) (0, 0, 0.00000000000000000000e+00) (0, 0, 0.00000000000000000000e+00) (0, 0, 0.00000000000000000000e+00) (0, 0, 0.00000000000000000000e+00) (0, 0, 0.00000000000000000000e+00) (0, 0, 0.00000000000000000000e+00) (0, 0, 0.00000000000000000000e+00) (0, 0, 0.00000000000000000000e+00) (0, 0, 0.00000000000000000000e+00) (0, 0, 0.00000000000000000000e+00) (0, 0, 0.00000000000000000000e+00) (14, 6, 5.00000000000000000000e-01) (14, 6, 5.00000000000000000000e-01) (14, 6, 5.00000000000000000000e-01) (14, 6, 5.00000000000000000000e-01) (14, 6, 5.00000000000000000000e-01) (14, 6, 5.00000000000000000000e-01) (14, 6, 5.00000000000000000000e-01) (14, 6, 5.00000000000000000000e-01) (14, 6, 5.00000000000000000000e-01) (14, 6, 5.00000000000000000000e-01) (0, 6, 0.00000000000000000000e+00) (11, 6, 5.00000000000000000000e-01) (0, 6, 0.00000000000000000000e+00) 
connections (connected_to_neuron, weight)=(0, -3.13155868416640137397e+00) (1, -3.00216768042485981915e-01) (2, -2.17756617919843492581e-01) (3, -2.70760957257192291792e-01) (4, -3.91944732622545033429e-01) (5, 8.41093577199169883940e-01) (6, 7.66302130698431227529e-01) (7, 6.52747584531280788944e-01) (8, 7.33603053782930003557e-01) (9, -7.42787094758293742203e-01) (10, 4.41752349568054913931e+00) (11, -1.38934313293882083507e+00) (12, 8.02535346127819293471e-01) (13, 1.16488500527342137003e-01) (0, -6.34798728301325176915e+00) (1, -3.71360846630779617428e-01) (2, -2.28571121416536598980e-01) (3, -2.52794985495058299740e-01) (4, -2.73759369574037791928e-01) (5, 5.53217010230243166902e-01) (6, 1.62417242195219246881e+00) (7, 8.22034930834743771122e-01) (8, 8.01409085656927033803e-01) (9, -3.07675781860506980525e-01) (10, 3.39493651331188361908e+00) (11, -1.05739843437156810779e+00) (12, 7.28729138695908273959e-01) (13, 1.75959340325792579218e-01) (0, 3.80598734418933926094e+00) (1, 3.82519546504399732267e-01) (2, 2.77022987212321714079e-01) (3, 3.39634473975083783781e-01) (4, 2.91114609296700910246e-01) (5, -9.20675526083459705440e-01) (6, 6.82923165982682878195e+00) (7, 3.86592559076513575533e+00) (8, -8.70543618679873509869e-01) (9, 3.80225634382224253471e+00) (10, -3.71462975564551900476e+00) (11, 1.91939649766815700893e+00) (12, -1.59658423841695351619e+00) (13, -6.17716135555601009166e-01) (0, 3.65261944939997951209e+00) (1, 4.45184269280326783136e-01) (2, 3.00215051801097809747e-01) (3, 3.94297891588104187921e-01) (4, 4.85194229812515198663e-01) (5, -7.70446407319059223262e-01) (6, 4.53143898038822090513e+00) (7, 4.15995592559079163664e+00) (8, -6.22291256569050488245e-01) (9, 1.82680528077724924074e+00) (10, -3.57261770809947210026e+00) (11, 1.58648973820856742378e+00) (12, 4.27863558762108631139e-01) (13, -1.83616623217231655918e-01) (0, 3.34281923358131560775e-01) (1, 3.00249077691438388815e-02) (2, -1.39185086606561786438e-01) (3, -3.51146466718313329802e-02) (4, -8.90747529131146950632e-03) (5, -1.27893654298870285135e-01) (6, 1.95832448745993215056e+00) (7, 5.15502516897795359796e-01) (8, -2.50047065112945221532e-01) (9, 7.07512288894170904285e+00) (10, -1.43714722386067972337e+00) (11, 3.42900844456793807424e-02) (12, -7.16354457025648733159e-02) (13, 3.39694418255428731701e-01) (0, 6.95394109260459547528e+00) (1, 4.95069897400006841970e-01) (2, 5.42016314940318544302e-01) (3, 4.80178574697837479146e-01) (4, 4.54094851987228265155e-01) (5, -5.01989427811065969109e+00) (6, -3.08363129315802764197e+00) (7, -3.61622817767460347227e+00) (8, 3.08794802335478346667e-01) (9, 4.54982856829570070367e-01) (10, 5.36743667970414239932e+00) (11, 1.57685815357790719560e+01) (12, -6.32368758391635310545e+00) (13, 6.64616984617502071231e-01) (0, -3.14194714045140122138e+00) (1, -2.75707386089020345388e-01) (2, -2.99364201379471395192e-01) (3, -2.31947607947045053578e-01) (4, -2.96614646566563222585e-01) (5, 8.28385640627293029503e-01) (6, 7.35314493721759943057e-01) (7, 6.88228743175241741703e-01) (8, 8.83004264031400309953e-01) (9, -1.29712886236297864073e+00) (10, 4.30158139002964645670e+00) (11, -1.62369587561039141477e+00) (12, 7.06449310569596367060e-01) (13, 1.66318005911310462519e-01) (0, 3.79001553168204585731e+00) (1, 3.43105150799151825680e-01) (2, 4.55443891177770066037e-01) (3, 4.61938562284108567013e-01) (4, 4.01269564817544388546e-01) (5, -8.88016502083291747738e-01) (6, 4.78310840736329812017e+00) (7, 4.16049913252095215910e+00) (8, -7.60887552131960798185e-01) (9, 1.85557593617084970461e+00) (10, -3.67416883373343505781e+00) (11, 2.30243558055186170463e+00) (12, 3.25449066373731665802e-01) (13, -1.11099190944797462932e-01) (0, -6.39903547986545895299e+00) (1, -2.53181521616426707944e-01) (2, -2.21464817247835427105e-01) (3, -2.80573298058954478940e-01) (4, -3.12136155388800018429e-01) (5, 8.99028416253269790914e-01) (6, 1.95979833966246141941e+00) (7, 2.45155722871968517751e+00) (8, 6.66951521256684110028e-01) (9, -4.86767302422527969874e-01) (10, 1.01808246113062716987e+00) (11, -1.70121021857408694089e+00) (12, 9.38628092097243738046e-01) (13, -3.99869946803000531066e-01) (0, 3.91961252789085490278e+00) (1, 3.85970357413670972502e-01) (2, 3.37719138319871381437e-01) (3, 3.06560154612443402922e-01) (4, 2.47806105370900697782e-01) (5, -8.76860092104425170589e-01) (6, 5.27274946623343954144e+00) (7, 3.92575014687742518404e+00) (8, -8.36943094611994786725e-01) (9, 4.14022605957919154207e+00) (10, -3.74243297550035070032e+00) (11, 1.90812497621906795864e+00) (12, -8.05152684815580776956e-01) (13, -6.78169222647047043040e-01) (14, 5.73174587022883930132e-01) (15, 5.43959706827926603445e-01) (16, 5.05173041315403748008e-01) (17, 4.72669030392102396121e-01) (18, -3.75704314256379179326e-01) (19, -2.31619656570767440407e-01) (20, 5.45446562152726688311e-01) (21, 4.64519227707318460574e-01) (22, 5.27264551202559883514e-01) (23, 5.32458378763523532129e-01) (24, 4.55861340995157071632e-01) 
