FANN_FLO_2.1
num_layers=3
learning_rate=0.700000
connection_rate=1.000000
network_type=0
learning_momentum=0.000000
training_algorithm=2
train_error_function=1
train_stop_function=1
cascade_output_change_fraction=0.010000
quickprop_decay=-0.000100
quickprop_mu=1.750000
rprop_increase_factor=1.200000
rprop_decrease_factor=0.500000
rprop_delta_min=0.000000
rprop_delta_max=50.000000
rprop_delta_zero=0.100000
cascade_output_stagnation_epochs=12
cascade_candidate_change_fraction=0.010000
cascade_candidate_stagnation_epochs=12
cascade_max_out_epochs=150
cascade_min_out_epochs=50
cascade_max_cand_epochs=150
cascade_min_cand_epochs=50
cascade_num_candidate_groups=2
bit_fail_limit=1.00000000000000005551e-01
cascade_candidate_limit=1.00000000000000000000e+03
cascade_weight_multiplier=4.00000000000000022204e-01
cascade_activation_functions_count=10
cascade_activation_functions=3 5 7 8 10 11 14 15 16 17 
cascade_activation_steepnesses_count=4
cascade_activation_steepnesses=2.50000000000000000000e-01 5.00000000000000000000e-01 7.50000000000000000000e-01 1.00000000000000000000e+00 
layer_sizes=26 11 2 
scale_included=0
neurons (num_inputs, activation_function, activation_steepness)=(0, 0, 0.00000000000000000000e+00) (0, 0, 0.00000000000000000000e+00) (0, 0, 0.00000000000000000000e+00) (0, 0, 0.00000000000000000000e+00) (0, 0, 0.00000000000000000000e+00) (0, 0, 0.00000000000000000000e+00) (0, 0, 0.00000000000000000000e+00) (0, 0, 0.00000000000000000000e+00) (0, 0, 0.00000000000000000000e+00) (0, 0, 0.00000000000000000000e+00) (0, 0, 0.00000000000000000000e+00) (0, 0, 0.00000000000000000000e+00) (0, 0, 0.00000000000000000000e+00) (0, 0, 0.00000000000000000000e+00) (0, 0, 0.00000000000000000000e+00) (0, 0, 0.00000000000000000000e+00) (0, 0, 0.00000000000000000000e+00) (0, 0, 0.00000000000000000000e+00) (0, 0, 0.00000000000000000000e+00) (0, 0, 0.00000000000000000000e+00) (0, 0, 0.00000000000000000000e+00) (0, 0, 0.00000000000000000000e+00) (0, 0, 0.00000000000000000000e+00) (0, 0, 0.00000000000000000000e+00) (0, 0, 0.00000000000000000000e+00) (0, 0, 0.00000000000000000000e+00) (26, 6, 5.00000000000000000000e-01) (26, 6, 5.00000000000000000000e-01) (26, 6, 5.00000000000000000000e-01) (26, 6, 5.00000000000000000000e-01) (26, 6, 5.00000000000000000000e-01) (26, 6, 5.00000000000000000000e-01) (26, 6, 5.00000000000000000000e-01) (26, 6, 5.00000000000000000000e-01) (26, 6, 5.00000000000000000000e-01) (26, 6, 5.00000000000000000000e-01) (0, 6, 0.00000000000000000000e+00) (11, 6, 5.00000000000000000000e-01) (0, 6, 0.00000000000000000000e+00) 
connections (connected_to_neuron, weight)=(0, -1.58102349137555187042e+01) (1, -7.22453807836319870928e-03) (2, -8.63603806996898204495e-02) (3, 3.59494009112759707603e-02) (4, -7.84811532998637428893e-02) (5, -1.62857246386513276892e-01) (6, 5.17951405375136730846e-01) (7, 9.15058716245925052313e-02) (8, 3.97661424410925112838e-01) (9, 5.14487195548243847476e-01) (10, -1.43862617097633682661e+00) (11, -1.22838848954294110882e+00) (12, -8.08758013734554026541e-01) (13, -9.79807234967002393944e-01) (14, -7.60608032266261613330e-01) (15, 1.71692637344487697426e-01) (16, -3.79382634074501567945e-01) (17, 1.45749644180186099796e-01) (18, -1.29326613882421859181e+00) (19, 1.09173700819305086185e+00) (20, -1.34604731514427533590e+00) (21, -1.32869880033208920267e+00) (22, -1.25919163373133576739e-02) (23, 7.88577014314455215782e+00) (24, 3.53988404653979155112e-02) (25, -3.50321518057872316465e-01) (0, 1.50000000000000000000e+03) (1, 1.50000000000000000000e+03) (2, 1.50000000000000000000e+03) (3, 1.50000000000000000000e+03) (4, 1.50000000000000000000e+03) (5, -1.41259999709129351686e+03) (6, -1.41259999709129351686e+03) (7, 3.14528450988880592831e+02) (8, 1.46999999880790710449e+03) (9, -1.41259999709129351686e+03) (10, -1.41259999709129351686e+03) (11, 1.50000000000000000000e+03) (12, -1.41259999709129351686e+03) (13, -1.41259999709129351686e+03) (14, -1.41259999709129351686e+03) (15, 2.64989580387962632813e+02) (16, 1.50000000000000000000e+03) (17, 1.50000000000000000000e+03) (18, -1.41259999709129351686e+03) (19, -1.41259999709129351686e+03) (20, -1.41259999709129351686e+03) (21, -1.41259999709129351686e+03) (22, -1.41259999709129351686e+03) (23, -1.41259999709129351686e+03) (24, -1.41259999709129351686e+03) (25, 9.24400140622681298908e+00) (0, -2.45207321340735937554e+01) (1, 5.23349997095164456984e-02) (2, 9.35699325493868638848e-02) (3, 4.19306215337809859434e-02) (4, 1.24593628614335955040e-01) (5, -1.33618112037608405274e+00) (6, 4.21538554089686101634e+00) (7, 3.06663099530148752780e-01) (8, -6.08174843781088686478e-02) (9, 9.13425929976288797363e-01) (10, -2.51709619548861196492e+00) (11, -7.37630733796734050500e-01) (12, -1.23868516340374190676e+00) (13, -1.16016215892708518531e+00) (14, -1.19927034204701721265e+00) (15, 2.85893057407497652722e-01) (16, 8.10080441537241457972e-01) (17, 1.37121314815276740262e+00) (18, -8.06435821471774838543e-01) (19, -9.37579403270278111115e-01) (20, -8.58994607847554214608e-01) (21, -9.04787682853540276007e-01) (22, -2.33873415775146781259e-01) (23, 3.84927520854986549015e-01) (24, -2.09752395889532428086e-01) (25, -2.08623712439916619843e+00) (0, 8.12448109208788515900e+00) (1, 2.18306261188420114294e-01) (2, 3.33535055703553073858e-01) (3, 2.77906882650288455938e-01) (4, 2.63289521521958225225e-01) (5, -1.11012032491110446131e+00) (6, -3.53098198966897580675e+00) (7, -3.41873226346425340694e+01) (8, 7.54545597326074979350e+00) (9, -9.01769843581998964410e-01) (10, -1.76807052653175394985e-01) (11, -2.40729014249300155015e+00) (12, -1.26705560248386062128e+00) (13, -1.09787855408757062392e+00) (14, -1.18263696771774196037e+00) (15, 3.39083678648212849538e+00) (16, 2.19530256817945668146e+00) (17, 3.47742309776463409676e+00) (18, -8.46396830672249911309e-01) (19, -4.78952247875586600845e-01) (20, -4.41094489884169216332e-01) (21, -7.15616520856495741398e-01) (22, 7.55181631126373176244e+00) (23, -1.06217127421627548500e+01) (24, 7.77011365519277230618e+00) (25, -2.23019249600362368113e+00) (0, 1.50000000000000000000e+03) (1, 1.50000000000000000000e+03) (2, 1.50000000000000000000e+03) (3, 1.50000000000000000000e+03) (4, 1.50000000000000000000e+03) (5, -1.41259999709129351686e+03) (6, -1.41259999709129351686e+03) (7, 3.14528450988880592831e+02) (8, 1.46999999880790710449e+03) (9, -1.41259999709129351686e+03) (10, -1.41259999709129351686e+03) (11, 1.50000000000000000000e+03) (12, -1.41259999709129351686e+03) (13, -1.41259999709129351686e+03) (14, -1.41259999709129351686e+03) (15, 1.05255376812405734199e+03) (16, 1.50000000000000000000e+03) (17, 1.50000000000000000000e+03) (18, -6.97687481623533017228e+02) (19, -1.41259999709129351686e+03) (20, -1.41259999709129351686e+03) (21, -1.41259999709129351686e+03) (22, -1.41259999709129351686e+03) (23, -1.41259999709129351686e+03) (24, -1.41259999709129351686e+03) (25, 7.61827686438590223617e+00) (0, 7.16199942067664707679e+00) (1, 2.84194705098197830662e-01) (2, 2.72046973019168747410e-01) (3, 2.42412325947806817084e-01) (4, 2.31393468587919953761e-01) (5, -2.08590472783632829845e+00) (6, -4.89426175491776849213e+00) (7, -5.69551518130745009216e+01) (8, 8.65403857074931437410e+00) (9, -1.02359147405287997934e+00) (10, 1.22610997798033513617e-02) (11, -9.30539318559167161204e-01) (12, -1.47517052790160985154e+00) (13, -1.43964838237658732112e+00) (14, -1.55841451161392119396e+00) (15, 5.78096197688143131899e-01) (16, 6.69620853096443258146e-01) (17, 8.89549964121698732988e-01) (18, -6.55193180231387506396e-01) (19, -2.10468672639516407585e+00) (20, -8.47627272726579006346e-01) (21, -6.65385079526521039384e-01) (22, 1.47359999995231646608e+03) (23, 1.47359999995231646608e+03) (24, 1.47359999995231646608e+03) (25, -3.35789294474259980561e-01) (0, 8.51603284594407305974e+00) (1, 2.03198268701423129245e-01) (2, 3.62097941030849412858e-01) (3, 3.57586078037609056413e-01) (4, 2.18599989702094626987e-01) (5, -1.09496392557941923940e+00) (6, -3.94359184878581414679e+00) (7, -9.92732297250817282475e+02) (8, 7.65681459207212533613e+00) (9, -7.02040803169572402709e-01) (10, -1.64857416088606489879e-01) (11, -2.26916562321080972353e+00) (12, -8.36242913750968597242e-01) (13, -1.17463495470993106728e+00) (14, -7.18406144953795178232e-01) (15, 3.61775806917301867571e+00) (16, 2.23779785108211815015e+00) (17, 2.53731664755535968325e+00) (18, -8.35650160429656563288e-01) (19, -6.56879749477322194551e-01) (20, -6.37277787959517283412e-01) (21, -8.36801445689120404481e-01) (22, 1.20984126255937681549e+02) (23, 8.58665485578409402478e+02) (24, 1.21210485986812159354e+02) (25, -2.06402726876758757513e+00) (0, -2.41909417889488196352e+01) (1, -3.46295907819815090845e-02) (2, -9.62095185840671357491e-02) (3, -3.61544266069479119929e-02) (4, -9.21810641611165021425e-02) (5, 4.51940242125177388255e-02) (6, 3.31778625667284909895e+00) (7, 5.14938093658083961834e-01) (8, -1.19960209692996963571e-01) (9, 1.50185009781572481602e-01) (10, -6.85891806944629145448e-01) (11, -6.06874396824343409484e-01) (12, -1.73917142138357738723e-01) (13, -1.92295433312252406211e-01) (14, -7.11409065931124934279e-02) (15, 5.99960414202514780158e-01) (16, 3.11096426007897497445e-01) (17, 6.73485672376138655437e-01) (18, -9.43350626635170552703e-01) (19, 1.07104550117013652688e+00) (20, -9.34519457984090529123e-01) (21, -8.88822126683351809717e-01) (22, -5.52030678980845568304e-01) (23, 5.45478132648336666577e-01) (24, -4.87923689225177814599e-01) (25, -1.12665580634316664366e+00) (0, 1.50000000000000000000e+03) (1, 1.62031133467603893905e+01) (2, 1.61787909264017315536e+01) (3, 1.61009567672659166249e+01) (4, 1.62447108174015255599e+01) (5, 9.03355522087939011300e-01) (6, -3.12425070246055653911e+01) (7, -4.24499825203125169537e+00) (8, -5.19484419571761946166e-01) (9, -3.36439383806182590320e+01) (10, -4.46372511084277390214e-01) (11, 1.50000000000000000000e+03) (12, -1.02599547406081503809e+00) (13, 1.17896062385837510633e-01) (14, -1.11541515928952450487e+00) (15, -1.36331057442333181129e+00) (16, -1.81692151654570399621e+00) (17, -2.26937104405950584862e+00) (18, -1.71670135750538865871e+00) (19, -3.31016564331396594412e+01) (20, -6.45387437459076229729e-01) (21, 7.09496895180877995557e-01) (22, 8.02110956503208294421e-01) (23, -6.24437952792474462171e+01) (24, 1.53628597086095908253e+00) (25, -3.23131800127822401691e+01) (0, 1.12341110737275169384e+01) (1, 4.01477094403965339975e-01) (2, 5.39833072237234756763e-01) (3, 4.40949979833824445841e-01) (4, 4.55020408741695692179e-01) (5, -8.27179433120304063998e-01) (6, -2.91490605484362630406e+00) (7, 1.69114392149074266314e+00) (8, 1.28070561047424114065e+00) (9, -1.38880378377194824147e+00) (10, 5.59838360630257825257e-01) (11, 1.68660034993690821636e+00) (12, -7.17599880318541716306e-01) (13, -9.59645339337892311349e-01) (14, -8.44673647145214201437e-01) (15, 3.98862760454492892848e+00) (16, 1.21174055122023038855e+00) (17, 1.39241510214101760212e+00) (18, -9.94142536124105524742e-01) (19, 1.91643688594828387473e-01) (20, -1.04863576860398333146e+00) (21, -1.06870277811790792555e+00) (22, 1.09670898426426211003e+00) (23, -6.57151917916186079083e+00) (24, 1.11344270948497925389e+00) (25, -2.56080393161744301889e-01) (26, 4.32915846305708285069e-01) (27, 8.04171510109214726647e-01) (28, 1.10885504121846878434e+00) (29, -1.80325776370714147001e-01) (30, 6.78290248436875020666e-01) (31, -4.60377423090734927413e-01) (32, -1.56570699190493711761e-01) (33, 4.97801326588515946625e-01) (34, 1.41437651204265746330e+00) (35, -4.69189131406017478909e-01) (36, 3.81433799805950268791e-01) 
