FANN_FLO_2.1
num_layers=3
learning_rate=0.700000
connection_rate=1.000000
network_type=0
learning_momentum=0.000000
training_algorithm=2
train_error_function=1
train_stop_function=1
cascade_output_change_fraction=0.010000
quickprop_decay=-0.000100
quickprop_mu=1.750000
rprop_increase_factor=1.200000
rprop_decrease_factor=0.500000
rprop_delta_min=0.000000
rprop_delta_max=50.000000
rprop_delta_zero=0.100000
cascade_output_stagnation_epochs=12
cascade_candidate_change_fraction=0.010000
cascade_candidate_stagnation_epochs=12
cascade_max_out_epochs=150
cascade_min_out_epochs=50
cascade_max_cand_epochs=150
cascade_min_cand_epochs=50
cascade_num_candidate_groups=2
bit_fail_limit=1.00000000000000005551e-01
cascade_candidate_limit=1.00000000000000000000e+03
cascade_weight_multiplier=4.00000000000000022204e-01
cascade_activation_functions_count=10
cascade_activation_functions=3 5 7 8 10 11 14 15 16 17 
cascade_activation_steepnesses_count=4
cascade_activation_steepnesses=2.50000000000000000000e-01 5.00000000000000000000e-01 7.50000000000000000000e-01 1.00000000000000000000e+00 
layer_sizes=25 11 2 
scale_included=0
neurons (num_inputs, activation_function, activation_steepness)=(0, 0, 0.00000000000000000000e+00) (0, 0, 0.00000000000000000000e+00) (0, 0, 0.00000000000000000000e+00) (0, 0, 0.00000000000000000000e+00) (0, 0, 0.00000000000000000000e+00) (0, 0, 0.00000000000000000000e+00) (0, 0, 0.00000000000000000000e+00) (0, 0, 0.00000000000000000000e+00) (0, 0, 0.00000000000000000000e+00) (0, 0, 0.00000000000000000000e+00) (0, 0, 0.00000000000000000000e+00) (0, 0, 0.00000000000000000000e+00) (0, 0, 0.00000000000000000000e+00) (0, 0, 0.00000000000000000000e+00) (0, 0, 0.00000000000000000000e+00) (0, 0, 0.00000000000000000000e+00) (0, 0, 0.00000000000000000000e+00) (0, 0, 0.00000000000000000000e+00) (0, 0, 0.00000000000000000000e+00) (0, 0, 0.00000000000000000000e+00) (0, 0, 0.00000000000000000000e+00) (0, 0, 0.00000000000000000000e+00) (0, 0, 0.00000000000000000000e+00) (0, 0, 0.00000000000000000000e+00) (0, 0, 0.00000000000000000000e+00) (25, 6, 5.00000000000000000000e-01) (25, 6, 5.00000000000000000000e-01) (25, 6, 5.00000000000000000000e-01) (25, 6, 5.00000000000000000000e-01) (25, 6, 5.00000000000000000000e-01) (25, 6, 5.00000000000000000000e-01) (25, 6, 5.00000000000000000000e-01) (25, 6, 5.00000000000000000000e-01) (25, 6, 5.00000000000000000000e-01) (25, 6, 5.00000000000000000000e-01) (0, 6, 0.00000000000000000000e+00) (11, 6, 5.00000000000000000000e-01) (0, 6, 0.00000000000000000000e+00) 
connections (connected_to_neuron, weight)=(0, 2.38846809783022528961e+00) (1, 8.73279926035624709524e-02) (2, 1.08570041194937821905e-01) (3, 1.00344488457224961797e-01) (4, 2.46953768715642035803e-01) (5, 4.19452734752535028040e-01) (6, -2.14087747596834043762e+00) (7, -1.08561828826082940047e+00) (8, -2.51857884848707191949e-01) (9, 2.90368251109901054363e-01) (10, -6.29920581550513225544e-01) (11, 3.14541962406023056786e-01) (12, -7.23759968140747056431e-01) (13, -7.39247906051568315355e-01) (14, -5.47792919976489600664e-01) (15, -2.81545779328914169692e-01) (16, 1.03499948956608828210e-01) (17, 2.32144109860712832827e+00) (18, 1.73390916303565170153e+01) (19, 1.41180902795787872606e+01) (20, -3.86133701392366912586e-01) (21, 1.99309250385086622614e+00) (22, 7.57291675750281001456e-01) (23, -5.52383552078136275121e-01) (24, 1.05266105851726757270e-01) (0, 2.74105300517842431773e+00) (1, 1.01460113040531041406e-01) (2, 8.00316658237818501220e-02) (3, 2.25230320207202711069e-01) (4, 1.74034415594661512339e-01) (5, 8.60483395064993578094e-02) (6, -1.36977780299714524403e+00) (7, -2.62886005367605424254e+00) (8, 2.89727789300111338022e-01) (9, 6.92709620037816331539e-02) (10, -2.41621680150150036637e-01) (11, 1.96713289376375111139e-01) (12, -5.45017642941743485352e-01) (13, -8.50759168685122579845e-01) (14, -2.82682686833096608048e-01) (15, -6.83807866595675672983e+00) (16, -2.46973127204769671295e+00) (17, 5.51079799972457928803e-01) (18, -2.55937768425950107343e+00) (19, -3.61894299297689325812e+00) (20, -1.40160274970216058854e+00) (21, -5.12856713550448151118e-01) (22, 8.66550613037567418750e-01) (23, 1.59291618643984278503e-01) (24, 1.12717561646577618673e-01) (0, -6.64475141592974871685e+00) (1, 2.43329960866692264487e-02) (2, -2.03669857219931985104e-02) (3, 6.06069821878197148579e-02) (4, -9.39641518997870353429e-04) (5, 3.86443984280513130880e-02) (6, 7.61630136572606697420e-01) (7, 1.07847984430289356439e+00) (8, -2.99037820703845803882e-02) (9, 3.00777967191158818183e-02) (10, -2.19500259802527242226e-01) (11, 1.50271112219076807132e-02) (12, 4.31345249387739104741e-01) (13, 1.77729553421819952419e-01) (14, 6.24368218155099685696e-01) (15, 4.84424264313831065554e-01) (16, 4.93578217459489265728e-01) (17, 8.46033160257839922380e-01) (18, 2.71280295019860773209e+00) (19, 2.23893401150848525560e+00) (20, 7.39601604967487835651e-01) (21, 7.24783785353285359143e-01) (22, 3.20219004852030697528e-01) (23, 7.56867091280581494317e-01) (24, -2.42334049805682821832e-01) (0, 6.01154478672940673079e+00) (1, 1.05904709202589164541e+00) (2, 1.03254811865629325673e+00) (3, 1.08978036445917281227e+00) (4, 1.09373532635511550026e+00) (5, -1.77299278455959741230e+00) (6, 4.82546597188147607937e+00) (7, 4.80307428523747859117e+00) (8, -1.42609060598451908852e-01) (9, 8.91971793233857557226e-01) (10, -2.14013876379531708949e+00) (11, 6.65754066523380982900e-01) (12, -2.55767956019204811824e+00) (13, 5.38917251312049128131e+00) (14, -1.60578332470436535573e+00) (15, -1.98686249969612871435e-01) (16, -6.49971673710908781629e+00) (17, 1.63980105539509750656e+01) (18, 4.76360045340998823349e+01) (19, 5.41480817875009066142e+01) (20, 2.28614990438173535381e+01) (21, -9.78208654046530590165e+00) (22, -1.09575912056284874296e+00) (23, -2.39908174357835912716e+00) (24, -7.84282038624804722637e-01) (0, 4.67802923628028644032e+00) (1, 3.84960212764989873069e-01) (2, 4.78375659344446091392e-01) (3, 3.46468792317163543082e-01) (4, 4.66167108176004318931e-01) (5, -1.20514476647335944115e+00) (6, 5.84497402117746300831e+00) (7, 4.19909267355471094163e+00) (8, -8.88953205126710721551e-01) (9, -1.45562674374027922752e+00) (10, -8.40132045788628212257e-01) (11, 4.09344151660815669391e-01) (12, 6.56544204034586464935e-01) (13, -4.70473553704518654417e-01) (14, -8.17995628021218612602e-01) (15, 1.14309199076260163963e+01) (16, 2.28897546087579284446e+00) (17, -1.90070627424363536306e+00) (18, 4.77241984126313383285e+01) (19, 5.36126631685992336429e+01) (20, 8.91133255114425715249e+00) (21, 2.65057180453655005792e-01) (22, -1.79485350909956764553e-01) (23, 4.24349325113945141652e+00) (24, 3.85401822698684615176e-01) (0, 1.14795662938343436821e+01) (1, 3.98925535665724584344e-01) (2, 3.95683922158453771356e-01) (3, 5.23762338148329398280e-01) (4, 4.39669788168642827753e-01) (5, -1.49123509296549472403e+00) (6, -5.13764858373072819120e+00) (7, -4.68323082963370129761e+00) (8, 8.54017515010243276341e-03) (9, 4.49078165818047603253e-01) (10, -1.88714311203531037719e+00) (11, -2.05505544017026098302e+00) (12, -9.95672152894783724086e-01) (13, -1.34905325471989323560e+00) (14, -1.02476005759661226158e+00) (15, -1.14665957778422966662e+00) (16, 1.36214674324374085401e+00) (17, 5.89993673450336930664e-01) (18, -6.17237432842924871323e+00) (19, -6.22701368804186472516e+00) (20, -4.84280972139133147891e+00) (21, -5.38052523840410801270e-01) (22, 1.93091238866672409991e+00) (23, -8.10842913855375613252e+00) (24, 4.68848740154920617940e-01) (0, 3.27984474046103180456e+00) (1, 4.28441248237914240615e-01) (2, 2.38745271563357508438e-01) (3, 2.59278103113001978652e-01) (4, 2.62095815837210810439e-01) (5, -3.80329125253025090991e-01) (6, 5.80461438999669976369e+00) (7, 4.93121643059160597033e+00) (8, -7.94143755107151516626e-01) (9, -1.45860442429076031523e+00) (10, -5.94648432354435763081e-01) (11, -7.83667947460153779815e-01) (12, 8.17565839772320779311e-01) (13, -1.33321736995277273508e+00) (14, -7.46945080957867935112e-01) (15, 6.61424627823023403295e+00) (16, 1.29331620387494972135e+00) (17, -1.95415302274650759529e+00) (18, 4.77377384272559339706e+01) (19, 5.36333177128335094608e+01) (20, -3.38883872753431347746e+00) (21, 4.97263838537319369237e+00) (22, -2.68916785993444706904e-01) (23, 8.50524779139199793576e+00) (24, 4.35654692423911971133e-01) (0, -6.60891411580796450664e+00) (1, -9.82109121839974154311e-03) (2, 5.32491464181663945454e-02) (3, -2.23271664218184853756e-02) (4, 4.28646165891411398685e-02) (5, 2.04032853947528791672e-01) (6, 7.68249426090009346346e-01) (7, 1.06587024335646618489e+00) (8, -1.80304774603368356267e-01) (9, -1.00865227259102283042e-01) (10, -1.04463014264613907045e-01) (11, 2.23680133425428057103e-03) (12, 9.16081197767457444670e-01) (13, 4.21542099849534557254e-01) (14, 6.93050709934427300318e-01) (15, 4.11388969968179807335e-01) (16, 2.49287977980099328956e-01) (17, 1.03812555499469327813e+00) (18, 2.61176843559260873917e+00) (19, 2.29437691097404661278e+00) (20, 8.02764550178421520954e-01) (21, 8.04361073855800801091e-01) (22, 1.88888276397675414220e-01) (23, 8.16975946647288120417e-01) (24, -2.61758401792578920819e-01) (0, 5.80907747968235277369e+00) (1, 8.98201288668623809563e-01) (2, 8.97779332487097625481e-01) (3, 7.82403601346722710197e-01) (4, 9.08952238051405791985e-01) (5, -1.70777370262133110224e+00) (6, 7.40676575961009842075e+00) (7, 7.92641281822975951599e+00) (8, -2.47376524271656683673e-01) (9, 1.20276084895482582304e+00) (10, -2.24549157714641545169e+00) (11, 1.17919819875884956950e+00) (12, -1.12310393903485783440e+00) (13, 3.74988871116633282199e+00) (14, -1.78399674968500576711e+00) (15, -8.82992336175897385431e+00) (16, 5.24419295083267567037e-01) (17, 1.71136033450677942369e+01) (18, 4.77558948514207060043e+01) (19, 5.41203578977029806651e+01) (20, 2.27182361620317223583e+01) (21, -1.21171108342578222050e+01) (22, -1.04723338482695593754e+00) (23, -2.28332644633476400386e+00) (24, 6.36958271199499770354e-02) (0, 1.16525055720197112663e+01) (1, 3.61376553750546725130e-01) (2, 3.66144932783158572054e-01) (3, 4.09497812366994173860e-01) (4, 3.02692308998616488314e-01) (5, -1.90763403173332113383e+00) (6, -4.54041203551529370941e+00) (7, -3.22893231232330180092e+00) (8, 9.17099647114457960928e-02) (9, 1.10724324038598304076e-01) (10, -1.60788150261621520798e+00) (11, -1.62580234801018574942e+00) (12, -1.07721418544728075872e+00) (13, -1.49846413852459359184e+00) (14, -1.19385023834187453673e+00) (15, -9.65737712023925887195e-01) (16, 1.70225482048963749904e+00) (17, 2.50331022782092249557e+00) (18, -5.76368286527938167296e+00) (19, -6.22651940009797666420e+00) (20, -5.04985126661084038346e+00) (21, -1.97330481967963655698e-01) (22, 1.99097069094418044344e+00) (23, -9.19728224698027396755e+00) (24, 9.49061756970305397951e-02) (25, 2.18737910459175177724e-01) (26, -3.56779678181088077960e-01) (27, 5.78821680426705897915e-01) (28, 4.95967012048051769657e-01) (29, 4.91925285195650097148e-01) (30, -5.06937460627726599327e-01) (31, 4.71158766255091288055e-01) (32, 5.60950343331337308861e-01) (33, 4.77772067931047039746e-01) (34, -5.30998037781886256248e-01) (35, 3.59130912458242412821e-01) 
