FANN_FLO_2.1
num_layers=3
learning_rate=0.700000
connection_rate=1.000000
network_type=0
learning_momentum=0.000000
training_algorithm=2
train_error_function=1
train_stop_function=1
cascade_output_change_fraction=0.010000
quickprop_decay=-0.000100
quickprop_mu=1.750000
rprop_increase_factor=1.200000
rprop_decrease_factor=0.500000
rprop_delta_min=0.000000
rprop_delta_max=50.000000
rprop_delta_zero=0.100000
cascade_output_stagnation_epochs=12
cascade_candidate_change_fraction=0.010000
cascade_candidate_stagnation_epochs=12
cascade_max_out_epochs=150
cascade_min_out_epochs=50
cascade_max_cand_epochs=150
cascade_min_cand_epochs=50
cascade_num_candidate_groups=2
bit_fail_limit=1.00000000000000005551e-01
cascade_candidate_limit=1.00000000000000000000e+03
cascade_weight_multiplier=4.00000000000000022204e-01
cascade_activation_functions_count=10
cascade_activation_functions=3 5 7 8 10 11 14 15 16 17 
cascade_activation_steepnesses_count=4
cascade_activation_steepnesses=2.50000000000000000000e-01 5.00000000000000000000e-01 7.50000000000000000000e-01 1.00000000000000000000e+00 
layer_sizes=17 4 2 
scale_included=0
neurons (num_inputs, activation_function, activation_steepness)=(0, 0, 0.00000000000000000000e+00) (0, 0, 0.00000000000000000000e+00) (0, 0, 0.00000000000000000000e+00) (0, 0, 0.00000000000000000000e+00) (0, 0, 0.00000000000000000000e+00) (0, 0, 0.00000000000000000000e+00) (0, 0, 0.00000000000000000000e+00) (0, 0, 0.00000000000000000000e+00) (0, 0, 0.00000000000000000000e+00) (0, 0, 0.00000000000000000000e+00) (0, 0, 0.00000000000000000000e+00) (0, 0, 0.00000000000000000000e+00) (0, 0, 0.00000000000000000000e+00) (0, 0, 0.00000000000000000000e+00) (0, 0, 0.00000000000000000000e+00) (0, 0, 0.00000000000000000000e+00) (0, 0, 0.00000000000000000000e+00) (17, 6, 5.00000000000000000000e-01) (17, 6, 5.00000000000000000000e-01) (17, 6, 5.00000000000000000000e-01) (0, 6, 0.00000000000000000000e+00) (4, 4, 5.00000000000000000000e-01) (0, 4, 0.00000000000000000000e+00) 
connections (connected_to_neuron, weight)=(0, 5.25282652816248596395e+00) (1, 1.03082331756819334245e+00) (2, -6.30510361367114691156e-01) (3, 6.06541653399885971609e-01) (4, 7.44597321348019813847e-01) (5, 3.96900540773438637032e+00) (6, -1.29249335298448819742e+00) (7, -3.49088639675837608678e+00) (8, 9.02858653288500789813e-01) (9, -1.94600225750955979631e-01) (10, 1.36600535065840800186e+00) (11, 5.51470050621123197843e-01) (12, -9.67710798336837374478e-01) (13, 2.61574010696309144919e+00) (14, -2.50495288579819863628e+00) (15, -1.62866644283774908430e+00) (16, -2.55861403958994104713e+00) (0, -5.79928246376971223697e+00) (1, 6.68429541351340361643e-01) (2, 8.32118179903424426413e+00) (3, 1.43213232917028343572e+00) (4, 2.39729575306911346644e+00) (5, 2.30847225733019989491e+00) (6, -4.44389825262143239870e-02) (7, -1.52444335706968736588e+00) (8, -6.47067601983777662689e-01) (9, -2.15774837318647128015e+00) (10, 7.62179364109268342453e-01) (11, -4.43975338638866734442e-01) (12, -1.04309863569770033820e+00) (13, -7.98928952614448573133e-02) (14, -3.35066676561015608371e+00) (15, -5.39743076816118172445e+00) (16, -1.20709879727638816349e-01) (0, 1.19620968570782189033e+01) (1, 4.36950773830543059972e+00) (2, 1.99339552107786133206e+01) (3, 5.19766392056296666624e+00) (4, 6.70793553362614591862e+00) (5, 1.06013614728283371846e+01) (6, 1.55922389469155087127e+00) (7, 5.36149898443857853003e-01) (8, 7.05910358377043967160e-01) (9, -8.66037487420603646626e+00) (10, 4.47537952022167395683e+00) (11, 1.87275950807946633958e+00) (12, 2.34329308857109852582e+00) (13, 6.78232025809703209518e-01) (14, -1.35108172158184847156e+00) (15, -3.85835858782994201022e+00) (16, -6.70990598055816178658e+00) (17, 2.40638442709507813788e+01) (18, 4.05375146204412217799e+01) (19, -2.71810459084350171111e+01) (20, -4.52319664670178700483e-01) 
