FANN_FLO_2.1
num_layers=3
learning_rate=0.700000
connection_rate=1.000000
network_type=0
learning_momentum=0.000000
training_algorithm=2
train_error_function=1
train_stop_function=1
cascade_output_change_fraction=0.010000
quickprop_decay=-0.000100
quickprop_mu=1.750000
rprop_increase_factor=1.200000
rprop_decrease_factor=0.500000
rprop_delta_min=0.000000
rprop_delta_max=50.000000
rprop_delta_zero=0.100000
cascade_output_stagnation_epochs=12
cascade_candidate_change_fraction=0.010000
cascade_candidate_stagnation_epochs=12
cascade_max_out_epochs=150
cascade_min_out_epochs=50
cascade_max_cand_epochs=150
cascade_min_cand_epochs=50
cascade_num_candidate_groups=2
bit_fail_limit=1.00000000000000005551e-01
cascade_candidate_limit=1.00000000000000000000e+03
cascade_weight_multiplier=4.00000000000000022204e-01
cascade_activation_functions_count=10
cascade_activation_functions=3 5 7 8 10 11 14 15 16 17 
cascade_activation_steepnesses_count=4
cascade_activation_steepnesses=2.50000000000000000000e-01 5.00000000000000000000e-01 7.50000000000000000000e-01 1.00000000000000000000e+00 
layer_sizes=13 11 2 
scale_included=0
neurons (num_inputs, activation_function, activation_steepness)=(0, 0, 0.00000000000000000000e+00) (0, 0, 0.00000000000000000000e+00) (0, 0, 0.00000000000000000000e+00) (0, 0, 0.00000000000000000000e+00) (0, 0, 0.00000000000000000000e+00) (0, 0, 0.00000000000000000000e+00) (0, 0, 0.00000000000000000000e+00) (0, 0, 0.00000000000000000000e+00) (0, 0, 0.00000000000000000000e+00) (0, 0, 0.00000000000000000000e+00) (0, 0, 0.00000000000000000000e+00) (0, 0, 0.00000000000000000000e+00) (0, 0, 0.00000000000000000000e+00) (13, 6, 5.00000000000000000000e-01) (13, 6, 5.00000000000000000000e-01) (13, 6, 5.00000000000000000000e-01) (13, 6, 5.00000000000000000000e-01) (13, 6, 5.00000000000000000000e-01) (13, 6, 5.00000000000000000000e-01) (13, 6, 5.00000000000000000000e-01) (13, 6, 5.00000000000000000000e-01) (13, 6, 5.00000000000000000000e-01) (13, 6, 5.00000000000000000000e-01) (0, 6, 0.00000000000000000000e+00) (11, 6, 5.00000000000000000000e-01) (0, 6, 0.00000000000000000000e+00) 
connections (connected_to_neuron, weight)=(0, 4.08842425448057511517e+00) (1, 3.47364022958411566844e-01) (2, 3.91497626531257025828e-01) (3, 2.53277051824464305430e-01) (4, 3.67771193015708319773e-01) (5, 1.39410737821564323369e+00) (6, 4.01683002068556269104e-02) (7, 1.55448736583300273217e+00) (8, -3.32371432568189018042e+00) (9, 1.60493903667162940430e+00) (10, 5.01977169033447800928e+00) (11, -2.11642454369014770821e-01) (12, 2.77729088978074384331e-02) (0, -1.05920747775077006558e+00) (1, -7.60075768838359283608e-02) (2, -7.88825026164485521019e-02) (3, -1.22640973339511391571e-02) (4, -6.01881018290950017824e-02) (5, 7.03880509003874110796e-01) (6, -7.31967595671294407600e-02) (7, 2.32393322280836256422e-01) (8, 9.53039081894263118144e-01) (9, 7.78560264490366221724e-02) (10, 7.08251544291495171990e-01) (11, 1.40357932903607651731e-01) (12, 2.49688713681067084305e-02) (0, 7.88887599625486934940e+00) (1, 6.11592668929337612838e-01) (2, 6.01341798790930970320e-01) (3, 7.40099780150889507979e-01) (4, 7.10973031708239666671e-01) (5, -3.79697078367186158232e+00) (6, -2.57268855417191977253e+00) (7, -1.21644449719651004393e+00) (8, -2.66931963874371369627e+00) (9, -2.29580127901599073681e+00) (10, -2.99111005841160970675e+00) (11, -2.47783308628945642127e+00) (12, 2.67352843335709700057e+00) (0, 2.12170973784182130828e+01) (1, 3.01276711502865390813e-01) (2, 4.78944664576843814885e-01) (3, 4.59316467622116642033e-01) (4, 3.87690258899525241887e-01) (5, -4.56657937811079950308e+00) (6, -1.00969938582115403847e+00) (7, -4.49957035463173574130e-02) (8, -1.83558063942864801987e+00) (9, -1.18457657079650946486e+00) (10, -3.45459104901333224902e+00) (11, -8.56541250435448264788e-01) (12, 1.38306422458732813929e+00) (0, 5.47469461829898196292e-01) (1, 2.80369451976525962955e-02) (2, 4.03552732206094305623e-02) (3, 6.84686160422074974186e-02) (4, -1.96170875095616897843e-02) (5, -6.06591846680324051078e-02) (6, 7.92700052906838009692e-02) (7, 6.37314316642617839648e-01) (8, 1.19084216138199971979e+00) (9, 1.05155247945961538569e-01) (10, 1.09613895581099063392e+00) (11, 2.02929156795429971316e-01) (12, 4.09648509706352983994e-02) (0, -1.05166462916373393277e+00) (1, -7.92678317437602586448e-02) (2, -5.13270741711093075876e-02) (3, 1.27958559979961857683e-02) (4, -7.45695701251460618675e-02) (5, 7.38616925137228097498e-01) (6, 7.45776753525066865569e-02) (7, 3.31119100662282450642e-01) (8, 6.46078102130861919861e-01) (9, -4.53701064465184267238e-02) (10, 6.83908557148673157400e-01) (11, 1.12967207986461246061e-01) (12, -5.27467043269311194886e-02) (0, 2.00670759864165493269e+00) (1, 2.16696454387087761306e-01) (2, 1.55087096791644035720e-01) (3, 2.01307771902460991287e-01) (4, 2.19423813920397697830e-01) (5, -6.03889028531098936980e-01) (6, 2.10897667670962053743e-02) (7, 3.92115839181154723914e-01) (8, 1.41701890729919788292e+00) (9, 1.54521926552485511230e+00) (10, 7.48329601492948803809e-01) (11, -5.55547146482904374842e-01) (12, -3.79954300584610937808e-02) (0, 6.15481252343890616885e-01) (1, 4.02431841648554083912e-02) (2, 8.40912293351625400595e-02) (3, -6.10031877004170580703e-02) (4, 1.04039398924205203634e-01) (5, -2.32922586770659717503e-01) (6, -4.99987595779028543008e-03) (7, 1.09829641555079987603e-01) (8, 2.59194122524819370312e+00) (9, -1.16889947262081739243e-01) (10, 6.51598844622754136413e-03) (11, 3.00012037747885595973e-01) (12, 5.28955036338680587016e-02) (0, 7.78630272493563779790e+00) (1, 5.20446265150822817702e-01) (2, 6.55303591896809645156e-01) (3, 5.18905745853699862380e-01) (4, 5.95076652278222151260e-01) (5, -3.06119079964684415174e+00) (6, -2.40513457893207238669e+00) (7, -8.33357972964223536749e-01) (8, -2.43672988928971756550e+00) (9, -1.54335499609181114877e+00) (10, -2.45166773750124145081e+00) (11, -2.16522231375392903985e+00) (12, 2.22411685598721353685e+00) (0, -1.23157853202496569978e+00) (1, -4.24057687733910351757e-02) (2, -4.16807039721229892482e-03) (3, 3.46433301355101586072e-02) (4, -1.25769595716736619362e-02) (5, 6.74510435436886601757e-01) (6, -3.87259716256244251875e-02) (7, 2.28762176021125807068e-01) (8, 8.27294186202491621529e-01) (9, -9.18839936883679431201e-02) (10, 6.29477948898791161980e-01) (11, -2.36971648138987328602e-03) (12, 4.24358619463794592419e-02) (13, 4.59261226171477299207e-01) (14, 3.06868019249087908840e-01) (15, -2.08445243835767374252e-01) (16, -4.73254370650305788981e-01) (17, 4.80336807194070958271e-01) (18, 3.22135870050586914370e-01) (19, 5.15437925140011965475e-01) (20, 3.31439992180341036487e-01) (21, -3.40623726927036796219e-01) (22, 4.07459635246968487898e-01) (23, 4.04357962117190217199e-01) 
