FANN_FLO_2.1
num_layers=3
learning_rate=0.700000
connection_rate=1.000000
network_type=0
learning_momentum=0.000000
training_algorithm=2
train_error_function=1
train_stop_function=1
cascade_output_change_fraction=0.010000
quickprop_decay=-0.000100
quickprop_mu=1.750000
rprop_increase_factor=1.200000
rprop_decrease_factor=0.500000
rprop_delta_min=0.000000
rprop_delta_max=50.000000
rprop_delta_zero=0.100000
cascade_output_stagnation_epochs=12
cascade_candidate_change_fraction=0.010000
cascade_candidate_stagnation_epochs=12
cascade_max_out_epochs=150
cascade_min_out_epochs=50
cascade_max_cand_epochs=150
cascade_min_cand_epochs=50
cascade_num_candidate_groups=2
bit_fail_limit=1.00000000000000005551e-01
cascade_candidate_limit=1.00000000000000000000e+03
cascade_weight_multiplier=4.00000000000000022204e-01
cascade_activation_functions_count=10
cascade_activation_functions=3 5 7 8 10 11 14 15 16 17 
cascade_activation_steepnesses_count=4
cascade_activation_steepnesses=2.50000000000000000000e-01 5.00000000000000000000e-01 7.50000000000000000000e-01 1.00000000000000000000e+00 
layer_sizes=11 4 2 
scale_included=0
neurons (num_inputs, activation_function, activation_steepness)=(0, 0, 0.00000000000000000000e+00) (0, 0, 0.00000000000000000000e+00) (0, 0, 0.00000000000000000000e+00) (0, 0, 0.00000000000000000000e+00) (0, 0, 0.00000000000000000000e+00) (0, 0, 0.00000000000000000000e+00) (0, 0, 0.00000000000000000000e+00) (0, 0, 0.00000000000000000000e+00) (0, 0, 0.00000000000000000000e+00) (0, 0, 0.00000000000000000000e+00) (0, 0, 0.00000000000000000000e+00) (11, 6, 5.00000000000000000000e-01) (11, 6, 5.00000000000000000000e-01) (11, 6, 5.00000000000000000000e-01) (0, 6, 0.00000000000000000000e+00) (4, 4, 5.00000000000000000000e-01) (0, 4, 0.00000000000000000000e+00) 
connections (connected_to_neuron, weight)=(0, -2.24971122712490245732e+00) (1, 1.56064925013878985638e+00) (2, 1.58990242534283043874e+00) (3, -6.93519232869684754128e-01) (4, 3.41009115803730322725e+00) (5, 1.92761151701531696645e+00) (6, 2.56879758210739650437e+00) (7, 2.61808627149471151441e+00) (8, 1.51736407049829202798e+00) (9, 4.21020316404172767477e+00) (10, -2.25629374341458266429e+00) (0, 2.11078240530878824543e+00) (1, -2.01130520426824421776e+00) (2, -6.67725210563515969575e-01) (3, -4.07844625905332436311e-01) (4, -3.08197341637513577695e+00) (5, -1.55407105632384334726e+00) (6, -4.58869508957138982908e+00) (7, 9.36371103267888860167e-01) (8, 1.40089937425149264527e+03) (9, 5.47612317178329590206e+02) (10, 2.48936666966058295358e+00) (0, 1.89287886861986276443e+00) (1, -2.24390761635259616824e+00) (2, -7.75967873377917505273e-01) (3, -4.06554483369169106233e-01) (4, -2.85460773605382156504e+00) (5, -1.56954933949072872323e+00) (6, -4.29549819834619484027e+00) (7, 1.02539423141978258691e+00) (8, 1.40089937425149264527e+03) (9, 5.48939548368881673923e+02) (10, 2.42534782567499140882e+00) (11, 1.79860481485782521816e+01) (12, -4.70891799970891256066e+00) (13, -4.85460219419190597279e+00) (14, -1.66434882385063187549e+00) 
