FANN_FLO_2.1
num_layers=3
learning_rate=0.700000
connection_rate=1.000000
network_type=0
learning_momentum=0.000000
training_algorithm=2
train_error_function=1
train_stop_function=1
cascade_output_change_fraction=0.010000
quickprop_decay=-0.000100
quickprop_mu=1.750000
rprop_increase_factor=1.200000
rprop_decrease_factor=0.500000
rprop_delta_min=0.000000
rprop_delta_max=50.000000
rprop_delta_zero=0.100000
cascade_output_stagnation_epochs=12
cascade_candidate_change_fraction=0.010000
cascade_candidate_stagnation_epochs=12
cascade_max_out_epochs=150
cascade_min_out_epochs=50
cascade_max_cand_epochs=150
cascade_min_cand_epochs=50
cascade_num_candidate_groups=2
bit_fail_limit=1.00000000000000005551e-01
cascade_candidate_limit=1.00000000000000000000e+03
cascade_weight_multiplier=4.00000000000000022204e-01
cascade_activation_functions_count=10
cascade_activation_functions=3 5 7 8 10 11 14 15 16 17 
cascade_activation_steepnesses_count=4
cascade_activation_steepnesses=2.50000000000000000000e-01 5.00000000000000000000e-01 7.50000000000000000000e-01 1.00000000000000000000e+00 
layer_sizes=11 4 2 
scale_included=0
neurons (num_inputs, activation_function, activation_steepness)=(0, 0, 0.00000000000000000000e+00) (0, 0, 0.00000000000000000000e+00) (0, 0, 0.00000000000000000000e+00) (0, 0, 0.00000000000000000000e+00) (0, 0, 0.00000000000000000000e+00) (0, 0, 0.00000000000000000000e+00) (0, 0, 0.00000000000000000000e+00) (0, 0, 0.00000000000000000000e+00) (0, 0, 0.00000000000000000000e+00) (0, 0, 0.00000000000000000000e+00) (0, 0, 0.00000000000000000000e+00) (11, 6, 5.00000000000000000000e-01) (11, 6, 5.00000000000000000000e-01) (11, 6, 5.00000000000000000000e-01) (0, 6, 0.00000000000000000000e+00) (4, 4, 5.00000000000000000000e-01) (0, 4, 0.00000000000000000000e+00) 
connections (connected_to_neuron, weight)=(0, -4.67474215879629362291e+00) (1, -6.46925023511461971815e-01) (2, 1.50480137066597519091e-01) (3, 6.69893392777527463267e-01) (4, 2.19225743206455021550e+01) (5, 3.40341536715619374931e+00) (6, 1.50000000000000000000e+03) (7, 2.84954555938203846210e+00) (8, 2.68391284866153290167e+00) (9, -4.49543636651765776691e-01) (10, 6.05643905834470475114e-01) (0, 2.50638207381708610910e-01) (1, 3.89748232835954611097e-01) (2, 4.01461270893285149253e-01) (3, -7.54010885078524456526e-02) (4, 3.32429900764395214185e-01) (5, 4.86875418077578725473e-01) (6, 3.60731507805116313747e+00) (7, -8.82977976963486343998e-01) (8, 6.59559650694689081352e-02) (9, 1.87966826038558765255e+00) (10, -6.11738221864756084867e-02) (0, 4.82363718021514742418e+00) (1, 3.77124528913221768178e+00) (2, 2.13413028341734944959e+00) (3, 9.16988283250601332597e-01) (4, 4.21065113196831131148e+00) (5, 4.44257134114981599993e+00) (6, 3.78021379634990450924e+00) (7, 8.33375568000746969055e-01) (8, 1.14818453405725651173e+00) (9, 3.81847210373925483040e+00) (10, -6.21385432890144784324e+00) (11, -6.60687721399600746963e+00) (12, 3.51944485074868362862e-01) (13, 2.15988301679225820351e+01) (14, -1.59148458776790868718e+00) 
