FANN_FLO_2.1
num_layers=3
learning_rate=0.700000
connection_rate=1.000000
network_type=0
learning_momentum=0.000000
training_algorithm=2
train_error_function=1
train_stop_function=1
cascade_output_change_fraction=0.010000
quickprop_decay=-0.000100
quickprop_mu=1.750000
rprop_increase_factor=1.200000
rprop_decrease_factor=0.500000
rprop_delta_min=0.000000
rprop_delta_max=50.000000
rprop_delta_zero=0.100000
cascade_output_stagnation_epochs=12
cascade_candidate_change_fraction=0.010000
cascade_candidate_stagnation_epochs=12
cascade_max_out_epochs=150
cascade_min_out_epochs=50
cascade_max_cand_epochs=150
cascade_min_cand_epochs=50
cascade_num_candidate_groups=2
bit_fail_limit=1.00000000000000005551e-01
cascade_candidate_limit=1.00000000000000000000e+03
cascade_weight_multiplier=4.00000000000000022204e-01
cascade_activation_functions_count=10
cascade_activation_functions=3 5 7 8 10 11 14 15 16 17 
cascade_activation_steepnesses_count=4
cascade_activation_steepnesses=2.50000000000000000000e-01 5.00000000000000000000e-01 7.50000000000000000000e-01 1.00000000000000000000e+00 
layer_sizes=19 11 2 
scale_included=0
neurons (num_inputs, activation_function, activation_steepness)=(0, 0, 0.00000000000000000000e+00) (0, 0, 0.00000000000000000000e+00) (0, 0, 0.00000000000000000000e+00) (0, 0, 0.00000000000000000000e+00) (0, 0, 0.00000000000000000000e+00) (0, 0, 0.00000000000000000000e+00) (0, 0, 0.00000000000000000000e+00) (0, 0, 0.00000000000000000000e+00) (0, 0, 0.00000000000000000000e+00) (0, 0, 0.00000000000000000000e+00) (0, 0, 0.00000000000000000000e+00) (0, 0, 0.00000000000000000000e+00) (0, 0, 0.00000000000000000000e+00) (0, 0, 0.00000000000000000000e+00) (0, 0, 0.00000000000000000000e+00) (0, 0, 0.00000000000000000000e+00) (0, 0, 0.00000000000000000000e+00) (0, 0, 0.00000000000000000000e+00) (0, 0, 0.00000000000000000000e+00) (19, 6, 5.00000000000000000000e-01) (19, 6, 5.00000000000000000000e-01) (19, 6, 5.00000000000000000000e-01) (19, 6, 5.00000000000000000000e-01) (19, 6, 5.00000000000000000000e-01) (19, 6, 5.00000000000000000000e-01) (19, 6, 5.00000000000000000000e-01) (19, 6, 5.00000000000000000000e-01) (19, 6, 5.00000000000000000000e-01) (19, 6, 5.00000000000000000000e-01) (0, 6, 0.00000000000000000000e+00) (11, 6, 5.00000000000000000000e-01) (0, 6, 0.00000000000000000000e+00) 
connections (connected_to_neuron, weight)=(0, -3.86733152660566119607e+01) (1, -1.08999991744545762784e-01) (2, -1.15948544770268308080e-01) (3, -3.04824579057968551854e-02) (4, -1.19374209970024944272e-01) (5, 3.05535264472794354518e+00) (6, 5.48144815282911146426e-01) (7, 4.44023958380533267931e-01) (8, 2.76607055109826638351e-01) (9, 4.78610733361994333812e-02) (10, 5.18209648894786489848e-01) (11, -6.38887172054632412888e-01) (12, 1.15617262348804517025e+00) (13, 1.03110390484545155765e+00) (14, -3.78029467175159339387e-01) (15, 3.65687388336173047065e+00) (16, 1.21439283470638192952e+00) (17, 1.03359733659337615919e+00) (18, -7.33465889910525636886e-01) (0, 1.01656796744793975762e+01) (1, 4.82001791857386729934e-01) (2, 4.13575793765688870529e-01) (3, 3.90497955642844174484e-01) (4, 3.37905190102959607223e-01) (5, -4.40747124549278090910e+00) (6, -2.43922651972539594745e-01) (7, 1.31151399700358783917e+01) (8, -1.73766945883898654701e-01) (9, -3.28153956006399183387e-01) (10, 8.92087239652659391709e+00) (11, 5.99373154772656047129e+00) (12, -1.42604138765113463982e+00) (13, -1.17553586662679609987e+00) (14, 8.90431879352888144830e-02) (15, -1.33711988100183520878e+00) (16, -6.35543691093485185739e-01) (17, -1.57750933714407004516e+00) (18, -7.77937966354902699084e-02) (0, -8.89399455441515307541e+00) (1, -8.38707430804356279808e-02) (2, -2.20524397357760165717e-01) (3, -5.15344782317264035743e-02) (4, -1.26520719989596158728e-01) (5, 5.44079235670089111920e+00) (6, -1.51549779485101981935e-01) (7, 3.76956932749378359482e-01) (8, 6.39150464763499348564e-02) (9, -2.31064955176774833312e-01) (10, 5.36774754759386296676e-01) (11, 5.96118183956357494679e+00) (12, 3.53424491439561838657e-01) (13, 3.26003391953524290781e-01) (14, -3.53368036567104970569e-01) (15, 2.35944517968858041845e-01) (16, -1.29423530292124333574e-01) (17, 3.01718419186311481717e-01) (18, -3.60898332104016450472e-01) (0, 1.15680881910957755743e+00) (1, 3.59325603712547020016e-03) (2, -3.97443722082282402397e-02) (3, -3.40427818788195946098e-02) (4, 9.77301423357818388471e-02) (5, -3.57198970530427650782e-02) (6, 7.66562365319643362893e-02) (7, -5.10464243441198436968e-02) (8, 2.00804932416443676635e-01) (9, 3.97811179898384770226e-01) (10, -2.46979204545652170077e-01) (11, -1.58527345244720496709e+00) (12, 1.37743923790239919391e-01) (13, -2.48691832907162152511e-01) (14, 4.35184631459732129688e-01) (15, 7.29756257820597109554e-02) (16, 4.09958611038312714658e-01) (17, -1.43125716164419110321e-02) (18, 1.37913908498407788983e-01) (0, -3.52438494068933536596e+01) (1, -1.36567022637304302801e-01) (2, -1.17857705787595648528e-01) (3, -7.24275372781123943922e-02) (4, -1.31461318568166729559e-01) (5, 1.57949598715238415103e+00) (6, 7.85447321500686523876e-01) (7, 3.10472138588030910356e+00) (8, 1.56513946914004470345e-01) (9, -4.16822406536683232048e-02) (10, 8.65927707399233526075e-01) (11, -1.22041943334650748731e+00) (12, 4.01487150869241637974e-01) (13, 3.66451023034222611585e-01) (14, -3.99375216036887803472e-01) (15, 6.05789193291672578567e-01) (16, 3.66754241478547016175e-01) (17, 2.98686466611120993164e+00) (18, -3.97289151707121257484e-01) (0, -3.10915604118959132407e+00) (1, -4.02906156238959714533e-02) (2, -8.15918213781760826020e-02) (3, -1.12536764797614586425e-02) (4, -1.97824022835199786474e-01) (5, 1.84624996430983423501e+00) (6, -6.31112831453859157715e-02) (7, 3.95184042726722473127e-01) (8, 1.28484658150428115997e-01) (9, -1.50746957170303147455e-01) (10, 2.71229623642796791039e-01) (11, 2.00208490231264324422e+00) (12, 8.28610339751154612031e-01) (13, 7.93031391949766018001e-01) (14, -8.16337401145174890171e-02) (15, 1.74488247052549505511e-01) (16, 2.77326332746713824506e-02) (17, 2.82960029835394144548e-01) (18, -6.74478386522431860861e-01) (0, 4.80875662170650475247e+00) (1, 2.00428929096827940226e-01) (2, 2.75635655886302455286e-01) (3, 1.54419332659611968639e-01) (4, 2.21256781286368831019e-01) (5, -3.68154849553426544162e+00) (6, -6.53091384223695503586e-01) (7, 1.34064242084643474584e+01) (8, 2.89360379589856664406e-01) (9, 6.83081992510438384958e-02) (10, 1.01095881411199801647e+01) (11, 5.97031341923611247324e+00) (12, -1.34945868363524001943e+00) (13, -1.31979332468948640233e+00) (14, 4.07532102041731847386e-01) (15, -2.94126488129617835732e-01) (16, -8.71000345462029368360e-02) (17, -2.70229444896387382968e+00) (18, -2.56266192095497558068e-01) (0, 4.51619147253859942737e+00) (1, 3.07813283801933512684e-01) (2, 3.00493170321842417714e-01) (3, 2.58448325843473658558e-01) (4, 2.43829858303924534857e-01) (5, -2.46584394050833166645e+00) (6, 1.81325153757594503823e-01) (7, 1.98658288777648088796e+01) (8, 5.86000426303051602517e-01) (9, 1.59416487504586368296e+00) (10, 4.24338215155354774311e+01) (11, -2.29280834329405642791e+01) (12, 8.30065808223692580547e-01) (13, 9.93829345472743486134e-01) (14, 9.16213974808914421999e-01) (15, 3.06555772011647498232e+00) (16, 7.35118123393974975954e-01) (17, -1.23276259545401911666e+00) (18, 8.98584436066303116064e-01) (0, -5.61233196188052740894e+00) (1, -2.05175459523834258224e-01) (2, -1.53292250027097731735e-01) (3, -1.47903792699016600753e-01) (4, -1.34456701715625792648e-01) (5, -4.21230901238687582833e+00) (6, 4.08818629042916270588e-01) (7, 8.61583726210910949561e-01) (8, 6.34767519418303560741e-01) (9, 1.90117554365893948187e-01) (10, 1.11544844600511261490e+00) (11, -5.31087095461071712066e+00) (12, 3.28538292601688181049e-02) (13, -2.99282380279260011580e-02) (14, -1.50099369824135353557e-01) (15, 8.77130778344916484102e-01) (16, 5.20131250680753831617e-01) (17, 5.45261289540783788965e-01) (18, 4.45123020720350134893e-02) (0, 9.51547377630826574091e+00) (1, 4.74316026233340404250e-01) (2, 4.46627582572604153732e-01) (3, 4.69277630709315274338e-01) (4, 4.73029042743350169875e-01) (5, -4.36089725105942527250e+00) (6, -4.83459425843436152448e-01) (7, 1.28526202923480177276e+01) (8, -1.01202424511579486266e-01) (9, -3.76509039919010135566e-01) (10, 8.28211498571445048356e+00) (11, 6.06262282712595546030e+00) (12, -1.26460311624782195672e+00) (13, -1.21966815144687612538e+00) (14, 1.62844642043794701758e-01) (15, -1.50146889307868991459e+00) (16, -5.03124425286810006419e-01) (17, -1.57829199083345450561e+00) (18, -5.13776460031526716055e-02) (19, 5.03375997303800448712e-01) (20, 4.91043392923370403125e-01) (21, 7.32558615092800069490e-01) (22, 1.43482836633834626161e-01) (23, 9.26681164533086798585e-01) (24, 4.04260143789736958730e-01) (25, 5.52525397744670576650e-01) (26, 2.56488393409763149045e-01) (27, -3.10103185362269884173e-01) (28, 5.02019752171531163931e-01) (29, 3.73635215666788089717e-01) 
