FANN_FLO_2.1
num_layers=3
learning_rate=0.700000
connection_rate=1.000000
network_type=0
learning_momentum=0.000000
training_algorithm=2
train_error_function=1
train_stop_function=1
cascade_output_change_fraction=0.010000
quickprop_decay=-0.000100
quickprop_mu=1.750000
rprop_increase_factor=1.200000
rprop_decrease_factor=0.500000
rprop_delta_min=0.000000
rprop_delta_max=50.000000
rprop_delta_zero=0.100000
cascade_output_stagnation_epochs=12
cascade_candidate_change_fraction=0.010000
cascade_candidate_stagnation_epochs=12
cascade_max_out_epochs=150
cascade_min_out_epochs=50
cascade_max_cand_epochs=150
cascade_min_cand_epochs=50
cascade_num_candidate_groups=2
bit_fail_limit=1.00000000000000005551e-01
cascade_candidate_limit=1.00000000000000000000e+03
cascade_weight_multiplier=4.00000000000000022204e-01
cascade_activation_functions_count=10
cascade_activation_functions=3 5 7 8 10 11 14 15 16 17 
cascade_activation_steepnesses_count=4
cascade_activation_steepnesses=2.50000000000000000000e-01 5.00000000000000000000e-01 7.50000000000000000000e-01 1.00000000000000000000e+00 
layer_sizes=17 11 2 
scale_included=0
neurons (num_inputs, activation_function, activation_steepness)=(0, 0, 0.00000000000000000000e+00) (0, 0, 0.00000000000000000000e+00) (0, 0, 0.00000000000000000000e+00) (0, 0, 0.00000000000000000000e+00) (0, 0, 0.00000000000000000000e+00) (0, 0, 0.00000000000000000000e+00) (0, 0, 0.00000000000000000000e+00) (0, 0, 0.00000000000000000000e+00) (0, 0, 0.00000000000000000000e+00) (0, 0, 0.00000000000000000000e+00) (0, 0, 0.00000000000000000000e+00) (0, 0, 0.00000000000000000000e+00) (0, 0, 0.00000000000000000000e+00) (0, 0, 0.00000000000000000000e+00) (0, 0, 0.00000000000000000000e+00) (0, 0, 0.00000000000000000000e+00) (0, 0, 0.00000000000000000000e+00) (17, 6, 5.00000000000000000000e-01) (17, 6, 5.00000000000000000000e-01) (17, 6, 5.00000000000000000000e-01) (17, 6, 5.00000000000000000000e-01) (17, 6, 5.00000000000000000000e-01) (17, 6, 5.00000000000000000000e-01) (17, 6, 5.00000000000000000000e-01) (17, 6, 5.00000000000000000000e-01) (17, 6, 5.00000000000000000000e-01) (17, 6, 5.00000000000000000000e-01) (0, 6, 0.00000000000000000000e+00) (11, 6, 5.00000000000000000000e-01) (0, 6, 0.00000000000000000000e+00) 
connections (connected_to_neuron, weight)=(0, -1.38821044510324380639e+01) (1, -2.68993506224030731744e-01) (2, -2.68166149051064728326e-01) (3, -3.35950167865628479547e-01) (4, -2.11820537240380496469e-01) (5, 1.47503821830512626967e+00) (6, -5.95241812517790028214e-02) (7, 1.06618894158193677768e+00) (8, 9.08650208456088237519e-01) (9, 3.05891041650660522322e+00) (10, 1.01128997109009821642e+00) (11, 9.15770558627369668514e-01) (12, 1.40868451215945378330e+00) (13, 1.30143574550147134161e+00) (14, 3.14411893966145372659e+00) (15, 2.78908628968215577260e+00) (16, -1.55394557403515265470e+00) (0, 1.02426208938082727307e-01) (1, 5.23196426240284031411e-04) (2, 7.77099001081861390228e-02) (3, 1.48338893321362824684e-01) (4, 1.65371055575288528061e-02) (5, -1.96506591905080196803e+00) (6, 4.62016572907950895388e-01) (7, 4.95813375931755895287e-01) (8, 1.00186649239909289499e-01) (9, -8.34991510394232139269e-01) (10, 2.81039964972275334645e-03) (11, -2.03410087226355312806e-01) (12, -2.23116431387925306939e-01) (13, 1.76482500491379784568e-01) (14, -4.86534792649548797350e-01) (15, -5.40435194386539530242e-01) (16, 6.14949179665061091554e-03) (0, -6.61170761768251208368e-02) (1, 6.53229176063333194513e-01) (2, 7.35523856241498630304e-01) (3, 6.74496988762412708063e-01) (4, 7.30851224620137851495e-01) (5, -2.46902487456671926314e-01) (6, 2.16092978396253130313e+01) (7, -6.52340287834852272653e+00) (8, 2.72607128591639913395e+00) (9, 1.44858452863411435452e+00) (10, 3.69528147071540746804e-01) (11, 4.16976727987986295343e-01) (12, 1.28203320823934796557e+00) (13, 6.17279444131032084542e-01) (14, 2.28673691588045358003e+00) (15, 1.00520638188324595852e+00) (16, 6.63622807601801811828e-01) (0, 1.32142203506070887720e+00) (1, 2.89840403339727548104e-01) (2, 2.83441069862707284432e-01) (3, 2.15340319416387621088e-01) (4, 2.15806256375177446527e-01) (5, -3.48147248337116366201e+00) (6, 1.38759675228967371829e-01) (7, 2.47439316241970921340e+01) (8, 8.93603071402799820078e-02) (9, -3.83810123350150433907e+00) (10, -1.61029203745793769720e-01) (11, 1.49876927004480131611e-01) (12, -1.71964847292633105091e+00) (13, -3.60804835632792153532e+00) (14, -4.73285311228296912134e+00) (15, -4.08958477877928316957e+00) (16, 3.21263998938931927274e-01) (0, 7.21514903409416596958e-01) (1, 2.23229253052445036909e-01) (2, 1.84823566435547453901e-01) (3, 2.30502800403805357954e-01) (4, 1.75417491553993803999e-01) (5, 1.23030340309969976609e+00) (6, 9.67239543808193075192e-02) (7, -1.05153562977816661395e+00) (8, 1.11648861696986970160e-01) (9, -7.06301754171993034781e-01) (10, 3.68794259362705323380e-01) (11, 2.27694258043332570240e-01) (12, 7.05439969643747399886e+00) (13, 2.18806492612165692790e+00) (14, -5.34829857971196198640e-01) (15, 4.76405930115467857178e+00) (16, 2.33819197942144285651e-01) (0, 7.48542778594429636385e-01) (1, 2.63450459896298061491e-01) (2, 1.18799449263783052366e-01) (3, 1.16913863776894166868e-01) (4, 2.50784741102428987425e-01) (5, 7.30523225432785805467e-01) (6, -2.84470815400403274908e-02) (7, -1.19827486288098183920e+00) (8, 2.60236497696951951664e-01) (9, -6.00188178929622839775e-01) (10, 4.84777629207371829612e-01) (11, 9.76633947202106694752e-02) (12, 1.37173116461913515707e+01) (13, 2.89767670596697612950e+00) (14, 4.33900656663436912197e-01) (15, 6.99378318047324931683e+00) (16, 3.09423554767496000739e-01) (0, -1.27594878870668948512e-01) (1, 6.30090249169111382699e-01) (2, 6.56223082381725442147e-01) (3, 6.32615258383989464974e-01) (4, 6.28442486214876305795e-01) (5, -1.06912229800473146391e+00) (6, 4.31370783319341484230e+01) (7, -7.57039599544565255940e+00) (8, 1.93056638416456483043e+00) (9, 3.29590190633844715151e+00) (10, 2.05991047838368253053e+01) (11, 7.57627401150361090565e-01) (12, 2.26403124329546789895e+00) (13, 3.15364840034810933744e+00) (14, 2.32808157449971941944e+00) (15, 1.58367766971178547397e-01) (16, 1.03313954951597763987e+00) (0, 6.79009088849755415573e-01) (1, 1.84009674971626818740e-01) (2, 1.93242792075203478896e-01) (3, 8.23245309644208417277e-02) (4, 8.42144452386365260921e-02) (5, -4.99533919520813052273e-01) (6, -3.24434228285010953924e-03) (7, -2.06711798304285487848e-01) (8, 2.49788968928049526230e-01) (9, -4.82854000060698851371e+00) (10, 3.36070353296659685149e-01) (11, 3.96738504190959850870e-01) (12, -1.44054597081834234729e+00) (13, -1.74161401926247161320e+00) (14, -3.44140693923446283620e+00) (15, -3.94298147071130555830e+00) (16, 1.33178367330624658482e-01) (0, 6.17012814087803285190e-01) (1, 2.77361814484238189404e-01) (2, 1.97786521718143870618e-01) (3, 1.20576020881771481252e-01) (4, 1.04567688510059750295e-01) (5, 6.63779564174209690819e-01) (6, 1.37296998386436885919e-01) (7, -1.02874228370849030156e+00) (8, 2.07297332083015622972e-01) (9, -6.38995471767572986721e-01) (10, 2.59585087693389615637e-01) (11, 2.50424625836938419265e-01) (12, 7.07289219394123147566e+00) (13, 2.94181797618725582311e+00) (14, -1.70047839237392361955e-01) (15, 2.69213857753460938937e+00) (16, 1.94122631181604277106e-01) (0, 1.32757845139780061849e+00) (1, 1.38733366486849363231e-01) (2, 2.22880894300760801219e-01) (3, 1.03622959909262291056e-01) (4, 9.72770396445413465525e-02) (5, 1.35997010320728044519e+01) (6, 2.00955322328961694112e+00) (7, 1.58927981135180185213e+00) (8, 6.84496028386240573660e-01) (9, -1.08580043545283206896e+01) (10, 8.02503512999948753759e+00) (11, 1.23077280632254737469e+01) (12, 1.21004888737140059440e+00) (13, -5.33095945540147053698e-01) (14, -4.09284969507128248978e+00) (15, -4.85897490245903984629e+00) (16, 1.21890859523681882592e+00) (17, 9.20785449943079647994e-01) (18, -2.57348147731934207005e-01) (19, -1.93372082474764311888e-01) (20, 5.59064445140957211322e-01) (21, 3.00175819059182669157e-01) (22, 2.49168190618325707808e-01) (23, -1.94040414455469573118e-01) (24, -7.83618250552975181833e-01) (25, 2.22135085014621092014e-01) (26, 5.78997445182226067040e-01) (27, 3.07658962284526327213e-01) 
