FANN_FLO_2.1
num_layers=3
learning_rate=0.700000
connection_rate=1.000000
network_type=0
learning_momentum=0.000000
training_algorithm=2
train_error_function=1
train_stop_function=1
cascade_output_change_fraction=0.010000
quickprop_decay=-0.000100
quickprop_mu=1.750000
rprop_increase_factor=1.200000
rprop_decrease_factor=0.500000
rprop_delta_min=0.000000
rprop_delta_max=50.000000
rprop_delta_zero=0.100000
cascade_output_stagnation_epochs=12
cascade_candidate_change_fraction=0.010000
cascade_candidate_stagnation_epochs=12
cascade_max_out_epochs=150
cascade_min_out_epochs=50
cascade_max_cand_epochs=150
cascade_min_cand_epochs=50
cascade_num_candidate_groups=2
bit_fail_limit=1.00000000000000005551e-01
cascade_candidate_limit=1.00000000000000000000e+03
cascade_weight_multiplier=4.00000000000000022204e-01
cascade_activation_functions_count=10
cascade_activation_functions=3 5 7 8 10 11 14 15 16 17 
cascade_activation_steepnesses_count=4
cascade_activation_steepnesses=2.50000000000000000000e-01 5.00000000000000000000e-01 7.50000000000000000000e-01 1.00000000000000000000e+00 
layer_sizes=7 4 2 
scale_included=0
neurons (num_inputs, activation_function, activation_steepness)=(0, 0, 0.00000000000000000000e+00) (0, 0, 0.00000000000000000000e+00) (0, 0, 0.00000000000000000000e+00) (0, 0, 0.00000000000000000000e+00) (0, 0, 0.00000000000000000000e+00) (0, 0, 0.00000000000000000000e+00) (0, 0, 0.00000000000000000000e+00) (7, 6, 5.00000000000000000000e-01) (7, 6, 5.00000000000000000000e-01) (7, 6, 5.00000000000000000000e-01) (0, 6, 0.00000000000000000000e+00) (4, 4, 5.00000000000000000000e-01) (0, 4, 0.00000000000000000000e+00) 
connections (connected_to_neuron, weight)=(0, 1.04968999175975619131e+00) (1, 3.73290086725715175575e+00) (2, -2.00271256596999680522e-02) (3, 3.66892598475239628542e+00) (4, 3.58264520670197361696e+00) (5, 1.49690826825612788298e+00) (6, -1.46145166631112144451e+00) (0, 1.28252875198597626749e-01) (1, -2.36090489468344300050e+00) (2, 6.02566135109266043379e-01) (3, -2.20121744880059422300e+00) (4, -2.20127174962471050534e+00) (5, -9.73068226168315009161e-01) (6, 1.72644237872990058413e+00) (0, 9.88119950878121988680e-01) (1, 3.97066772841687853912e+00) (2, -2.26144813330131089213e-02) (3, 3.68549279774449223268e+00) (4, 3.72052518184206837404e+00) (5, 1.43991005264037852385e+00) (6, -1.49640336434612319927e+00) (7, 3.13585854058959823121e+00) (8, -2.07391802390935815481e+01) (9, 3.07458688801029067506e+00) (10, -1.41001886676321075420e+00) 
