FANN_FLO_2.1
num_layers=3
learning_rate=0.700000
connection_rate=1.000000
network_type=0
learning_momentum=0.000000
training_algorithm=2
train_error_function=1
train_stop_function=1
cascade_output_change_fraction=0.010000
quickprop_decay=-0.000100
quickprop_mu=1.750000
rprop_increase_factor=1.200000
rprop_decrease_factor=0.500000
rprop_delta_min=0.000000
rprop_delta_max=50.000000
rprop_delta_zero=0.100000
cascade_output_stagnation_epochs=12
cascade_candidate_change_fraction=0.010000
cascade_candidate_stagnation_epochs=12
cascade_max_out_epochs=150
cascade_min_out_epochs=50
cascade_max_cand_epochs=150
cascade_min_cand_epochs=50
cascade_num_candidate_groups=2
bit_fail_limit=1.00000000000000005551e-01
cascade_candidate_limit=1.00000000000000000000e+03
cascade_weight_multiplier=4.00000000000000022204e-01
cascade_activation_functions_count=10
cascade_activation_functions=3 5 7 8 10 11 14 15 16 17 
cascade_activation_steepnesses_count=4
cascade_activation_steepnesses=2.50000000000000000000e-01 5.00000000000000000000e-01 7.50000000000000000000e-01 1.00000000000000000000e+00 
layer_sizes=17 11 2 
scale_included=0
neurons (num_inputs, activation_function, activation_steepness)=(0, 0, 0.00000000000000000000e+00) (0, 0, 0.00000000000000000000e+00) (0, 0, 0.00000000000000000000e+00) (0, 0, 0.00000000000000000000e+00) (0, 0, 0.00000000000000000000e+00) (0, 0, 0.00000000000000000000e+00) (0, 0, 0.00000000000000000000e+00) (0, 0, 0.00000000000000000000e+00) (0, 0, 0.00000000000000000000e+00) (0, 0, 0.00000000000000000000e+00) (0, 0, 0.00000000000000000000e+00) (0, 0, 0.00000000000000000000e+00) (0, 0, 0.00000000000000000000e+00) (0, 0, 0.00000000000000000000e+00) (0, 0, 0.00000000000000000000e+00) (0, 0, 0.00000000000000000000e+00) (0, 0, 0.00000000000000000000e+00) (17, 6, 5.00000000000000000000e-01) (17, 6, 5.00000000000000000000e-01) (17, 6, 5.00000000000000000000e-01) (17, 6, 5.00000000000000000000e-01) (17, 6, 5.00000000000000000000e-01) (17, 6, 5.00000000000000000000e-01) (17, 6, 5.00000000000000000000e-01) (17, 6, 5.00000000000000000000e-01) (17, 6, 5.00000000000000000000e-01) (17, 6, 5.00000000000000000000e-01) (0, 6, 0.00000000000000000000e+00) (11, 6, 5.00000000000000000000e-01) (0, 6, 0.00000000000000000000e+00) 
connections (connected_to_neuron, weight)=(0, -5.17941176105809120145e+00) (1, -1.95193645546835325977e-01) (2, -5.29080564181026308246e-02) (3, -4.55886358420070497699e-02) (4, -1.69243172744911629657e-01) (5, -2.47946723969937714294e-02) (6, 9.48254211398149721157e-02) (7, 1.30593865097494710170e+00) (8, 8.29138667023076258999e-01) (9, 2.66661395372538745363e-01) (10, 5.00997545564307450450e-02) (11, 2.09914868841668145194e+00) (12, -6.33045248679981464868e-02) (13, 4.07930479955455164986e-03) (14, -6.38609316172953467294e-01) (15, -6.57851584704867986542e-02) (16, -3.31149558055092219089e-01) (0, 5.19016618472490876002e+00) (1, 1.33336305678839417421e-01) (2, 6.07897639880130777335e-02) (3, 4.16637436160991678213e-02) (4, 1.09432667554373488916e-01) (5, 2.83413337986265445601e-01) (6, 2.95713199203262711023e+00) (7, -2.88755718410721495815e+00) (8, -2.81939968541830232596e+00) (9, -7.08270201266509413784e+00) (10, 4.93112263180783738648e+00) (11, -4.32340248966855789092e+00) (12, 1.13182494950604284334e+00) (13, 7.78793651220850424721e-02) (14, -1.25513248325422210883e+00) (15, -4.71096616365684200955e-03) (16, -2.20493826616105198513e-01) (0, 3.46628260435979940191e-01) (1, -2.25550414997152080809e-02) (2, -8.44242082911542401913e-02) (3, -5.36637188869527534396e-02) (4, -4.49973115700296119601e-02) (5, 2.68997565598246782953e-03) (6, 1.04725809122838631193e-01) (7, 7.29052453584407178511e-01) (8, 2.17134041482472150975e+00) (9, -3.16083969252054473031e+01) (10, -1.15239787315315234117e+00) (11, -3.31118824609532680370e-01) (12, -8.12409239991425113914e-01) (13, -8.26401148273295804714e-02) (14, -1.96261113416583077296e+00) (15, -3.32125497512275906151e-04) (16, 1.97996625631159828274e-01) (0, -7.99456738059830418486e-01) (1, -3.08250681594939776597e-02) (2, -2.30464384988875829741e-02) (3, -3.97749702492666921266e-03) (4, -1.30730462177190365214e-01) (5, -2.21145962188692313255e-01) (6, -2.17467431982248632361e-01) (7, 7.31961130379467861395e-01) (8, 1.07480986981519754941e+00) (9, 2.91971299548107299238e-01) (10, -9.76987512652593460827e-03) (11, 4.94466240373917342854e-01) (12, -9.56063145882875553561e-01) (13, -9.74678089883869031018e-02) (14, -2.95190206367169860613e-01) (15, -1.22543466236346570986e-01) (16, -2.85902498739649180148e-01) (0, -3.82959852213717311109e-01) (1, -1.67671839828564296637e-02) (2, 4.64104835753368014095e-02) (3, -2.96871389384342626583e-02) (4, 6.49790142540858373099e-02) (5, -2.21678986039804161445e-02) (6, 9.11017325337680899944e-02) (7, 1.20743828663461738593e+00) (8, 6.96747432771083197167e-01) (9, 7.47316762133849593619e-02) (10, 8.65542109684028504457e-02) (11, 1.83133389284253000895e+00) (12, -6.39922951235133014025e-02) (13, -4.46636027504455981885e-02) (14, 6.02487725486024680577e-02) (15, -8.94592548260221831491e-02) (16, -3.27983570842369898113e-01) (0, 2.90928736050271119495e+00) (1, 1.52156885713642997526e-01) (2, 1.38655003160542411589e-01) (3, 8.98388922217548679949e-02) (4, 1.03191334754532695883e-01) (5, 1.19222433215408729623e+00) (6, 1.01689901247567444642e+01) (7, -2.85435487644749485980e+00) (8, -4.60123304184043391274e+00) (9, 2.65480729320689306405e+02) (10, 4.75454571649813999556e+01) (11, -3.71497717977236296960e+00) (12, 3.47816234756073261458e-01) (13, -1.52400827105962310970e-01) (14, 9.72972051539646898277e+00) (15, -8.41055045629903741400e-02) (16, 5.10390583633270389363e-01) (0, -2.06288414993312463341e-01) (1, 1.42008934979365869511e-02) (2, -3.86802653904034163257e-02) (3, 4.83432159470782284866e-03) (4, 2.14781735901759945895e-02) (5, -1.95152033182626832852e-01) (6, -1.87536311532519195389e+00) (7, -8.40519022093131340512e-02) (8, 2.96239253798879325075e+01) (9, 2.13056628262477676383e-01) (10, -1.26158580281086551977e+00) (11, -5.15541700374944622531e-01) (12, -1.03432799367225033982e-01) (13, -5.81833565659582233054e-02) (14, -1.42455992133079156758e+00) (15, 1.22127296425259814980e-03) (16, -1.60881689335365229976e-01) (0, 3.75291335894733735223e-01) (1, -5.11915773226838677346e-02) (2, -1.03749664135179983648e-01) (3, 4.69975009487051467727e-02) (4, 1.18771627471823317673e-02) (5, 7.96707530248002143702e-02) (6, 5.78956992929682057181e-01) (7, -1.47207209555406350887e+01) (8, 2.71687103088395442985e-01) (9, -1.92266943092570752327e-01) (10, 1.45365749599539406667e+00) (11, -1.00884573734560845537e+02) (12, 9.93224937534227803049e-02) (13, -8.72786101460555803488e-03) (14, 5.52613884245800934814e-01) (15, 1.58741268462742092515e-02) (16, 1.47962444449021096604e-01) (0, 3.29429288871665226779e-01) (1, -8.68645415080916694084e-02) (2, -6.43603060377953041515e-03) (3, 2.46490358935463581280e-02) (4, -1.03698562122715692846e-01) (5, -7.78788398582841018269e-02) (6, -1.21347281747181567901e-01) (7, 4.31337578422200773609e-01) (8, 2.07545971268677442723e+00) (9, -3.16544385665898104776e+01) (10, -1.01093514477199564183e+00) (11, 3.80399434771169386860e-01) (12, -7.70486208780525760886e-01) (13, 3.22375785277538573492e-02) (14, -1.88244494702846543177e+00) (15, -1.17937944596235876928e-03) (16, 2.90092492430514492519e-01) (0, -3.39667545531477821363e-01) (1, 2.62652649199684243286e-02) (2, -8.79478627229015597067e-02) (3, -1.33143274613646639404e-01) (4, 4.56461175000388991174e-02) (5, -1.48955033218165416864e-01) (6, -8.07837081702348247525e-01) (7, -1.03323299225160647463e-01) (8, 2.55031916699558935946e+00) (9, 1.05550340800819680842e-01) (10, -1.82337910010517156856e+00) (11, 2.57347712797471109281e-02) (12, -3.57701594456017790691e-01) (13, -5.67954504844385490991e-02) (14, -2.69755436140683091395e-01) (15, 1.69892264694018191307e-02) (16, -1.68175503631707357055e-01) (17, 5.16386281756502141249e-01) (18, 1.44691268926874783141e-01) (19, -2.26185112367736529393e-01) (20, 4.38912945787517660978e-01) (21, 5.13277412463680193788e-01) (22, 6.50298051404217036797e-01) (23, 4.03062090412888707203e-01) (24, -1.60567272273347744216e-01) (25, -1.59124852268531236099e-01) (26, 3.81201456002566996251e-01) (27, 3.27084026224462920407e-01) 
