FANN_FLO_2.1
num_layers=3
learning_rate=0.700000
connection_rate=1.000000
network_type=0
learning_momentum=0.000000
training_algorithm=2
train_error_function=1
train_stop_function=1
cascade_output_change_fraction=0.010000
quickprop_decay=-0.000100
quickprop_mu=1.750000
rprop_increase_factor=1.200000
rprop_decrease_factor=0.500000
rprop_delta_min=0.000000
rprop_delta_max=50.000000
rprop_delta_zero=0.100000
cascade_output_stagnation_epochs=12
cascade_candidate_change_fraction=0.010000
cascade_candidate_stagnation_epochs=12
cascade_max_out_epochs=150
cascade_min_out_epochs=50
cascade_max_cand_epochs=150
cascade_min_cand_epochs=50
cascade_num_candidate_groups=2
bit_fail_limit=1.00000000000000005551e-01
cascade_candidate_limit=1.00000000000000000000e+03
cascade_weight_multiplier=4.00000000000000022204e-01
cascade_activation_functions_count=10
cascade_activation_functions=3 5 7 8 10 11 14 15 16 17 
cascade_activation_steepnesses_count=4
cascade_activation_steepnesses=2.50000000000000000000e-01 5.00000000000000000000e-01 7.50000000000000000000e-01 1.00000000000000000000e+00 
layer_sizes=18 11 2 
scale_included=0
neurons (num_inputs, activation_function, activation_steepness)=(0, 0, 0.00000000000000000000e+00) (0, 0, 0.00000000000000000000e+00) (0, 0, 0.00000000000000000000e+00) (0, 0, 0.00000000000000000000e+00) (0, 0, 0.00000000000000000000e+00) (0, 0, 0.00000000000000000000e+00) (0, 0, 0.00000000000000000000e+00) (0, 0, 0.00000000000000000000e+00) (0, 0, 0.00000000000000000000e+00) (0, 0, 0.00000000000000000000e+00) (0, 0, 0.00000000000000000000e+00) (0, 0, 0.00000000000000000000e+00) (0, 0, 0.00000000000000000000e+00) (0, 0, 0.00000000000000000000e+00) (0, 0, 0.00000000000000000000e+00) (0, 0, 0.00000000000000000000e+00) (0, 0, 0.00000000000000000000e+00) (0, 0, 0.00000000000000000000e+00) (18, 6, 5.00000000000000000000e-01) (18, 6, 5.00000000000000000000e-01) (18, 6, 5.00000000000000000000e-01) (18, 6, 5.00000000000000000000e-01) (18, 6, 5.00000000000000000000e-01) (18, 6, 5.00000000000000000000e-01) (18, 6, 5.00000000000000000000e-01) (18, 6, 5.00000000000000000000e-01) (18, 6, 5.00000000000000000000e-01) (18, 6, 5.00000000000000000000e-01) (0, 6, 0.00000000000000000000e+00) (11, 6, 5.00000000000000000000e-01) (0, 6, 0.00000000000000000000e+00) 
connections (connected_to_neuron, weight)=(0, 1.53542501053766566876e+00) (1, 2.97808599952187502691e-01) (2, 2.99416971686806643316e-01) (3, 2.89487962904896700689e-01) (4, 2.45063823941674086004e-01) (5, -2.93904595463873263839e-01) (6, -1.07945519753808671926e-01) (7, -6.28283968515535562460e+00) (8, 1.38669009182965119464e+00) (9, -6.93862212947207890323e+00) (10, 4.15103777050769950918e-01) (11, -4.92297987438104822644e-01) (12, -2.48379362109214874010e+00) (13, -2.72345152120843758681e+00) (14, -5.13366665627481788547e-01) (15, 1.12904267330872762343e-01) (16, -1.60700992178115198428e+00) (17, 6.05552424491002327933e-01) (0, 4.19479705370849220714e+00) (1, 3.53312225213975150684e-01) (2, 3.43220503202408988574e-01) (3, 3.19199935666054868122e-01) (4, 2.91413010230988700489e-01) (5, 3.64143864228065883282e-01) (6, 2.52872776746885297161e-01) (7, -1.39519993950474008315e+00) (8, -8.09791647133797809488e+00) (9, 1.79560741906911791599e-01) (10, 4.12789528460448251757e-01) (11, -8.42590179360947932885e-01) (12, -2.47080203924106589497e+00) (13, -1.47368820902293395925e+00) (14, -9.92997785178873049183e-01) (15, 9.44445680564982986693e-02) (16, 3.05689771729706905035e-02) (17, 3.69076132251556610075e-01) (0, 1.37474988344927488981e+01) (1, 6.01627448492727645579e-01) (2, 6.08200961642942794505e-01) (3, 6.14166980528316863719e-01) (4, 7.03294766985855246411e-01) (5, -1.29602875327340827383e+00) (6, -9.57207117517138716956e-01) (7, -7.75239423353743806189e+00) (8, 7.79659182711636589147e-01) (9, -7.44133058902563337966e+00) (10, -5.57527094081822882643e-01) (11, -5.16719063031651160145e+00) (12, -5.73068210675788392017e-01) (13, -2.55769543965449708267e-01) (14, -6.12004477258837198406e+00) (15, -1.52543604688701761596e+00) (16, -2.89655344426169192307e-01) (17, 1.17352093171419036288e+00) (0, 3.88523497882654877955e+00) (1, 3.83399499600860671489e-01) (2, 2.68084244823190764873e-01) (3, 2.61222561841938094584e-01) (4, 3.12073444968196944682e-01) (5, -5.61275046822593687290e-03) (6, 1.19279374898584950015e-01) (7, 1.70933419024344281922e+01) (8, 3.68918135279156587103e+01) (9, 3.47780064146010374770e+01) (10, 9.69037890618676289733e-01) (11, -1.16938147304094663959e+00) (12, -1.89221398281401587127e+00) (13, -9.80007932889462751724e-01) (14, 1.88210987291152562761e+01) (15, 2.88610267530134634306e-01) (16, 1.84165074168052250725e-01) (17, 1.10744060830353485692e-01) (0, 2.39004347206763867462e+00) (1, 3.07369491106006698100e-01) (2, 3.82239056771728591411e-01) (3, 2.66223503297302321879e-01) (4, 3.06462882107231215922e-01) (5, 1.57817052811420360792e-01) (6, 2.30925332733333571467e-01) (7, 1.71551062768097715150e+01) (8, 3.68138112389780900457e+01) (9, 3.46850117768136954055e+01) (10, 9.36347913181418523010e-01) (11, -6.14440654539509800713e-01) (12, -1.76855461793488477618e+00) (13, -2.03544732398392547168e+00) (14, 1.89059077567274655962e+01) (15, 3.23889660881268914849e-01) (16, -1.21425896538084332477e-01) (17, 7.59452788727110472689e-02) (0, 3.74256562891772004420e+00) (1, 4.12348402684661941020e-01) (2, 2.22765890902015845088e-01) (3, 2.35551333075496832636e-01) (4, 4.03511090224716262309e-01) (5, 8.71498455703622887381e-02) (6, 1.31482691556977782099e-01) (7, 1.69733038326497869264e+01) (8, 3.68354400658347032049e+01) (9, 3.47428805480687117324e+01) (10, 1.02274286392890889630e+00) (11, -1.29758686606381767881e+00) (12, -1.90727469819134687334e+00) (13, -1.61285048665806085566e+00) (14, 1.89208372003252591753e+01) (15, 3.47483365061473925550e-01) (16, 1.92982910810317570549e-01) (17, 1.43133178530534588280e-01) (0, 2.55657197070898023483e+00) (1, 3.06264174983467973856e-01) (2, 2.99783846244778551249e-01) (3, 2.34140088663067708064e-01) (4, 4.04432227716412462382e-01) (5, -3.53740960746408872328e-01) (6, -1.21571888214130230388e-01) (7, -6.84785984310827267052e+00) (8, 1.63115734437941117818e+00) (9, -7.03393655023175679020e+00) (10, 5.64049933525943125723e-01) (11, -8.01996244914639722090e-01) (12, -2.55844978722841354113e+00) (13, -2.73308105343595109105e+00) (14, -5.80197416933010967632e-01) (15, 3.68178530266976937468e-03) (16, -1.48292825054320642764e+00) (17, 4.81801981986535843294e-01) (0, 1.37874771251138721340e+01) (1, 5.20179021502904403995e-01) (2, 5.56965778912477005314e-01) (3, 5.71710798288754706853e-01) (4, 6.76215852941445594304e-01) (5, -9.42194475138500631139e-01) (6, -1.50204950312295126835e+00) (7, -2.43167186194493334384e+00) (8, -2.07446240154176653192e+00) (9, -1.96613790366039165036e+00) (10, -1.76265061880835870178e-02) (11, -7.86880137691372283371e+00) (12, -4.05886542754315993164e+00) (13, -8.95871365619837267680e-01) (14, -5.91871911128028393989e+00) (15, 4.42999476333547415052e-01) (16, 7.22429694399046029574e-01) (17, 6.67232291734069726807e-01) (0, 2.00879031367569744759e+01) (1, 6.22492178014618202653e-01) (2, 5.75979067615372208877e-01) (3, 6.12021452418667122330e-01) (4, 6.28845086923939033952e-01) (5, -8.12329234103354003160e-01) (6, -2.15491781237948570871e-01) (7, -8.81406222119012561222e+00) (8, 1.11283319998118246374e+00) (9, -8.56606342215041927091e+00) (10, -6.72089539171411787244e-01) (11, 3.31325609424113376456e-01) (12, -3.54598358391835377645e+00) (13, -2.31322683055150735143e+00) (14, -8.12580184490626322713e+00) (15, -7.26907893694765938619e-01) (16, 1.41454618608799986834e-01) (17, 8.17821302281718565119e-01) (0, 1.00636228981455957410e+01) (1, 6.50851661023623573321e-01) (2, 6.68810939100510482014e-01) (3, 7.55459582117325667561e-01) (4, 6.28669658360011207598e-01) (5, -3.03912309648051648381e+00) (6, -1.38927013046335945390e+00) (7, -7.07097232227363647894e+00) (8, 5.23538310038785148492e-01) (9, -7.26835009730202319389e+00) (10, -6.40410116598292944445e-01) (11, -5.53158305642741154884e+00) (12, -1.48405863769913472228e-03) (13, -1.12632870713403887564e+00) (14, -5.31622639270450214610e+00) (15, -1.34233274447496020443e+00) (16, -5.76010693481954549888e-01) (17, 1.06928079746354565138e+00) (18, -2.22041506411092409712e-01) (19, -4.68503437958774859862e-01) (20, -2.35481399019126708128e-01) (21, 4.45603351655631974015e-01) (22, 3.60767561557918503556e-01) (23, 4.42826386156707718644e-01) (24, -2.24827256008179238167e-01) (25, -1.23737893750525837500e-01) (26, -1.38516430280036101363e-01) (27, -1.51744379065420015307e-01) (28, 3.06277574592755841287e-01) 
