FANN_FLO_2.1
num_layers=3
learning_rate=0.700000
connection_rate=1.000000
network_type=0
learning_momentum=0.000000
training_algorithm=2
train_error_function=1
train_stop_function=1
cascade_output_change_fraction=0.010000
quickprop_decay=-0.000100
quickprop_mu=1.750000
rprop_increase_factor=1.200000
rprop_decrease_factor=0.500000
rprop_delta_min=0.000000
rprop_delta_max=50.000000
rprop_delta_zero=0.100000
cascade_output_stagnation_epochs=12
cascade_candidate_change_fraction=0.010000
cascade_candidate_stagnation_epochs=12
cascade_max_out_epochs=150
cascade_min_out_epochs=50
cascade_max_cand_epochs=150
cascade_min_cand_epochs=50
cascade_num_candidate_groups=2
bit_fail_limit=1.00000000000000005551e-01
cascade_candidate_limit=1.00000000000000000000e+03
cascade_weight_multiplier=4.00000000000000022204e-01
cascade_activation_functions_count=10
cascade_activation_functions=3 5 7 8 10 11 14 15 16 17 
cascade_activation_steepnesses_count=4
cascade_activation_steepnesses=2.50000000000000000000e-01 5.00000000000000000000e-01 7.50000000000000000000e-01 1.00000000000000000000e+00 
layer_sizes=18 4 2 
scale_included=0
neurons (num_inputs, activation_function, activation_steepness)=(0, 0, 0.00000000000000000000e+00) (0, 0, 0.00000000000000000000e+00) (0, 0, 0.00000000000000000000e+00) (0, 0, 0.00000000000000000000e+00) (0, 0, 0.00000000000000000000e+00) (0, 0, 0.00000000000000000000e+00) (0, 0, 0.00000000000000000000e+00) (0, 0, 0.00000000000000000000e+00) (0, 0, 0.00000000000000000000e+00) (0, 0, 0.00000000000000000000e+00) (0, 0, 0.00000000000000000000e+00) (0, 0, 0.00000000000000000000e+00) (0, 0, 0.00000000000000000000e+00) (0, 0, 0.00000000000000000000e+00) (0, 0, 0.00000000000000000000e+00) (0, 0, 0.00000000000000000000e+00) (0, 0, 0.00000000000000000000e+00) (0, 0, 0.00000000000000000000e+00) (18, 6, 5.00000000000000000000e-01) (18, 6, 5.00000000000000000000e-01) (18, 6, 5.00000000000000000000e-01) (0, 6, 0.00000000000000000000e+00) (4, 4, 5.00000000000000000000e-01) (0, 4, 0.00000000000000000000e+00) 
connections (connected_to_neuron, weight)=(0, -6.70926120119459845625e-01) (1, 1.88350452654596067781e+00) (2, 3.70671978070890931201e-02) (3, -1.60017941514751627086e-01) (4, 1.81068213179403514346e+00) (5, 1.84031772785421110505e+00) (6, -2.03178662929873687926e-01) (7, 6.35809986521667425130e-01) (8, -3.18346944388401886794e-01) (9, 2.01050708870503830328e-01) (10, -9.88324800582509266356e-01) (11, -4.72354178067696472976e-01) (12, -1.02210413113413323138e+00) (13, -4.34190090815001428215e-01) (14, -1.82363265535307683685e-01) (15, 1.54102824990009767969e-01) (16, -8.15743045105534969608e-01) (17, -7.88951273994810797774e-01) (0, -1.01824592783488654391e+00) (1, 1.90681076221700407380e+00) (2, 5.82127055003798313249e-02) (3, -1.82539251069328500865e-01) (4, 1.90608180209690303286e+00) (5, 1.90838639610048033113e+00) (6, -2.80267547939162586790e-01) (7, 6.10261118640369359944e-01) (8, -3.58679529961598297927e-01) (9, 1.72308440188977646246e-01) (10, -1.10145911768255677643e+00) (11, -4.29223094817650696609e-01) (12, -1.11461949542341720587e+00) (13, -2.96868596295290887443e-01) (14, -4.55294228398208433717e-01) (15, 1.84963144723629485666e-01) (16, -7.93882184817391811649e-01) (17, -7.10353534655935980879e-01) (0, 1.05019881049122076888e+00) (1, -1.08763313558255458879e+00) (2, 1.12131113271714544233e-01) (3, 4.43564317755702375301e-01) (4, -1.30769726618730453005e+00) (5, -1.11680293881090864083e+00) (6, 8.60129688380198875741e-01) (7, -8.59747042852759824072e-01) (8, 9.12081060189487979883e-01) (9, 4.09556436335985762920e-01) (10, 1.85872924427157593108e+00) (11, 1.02678327001977165445e+00) (12, 1.83638578752642822600e+00) (13, 8.23893896872946784882e-01) (14, 2.11228378109339975932e-01) (15, 3.52302829042573317775e-01) (16, 1.45829356387431019471e+00) (17, 1.02166720544565192696e+00) (18, 1.08627062979638857598e+01) (19, 6.15231557934132755605e+00) (20, -6.74996215179562408792e+00) (21, -4.35281154362271660574e-01) 
