FANN_FLO_2.1
num_layers=3
learning_rate=0.700000
connection_rate=1.000000
network_type=0
learning_momentum=0.000000
training_algorithm=2
train_error_function=1
train_stop_function=1
cascade_output_change_fraction=0.010000
quickprop_decay=-0.000100
quickprop_mu=1.750000
rprop_increase_factor=1.200000
rprop_decrease_factor=0.500000
rprop_delta_min=0.000000
rprop_delta_max=50.000000
rprop_delta_zero=0.100000
cascade_output_stagnation_epochs=12
cascade_candidate_change_fraction=0.010000
cascade_candidate_stagnation_epochs=12
cascade_max_out_epochs=150
cascade_min_out_epochs=50
cascade_max_cand_epochs=150
cascade_min_cand_epochs=50
cascade_num_candidate_groups=2
bit_fail_limit=1.00000000000000005551e-01
cascade_candidate_limit=1.00000000000000000000e+03
cascade_weight_multiplier=4.00000000000000022204e-01
cascade_activation_functions_count=10
cascade_activation_functions=3 5 7 8 10 11 14 15 16 17 
cascade_activation_steepnesses_count=4
cascade_activation_steepnesses=2.50000000000000000000e-01 5.00000000000000000000e-01 7.50000000000000000000e-01 1.00000000000000000000e+00 
layer_sizes=14 11 2 
scale_included=0
neurons (num_inputs, activation_function, activation_steepness)=(0, 0, 0.00000000000000000000e+00) (0, 0, 0.00000000000000000000e+00) (0, 0, 0.00000000000000000000e+00) (0, 0, 0.00000000000000000000e+00) (0, 0, 0.00000000000000000000e+00) (0, 0, 0.00000000000000000000e+00) (0, 0, 0.00000000000000000000e+00) (0, 0, 0.00000000000000000000e+00) (0, 0, 0.00000000000000000000e+00) (0, 0, 0.00000000000000000000e+00) (0, 0, 0.00000000000000000000e+00) (0, 0, 0.00000000000000000000e+00) (0, 0, 0.00000000000000000000e+00) (0, 0, 0.00000000000000000000e+00) (14, 6, 5.00000000000000000000e-01) (14, 6, 5.00000000000000000000e-01) (14, 6, 5.00000000000000000000e-01) (14, 6, 5.00000000000000000000e-01) (14, 6, 5.00000000000000000000e-01) (14, 6, 5.00000000000000000000e-01) (14, 6, 5.00000000000000000000e-01) (14, 6, 5.00000000000000000000e-01) (14, 6, 5.00000000000000000000e-01) (14, 6, 5.00000000000000000000e-01) (0, 6, 0.00000000000000000000e+00) (11, 6, 5.00000000000000000000e-01) (0, 6, 0.00000000000000000000e+00) 
connections (connected_to_neuron, weight)=(0, -1.27255804571872754849e+00) (1, -2.90718816798542223356e-01) (2, -2.86509968918178759001e-01) (3, -3.90391789954517565153e-01) (4, -4.08904027771566591642e-01) (5, 1.81921794439438899715e+00) (6, 1.56997531959901603926e+00) (7, -7.82651684870996899868e-01) (8, -2.60091013050644970228e-01) (9, -1.09442865251381205027e+00) (10, 7.24026588058002928960e+00) (11, 3.38101110241481872531e-01) (12, 5.10669469449460899924e-01) (13, -6.23332958308614459852e-01) (0, -1.36951398903722543210e+00) (1, -2.37573446356132256252e-01) (2, -1.10269242547824511402e-01) (3, -1.93162163369729744655e-01) (4, -1.37744383536651276989e-01) (5, 1.15433645632027048755e+00) (6, 6.28112230041161123673e-01) (7, 1.17520246794598404172e+00) (8, -9.47309202003787237389e-02) (9, -1.06228655401167895178e+01) (10, -1.53936915811377001972e+01) (11, 1.21368321491063912987e+00) (12, 1.18296433179542948011e+00) (13, -9.46951264682227289438e-02) (0, 2.49239107410474325377e+00) (1, 7.10143606295751017576e-01) (2, 7.33578107437060755736e-01) (3, 8.76921090414689241577e-01) (4, 8.84469899466202913452e-01) (5, 6.02900107217644976032e-01) (6, 8.08106480479429234443e-01) (7, 1.76829247359329201572e+02) (8, 1.60080966078091302407e+00) (9, 6.74244551781378476107e+00) (10, 5.11573670512028755297e+00) (11, 1.39405601101579201817e+00) (12, 2.77184367986917479243e-01) (13, -8.87163073307474236984e-01) (0, 4.39651914977153790431e+00) (1, 3.50711154472485298061e-01) (2, 4.09812139999523872280e-01) (3, 4.04654028546467536831e-01) (4, 3.59582687449112647915e-01) (5, -1.52473695259321173623e+00) (6, -2.87206625999932185778e+00) (7, 8.07224576480527389322e+00) (8, 9.95301378937600844665e-02) (9, 2.32322828585412866076e+00) (10, -4.90868435797434710111e+00) (11, -5.85967284370391583437e-01) (12, 2.94048540956674299418e-02) (13, 1.20466678594925283297e-01) (0, -3.85615652691777910377e+01) (1, -2.81269925725009473094e-01) (2, -2.74669366967227490672e-01) (3, -2.92731228363063367137e-01) (4, -2.66282106828239051310e-01) (5, 1.67477346210374289370e+00) (6, 3.49703823025290239102e-01) (7, 1.19534967761112587148e+00) (8, 1.74090652738594420246e-01) (9, 7.91721504952566101920e-02) (10, 4.71831962024624207430e+00) (11, 8.30749023686336518502e-01) (12, 1.10710177014781896432e+00) (13, -3.71933468324151417228e-01) (0, -1.10278352269890778103e+00) (1, -1.07122155547737948900e-01) (2, -2.55965823948979209757e-01) (3, -1.13712819934487216478e-01) (4, -2.12290341675877430871e-01) (5, 2.22316525894042993361e-01) (6, -2.40508970964560364614e-01) (7, 3.16378713920853871233e-01) (8, 2.85279972354968380799e-01) (9, -1.06234086330931520870e+00) (10, 1.78019227745066399571e+00) (11, 5.72988483204136755944e-01) (12, 5.38761763900016843465e-01) (13, -4.38176304177127495798e-01) (0, 4.41621804656321970128e+00) (1, 4.42168344961798742698e-01) (2, 3.45059138940966680931e-01) (3, 3.92814499544299200462e-01) (4, 3.51855498956835821556e-01) (5, -1.59935866049050301463e+00) (6, 2.58721095780079624049e-01) (7, -8.83475299921424372940e-01) (8, 7.20274624710542532569e+00) (9, 1.73111101937166189657e+00) (10, -7.28912136497906004706e+00) (11, 5.97538484440930717234e-01) (12, 4.44092958220711508943e+00) (13, -5.79128482777698724848e-02) (0, -4.97964257228522981791e+01) (1, -5.27883771921695069129e-02) (2, -1.47479854908138391378e-01) (3, -1.74959578004032278997e-01) (4, -8.12175575758519313618e-02) (5, -8.11497319290649721246e-01) (6, -1.80729747217491043543e+00) (7, 2.59254180923867583175e+00) (8, 2.69234108009687223007e-01) (9, 2.59265280521236152200e-01) (10, 1.05539244456216021462e+01) (11, 2.03127466664284606068e-01) (12, 7.59746995380453649105e-01) (13, 1.12548989390765380447e-01) (0, 2.39285852784773256374e+00) (1, 6.97094257241246850754e-01) (2, 7.63030375605580957199e-01) (3, 7.45973891830203683639e-01) (4, 8.64896538918969559617e-01) (5, 5.31730564732232235947e-01) (6, 8.98292357994885382055e-01) (7, 1.52195988674587701084e+00) (8, 1.47712807637050813625e+00) (9, 1.86202907994391586577e+00) (10, 4.97842166280337394824e+00) (11, 1.09355046612932649275e+00) (12, 2.87646979900598509516e-01) (13, -9.97188749901028126388e-01) (0, 1.77006966724722514250e+00) (1, 3.39784239501205953538e-01) (2, 2.65248649836031580307e-01) (3, 3.99680261582581075608e-01) (4, 2.64256970108000421860e-01) (5, -1.54365493296936739931e+00) (6, 1.01122267041819868805e-01) (7, 8.25550737814797841452e+00) (8, 1.65687262014555969358e-01) (9, 4.41280275341092265151e-01) (10, -6.10370880925401770867e+00) (11, -2.30629533110678297536e-01) (12, -1.37348346778753271913e+00) (13, -9.55144696278421717617e-02) (14, 7.61772940202366632967e-01) (15, -2.18070596519044951345e-01) (16, -2.37789257998096220659e-01) (17, 6.21223959222816923820e-01) (18, 1.57994137215886754078e+00) (19, 3.60612210079962525189e-01) (20, 5.13361054160262342272e-01) (21, -6.09944871978911451471e-01) (22, -2.15287670130359348741e-01) (23, 8.06654732429673337890e-01) (24, 3.67123744885059333232e-01) 
