FANN_FLO_2.1
num_layers=3
learning_rate=0.700000
connection_rate=1.000000
network_type=0
learning_momentum=0.000000
training_algorithm=2
train_error_function=1
train_stop_function=1
cascade_output_change_fraction=0.010000
quickprop_decay=-0.000100
quickprop_mu=1.750000
rprop_increase_factor=1.200000
rprop_decrease_factor=0.500000
rprop_delta_min=0.000000
rprop_delta_max=50.000000
rprop_delta_zero=0.100000
cascade_output_stagnation_epochs=12
cascade_candidate_change_fraction=0.010000
cascade_candidate_stagnation_epochs=12
cascade_max_out_epochs=150
cascade_min_out_epochs=50
cascade_max_cand_epochs=150
cascade_min_cand_epochs=50
cascade_num_candidate_groups=2
bit_fail_limit=1.00000000000000005551e-01
cascade_candidate_limit=1.00000000000000000000e+03
cascade_weight_multiplier=4.00000000000000022204e-01
cascade_activation_functions_count=10
cascade_activation_functions=3 5 7 8 10 11 14 15 16 17 
cascade_activation_steepnesses_count=4
cascade_activation_steepnesses=2.50000000000000000000e-01 5.00000000000000000000e-01 7.50000000000000000000e-01 1.00000000000000000000e+00 
layer_sizes=15 11 2 
scale_included=0
neurons (num_inputs, activation_function, activation_steepness)=(0, 0, 0.00000000000000000000e+00) (0, 0, 0.00000000000000000000e+00) (0, 0, 0.00000000000000000000e+00) (0, 0, 0.00000000000000000000e+00) (0, 0, 0.00000000000000000000e+00) (0, 0, 0.00000000000000000000e+00) (0, 0, 0.00000000000000000000e+00) (0, 0, 0.00000000000000000000e+00) (0, 0, 0.00000000000000000000e+00) (0, 0, 0.00000000000000000000e+00) (0, 0, 0.00000000000000000000e+00) (0, 0, 0.00000000000000000000e+00) (0, 0, 0.00000000000000000000e+00) (0, 0, 0.00000000000000000000e+00) (0, 0, 0.00000000000000000000e+00) (15, 6, 5.00000000000000000000e-01) (15, 6, 5.00000000000000000000e-01) (15, 6, 5.00000000000000000000e-01) (15, 6, 5.00000000000000000000e-01) (15, 6, 5.00000000000000000000e-01) (15, 6, 5.00000000000000000000e-01) (15, 6, 5.00000000000000000000e-01) (15, 6, 5.00000000000000000000e-01) (15, 6, 5.00000000000000000000e-01) (15, 6, 5.00000000000000000000e-01) (0, 6, 0.00000000000000000000e+00) (11, 6, 5.00000000000000000000e-01) (0, 6, 0.00000000000000000000e+00) 
connections (connected_to_neuron, weight)=(0, 5.20430328315994797372e-02) (1, 5.76033708610131478522e-01) (2, 4.97898300149037353890e-01) (3, 4.94851184048249237435e-01) (4, 6.65219214715554452155e-01) (5, -1.02217225869609396049e+00) (6, 6.53043784468629873174e-01) (7, -8.60232146716912460249e+00) (8, 4.16649764075091466609e-01) (9, 1.09750852491132144806e+00) (10, 2.19623129406148320797e+00) (11, -4.10811933709280818761e+00) (12, -2.22878359788121399587e-01) (13, 1.87336431112842682900e+00) (14, 1.34976654618296287858e+00) (0, -1.24003909818299812295e-01) (1, 2.35317894600970717311e-01) (2, 3.43530205421788692455e-01) (3, 2.59614636533601284007e-01) (4, 3.27543092303617000560e-01) (5, 1.45192049735020006773e-01) (6, 5.01097017814990830509e-01) (7, 7.97966820551945588136e+00) (8, -4.20088206884561943255e-01) (9, 2.40224518182745871986e-01) (10, 2.57068305351161097150e-01) (11, 8.03719982492584961165e+00) (12, -3.88610886996372295599e+00) (13, 1.16502939966694878393e+01) (14, 2.88577344374798649973e-01) (0, 4.35146889370381040330e-01) (1, 4.98338652054756470200e-01) (2, 6.28964324693172982528e-01) (3, 5.67462203304260781600e-01) (4, 4.98968725304096527573e-01) (5, -1.05569210787726919243e+00) (6, 5.74465953081110036749e-01) (7, -8.47472122944195938032e+00) (8, 2.91095535157363083378e-01) (9, 1.13258658329597339254e+00) (10, 2.07070874759131839937e+00) (11, -5.44302504048327584485e-01) (12, -1.45156402723191213511e+00) (13, 1.94737579454118447941e+00) (14, 1.40025597257005984808e+00) (0, 4.90917426207753693213e-01) (1, 5.24261727215660555679e-01) (2, 5.29054015161407931167e-01) (3, 5.63912778379333956558e-01) (4, 3.99832672657383703108e-01) (5, 2.11126713919575292877e+00) (6, 4.30973927473246420927e-01) (7, 7.89528192385031601930e+00) (8, -3.46025293228327091022e-01) (9, 2.70261892820926385994e-01) (10, 2.50069051124476526837e-01) (11, 2.44471799890274921196e+00) (12, -1.25045982712203684883e-01) (13, -1.25025417118708270792e+00) (14, 1.08647520835968958153e-01) (0, 1.81978036134419790537e-01) (1, 5.01688685916359178307e-01) (2, 6.27794292472297787988e-01) (3, 6.67611923716957211816e-01) (4, 6.07899066708976865137e-01) (5, -7.83091655729250213369e-01) (6, 7.16961473557974460213e-01) (7, -6.60105343872203409461e+00) (8, -4.23318332400865082743e-01) (9, 8.72627379265185854074e-01) (10, 8.96190690858167826605e-01) (11, -3.72384875450541397157e+00) (12, -2.79268435263048342421e-01) (13, 2.14783724461687253182e+00) (14, 8.71202880454062134064e-01) (0, 4.65888109663220917334e-01) (1, 5.97752377439202065013e-01) (2, 6.23542398262680763743e-01) (3, 6.00967422176064247630e-01) (4, 5.86502000737847084544e-01) (5, 2.01924601662094671539e+00) (6, 3.15673186426579266417e-01) (7, 7.91152647687985322023e+00) (8, -3.22432701942621524616e-01) (9, 2.29024061705203840766e-01) (10, 2.73351385332964991193e-01) (11, 1.07199205407961195569e+00) (12, 4.26701538189281748270e-01) (13, -2.22977438905678626568e+00) (14, 1.10446828588226186874e-01) (0, 7.32579049834036544198e-01) (1, -3.89555867407196249053e-02) (2, 2.83067982998019829211e-02) (3, 6.48928594198352470812e-02) (4, -4.94957740995758191382e-02) (5, 6.51572536765947396553e-01) (6, 2.44284255566067448617e-01) (7, -3.67822667593568031208e+00) (8, 6.89386678722910262174e-01) (9, 1.85370813881379270516e-01) (10, 2.34896772052643310058e-01) (11, 9.98428602865586573012e-02) (12, -9.48711397983781123955e-01) (13, -6.30711841149060425948e+00) (14, 2.16034253964754840993e-01) (0, 3.14692491933901008494e+00) (1, 8.17667563321292957534e-03) (2, 1.93916081086418001789e-01) (3, 1.54609097734710543293e-01) (4, 1.66301323667785466709e-01) (5, 4.26440437583438108904e-02) (6, 2.40103225270244635681e-01) (7, -2.33326165801558893520e+00) (8, -3.41688726463829972602e-01) (9, 8.56013272716996537204e-02) (10, -3.12738647196948230111e-02) (11, -6.17598234557961353608e-02) (12, -1.70251561086440350579e+00) (13, -2.65054219067102359020e+00) (14, 9.80493431047619323770e-01) (0, 3.53852243943693023365e-01) (1, 5.86930112381729318649e-01) (2, 5.55272319753918108809e-01) (3, 5.79852537651809996078e-01) (4, 5.39607846577915606368e-01) (5, -1.00078146418116076255e+00) (6, 5.68543253898951661540e-01) (7, -6.74680775394983101023e+00) (8, 4.11060085251634954595e-01) (9, 1.09827274905532612514e+00) (10, 9.80285608082826276366e-01) (11, -3.51615050953743191187e+00) (12, -3.85133201776782008174e-01) (13, 2.21110963106193292305e+00) (14, 9.58893652375068961113e-01) (0, 2.48066646280615199505e-01) (1, -3.79303043142975526703e-01) (2, -4.24680699960411744964e-01) (3, -4.73146883205593782318e-01) (4, -4.26543926254929262054e-01) (5, -9.83462209311548596347e-02) (6, -3.11163650138546077351e-01) (7, 3.21768708861099606011e+00) (8, 1.51896886544046694212e+00) (9, -2.65580370535547172217e-01) (10, 5.29774527728479882605e-01) (11, -1.55187858713543924694e+00) (12, 4.77935258077637570295e+00) (13, 9.45266159656738214068e-01) (14, -2.64328433076002178304e-01) (15, -1.38654591141211758210e-01) (16, 5.04156778567413810244e-01) (17, -1.46315222576924808262e-01) (18, 5.33172866579207704874e-01) (19, -1.63055737934967581726e-01) (20, 5.04975309845122510843e-01) (21, -2.57648328909656276764e-01) (22, -4.64569195968560832988e-01) (23, -2.03811076901814103302e-01) (24, 8.31340653609647484146e-01) (25, 5.10524085768464308543e-01) 
