FANN_FLO_2.1
num_layers=3
learning_rate=0.700000
connection_rate=1.000000
network_type=0
learning_momentum=0.000000
training_algorithm=2
train_error_function=1
train_stop_function=1
cascade_output_change_fraction=0.010000
quickprop_decay=-0.000100
quickprop_mu=1.750000
rprop_increase_factor=1.200000
rprop_decrease_factor=0.500000
rprop_delta_min=0.000000
rprop_delta_max=50.000000
rprop_delta_zero=0.100000
cascade_output_stagnation_epochs=12
cascade_candidate_change_fraction=0.010000
cascade_candidate_stagnation_epochs=12
cascade_max_out_epochs=150
cascade_min_out_epochs=50
cascade_max_cand_epochs=150
cascade_min_cand_epochs=50
cascade_num_candidate_groups=2
bit_fail_limit=1.00000000000000005551e-01
cascade_candidate_limit=1.00000000000000000000e+03
cascade_weight_multiplier=4.00000000000000022204e-01
cascade_activation_functions_count=10
cascade_activation_functions=3 5 7 8 10 11 14 15 16 17 
cascade_activation_steepnesses_count=4
cascade_activation_steepnesses=2.50000000000000000000e-01 5.00000000000000000000e-01 7.50000000000000000000e-01 1.00000000000000000000e+00 
layer_sizes=18 11 2 
scale_included=0
neurons (num_inputs, activation_function, activation_steepness)=(0, 0, 0.00000000000000000000e+00) (0, 0, 0.00000000000000000000e+00) (0, 0, 0.00000000000000000000e+00) (0, 0, 0.00000000000000000000e+00) (0, 0, 0.00000000000000000000e+00) (0, 0, 0.00000000000000000000e+00) (0, 0, 0.00000000000000000000e+00) (0, 0, 0.00000000000000000000e+00) (0, 0, 0.00000000000000000000e+00) (0, 0, 0.00000000000000000000e+00) (0, 0, 0.00000000000000000000e+00) (0, 0, 0.00000000000000000000e+00) (0, 0, 0.00000000000000000000e+00) (0, 0, 0.00000000000000000000e+00) (0, 0, 0.00000000000000000000e+00) (0, 0, 0.00000000000000000000e+00) (0, 0, 0.00000000000000000000e+00) (0, 0, 0.00000000000000000000e+00) (18, 6, 5.00000000000000000000e-01) (18, 6, 5.00000000000000000000e-01) (18, 6, 5.00000000000000000000e-01) (18, 6, 5.00000000000000000000e-01) (18, 6, 5.00000000000000000000e-01) (18, 6, 5.00000000000000000000e-01) (18, 6, 5.00000000000000000000e-01) (18, 6, 5.00000000000000000000e-01) (18, 6, 5.00000000000000000000e-01) (18, 6, 5.00000000000000000000e-01) (0, 6, 0.00000000000000000000e+00) (11, 6, 5.00000000000000000000e-01) (0, 6, 0.00000000000000000000e+00) 
connections (connected_to_neuron, weight)=(0, -3.61675188995310092910e-01) (1, -6.80699913973052850302e-01) (2, -6.59935522103746285971e-01) (3, -5.03764501983363977011e-01) (4, -5.50492993766506066855e-01) (5, 4.71368998227406132973e-01) (6, 4.60295959910355101385e-01) (7, -2.57490293876312854593e+01) (8, 1.33662020838245387822e+00) (9, 2.07303521416727226656e-01) (10, -1.74347657124927568617e+00) (11, 2.35887505292598192996e-01) (12, -9.48085813433021407093e+00) (13, 3.16966639221587920261e+00) (14, 3.40243758449480515615e-01) (15, -1.09527951686228641748e-01) (16, -5.56053347487776350455e-01) (17, 1.21606728265357344476e-01) (0, -3.76594362155273909565e+00) (1, -4.15150844464387602795e-01) (2, -3.11033324310865111340e-01) (3, -4.22532626400079436291e-01) (4, -4.77395781288232401440e-01) (5, 1.08707283404262972093e-01) (6, 3.08618122863397459366e-01) (7, 2.20624063812744086732e+00) (8, 1.55453325722914659224e+00) (9, 3.02952946121090804787e-01) (10, 5.19239804910249458381e-01) (11, 1.39002236415663116276e+00) (12, 2.10554487544760915441e+00) (13, 8.33590447271187917622e-01) (14, 6.45066686202759864699e-01) (15, 8.11550983609490295123e-01) (16, 5.10838723089375390529e-01) (17, 5.12015733984381785082e-02) (0, -2.16621190536110796998e+00) (1, -9.29835224204424160011e-02) (2, -1.39518191074645969696e-01) (3, -5.54330544226530538832e-02) (4, -7.37000377529028194434e-02) (5, 1.54353271116187767964e-01) (6, 7.64757007822901985206e-02) (7, -2.79057843094776991677e+01) (8, 1.88409972781442003331e+00) (9, -3.99234207212904798623e-02) (10, -4.67233202168823336109e+00) (11, 2.73437326611846442947e-01) (12, -1.10275523922609565375e+02) (13, 3.93237165293160162438e-01) (14, 1.91191502416245495688e-01) (15, 1.02576493678387592468e+00) (16, 4.59577633968726972924e-01) (17, -3.46933902197594928873e-02) (0, -2.17142933833687701295e+00) (1, -1.32376422142303412643e-01) (2, -9.25045922926696038979e-03) (3, -6.48735882394674695517e-02) (4, -9.19971065276029842384e-02) (5, 4.87598058475758391883e-02) (6, 3.70908737645060937460e-02) (7, -2.78138984223913077187e+01) (8, 1.85800742203496294103e+00) (9, -9.25734174290746281155e-02) (10, -4.74836425790668581470e+00) (11, 2.96493573112639408063e-01) (12, -1.10320484913157699225e+02) (13, 2.55536905607643805016e-01) (14, 7.41005078131729000290e-02) (15, 9.97366616705025910150e-01) (16, 5.34024483493701795922e-01) (17, 2.59227938062433806155e-02) (0, 4.72484698014395576582e-01) (1, -2.88155124528623879376e-03) (2, 9.02566741313197418162e-02) (3, 1.56116319736407022090e-01) (4, 1.00673152049944619746e-01) (5, -1.34983706579897833056e-02) (6, 9.03541952834040901221e-02) (7, -6.22563168552533383604e+01) (8, 5.95026081081823643437e-01) (9, 3.32391475999210761483e-01) (10, -4.68711507627845858082e+00) (11, 1.18887000702951384223e-01) (12, -4.82129746593160604107e+01) (13, 1.51782390421785162715e+00) (14, 5.32592520291381640862e-02) (15, 1.03001675961312244567e+00) (16, 5.80615698329345564233e-01) (17, 4.68345546243060864566e-02) (0, -3.77025918782428259846e+00) (1, -2.28910819139588606053e-01) (2, -9.02314004267343178212e-02) (3, -1.76154967841017973118e-01) (4, -9.10762217606195106923e-02) (5, 3.96882492396802705192e-02) (6, -1.95121469270026970041e-03) (7, 1.93661699029031075803e+00) (8, 1.20937702709655692246e+00) (9, 3.41569671123990892259e-01) (10, 9.85752847128500420126e-02) (11, 3.81280239405300591660e-01) (12, 1.89119999685209894125e+00) (13, 2.18363660842015028241e-01) (14, 2.96627330391594390413e-01) (15, 4.84624888481678603447e-02) (16, 1.89565944667436564464e-01) (17, -7.88549342774289424574e-02) (0, -3.81347404912785048481e+00) (1, -1.49592753943312839482e-01) (2, -2.45738450881350767308e-01) (3, -7.90433999861367558859e-02) (4, -1.67688262161124479466e-01) (5, 1.45430398294684432026e-01) (6, -8.62880021549348591448e-02) (7, 1.96238737138333596555e+00) (8, 6.37267381541721578131e-01) (9, 2.36391620427141152527e-01) (10, 7.20334636814947415484e-02) (11, 3.89645334067013238144e-01) (12, 1.94688363202732706014e+00) (13, 2.03840869933201496167e-01) (14, 3.12198820321747338991e-01) (15, -1.32634660724361919115e-01) (16, 7.60075405198117892702e-02) (17, -2.17971587203877707750e-02) (0, 7.08967505762257976798e-01) (1, 3.93552283315344808567e-01) (2, 3.18925636379405019749e-01) (3, 3.56199207274600027073e-01) (4, 3.32952114312335012425e-01) (5, -4.47174988001967754769e-01) (6, 8.20822073125036244523e-02) (7, 1.51092905533644419336e+01) (8, -3.07921651705957144518e-01) (9, -4.87752339972728543582e-01) (10, 5.59707325555157808594e+00) (11, -8.48488998203498656636e-01) (12, 2.28497888930539581054e+01) (13, 6.20093636386152335938e-01) (14, -7.96579312910354220278e-01) (15, 1.77429456103964811042e+00) (16, 1.10070362906408281134e+00) (17, -1.00367753551130391848e-02) (0, 6.79683974752107067374e-01) (1, 3.89826396970435140599e-01) (2, 2.98807012407465932835e-01) (3, 2.88689552365227697361e-01) (4, 4.24048195151968954075e-01) (5, -4.08873087972785376198e-01) (6, 3.10047067955457777977e-01) (7, 1.50560702663990717554e+01) (8, -2.84142520233846340716e-01) (9, -3.31325396134132310610e-01) (10, 5.65228415883851198487e+00) (11, -7.38268275349361124960e-01) (12, 2.28632736094693633788e+01) (13, 5.60451083056684118411e-01) (14, -6.54294554521358207033e-01) (15, 1.64136236746235852912e+00) (16, 9.65222673820972043579e-01) (17, -7.81926600978498087535e-02) (0, -2.20743347930996813844e+00) (1, -8.44517210178735988624e-02) (2, -1.38098669206417057342e-01) (3, -7.36030460946920650489e-02) (4, -6.82249413483503874822e-02) (5, 9.52002656354214438217e-02) (6, 9.56518710122020027198e-02) (7, -2.79265066390942457986e+01) (8, 1.89798072571061449132e+00) (9, -6.14981931487172464590e-02) (10, -4.60903920540691469654e+00) (11, 1.50439215661853059602e-01) (12, -1.10359974160062549231e+02) (13, 2.64862544021073065270e-01) (14, 2.12833574431615379918e-01) (15, 1.01978188214596698913e+00) (16, 5.11052048734561781274e-01) (17, 8.59833992130045049462e-02) (18, -1.42214234438205050504e-01) (19, 6.09596336790198201072e-01) (20, -8.73609126595994711639e-02) (21, -1.37977819810619101171e-01) (22, -1.82877498386453424262e-01) (23, 5.37256077759234673685e-01) (24, 5.38030379347769982523e-01) (25, 5.42139239971391018180e-01) (26, 5.01792721812478359489e-01) (27, -1.41560936072303966693e-01) (28, 3.26926562147795307656e-01) 
