FANN_FLO_2.1
num_layers=3
learning_rate=0.700000
connection_rate=1.000000
network_type=0
learning_momentum=0.000000
training_algorithm=2
train_error_function=1
train_stop_function=1
cascade_output_change_fraction=0.010000
quickprop_decay=-0.000100
quickprop_mu=1.750000
rprop_increase_factor=1.200000
rprop_decrease_factor=0.500000
rprop_delta_min=0.000000
rprop_delta_max=50.000000
rprop_delta_zero=0.100000
cascade_output_stagnation_epochs=12
cascade_candidate_change_fraction=0.010000
cascade_candidate_stagnation_epochs=12
cascade_max_out_epochs=150
cascade_min_out_epochs=50
cascade_max_cand_epochs=150
cascade_min_cand_epochs=50
cascade_num_candidate_groups=2
bit_fail_limit=1.00000000000000005551e-01
cascade_candidate_limit=1.00000000000000000000e+03
cascade_weight_multiplier=4.00000000000000022204e-01
cascade_activation_functions_count=10
cascade_activation_functions=3 5 7 8 10 11 14 15 16 17 
cascade_activation_steepnesses_count=4
cascade_activation_steepnesses=2.50000000000000000000e-01 5.00000000000000000000e-01 7.50000000000000000000e-01 1.00000000000000000000e+00 
layer_sizes=14 11 2 
scale_included=0
neurons (num_inputs, activation_function, activation_steepness)=(0, 0, 0.00000000000000000000e+00) (0, 0, 0.00000000000000000000e+00) (0, 0, 0.00000000000000000000e+00) (0, 0, 0.00000000000000000000e+00) (0, 0, 0.00000000000000000000e+00) (0, 0, 0.00000000000000000000e+00) (0, 0, 0.00000000000000000000e+00) (0, 0, 0.00000000000000000000e+00) (0, 0, 0.00000000000000000000e+00) (0, 0, 0.00000000000000000000e+00) (0, 0, 0.00000000000000000000e+00) (0, 0, 0.00000000000000000000e+00) (0, 0, 0.00000000000000000000e+00) (0, 0, 0.00000000000000000000e+00) (14, 6, 5.00000000000000000000e-01) (14, 6, 5.00000000000000000000e-01) (14, 6, 5.00000000000000000000e-01) (14, 6, 5.00000000000000000000e-01) (14, 6, 5.00000000000000000000e-01) (14, 6, 5.00000000000000000000e-01) (14, 6, 5.00000000000000000000e-01) (14, 6, 5.00000000000000000000e-01) (14, 6, 5.00000000000000000000e-01) (14, 6, 5.00000000000000000000e-01) (0, 6, 0.00000000000000000000e+00) (11, 6, 5.00000000000000000000e-01) (0, 6, 0.00000000000000000000e+00) 
connections (connected_to_neuron, weight)=(0, -6.06466254102931201508e-01) (1, 7.38576692103639909082e-02) (2, -4.68631568790179448003e-02) (3, -5.94385448337298866184e-02) (4, 1.91862773656146338996e-02) (5, -5.20393470846644626282e-02) (6, -9.42211795914294714116e-01) (7, -8.07797135090853268835e-01) (8, -8.95715660399738045072e-01) (9, -7.64043033424408379872e-01) (10, -2.12344983148401583728e-01) (11, -3.58996396652304372576e-01) (12, 1.26469972348130843542e-01) (13, 4.24628830110135128961e-03) (0, -5.98961541962919152837e+00) (1, -1.69840865345850716706e-01) (2, -1.68026850136175881500e-01) (3, -1.45306684585467110749e-01) (4, -1.65558212014094124909e-01) (5, 7.54203282922268902766e-01) (6, -2.15856959978335027017e+02) (7, 2.73192330439329955638e+00) (8, 2.75310004951857933975e+00) (9, -7.70904724613536013189e-02) (10, 4.19118215131382212957e-02) (11, 1.24529106082013923951e-01) (12, 6.77288943503435381110e-01) (13, 4.01249372527598957561e-02) (0, 6.75151093278351410731e+00) (1, 8.24453237997743726417e-02) (2, 9.21868983256075025245e-02) (3, -6.46910291565206130304e-02) (4, 3.60791388498996404288e-02) (5, -1.10363182923194758089e+00) (6, 2.50074158452188888280e-01) (7, 1.49918724927904389865e+00) (8, 1.73775725110054213296e+00) (9, -3.83593760785503681832e-02) (10, -6.05834155840724641884e-01) (11, -5.24809790285418853450e-01) (12, 1.08823891204069478356e+00) (13, -7.77707457763377324467e-02) (0, 4.49644551387127944242e-01) (1, -5.38890919196190337770e-02) (2, 5.52174413097320099242e-02) (3, 9.33852308881696208109e-02) (4, -4.54841739046158016757e-02) (5, 2.94743273553825790856e-01) (6, -1.06986341327241873955e+00) (7, -9.15738732759962648089e-01) (8, -9.34597063393715399293e-01) (9, 2.31597508270096258398e-01) (10, 4.49352288295560217679e-02) (11, 6.40664346328048694978e-02) (12, 7.05887066795633927319e-02) (13, 3.80554386121985332991e-01) (0, 1.29534554659165546120e+00) (1, 1.21871493420427579046e-01) (2, 1.14547248593395531446e-01) (3, 6.34835806105788769127e-02) (4, 9.56370566402133942541e-02) (5, 1.49223273968139864110e+02) (6, -3.24409114544871490793e+00) (7, -2.93161208364644298996e+00) (8, -1.52783184608072830635e+00) (9, 1.50000000000000000000e+03) (10, 1.73514227376684293525e+00) (11, 3.40623269129720451787e+00) (12, 7.69041780043252387600e+00) (13, 1.51295235876644929007e+00) (0, 1.31147783393531170759e+02) (1, 1.80642899924529143352e-01) (2, 1.35849539989245482463e-01) (3, 8.95506561339025758395e-02) (4, 2.02584755474341460246e-01) (5, -1.52509769686343030770e+01) (6, 1.83008847860385182038e+00) (7, 1.53517944999996602817e-01) (8, 3.83552390144323573917e-01) (9, -1.12830553124539889609e+00) (10, -2.68295378200790302081e-01) (11, -2.64468280875923666962e-01) (12, -4.18283217326289646909e-01) (13, 2.06485835898300496005e-01) (0, 1.56548293530522103501e-01) (1, -9.67485612765774799504e-02) (2, -7.40441611544118000188e-02) (3, 6.98992156847493412153e-02) (4, -3.17574894563180804008e-02) (5, 8.02636664206362454577e-02) (6, -3.70453571307587770089e-01) (7, -7.99780026803862398310e-01) (8, -9.03243197979805456654e-01) (9, 2.81529369987854327650e-01) (10, -1.12805465421902312295e-01) (11, 1.02880389032797864290e-01) (12, 8.34807084522850351149e-01) (13, 6.95034148219942637947e-02) (0, -2.90125014466718171569e-02) (1, 3.10334604741427239061e-02) (2, 7.81441522253488105032e-03) (3, 4.74982228638026748868e-02) (4, 1.23458516276011107116e-01) (5, -3.90139893116441816012e-01) (6, -9.06296607039917212489e-01) (7, -7.73637523544314253954e-01) (8, -8.02472804512116000275e-01) (9, 4.88295619249653201077e-01) (10, -1.10245508515088005974e-01) (11, -8.30014842714283801461e-02) (12, -1.08389925367007269874e-01) (13, 1.33960079457358188781e-01) (0, -1.03879989362024289790e+01) (1, -4.50364072015373220759e-02) (2, -5.22205848386375279246e-02) (3, 7.62297343323142251315e-02) (4, -4.08398229768363943415e-02) (5, -4.32110405318402168717e-02) (6, 2.16330439555869080692e+00) (7, 4.01098646792405144623e+00) (8, 3.86572490062337115191e+00) (9, 3.18498448004974565873e-01) (10, 3.04078943751816377361e-01) (11, 2.81528863236958470928e-01) (12, -2.20670034044714857835e-01) (13, -3.03868974686772519433e+00) (0, 2.29863166296973187031e+00) (1, 4.18351068276433431248e-03) (2, 1.55113501838626988150e-01) (3, 1.13469897202434749639e-01) (4, 8.74122366227534502992e-02) (5, 1.04357103161695774496e+00) (6, -6.71716606304568664143e+00) (7, -2.10312395657651185488e+00) (8, -2.32336073186688141234e+00) (9, 5.94475712416029367091e+00) (10, 5.88520847150590498131e+00) (11, 5.90697223701207718705e+00) (12, 1.78132249877499121427e-01) (13, 1.14759620085056224248e+00) (14, -1.48548327958704345919e-01) (15, -4.55085003092056572527e-01) (16, 5.74724241721016992912e-01) (17, -3.25303447538095924507e-01) (18, 8.60967053483430166949e-01) (19, -1.14367172339007727722e+00) (20, -1.36782251262623000265e-01) (21, -2.78775477222450163151e-01) (22, 8.68008480452861164167e-01) (23, -3.45597869561181381126e-01) (24, 6.14224433638677291825e-01) 
