FANN_FLO_2.1
num_layers=3
learning_rate=0.700000
connection_rate=1.000000
network_type=0
learning_momentum=0.000000
training_algorithm=2
train_error_function=1
train_stop_function=1
cascade_output_change_fraction=0.010000
quickprop_decay=-0.000100
quickprop_mu=1.750000
rprop_increase_factor=1.200000
rprop_decrease_factor=0.500000
rprop_delta_min=0.000000
rprop_delta_max=50.000000
rprop_delta_zero=0.100000
cascade_output_stagnation_epochs=12
cascade_candidate_change_fraction=0.010000
cascade_candidate_stagnation_epochs=12
cascade_max_out_epochs=150
cascade_min_out_epochs=50
cascade_max_cand_epochs=150
cascade_min_cand_epochs=50
cascade_num_candidate_groups=2
bit_fail_limit=1.00000000000000005551e-01
cascade_candidate_limit=1.00000000000000000000e+03
cascade_weight_multiplier=4.00000000000000022204e-01
cascade_activation_functions_count=10
cascade_activation_functions=3 5 7 8 10 11 14 15 16 17 
cascade_activation_steepnesses_count=4
cascade_activation_steepnesses=2.50000000000000000000e-01 5.00000000000000000000e-01 7.50000000000000000000e-01 1.00000000000000000000e+00 
layer_sizes=20 11 2 
scale_included=0
neurons (num_inputs, activation_function, activation_steepness)=(0, 0, 0.00000000000000000000e+00) (0, 0, 0.00000000000000000000e+00) (0, 0, 0.00000000000000000000e+00) (0, 0, 0.00000000000000000000e+00) (0, 0, 0.00000000000000000000e+00) (0, 0, 0.00000000000000000000e+00) (0, 0, 0.00000000000000000000e+00) (0, 0, 0.00000000000000000000e+00) (0, 0, 0.00000000000000000000e+00) (0, 0, 0.00000000000000000000e+00) (0, 0, 0.00000000000000000000e+00) (0, 0, 0.00000000000000000000e+00) (0, 0, 0.00000000000000000000e+00) (0, 0, 0.00000000000000000000e+00) (0, 0, 0.00000000000000000000e+00) (0, 0, 0.00000000000000000000e+00) (0, 0, 0.00000000000000000000e+00) (0, 0, 0.00000000000000000000e+00) (0, 0, 0.00000000000000000000e+00) (0, 0, 0.00000000000000000000e+00) (20, 6, 5.00000000000000000000e-01) (20, 6, 5.00000000000000000000e-01) (20, 6, 5.00000000000000000000e-01) (20, 6, 5.00000000000000000000e-01) (20, 6, 5.00000000000000000000e-01) (20, 6, 5.00000000000000000000e-01) (20, 6, 5.00000000000000000000e-01) (20, 6, 5.00000000000000000000e-01) (20, 6, 5.00000000000000000000e-01) (20, 6, 5.00000000000000000000e-01) (0, 6, 0.00000000000000000000e+00) (11, 6, 5.00000000000000000000e-01) (0, 6, 0.00000000000000000000e+00) 
connections (connected_to_neuron, weight)=(0, 1.50000000000000000000e+03) (1, 3.52773489548643004454e+00) (2, 3.44445594890792738951e+00) (3, 3.53721173598249327696e+00) (4, 3.53906026973207366026e+00) (5, -7.52971425622851953108e+00) (6, -6.42457086246931208251e+00) (7, -4.02927897995965089706e+00) (8, -3.95448585781640016279e+00) (9, -6.56043469415160984681e+00) (10, -7.15363375853194938259e+00) (11, -8.20025973300881716455e+00) (12, -1.52975112716170452698e-01) (13, -8.35857460579164324166e-01) (14, -1.43418171932903321109e-01) (15, -6.44173544197952541168e+00) (16, -6.40568596095779430044e-01) (17, -5.53730999620496966429e+00) (18, -2.53096200125880921306e+00) (19, -3.79353725138839841663e-03) (0, -8.80167595884642572912e+00) (1, -7.74422076264491832109e-02) (2, -2.20924348823177213452e-01) (3, -7.93781217852702891680e-02) (4, -5.24119672099223957162e-02) (5, 5.09147634917773395102e+00) (6, 5.64559233743762364788e-02) (7, 1.66490649849000624250e-02) (8, 1.02552126291724221563e-01) (9, -1.73677322656388216648e-01) (10, 2.96697302512979155242e-01) (11, 8.36746221161399539312e+00) (12, -9.99620317283856640866e-02) (13, -8.19075891901548502894e-01) (14, -2.03465553350705841140e+00) (15, 5.87815046864710311070e+00) (16, -4.34294560264856022158e-01) (17, -1.81213630171046177764e-02) (18, 4.06486890958827551401e+00) (19, -3.93218412139593520571e-01) (0, -1.42187015802554110877e+01) (1, -6.64681796895505994094e-02) (2, -2.17753459231758511594e-01) (3, -1.80991061495447552732e-01) (4, -1.15057006941938613775e-01) (5, 4.23255640572620617235e+00) (6, 9.67169583072201799467e-01) (7, -2.95367825808807937804e-01) (8, 4.54424090628559651517e-01) (9, 8.19346348463686341423e-03) (10, 7.73842088383164174864e-03) (11, 5.02743728198307948674e+00) (12, -1.41122162245526622248e-01) (13, -3.84154463217715680390e-01) (14, -1.42968624282888567834e+00) (15, 4.95525344086120345111e+00) (16, -5.45720501059544615963e-01) (17, 3.47650299089538983299e-01) (18, -1.93811862824502667557e+00) (19, -3.73576475484308057062e-01) (0, 1.24916040758072171002e+01) (1, 3.65314909300487378196e-01) (2, 4.84687932810466848288e-01) (3, 3.24096069714706280784e-01) (4, 3.19572762629669049339e-01) (5, -8.20277161936081244953e-01) (6, -2.57138661689032455016e+00) (7, -5.55354354146590956098e-01) (8, -1.08047668817518704998e+00) (9, -1.10589791077671945052e-02) (10, -6.53260222066234574889e-01) (11, 3.69491007562228324090e+00) (12, 3.85011317895739169082e-01) (13, 2.01402754069363965073e+00) (14, 1.61391980006428381600e+00) (15, 4.74748446512489863380e+00) (16, 1.54775228734794256802e+00) (17, 6.62017491403624092072e-01) (18, -9.00836318404320657294e+00) (19, 5.51225163983561361469e-01) (0, -8.94090303999119839773e+00) (1, -7.97449126829425647411e-02) (2, -6.65914639820377185497e-02) (3, -1.87740497290067170910e-01) (4, -2.19583921133450959973e-01) (5, 5.57319105752995103131e+00) (6, 8.74349010545824867346e-02) (7, -8.80002226892576261408e-02) (8, -1.27348497820374932654e-02) (9, -1.01604824652526584683e-01) (10, -1.62298959351901833648e-02) (11, 7.21970100054010810453e+00) (12, -5.72535306490450368599e-02) (13, -5.92205757397541332487e-01) (14, -1.02519735907038667122e+00) (15, 5.33688287077253953328e+00) (16, 1.29961142861029055329e-01) (17, -6.33205573986062170144e-02) (18, 4.06839473145947128074e+00) (19, -3.46411914381165031429e-01) (0, -9.91947841060547119696e+00) (1, -1.36602701646603597041e-01) (2, -2.91098089916027980006e-01) (3, -2.35093975467003890589e-01) (4, -1.19318665963925304996e-01) (5, 4.64493128241940222978e+00) (6, 7.27845168563001965190e-01) (7, 8.02446605570540649754e-02) (8, 6.41906912244827765335e-01) (9, -2.72058826593638114488e-01) (10, 4.50132908084005300964e-01) (11, 6.02423227057876431445e+00) (12, -1.46782566379759532582e-01) (13, -2.31191883266759684590e-01) (14, -1.70109095644821617377e+00) (15, 5.30576929116399931274e+00) (16, -4.57895401978024918499e-01) (17, -3.10595322615226487883e-01) (18, 6.39115635431101480890e+00) (19, -3.06802833173789257781e-01) (0, 1.23798197570138235335e+01) (1, 3.66766861187326764782e-01) (2, 4.45568735258686343670e-01) (3, 3.70192828135597562511e-01) (4, 3.51085568325626706798e-01) (5, -7.43200792266101806227e-01) (6, -2.49680821491438109661e+00) (7, -5.62332194745992608453e-01) (8, -1.01596959936087372078e+00) (9, -5.76731551798367950146e-02) (10, -6.50576910365413652038e-01) (11, 3.44087935663928767838e+00) (12, 4.18287964571878223552e-01) (13, 2.18838781596219433823e+00) (14, 1.74444954414235908757e+00) (15, 4.74370056855946131691e+00) (16, 1.84128105416195575472e+00) (17, 3.79483633237187478748e-01) (18, -8.79921748657910995917e+00) (19, 4.83133675996817946174e-01) (0, 1.50000000000000000000e+03) (1, 1.56831752177564820450e+00) (2, 1.49484563287584526492e+00) (3, 1.63973342295973001370e+00) (4, 1.50520284515111169021e+00) (5, -4.82482273733437061480e+00) (6, -7.87895780277881874198e-01) (7, -4.11595324888102265248e+00) (8, -6.03685637381467410378e-01) (9, -1.99554958714336416747e+00) (10, -1.62192621046130636131e+00) (11, -6.22122400996262392425e+00) (12, -9.40568928346199650825e-01) (13, -2.06917319866409865625e+00) (14, -5.35788106923342444254e-01) (15, -5.40990582303202316439e+00) (16, -1.04053723271891618296e+00) (17, -2.58928831360395550476e+00) (18, -2.50847351896234238566e+00) (19, -9.59333161520161403768e-02) (0, 3.05980652752947506201e+01) (1, 2.35458166320042294739e-01) (2, 2.90829048473553342102e-01) (3, 4.17649985272603885278e-01) (4, 2.27102451939301175354e-01) (5, 7.75884488306306074890e-01) (6, -4.96566584588822301782e+00) (7, 3.79215974980104064684e-01) (8, -2.19423382236157937797e+00) (9, 4.37979055313610698974e-01) (10, -1.69964797935726408262e+00) (11, -1.11916916081106254666e+00) (12, 3.96935334328756161959e-01) (13, 9.37700605130424191813e-01) (14, 1.31131316718164714352e+00) (15, 2.69682933434627292169e-01) (16, 1.33390730109243760282e+00) (17, 2.31385192539314193949e-01) (18, 1.35031576311210144148e+00) (19, 5.05307859496198386040e-01) (0, 1.50000000000000000000e+03) (1, 1.24368025593836217801e+00) (2, 1.25116250895340330729e+00) (3, 1.39785890140015989225e+00) (4, 1.36749936499078184049e+00) (5, -4.03959990121092982207e+00) (6, 2.70196777379911545758e-01) (7, -4.31499171448618823455e-01) (8, -3.95921003218406009072e-01) (9, -1.12317044041056357528e+00) (10, -4.27668604402623753202e+00) (11, -5.60351281027271141966e+00) (12, -2.99515561712228617353e+00) (13, -4.29439127390689845409e-01) (14, -1.44415406841961724282e+00) (15, -4.42739405687399401046e+00) (16, -2.27388985951716326994e+00) (17, -4.84136398843510118439e-01) (18, -3.68205740782119317345e+00) (19, -2.00008096662250833830e-01) (20, 5.79074088378894180629e-01) (21, 3.46361860643143060212e-01) (22, 4.09836882640299771108e-01) (23, -8.71743153935943815291e-02) (24, 4.01166776325418916738e-01) (25, 3.98872167145310652092e-01) (26, -7.93464671975647184432e-02) (27, 7.55919788235978051816e-01) (28, -7.54416289772209314179e-01) (29, 7.52841501265701373846e-01) (30, 3.51964391361065997987e-01) 
