FANN_FLO_2.1
num_layers=3
learning_rate=0.700000
connection_rate=1.000000
network_type=0
learning_momentum=0.000000
training_algorithm=2
train_error_function=1
train_stop_function=1
cascade_output_change_fraction=0.010000
quickprop_decay=-0.000100
quickprop_mu=1.750000
rprop_increase_factor=1.200000
rprop_decrease_factor=0.500000
rprop_delta_min=0.000000
rprop_delta_max=50.000000
rprop_delta_zero=0.100000
cascade_output_stagnation_epochs=12
cascade_candidate_change_fraction=0.010000
cascade_candidate_stagnation_epochs=12
cascade_max_out_epochs=150
cascade_min_out_epochs=50
cascade_max_cand_epochs=150
cascade_min_cand_epochs=50
cascade_num_candidate_groups=2
bit_fail_limit=1.00000000000000005551e-01
cascade_candidate_limit=1.00000000000000000000e+03
cascade_weight_multiplier=4.00000000000000022204e-01
cascade_activation_functions_count=10
cascade_activation_functions=3 5 7 8 10 11 14 15 16 17 
cascade_activation_steepnesses_count=4
cascade_activation_steepnesses=2.50000000000000000000e-01 5.00000000000000000000e-01 7.50000000000000000000e-01 1.00000000000000000000e+00 
layer_sizes=10 4 2 
scale_included=0
neurons (num_inputs, activation_function, activation_steepness)=(0, 0, 0.00000000000000000000e+00) (0, 0, 0.00000000000000000000e+00) (0, 0, 0.00000000000000000000e+00) (0, 0, 0.00000000000000000000e+00) (0, 0, 0.00000000000000000000e+00) (0, 0, 0.00000000000000000000e+00) (0, 0, 0.00000000000000000000e+00) (0, 0, 0.00000000000000000000e+00) (0, 0, 0.00000000000000000000e+00) (0, 0, 0.00000000000000000000e+00) (10, 6, 5.00000000000000000000e-01) (10, 6, 5.00000000000000000000e-01) (10, 6, 5.00000000000000000000e-01) (0, 6, 0.00000000000000000000e+00) (4, 4, 5.00000000000000000000e-01) (0, 4, 0.00000000000000000000e+00) 
connections (connected_to_neuron, weight)=(0, -2.21225230459364619051e+00) (1, 3.37344792722055286660e+00) (2, 2.29780744690825722287e+00) (3, 2.22021469403435967038e+00) (4, 2.81035814025816010897e-01) (5, 2.39956017052627279540e+00) (6, 1.55325394127368410224e+00) (7, 2.48427399162156969936e+00) (8, 1.52248533350033610212e+00) (9, -4.14850821848074513554e+00) (0, 3.42060885703548445136e+00) (1, -2.83385908781791950872e+00) (2, -1.53811619743087968359e+00) (3, -3.71533015196067006869e+00) (4, 8.25206536608492413620e-01) (5, -1.31598376665602945224e+00) (6, -1.52857072224211432143e+00) (7, -1.56805810429988667920e+00) (8, -9.82131843991572606178e-01) (9, 3.62199126483000233279e+00) (0, 6.90386647588134005904e-02) (1, 3.03203518306336475274e-02) (2, 1.42492001421995907046e-03) (3, -9.67430075788562604533e-02) (4, -9.77461637446865178047e-02) (5, -2.30060913873168182420e-01) (6, -8.28765141362055798857e-03) (7, 2.21306956277818531187e-02) (8, 3.68373919658707693614e-02) (9, 1.00739912850833904234e-01) (10, 1.38345017831874876890e+01) (11, -1.30964770096465024096e+01) (12, -1.77233461606155148771e-02) (13, -1.24851991254279570676e+00) 
