FANN_FLO_2.1
num_layers=3
learning_rate=0.700000
connection_rate=1.000000
network_type=0
learning_momentum=0.000000
training_algorithm=2
train_error_function=1
train_stop_function=1
cascade_output_change_fraction=0.010000
quickprop_decay=-0.000100
quickprop_mu=1.750000
rprop_increase_factor=1.200000
rprop_decrease_factor=0.500000
rprop_delta_min=0.000000
rprop_delta_max=50.000000
rprop_delta_zero=0.100000
cascade_output_stagnation_epochs=12
cascade_candidate_change_fraction=0.010000
cascade_candidate_stagnation_epochs=12
cascade_max_out_epochs=150
cascade_min_out_epochs=50
cascade_max_cand_epochs=150
cascade_min_cand_epochs=50
cascade_num_candidate_groups=2
bit_fail_limit=1.00000000000000005551e-01
cascade_candidate_limit=1.00000000000000000000e+03
cascade_weight_multiplier=4.00000000000000022204e-01
cascade_activation_functions_count=10
cascade_activation_functions=3 5 7 8 10 11 14 15 16 17 
cascade_activation_steepnesses_count=4
cascade_activation_steepnesses=2.50000000000000000000e-01 5.00000000000000000000e-01 7.50000000000000000000e-01 1.00000000000000000000e+00 
layer_sizes=15 4 2 
scale_included=0
neurons (num_inputs, activation_function, activation_steepness)=(0, 0, 0.00000000000000000000e+00) (0, 0, 0.00000000000000000000e+00) (0, 0, 0.00000000000000000000e+00) (0, 0, 0.00000000000000000000e+00) (0, 0, 0.00000000000000000000e+00) (0, 0, 0.00000000000000000000e+00) (0, 0, 0.00000000000000000000e+00) (0, 0, 0.00000000000000000000e+00) (0, 0, 0.00000000000000000000e+00) (0, 0, 0.00000000000000000000e+00) (0, 0, 0.00000000000000000000e+00) (0, 0, 0.00000000000000000000e+00) (0, 0, 0.00000000000000000000e+00) (0, 0, 0.00000000000000000000e+00) (0, 0, 0.00000000000000000000e+00) (15, 6, 5.00000000000000000000e-01) (15, 6, 5.00000000000000000000e-01) (15, 6, 5.00000000000000000000e-01) (0, 6, 0.00000000000000000000e+00) (4, 4, 5.00000000000000000000e-01) (0, 4, 0.00000000000000000000e+00) 
connections (connected_to_neuron, weight)=(0, -2.40683618329716209061e+00) (1, 1.98889079906426213817e+00) (2, 3.27595966419415374205e+00) (3, -3.48287694970447425646e+00) (4, 2.47763228131950263844e+00) (5, -1.60388137555646426158e+00) (6, -4.31692195536574674364e-01) (7, 3.19887890392517748595e+00) (8, -3.52338200467208872979e+00) (9, 1.02534866090266230110e+00) (10, 4.16061726354402194872e-01) (11, 1.95893407892577919860e+00) (12, 1.00528237961044464299e+00) (13, 2.98024279159642091486e+00) (14, -2.28264387673999236128e+00) (0, -1.91292162675540458605e-02) (1, 5.52351757132481968604e-01) (2, 2.73625793310781517675e-01) (3, -6.11201692216897796150e-01) (4, 3.81323882353278464930e-01) (5, 1.44097382557579811735e-01) (6, 1.63856525414137532692e-01) (7, 5.29894834069278619637e-01) (8, -4.50949513123821754679e-01) (9, 1.27053788136557721522e+00) (10, 2.56053807345323292122e-01) (11, 1.76598073563897339788e+00) (12, 1.61039356706167091637e+00) (13, 2.10375171743359734577e+00) (14, -4.48341447447918595159e-02) (0, 3.21655406927335763001e+00) (1, -3.23608675026067960090e+00) (2, -2.52350065370940557230e+00) (3, 2.25990991878513058921e+00) (4, -2.05731964033545322579e+00) (5, 8.88806467220770612947e-01) (6, 7.29189912094148295907e-01) (7, -1.65835679732613194837e+00) (8, 2.03481012755189816232e+00) (9, -2.05210449955834306479e+00) (10, -1.29901203148233501672e+00) (11, -1.54029917416732620161e+00) (12, -2.06670768559067896675e+00) (13, -2.15071244184843868297e+00) (14, 3.21746134882438683533e+00) (15, 9.00030338627244219651e+00) (16, 1.36965228530679383745e-01) (17, -2.01640777390154894988e+01) (18, -1.38471238342642100072e+00) 
