FANN_FLO_2.1
num_layers=3
learning_rate=0.700000
connection_rate=1.000000
network_type=0
learning_momentum=0.000000
training_algorithm=2
train_error_function=1
train_stop_function=1
cascade_output_change_fraction=0.010000
quickprop_decay=-0.000100
quickprop_mu=1.750000
rprop_increase_factor=1.200000
rprop_decrease_factor=0.500000
rprop_delta_min=0.000000
rprop_delta_max=50.000000
rprop_delta_zero=0.100000
cascade_output_stagnation_epochs=12
cascade_candidate_change_fraction=0.010000
cascade_candidate_stagnation_epochs=12
cascade_max_out_epochs=150
cascade_min_out_epochs=50
cascade_max_cand_epochs=150
cascade_min_cand_epochs=50
cascade_num_candidate_groups=2
bit_fail_limit=1.00000000000000005551e-01
cascade_candidate_limit=1.00000000000000000000e+03
cascade_weight_multiplier=4.00000000000000022204e-01
cascade_activation_functions_count=10
cascade_activation_functions=3 5 7 8 10 11 14 15 16 17 
cascade_activation_steepnesses_count=4
cascade_activation_steepnesses=2.50000000000000000000e-01 5.00000000000000000000e-01 7.50000000000000000000e-01 1.00000000000000000000e+00 
layer_sizes=27 11 2 
scale_included=0
neurons (num_inputs, activation_function, activation_steepness)=(0, 0, 0.00000000000000000000e+00) (0, 0, 0.00000000000000000000e+00) (0, 0, 0.00000000000000000000e+00) (0, 0, 0.00000000000000000000e+00) (0, 0, 0.00000000000000000000e+00) (0, 0, 0.00000000000000000000e+00) (0, 0, 0.00000000000000000000e+00) (0, 0, 0.00000000000000000000e+00) (0, 0, 0.00000000000000000000e+00) (0, 0, 0.00000000000000000000e+00) (0, 0, 0.00000000000000000000e+00) (0, 0, 0.00000000000000000000e+00) (0, 0, 0.00000000000000000000e+00) (0, 0, 0.00000000000000000000e+00) (0, 0, 0.00000000000000000000e+00) (0, 0, 0.00000000000000000000e+00) (0, 0, 0.00000000000000000000e+00) (0, 0, 0.00000000000000000000e+00) (0, 0, 0.00000000000000000000e+00) (0, 0, 0.00000000000000000000e+00) (0, 0, 0.00000000000000000000e+00) (0, 0, 0.00000000000000000000e+00) (0, 0, 0.00000000000000000000e+00) (0, 0, 0.00000000000000000000e+00) (0, 0, 0.00000000000000000000e+00) (0, 0, 0.00000000000000000000e+00) (0, 0, 0.00000000000000000000e+00) (27, 6, 5.00000000000000000000e-01) (27, 6, 5.00000000000000000000e-01) (27, 6, 5.00000000000000000000e-01) (27, 6, 5.00000000000000000000e-01) (27, 6, 5.00000000000000000000e-01) (27, 6, 5.00000000000000000000e-01) (27, 6, 5.00000000000000000000e-01) (27, 6, 5.00000000000000000000e-01) (27, 6, 5.00000000000000000000e-01) (27, 6, 5.00000000000000000000e-01) (0, 6, 0.00000000000000000000e+00) (11, 6, 5.00000000000000000000e-01) (0, 6, 0.00000000000000000000e+00) 
connections (connected_to_neuron, weight)=(0, 2.93898995257600881281e-01) (1, 8.88162567405873404347e-01) (2, 9.05502050309353934132e-01) (3, 8.23176532178097830617e-01) (4, 8.64108330695801840626e-01) (5, 4.79705028278556877552e+00) (6, 3.87587840719072884710e+00) (7, 3.87227479977457589300e+00) (8, 3.81833246214239663274e+00) (9, 3.85296326739637917669e+00) (10, 3.81310001624672478826e+00) (11, 3.88109928233473366888e+00) (12, 2.70259913699398124365e+00) (13, 3.84027200801222390325e+00) (14, 3.87196388704626626165e+00) (15, 3.71753654492943308441e+00) (16, 3.79713476313202447088e+00) (17, 3.71400591595022699920e+00) (18, 3.86124831302015847356e+00) (19, 3.76680270073859757574e+00) (20, 3.71844757957308313934e+00) (21, 3.74967078355996674688e+00) (22, 4.78882244644490295826e+00) (23, 3.73390372706501505462e+00) (24, 3.83136805755941933782e+00) (25, 3.86185011131613320501e+00) (26, -5.97775842944787472177e-01) (0, 5.34112914590142914828e-02) (1, 4.12253721926697458411e-01) (2, 4.38635523740538324500e-01) (3, 4.45309187595137323523e-01) (4, 3.91534987215288843299e-01) (5, 1.22587784717512948696e+00) (6, 1.24989097903204782192e+00) (7, 1.31379127095175607387e+00) (8, 1.33417713234854562465e+00) (9, 1.31785950402451379482e+00) (10, 1.27813259849978311244e+00) (11, 1.29491484502983911220e+00) (12, 8.04253537530433826319e-01) (13, 7.25550342950209592452e-01) (14, 1.39647778461409433071e+00) (15, 1.39421708474589212123e+00) (16, 1.28328042815161569301e+00) (17, 1.32521271298361642543e+00) (18, 1.35464390705061776821e+00) (19, 7.95271453115328763595e-01) (20, 1.21081040392351968471e+00) (21, 9.36711389894020252100e-01) (22, 1.23899112234545571987e+00) (23, 8.45674679005872897974e-01) (24, 1.36402323434782846157e+00) (25, 1.27712482551766259853e+00) (26, 3.66493383710524756047e-01) (0, 1.35608482856621037627e+00) (1, 2.88063877263875445234e-01) (2, 1.67237789371819989270e-01) (3, 1.06938683429570705052e-01) (4, 2.31200017968030469007e-01) (5, -1.01916387100740091221e+00) (6, -1.05308116395993844883e+00) (7, -1.12214618344827310459e+00) (8, -9.82542441981273939611e-01) (9, -1.03700570185704843418e+00) (10, -1.08205756713672296421e+00) (11, -1.07855355163140909092e+00) (12, -1.11263094265981332676e+00) (13, -9.74000440733867933751e-01) (14, -1.01022331585212366001e+00) (15, -1.02751846035047189609e+00) (16, -9.59147931831318190099e-01) (17, -1.00046689976974145786e+00) (18, -1.04084304888768808262e+00) (19, -9.74733220236736586095e-01) (20, -1.12698885222001687900e+00) (21, -1.12543270160480157749e+00) (22, -1.02989169378801004306e+00) (23, -1.04751131852193490879e+00) (24, -1.12442467530294076816e+00) (25, -1.08258133177681581394e+00) (26, 5.98422305965180534315e-01) (0, -3.96110239602949176785e+00) (1, -1.45462363651315373936e-01) (2, 3.18979847521385362352e-02) (3, 3.07614135832390001024e-02) (4, 3.11251509279808213915e-02) (5, 9.31329987193993957817e-01) (6, 8.09367339308909805595e-01) (7, 9.49431992318086059868e-01) (8, 8.61619576062611969292e-01) (9, 9.33034858848504455864e-01) (10, 8.39182204749040039360e-01) (11, 8.82304779436044128715e-01) (12, 8.93323785807542236626e-01) (13, 9.45007897164277466118e-01) (14, 9.43078599121026428520e-01) (15, 7.57601625468186767876e-01) (16, 7.75208338345937164604e-01) (17, 9.11909542228631408989e-01) (18, 8.90209696437768371879e-01) (19, 8.90521249916009338676e-01) (20, 8.95592994238786133110e-01) (21, 8.32574173058919342338e-01) (22, 7.92509588595084579765e-01) (23, 8.63691165294103058159e-01) (24, 8.48416700210027130424e-01) (25, 8.09908270086697967827e-01) (26, 1.81775876321462054319e-01) (0, 3.06009198762163259211e-01) (1, 8.31778749017888174855e-01) (2, 8.40344674079590903126e-01) (3, 8.71709345965558157765e-01) (4, 9.06459122090512381398e-01) (5, 2.97453234330993376844e+00) (6, 3.81926863504498070867e+00) (7, 3.85288184745161599309e+00) (8, 3.80160207165329522283e+00) (9, 3.79825334114878243597e+00) (10, 3.90990389747469491155e+00) (11, 3.79868876798002785833e+00) (12, 2.83486804263362968115e+00) (13, 3.89059346778242653997e+00) (14, 3.88552568716852730901e+00) (15, 3.83748711509554452093e+00) (16, 3.83157197249977654607e+00) (17, 3.87818828089087075384e+00) (18, 3.82822043312637871892e+00) (19, 3.83682831985800332220e+00) (20, 3.90105134112684792669e+00) (21, 3.78778468681423730047e+00) (22, 4.79223741633621269642e+00) (23, 3.83922730250208443792e+00) (24, 3.73103239251225016204e+00) (25, 3.85492160780279702337e+00) (26, -4.59362048606084427682e-01) (0, 5.65163879016427461721e+00) (1, -1.56186567951888191641e-02) (2, -2.96570929099768607062e-02) (3, 1.00052128512695431839e-01) (4, -2.42271768261641470832e-02) (5, -8.64405081001988429001e-01) (6, -1.18189307728826187294e+00) (7, -1.07480771893679283302e+00) (8, -1.16951816583096168678e+00) (9, -1.08288653248964927833e+00) (10, -1.16707615980922363441e+00) (11, -1.02817340249239586036e+00) (12, -1.19282154047905586403e+00) (13, -1.08035989159762046974e+00) (14, -1.00491577873133186571e+00) (15, -1.10566984916149757545e+00) (16, -1.08436934704004905861e+00) (17, -1.05075019652067802589e+00) (18, -1.13168124163567207496e+00) (19, -1.15841929668604515236e+00) (20, -1.13071530366360328834e+00) (21, -1.16503004411279342811e+00) (22, -1.01684512684248451464e+00) (23, -1.20542406344830177467e+00) (24, -1.17551579007922790687e+00) (25, -1.16548833677589080970e+00) (26, -8.72388872687492877844e-02) (0, -3.86205288000728641506e+00) (1, -8.43708735614220189936e-02) (2, -1.37261733105699224033e-01) (3, -1.83488798051276991163e-02) (4, -1.53529695859471959629e-01) (5, 8.14472793783597381889e-01) (6, 9.19347203518800171196e-01) (7, 9.13875631238870056450e-01) (8, 8.45320224012784393608e-01) (9, 8.20734418179444702446e-01) (10, 7.53537989403657348930e-01) (11, 7.92067947979621322929e-01) (12, 8.72771694507054718315e-01) (13, 8.92206913973740967094e-01) (14, 8.46547230328969391167e-01) (15, 8.66153731192998321831e-01) (16, 9.20940808202676208793e-01) (17, 7.87742777909688385307e-01) (18, 8.57902570809773834526e-01) (19, 8.36826398219518097221e-01) (20, 9.24928865577630432426e-01) (21, 8.28707820918015869438e-01) (22, 9.26700598742417724907e-01) (23, 7.88065015520505340874e-01) (24, 9.19547966863564880668e-01) (25, 7.83225990082673462211e-01) (26, 1.73029535450604787794e-01) (0, 5.70413166204480592825e+00) (1, 2.18457458208352155171e-02) (2, 1.65317235182076555100e-02) (3, 7.54647232992945726782e-03) (4, -4.42437924043835237309e-03) (5, -1.12439117183575221226e+00) (6, -1.13626281226097725074e+00) (7, -1.02932080680548332374e+00) (8, -1.06798310631930015724e+00) (9, -1.07413530403792045753e+00) (10, -1.06231889182745597999e+00) (11, -1.10645275617062233131e+00) (12, -1.18116036856590889137e+00) (13, -1.19392976963936470192e+00) (14, -1.08036924639843490148e+00) (15, -1.14143770987211845558e+00) (16, -1.07350336069285057228e+00) (17, -1.16539844179569862526e+00) (18, -1.04723577255427025001e+00) (19, -1.15969492921649597328e+00) (20, -1.19680292213379524391e+00) (21, -1.21183827573477409523e+00) (22, -1.02924682686232094042e+00) (23, -1.11232180947481773536e+00) (24, -1.03925469571768425148e+00) (25, -1.17777510041414879005e+00) (26, -8.29369816367302448157e-02) (0, 5.53881808290271226980e+00) (1, -4.40915944387167899055e-02) (2, 5.93950180004387887078e-02) (3, -2.15149047185629813117e-02) (4, 1.39242450673416257034e-01) (5, -1.08016993453392573521e+00) (6, -1.11638942414938591163e+00) (7, -1.16461730429946563881e+00) (8, -1.17951523194133423011e+00) (9, -1.16922067904888771217e+00) (10, -1.07932467812716148536e+00) (11, -1.18728060329376838844e+00) (12, -1.21564834618984840553e+00) (13, -1.13190454298674247902e+00) (14, -1.00315323958300117724e+00) (15, -1.10054566020189903419e+00) (16, -1.14151393225082942173e+00) (17, -1.20041837597309730690e+00) (18, -1.18425028080164573829e+00) (19, -1.21139173263727806251e+00) (20, -1.05236630195795677345e+00) (21, -1.12809328043877266090e+00) (22, -1.01218124220274452441e+00) (23, -1.19050578082024238746e+00) (24, -1.10334076041399620216e+00) (25, -1.02735489660917900245e+00) (26, 3.19415685351218739396e-02) (0, -1.04473714747624069066e-01) (1, 3.53844455255916678915e-02) (2, -9.88690489159175650569e-02) (3, -3.00796115027019521360e-02) (4, 5.34049114956310355673e-02) (5, 3.96410351544685735092e-01) (6, 3.07419139367060223478e-01) (7, 3.23641333584008261681e-01) (8, 3.29460150968746701139e-01) (9, 6.16160513828779565770e-01) (10, 7.32511142264391290624e-01) (11, 7.03749673436666833837e-01) (12, 2.22267184487162539064e-01) (13, 4.67494520765261212247e-01) (14, 3.40857734613073226626e-01) (15, 6.92475566636110650975e-01) (16, 5.34668872058458699570e-01) (17, 4.18279949050859967130e-01) (18, 3.68635560792402783292e-01) (19, 3.94411388259844342130e-01) (20, 3.48325926285700360197e-01) (21, 3.89772619527296582120e-01) (22, 7.49067941676164972264e-01) (23, 3.58489628356413403409e-01) (24, 3.58961771648840466398e-01) (25, 6.42530107866312372167e-01) (26, 3.83621732048946006977e-02) (27, 1.02326288833138367984e+00) (28, 2.32676220922948401304e-01) (29, -4.34047441806086065075e-02) (30, 4.13983451250326706106e-01) (31, 9.36124185273553122144e-01) (32, -5.48920405829679824983e-01) (33, 1.42482221565394640006e-01) (34, -4.80716308379900425507e-01) (35, -5.54398638928663589631e-01) (36, 1.43201600901171732794e-01) (37, 6.98623301885374692333e-01) 
