FANN_FLO_2.1
num_layers=3
learning_rate=0.700000
connection_rate=1.000000
network_type=0
learning_momentum=0.000000
training_algorithm=2
train_error_function=1
train_stop_function=1
cascade_output_change_fraction=0.010000
quickprop_decay=-0.000100
quickprop_mu=1.750000
rprop_increase_factor=1.200000
rprop_decrease_factor=0.500000
rprop_delta_min=0.000000
rprop_delta_max=50.000000
rprop_delta_zero=0.100000
cascade_output_stagnation_epochs=12
cascade_candidate_change_fraction=0.010000
cascade_candidate_stagnation_epochs=12
cascade_max_out_epochs=150
cascade_min_out_epochs=50
cascade_max_cand_epochs=150
cascade_min_cand_epochs=50
cascade_num_candidate_groups=2
bit_fail_limit=1.00000000000000005551e-01
cascade_candidate_limit=1.00000000000000000000e+03
cascade_weight_multiplier=4.00000000000000022204e-01
cascade_activation_functions_count=10
cascade_activation_functions=3 5 7 8 10 11 14 15 16 17 
cascade_activation_steepnesses_count=4
cascade_activation_steepnesses=2.50000000000000000000e-01 5.00000000000000000000e-01 7.50000000000000000000e-01 1.00000000000000000000e+00 
layer_sizes=9 11 2 
scale_included=0
neurons (num_inputs, activation_function, activation_steepness)=(0, 0, 0.00000000000000000000e+00) (0, 0, 0.00000000000000000000e+00) (0, 0, 0.00000000000000000000e+00) (0, 0, 0.00000000000000000000e+00) (0, 0, 0.00000000000000000000e+00) (0, 0, 0.00000000000000000000e+00) (0, 0, 0.00000000000000000000e+00) (0, 0, 0.00000000000000000000e+00) (0, 0, 0.00000000000000000000e+00) (9, 6, 5.00000000000000000000e-01) (9, 6, 5.00000000000000000000e-01) (9, 6, 5.00000000000000000000e-01) (9, 6, 5.00000000000000000000e-01) (9, 6, 5.00000000000000000000e-01) (9, 6, 5.00000000000000000000e-01) (9, 6, 5.00000000000000000000e-01) (9, 6, 5.00000000000000000000e-01) (9, 6, 5.00000000000000000000e-01) (9, 6, 5.00000000000000000000e-01) (0, 6, 0.00000000000000000000e+00) (11, 6, 5.00000000000000000000e-01) (0, 6, 0.00000000000000000000e+00) 
connections (connected_to_neuron, weight)=(0, 5.58059509193669089910e-01) (1, 3.26926772529810061307e-01) (2, 3.20248958701818575712e-01) (3, 3.04460418457716097684e-01) (4, 3.56944900984495272489e-01) (5, -7.24392812670180519241e-01) (6, 1.75105232008993949577e+00) (7, 4.52111574705720442591e-01) (8, -4.23971340632450899299e-01) (0, -1.02170898639193392238e-05) (1, 2.63100869805841353077e-01) (2, 2.47750185282258866826e-01) (3, 1.79790869207410747288e-01) (4, 1.79070487470655376194e-01) (5, -2.74134035745025617103e+00) (6, -1.17967260611207325205e+00) (7, 1.55887070168375219126e-01) (8, 2.80299231792637493221e-01) (0, 3.26505039684147277401e-02) (1, -2.85527121035163145013e-01) (2, -3.09525191543404853967e-01) (3, -2.70967934040133584528e-01) (4, -3.07603820917908943322e-01) (5, 2.76565305628830993001e+00) (6, 1.07383238108677825373e+00) (7, 5.87069079989474412740e-02) (8, -3.42274937597746964357e-01) (0, 1.01336604893257797855e+00) (1, 3.53222814435690035673e-01) (2, 2.65626722062557385495e-01) (3, 3.17337711388795962186e-01) (4, 3.07128307456701388212e-01) (5, -7.88115956824335328612e-01) (6, 1.61129283168614234611e+00) (7, 7.14070340403864300960e-01) (8, -3.62724356925499757942e-01) (0, 1.20430595407039175981e+00) (1, 5.57804171014588456856e-01) (2, 5.11347811687749009835e-01) (3, 4.23323687184613328682e-01) (4, 5.12106958795350175606e-01) (5, -2.55953081650583857964e+00) (6, -6.45751956755841738378e-01) (7, -1.47074354234171322808e+00) (8, 3.82210213088764405587e-01) (0, -8.09077118164372999232e-02) (1, -8.56902546806439027738e-03) (2, -6.10699327997694593750e-02) (3, -4.75305030457506758057e-02) (4, 6.31404732950199970576e-02) (5, 4.68115339876375102790e+00) (6, 3.26070830766902519660e-01) (7, 9.07650187777721551008e-02) (8, 3.70677552383468333908e-01) (0, 2.94259618626783181483e-01) (1, 2.08235404337425988874e-01) (2, 3.24291272903462157728e-01) (3, 2.27048813248654168806e-01) (4, 3.80027397418995604994e-01) (5, 1.51015343728148354607e+00) (6, 1.88025552368215026489e-01) (7, 1.87862387433838290418e-01) (8, -3.08597424349500770724e-01) (0, 1.13832217713026562222e+00) (1, 7.61099028728653315135e-01) (2, 8.13824187360454920359e-01) (3, 8.35212122045208338328e-01) (4, 7.18747805200268263803e-01) (5, -2.03319495224769042352e+00) (6, -9.25048485248408547399e-01) (7, -3.37553223022090254091e+00) (8, 4.58142882395617345725e-01) (0, 2.24820967422674017344e-01) (1, 2.83636770094414458754e-01) (2, 2.43038515443583236220e-01) (3, 1.98879844392319482527e-01) (4, 2.20431587542076867781e-01) (5, 1.58778751107537163811e+00) (6, 2.67465460622417217085e-01) (7, 5.71878807660470278584e-02) (8, -3.54272523245527382052e-01) (0, -1.13185987869622362023e-01) (1, -2.18853688746299152035e-01) (2, -2.32792100816573560573e-01) (3, -3.36003391950930985210e-01) (4, -3.46278942137565159953e-01) (5, 4.78493145196161506760e+00) (6, -2.46558708836288331678e-01) (7, -7.99708010739757724217e-01) (8, 1.45269197858868714945e-01) (9, 3.28270080995827939763e-01) (10, -6.27551977324636578448e-02) (11, 4.63536423067358704930e-01) (12, 3.07440191072493818059e-01) (13, -2.45134390618239772497e-01) (14, 3.28510628986435487819e-02) (15, 2.81090635371476493809e-01) (16, -2.73481934102135004760e-01) (17, 3.26439339232713010563e-01) (18, 5.41041584380285156541e-01) (19, 3.47580007420607461910e-01) 
