FANN_FLO_2.1
num_layers=3
learning_rate=0.700000
connection_rate=1.000000
network_type=0
learning_momentum=0.000000
training_algorithm=2
train_error_function=1
train_stop_function=1
cascade_output_change_fraction=0.010000
quickprop_decay=-0.000100
quickprop_mu=1.750000
rprop_increase_factor=1.200000
rprop_decrease_factor=0.500000
rprop_delta_min=0.000000
rprop_delta_max=50.000000
rprop_delta_zero=0.100000
cascade_output_stagnation_epochs=12
cascade_candidate_change_fraction=0.010000
cascade_candidate_stagnation_epochs=12
cascade_max_out_epochs=150
cascade_min_out_epochs=50
cascade_max_cand_epochs=150
cascade_min_cand_epochs=50
cascade_num_candidate_groups=2
bit_fail_limit=1.00000000000000005551e-01
cascade_candidate_limit=1.00000000000000000000e+03
cascade_weight_multiplier=4.00000000000000022204e-01
cascade_activation_functions_count=10
cascade_activation_functions=3 5 7 8 10 11 14 15 16 17 
cascade_activation_steepnesses_count=4
cascade_activation_steepnesses=2.50000000000000000000e-01 5.00000000000000000000e-01 7.50000000000000000000e-01 1.00000000000000000000e+00 
layer_sizes=17 11 2 
scale_included=0
neurons (num_inputs, activation_function, activation_steepness)=(0, 0, 0.00000000000000000000e+00) (0, 0, 0.00000000000000000000e+00) (0, 0, 0.00000000000000000000e+00) (0, 0, 0.00000000000000000000e+00) (0, 0, 0.00000000000000000000e+00) (0, 0, 0.00000000000000000000e+00) (0, 0, 0.00000000000000000000e+00) (0, 0, 0.00000000000000000000e+00) (0, 0, 0.00000000000000000000e+00) (0, 0, 0.00000000000000000000e+00) (0, 0, 0.00000000000000000000e+00) (0, 0, 0.00000000000000000000e+00) (0, 0, 0.00000000000000000000e+00) (0, 0, 0.00000000000000000000e+00) (0, 0, 0.00000000000000000000e+00) (0, 0, 0.00000000000000000000e+00) (0, 0, 0.00000000000000000000e+00) (17, 6, 5.00000000000000000000e-01) (17, 6, 5.00000000000000000000e-01) (17, 6, 5.00000000000000000000e-01) (17, 6, 5.00000000000000000000e-01) (17, 6, 5.00000000000000000000e-01) (17, 6, 5.00000000000000000000e-01) (17, 6, 5.00000000000000000000e-01) (17, 6, 5.00000000000000000000e-01) (17, 6, 5.00000000000000000000e-01) (17, 6, 5.00000000000000000000e-01) (0, 6, 0.00000000000000000000e+00) (11, 6, 5.00000000000000000000e-01) (0, 6, 0.00000000000000000000e+00) 
connections (connected_to_neuron, weight)=(0, -9.98233938201488513187e+00) (1, -2.02637061537633778041e-01) (2, -2.58938945890792915350e-01) (3, -3.12565930248626833166e-01) (4, -2.72771377177366269873e-01) (5, 4.95644112228948863219e+00) (6, 1.12523904126150120497e+00) (7, 3.83311728493844317001e-01) (8, 2.88398098642284850257e+00) (9, -5.28704412116307920222e-01) (10, 1.76317405204018090581e-01) (11, 1.95077954122688107530e-01) (12, 5.18610208578503595334e+00) (13, 1.41797655039855352577e+00) (14, 4.39375934524540573411e-02) (15, -2.59576746503645205966e-01) (16, -6.91256706220132022267e-01) (0, 5.09079140043680695271e+02) (1, -7.14655447341865084354e+01) (2, -7.14655447341865084354e+01) (3, -7.14655447341865084354e+01) (4, -7.14655447341865084354e+01) (5, 1.50000000000000000000e+03) (6, 1.29079999079704271026e+03) (7, 1.39292939213887939331e+03) (8, 7.90799990797042710255e+02) (9, 1.50000000000000000000e+03) (10, 9.37260464483276564351e+02) (11, 1.47911021450699649904e+03) (12, 1.49670309488992779734e+03) (13, 1.50000000000000000000e+03) (14, 4.80051509708668049825e+02) (15, 6.23322497899692507417e+02) (16, 2.83632798877885505817e+01) (0, 5.29635650865559341582e+02) (1, -1.44954924396853588320e+01) (2, -1.44954924396853588320e+01) (3, -1.44954924396853588320e+01) (4, -1.44954924396853588320e+01) (5, 1.50000000000000000000e+03) (6, 1.29079999079704271026e+03) (7, 1.39292939213887939331e+03) (8, 7.90799990797042710255e+02) (9, 1.50000000000000000000e+03) (10, 9.37260464483276564351e+02) (11, 1.47911021450699649904e+03) (12, 1.49670309488992779734e+03) (13, 1.50000000000000000000e+03) (14, 4.80051509708668049825e+02) (15, 6.23322497899692507417e+02) (16, 7.24758386376159258191e+00) (0, -1.45311786256409947171e+00) (1, 8.64736695855639891928e-02) (2, 1.35203104194976886365e-01) (3, 1.38922687348701473509e-01) (4, 6.55246126351601964471e-03) (5, 5.09939525532753812342e+00) (6, 3.62882758165651408966e-01) (7, 1.13735883543400118079e+00) (8, 7.90799990797042710255e+02) (9, -1.15091842413722456051e+00) (10, 4.63379282513731553805e-03) (11, -3.69028058160218552786e-01) (12, 5.12911218892462983376e+00) (13, -1.22035071292786811981e+00) (14, 6.85952608672278640878e-02) (15, -9.58975993685895589103e-01) (16, -3.99097894831572741481e+00) (0, 4.03931114393309940169e+02) (1, 5.29051916395022736594e+00) (2, 5.29051916395022736594e+00) (3, 5.29051916395022736594e+00) (4, 5.29051916395022736594e+00) (5, 1.50000000000000000000e+03) (6, 1.29079999079704271026e+03) (7, 1.39292939213887939331e+03) (8, 7.90799990797042710255e+02) (9, 1.50000000000000000000e+03) (10, 9.37260464483276564351e+02) (11, 1.47911021450699649904e+03) (12, 1.49670309488992779734e+03) (13, 1.50000000000000000000e+03) (14, 4.80051509708668049825e+02) (15, 6.23322497899692507417e+02) (16, 1.08124150499138611536e+01) (0, 3.67353293413550687774e+01) (1, 6.44471039898958264480e-01) (2, 6.65394036002721844802e-01) (3, 5.48696374424067712106e-01) (4, 5.55117411442365926710e-01) (5, 7.87578247163441935719e-01) (6, 4.17731186886119143509e+00) (7, -1.43152114394475020731e+01) (8, 1.17394449604747741489e+00) (9, -3.37098194859532351852e-01) (10, -1.11334769415653656033e+00) (11, -1.63964168799338483318e+00) (12, -1.62204741191463286398e+00) (13, -3.82744365418075283003e+00) (14, -1.01044347743941775875e+00) (15, -3.66882447038186454424e-01) (16, 1.32380149793959778215e+00) (0, 3.51257502281496130081e+01) (1, 6.44353593076396169437e-01) (2, 6.00992268259454176516e-01) (3, 5.69750251556563780397e-01) (4, 6.39023537124324025882e-01) (5, -1.06540358884875985268e+00) (6, -4.33821767740749475450e+00) (7, -1.32098805688682094939e+01) (8, 2.72862740184588314918e+00) (9, -1.30839203556804006823e+00) (10, -4.85808415466900345159e-01) (11, -1.50318371093031144525e-01) (12, -3.96817599178223900935e+00) (13, 4.73551141621772408996e+00) (14, -9.57236424215732850662e-01) (15, -7.87749433600757331675e-01) (16, 1.24790892732801572684e+00) (0, 6.53715834983838135486e+02) (1, 7.58600202111077259737e-01) (2, 7.51507241932225400483e-01) (3, 8.22671648768257601780e-01) (4, 7.67500658241581867891e-01) (5, 2.01314234924400842219e-01) (6, 1.64814736362591784946e+00) (7, -1.44107979628756879720e+02) (8, 1.10027041271356296193e+00) (9, -2.93134516138846334954e+00) (10, -7.38864746516025072687e-01) (11, -1.15427513558617222955e+00) (12, -3.42297906670886042946e+00) (13, -8.04661480476211465884e+00) (14, -2.89811889210696538299e+00) (15, -3.89906032101556498937e-01) (16, 3.04633502004544132191e+00) (0, 4.15362032994697187860e+02) (1, 1.09121025142158778465e+01) (2, 1.09121025142158778465e+01) (3, 1.09121025142158778465e+01) (4, 1.09121025142158778465e+01) (5, 1.50000000000000000000e+03) (6, 1.29079999079704271026e+03) (7, 1.39292939213887939331e+03) (8, 7.90799990797042710255e+02) (9, 1.50000000000000000000e+03) (10, 9.37260464483276564351e+02) (11, 1.47911021450699649904e+03) (12, 1.49670309488992779734e+03) (13, 1.50000000000000000000e+03) (14, 4.80051509708668049825e+02) (15, 6.23322497899692507417e+02) (16, 6.90686875517031673155e+00) (0, 1.25833146707397054342e+03) (1, 5.88067179896909841830e+00) (2, 5.86975938060361990267e+00) (3, 5.96053781339008281748e+00) (4, 5.88096063562709936434e+00) (5, -7.63422588367270460452e+00) (6, -1.78245453579528456700e+00) (7, -3.57121659336393406647e+02) (8, 2.38807997675968852747e+00) (9, -1.12753798033171594994e+01) (10, -2.03015478436676666263e+00) (11, -1.79455780800675124276e+00) (12, -2.39057364941572014772e+00) (13, -8.03352323736144491306e+00) (14, -3.99573798769980559342e+00) (15, -4.21135577566649743630e+00) (16, 4.79884488069810366540e+00) (17, -8.56915928841132212845e-01) (18, 1.93456248129620159149e-02) (19, 4.66806173549503378162e-01) (20, 8.77719958592842575129e-01) (21, 5.91846798693739462038e-01) (22, -6.24158315627675430726e-01) (23, -5.09038226950229488743e-01) (24, -4.01738599579200550416e-01) (25, 5.01786199054912063211e-01) (26, -6.42869259573902840366e-01) (27, 5.94225608896922219415e-01) 
