FANN_FLO_2.1
num_layers=3
learning_rate=0.700000
connection_rate=1.000000
network_type=0
learning_momentum=0.000000
training_algorithm=2
train_error_function=1
train_stop_function=1
cascade_output_change_fraction=0.010000
quickprop_decay=-0.000100
quickprop_mu=1.750000
rprop_increase_factor=1.200000
rprop_decrease_factor=0.500000
rprop_delta_min=0.000000
rprop_delta_max=50.000000
rprop_delta_zero=0.100000
cascade_output_stagnation_epochs=12
cascade_candidate_change_fraction=0.010000
cascade_candidate_stagnation_epochs=12
cascade_max_out_epochs=150
cascade_min_out_epochs=50
cascade_max_cand_epochs=150
cascade_min_cand_epochs=50
cascade_num_candidate_groups=2
bit_fail_limit=1.00000000000000005551e-01
cascade_candidate_limit=1.00000000000000000000e+03
cascade_weight_multiplier=4.00000000000000022204e-01
cascade_activation_functions_count=10
cascade_activation_functions=3 5 7 8 10 11 14 15 16 17 
cascade_activation_steepnesses_count=4
cascade_activation_steepnesses=2.50000000000000000000e-01 5.00000000000000000000e-01 7.50000000000000000000e-01 1.00000000000000000000e+00 
layer_sizes=18 11 2 
scale_included=0
neurons (num_inputs, activation_function, activation_steepness)=(0, 0, 0.00000000000000000000e+00) (0, 0, 0.00000000000000000000e+00) (0, 0, 0.00000000000000000000e+00) (0, 0, 0.00000000000000000000e+00) (0, 0, 0.00000000000000000000e+00) (0, 0, 0.00000000000000000000e+00) (0, 0, 0.00000000000000000000e+00) (0, 0, 0.00000000000000000000e+00) (0, 0, 0.00000000000000000000e+00) (0, 0, 0.00000000000000000000e+00) (0, 0, 0.00000000000000000000e+00) (0, 0, 0.00000000000000000000e+00) (0, 0, 0.00000000000000000000e+00) (0, 0, 0.00000000000000000000e+00) (0, 0, 0.00000000000000000000e+00) (0, 0, 0.00000000000000000000e+00) (0, 0, 0.00000000000000000000e+00) (0, 0, 0.00000000000000000000e+00) (18, 6, 5.00000000000000000000e-01) (18, 6, 5.00000000000000000000e-01) (18, 6, 5.00000000000000000000e-01) (18, 6, 5.00000000000000000000e-01) (18, 6, 5.00000000000000000000e-01) (18, 6, 5.00000000000000000000e-01) (18, 6, 5.00000000000000000000e-01) (18, 6, 5.00000000000000000000e-01) (18, 6, 5.00000000000000000000e-01) (18, 6, 5.00000000000000000000e-01) (0, 6, 0.00000000000000000000e+00) (11, 6, 5.00000000000000000000e-01) (0, 6, 0.00000000000000000000e+00) 
connections (connected_to_neuron, weight)=(0, 2.73465020911709437712e+01) (1, 1.09373131811889415244e-01) (2, 3.40065975191914046660e-02) (3, 3.84768266680561507598e-02) (4, 3.92550249102436507598e-02) (5, -8.57656432256971967831e-01) (6, 2.38379672996900104920e-01) (7, -4.29406627885226832575e+00) (8, 2.24404669447136662086e-01) (9, -7.52515399519696343011e-02) (10, 2.04063769628595459427e-01) (11, -4.45972086360561514873e-01) (12, 1.27878578606013676433e-01) (13, 1.71627914405983877932e-01) (14, -4.08830897853887931248e-01) (15, -8.41203508533357124932e-01) (16, -1.02281529828200512533e+00) (17, 1.01060886846981978771e+00) (0, 1.25801162950695627485e-01) (1, -2.91801043881554818260e-02) (2, -5.63985654248376419573e-02) (3, -6.51566595865865072490e-02) (4, -5.64452284111161758928e-02) (5, 3.30254493221094502786e+00) (6, 3.25506580174826642970e-01) (7, -4.84731855390340249379e-01) (8, 7.83015160158141709790e-02) (9, 6.50825186025196456008e-01) (10, 5.36973374020901283998e-01) (11, 1.92439319762519517321e-01) (12, 3.86335817809975667902e-01) (13, 4.07011920586272391009e-01) (14, 3.14483787032236428161e+00) (15, 9.62465182427165832912e-01) (16, 3.32216463961989783016e-01) (17, 1.55723832625444619238e-01) (0, -7.34285567416646145489e+00) (1, 1.04693230132992795567e-01) (2, 6.49228308671293864729e-03) (3, -1.90145337176960797787e-02) (4, -2.22303086114567609310e-02) (5, 8.11208647671397442558e-01) (6, 2.21992904295231663347e-01) (7, 1.94896406032056224156e+00) (8, 3.08652590694973361085e-01) (9, 1.65666382591805189106e-01) (10, 1.08377203946549205416e-01) (11, 9.08847830910875092991e-02) (12, 4.12089556690430514063e-01) (13, 5.01090123857685143527e-01) (14, 6.65719670368542404404e-01) (15, 2.84431630268009838503e+00) (16, 7.27154925054120382377e-01) (17, -3.53602934552883163555e-01) (0, -5.19834949314872729609e-01) (1, -3.38451034244553880179e-03) (2, -2.39245503288175280499e-02) (3, 7.77198762554262845281e-02) (4, 4.61033896464441567131e-02) (5, 1.27407242914777607545e+00) (6, 1.01435790935992642403e+00) (7, -9.42765626327732308987e-01) (8, 4.09704992181803007156e-01) (9, 5.67563301973675216061e-01) (10, 1.47409189057890882557e-01) (11, 2.87692847288632702618e-01) (12, 1.39582887857400339549e+00) (13, 1.63572086220682977320e+00) (14, 1.19031279214277918577e+00) (15, 4.70951924035185265360e-01) (16, 1.42116127410895369820e+01) (17, 2.74618136509585220040e-01) (0, 2.38606892520710989203e+00) (1, 1.91556064837938105905e-01) (2, 3.00801771187549360498e-01) (3, 2.66310530209308393701e-01) (4, 1.55007804238563334787e-01) (5, -2.96516350301566333769e+00) (6, -3.56667853152000113859e-02) (7, 7.87643206107108717617e+00) (8, -7.51367100122342534974e-01) (9, -9.35686032135560563638e-01) (10, 1.51132168926883359017e-01) (11, 1.96735242924582109936e-01) (12, -9.51294311294087036046e-01) (13, -1.32106473118665723732e+00) (14, -2.57369369055744012798e+00) (15, -3.45023612398809165214e+00) (16, 4.16208935191015427790e+00) (17, -2.32706854284788350329e-01) (0, 7.94584478109957537129e+00) (1, 1.09617689012831268092e-01) (2, 6.33649913066088310565e-02) (3, 3.09327704303918940565e-02) (4, -6.38639801805625240139e-03) (5, 4.09352135705006670019e-01) (6, 9.70193465589330394927e-01) (7, 3.45198262486520102144e+00) (8, -2.24544267494317714012e-03) (9, -1.55057387662187792093e-02) (10, 4.88057164146335833999e-03) (11, -3.20646011707329869900e-01) (12, 1.12904967170389530784e-01) (13, -2.03949567182708652036e-01) (14, -6.19860461107995641683e-01) (15, 1.45448797799479279114e-01) (16, 3.85149216943540118052e+00) (17, 3.66445919159514021946e-01) (0, 2.92285320046082930379e-01) (1, 6.78846246767423472379e-02) (2, 2.62793085742376170133e-02) (3, -6.02607943844415544499e-02) (4, 5.23852624181726529012e-03) (5, 4.36290463453502419533e-01) (6, 7.10081360801684713380e-01) (7, 1.32546345869390647110e+00) (8, -7.80531872342010712984e-02) (9, -7.51871518220014467548e-02) (10, -1.87619318118191547029e-01) (11, -1.99890752118081049815e-01) (12, 6.11474854477939033792e-01) (13, 5.21489263492423638091e-01) (14, 5.98528605049710060726e-01) (15, 4.30632630294453588871e-01) (16, 3.94774561667003087706e+00) (17, -1.46485278573120242251e-01) (0, 2.51875363347587644114e+01) (1, 4.05020306855749870345e-03) (2, 1.39208339555564747370e-01) (3, 3.89911350145966881242e-02) (4, 1.04104884369674410838e-01) (5, -7.19203525711902269535e-01) (6, 1.25704629147614288520e+00) (7, -6.01021411442146291648e+00) (8, -4.69845916489430026619e-02) (9, 2.51893273008752693887e-01) (10, 1.51796659671354083887e-01) (11, 6.63241276571630150594e-02) (12, 1.05082052849280693785e+00) (13, 1.14525572031421796204e+00) (14, -2.10726571916806160178e-01) (15, -1.02725187672508666559e+00) (16, -3.70308370161153588285e-01) (17, 1.21092613518735681133e+00) (0, 1.12413617007435462369e-01) (1, -5.41102828637806954060e-02) (2, -8.94145091931505993366e-03) (3, -9.46224572316853307363e-02) (4, -2.46127637283055332451e-02) (5, 2.53445198443088459683e+00) (6, 2.16063242409650468900e-01) (7, -6.59370374320885965780e-01) (8, 3.66054718710611848298e-01) (9, 8.89027871550862269778e-01) (10, 5.70048443114377301200e-01) (11, 2.78586271968806253874e-01) (12, 3.45365640148260155673e-01) (13, 4.52602311370074894548e-01) (14, 3.29549479024876879052e+00) (15, 1.73853513709567586432e+00) (16, 3.45594491788537405697e-01) (17, 1.42713211554582775076e-01) (0, 2.53533818497674339199e+01) (1, 2.10620327480016827915e-01) (2, 1.06804421730218965236e-01) (3, 2.12523861415563702915e-01) (4, 1.57563528604684921497e-01) (5, 3.57234275320709171453e-01) (6, -1.45538846408589883641e-01) (7, -6.38031314919052672252e+00) (8, 2.94480730472225088468e-02) (9, 1.21555594746359796332e-02) (10, 2.54924547411195245861e-01) (11, 9.28073273686635807911e-02) (12, 2.47586923060035879463e-01) (13, 3.68911984839725981544e-01) (14, 3.49365288226482439971e-01) (15, 1.43300994222214844731e-01) (16, -9.03104574016782013501e-02) (17, 1.14135165861567733359e+00) (18, -4.33047469140218799222e-01) (19, 1.80413472712680184040e-01) (20, 3.46769544732084489258e-01) (21, 2.82086248503240932806e-01) (22, 4.38687105988501302445e-01) (23, 6.26116975347529414186e-01) (24, 7.37274149350376273304e-01) (25, -4.69870895036191726923e-01) (26, 1.95332631781033855267e-01) (27, -7.77749044882327211781e-01) (28, 8.08888650196880831800e-01) 
