FANN_FLO_2.1
num_layers=3
learning_rate=0.700000
connection_rate=1.000000
network_type=0
learning_momentum=0.000000
training_algorithm=2
train_error_function=1
train_stop_function=1
cascade_output_change_fraction=0.010000
quickprop_decay=-0.000100
quickprop_mu=1.750000
rprop_increase_factor=1.200000
rprop_decrease_factor=0.500000
rprop_delta_min=0.000000
rprop_delta_max=50.000000
rprop_delta_zero=0.100000
cascade_output_stagnation_epochs=12
cascade_candidate_change_fraction=0.010000
cascade_candidate_stagnation_epochs=12
cascade_max_out_epochs=150
cascade_min_out_epochs=50
cascade_max_cand_epochs=150
cascade_min_cand_epochs=50
cascade_num_candidate_groups=2
bit_fail_limit=1.00000000000000005551e-01
cascade_candidate_limit=1.00000000000000000000e+03
cascade_weight_multiplier=4.00000000000000022204e-01
cascade_activation_functions_count=10
cascade_activation_functions=3 5 7 8 10 11 14 15 16 17 
cascade_activation_steepnesses_count=4
cascade_activation_steepnesses=2.50000000000000000000e-01 5.00000000000000000000e-01 7.50000000000000000000e-01 1.00000000000000000000e+00 
layer_sizes=15 11 2 
scale_included=0
neurons (num_inputs, activation_function, activation_steepness)=(0, 0, 0.00000000000000000000e+00) (0, 0, 0.00000000000000000000e+00) (0, 0, 0.00000000000000000000e+00) (0, 0, 0.00000000000000000000e+00) (0, 0, 0.00000000000000000000e+00) (0, 0, 0.00000000000000000000e+00) (0, 0, 0.00000000000000000000e+00) (0, 0, 0.00000000000000000000e+00) (0, 0, 0.00000000000000000000e+00) (0, 0, 0.00000000000000000000e+00) (0, 0, 0.00000000000000000000e+00) (0, 0, 0.00000000000000000000e+00) (0, 0, 0.00000000000000000000e+00) (0, 0, 0.00000000000000000000e+00) (0, 0, 0.00000000000000000000e+00) (15, 6, 5.00000000000000000000e-01) (15, 6, 5.00000000000000000000e-01) (15, 6, 5.00000000000000000000e-01) (15, 6, 5.00000000000000000000e-01) (15, 6, 5.00000000000000000000e-01) (15, 6, 5.00000000000000000000e-01) (15, 6, 5.00000000000000000000e-01) (15, 6, 5.00000000000000000000e-01) (15, 6, 5.00000000000000000000e-01) (15, 6, 5.00000000000000000000e-01) (0, 6, 0.00000000000000000000e+00) (11, 6, 5.00000000000000000000e-01) (0, 6, 0.00000000000000000000e+00) 
connections (connected_to_neuron, weight)=(0, -1.31147283125937583748e+01) (1, -1.93935375195448622687e-01) (2, -2.29367594700758709036e-01) (3, -1.88899155240957961066e-01) (4, -3.40736183803980352547e-01) (5, 4.10584968301683073122e+00) (6, 9.25556022289684587889e-01) (7, 7.96713043624211580962e-01) (8, -9.36054391950229880415e-01) (9, 4.26415252857281434906e-01) (10, -8.22243839330169257185e-02) (11, 3.04061329337770080983e-01) (12, 3.02993517926099076298e-01) (13, -6.87713295085617265512e-02) (14, -2.29772553700919895947e-01) (0, -3.76883210936225399035e-01) (1, 6.93200670040643590619e-02) (2, -1.13305845125814666496e-01) (3, -9.56551291190588653945e-02) (4, -3.62605683647597223929e-02) (5, 2.18031685406500141955e-01) (6, 1.36879178504879073230e-01) (7, -5.83356968174015139139e-02) (8, 2.11668585827627975249e+00) (9, -5.03145242770851319758e-02) (10, 1.88482177380967108604e+00) (11, 1.44183274533306843290e-01) (12, 7.16532746769425188393e-02) (13, -1.72242223443103692482e-02) (14, -9.89007655989639078431e-02) (0, 8.74876018427902835128e+00) (1, 4.47200681702560609576e-01) (2, 3.55688150660461610553e-01) (3, 4.18910558955139344928e-01) (4, 4.31216012374824708697e-01) (5, -4.91237221365481246949e+00) (6, -8.15352785298971816097e-01) (7, -1.32060161215829308112e+00) (8, -3.21210095696206274218e-02) (9, -6.48173138467210141478e-01) (10, -5.49143019740844229304e-01) (11, -1.44546880721164328065e+00) (12, -2.10682839738197791313e-01) (13, -4.00438718266287185799e-01) (14, 1.06472931193956266149e+00) (0, 4.47041092428090758304e-01) (1, -1.82930698763170501708e-01) (2, -1.98593942593374456207e-01) (3, -9.53957570302870483392e-02) (4, -1.53915221016445419311e-01) (5, 4.86603692349250549487e-01) (6, 3.47834715489897527974e-01) (7, -8.10255777094233825553e-02) (8, -1.60537965666862845637e+02) (9, -2.51839520196493527049e-01) (10, -1.24971906565201198447e+01) (11, -1.41637555039435114601e+00) (12, 2.19511650985115158718e-01) (13, 4.32077983407901045076e-01) (14, 1.32817851314154866671e+00) (0, -2.28686269699729965987e-01) (1, -4.20565529588394076965e-02) (2, -8.92994328263930908784e-02) (3, 4.09746469136543223222e-02) (4, 5.24813682910270778992e-02) (5, 1.62801199254858572352e-02) (6, -9.89862271076948248283e-03) (7, -2.30157888031352550473e-03) (8, 2.08927780350151737210e+00) (9, -2.00328481202821817586e-01) (10, 2.46126650826299009367e+00) (11, 6.11717406953360826050e-02) (12, 1.97671820913922456631e-02) (13, 1.89421624718593729908e-02) (14, 2.16464688866479793017e-02) (0, 8.33824003640430788664e+00) (1, 4.44979534743729532309e-01) (2, 3.77312013207379282065e-01) (3, 4.69611869452897012778e-01) (4, 5.61300137339535543113e-01) (5, -3.72177977328436826454e+00) (6, -1.81230270145133465221e+00) (7, -1.58215968364851189421e+00) (8, -2.73823922865623681222e-01) (9, -1.94376116072505711330e+00) (10, 1.51600994529080657092e-01) (11, -2.36574172234440244234e-01) (12, -3.19785383773330433854e+00) (13, -9.42950999026928249336e-01) (14, 1.31254204976586885678e+00) (0, 1.93239301523009521233e+00) (1, 5.28220507661192550941e-01) (2, 4.38185553411333694740e-01) (3, 6.07405948797552719398e-01) (4, 4.94894496510117187782e-01) (5, 6.36526616290870794757e+00) (6, -7.18232740598823049538e+00) (7, 1.42828846979191204092e+00) (8, -2.47587658471563942797e+00) (9, 2.11435117139363537575e+00) (10, 2.15038058169598649272e+01) (11, -4.45112695563963534084e+00) (12, -4.31305341004822029305e+00) (13, -1.40666095477299274430e-01) (14, 1.80025411415135883075e+00) (0, 5.50430564646275932716e+00) (1, 8.16372828083628654383e-01) (2, 8.15226764875048637293e-01) (3, 7.56678575175398826502e-01) (4, 7.08924630182379833521e-01) (5, -5.37012986488305088528e+00) (6, 4.86239168807218735679e+00) (7, 4.86748799813853105789e-01) (8, 4.07862201608067991287e+01) (9, 5.76122151666789328317e+00) (10, -2.12791013493661917977e+00) (11, -1.26031242485147920718e+00) (12, 1.20194317022216434765e+01) (13, -2.05042184639593977336e-01) (14, 1.34967669611069929214e-01) (0, 5.95141406625285362963e-01) (1, -2.07622081521193185827e-01) (2, -1.45870507243315433721e-01) (3, -8.75798543125788919728e-02) (4, -3.40479691654842209214e-02) (5, 2.76713906465077763563e-01) (6, 4.11778224502358236592e-01) (7, -1.25927589666518322670e-02) (8, -3.66289933543355061829e+02) (9, -1.80526861999060345143e-01) (10, -1.29044895272696402699e+00) (11, -1.79249940192393864002e+00) (12, 1.93255612553689282151e-01) (13, 1.11288032341677015080e-01) (14, 1.27563728334046500024e+00) (0, -8.83870064532797528045e+00) (1, -3.36297939581910121376e-01) (2, -2.80757035179177272255e-01) (3, -2.95529986782113063271e-01) (4, -2.69634838266411658303e-01) (5, 5.47656585905983828155e+00) (6, 8.00400990593491679093e-01) (7, 5.60598314288708321484e-01) (8, -4.78847356541062307844e-01) (9, 3.20287485849631625712e-01) (10, 2.33229864418782156799e-01) (11, 2.63763306079517867442e-01) (12, 3.91771966960032136384e-01) (13, 5.52239119265615554383e-03) (14, -1.31139951533153231722e+00) (15, 3.19164119440072557854e-01) (16, 6.00315365163359704326e-01) (17, -3.74030306482705354743e-01) (18, -1.08339607966118384175e-01) (19, 5.49406454258147158853e-01) (20, -9.23311445742347330912e-02) (21, 1.05085570961705621063e-01) (22, 8.61400153579423233374e-01) (23, -1.34863223477065419242e-01) (24, 4.27487508277169858673e-01) (25, 5.34356236530649120198e-01) 
