FANN_FLO_2.1
num_layers=3
learning_rate=0.700000
connection_rate=1.000000
network_type=0
learning_momentum=0.000000
training_algorithm=2
train_error_function=1
train_stop_function=1
cascade_output_change_fraction=0.010000
quickprop_decay=-0.000100
quickprop_mu=1.750000
rprop_increase_factor=1.200000
rprop_decrease_factor=0.500000
rprop_delta_min=0.000000
rprop_delta_max=50.000000
rprop_delta_zero=0.100000
cascade_output_stagnation_epochs=12
cascade_candidate_change_fraction=0.010000
cascade_candidate_stagnation_epochs=12
cascade_max_out_epochs=150
cascade_min_out_epochs=50
cascade_max_cand_epochs=150
cascade_min_cand_epochs=50
cascade_num_candidate_groups=2
bit_fail_limit=1.00000000000000005551e-01
cascade_candidate_limit=1.00000000000000000000e+03
cascade_weight_multiplier=4.00000000000000022204e-01
cascade_activation_functions_count=10
cascade_activation_functions=3 5 7 8 10 11 14 15 16 17 
cascade_activation_steepnesses_count=4
cascade_activation_steepnesses=2.50000000000000000000e-01 5.00000000000000000000e-01 7.50000000000000000000e-01 1.00000000000000000000e+00 
layer_sizes=18 11 2 
scale_included=0
neurons (num_inputs, activation_function, activation_steepness)=(0, 0, 0.00000000000000000000e+00) (0, 0, 0.00000000000000000000e+00) (0, 0, 0.00000000000000000000e+00) (0, 0, 0.00000000000000000000e+00) (0, 0, 0.00000000000000000000e+00) (0, 0, 0.00000000000000000000e+00) (0, 0, 0.00000000000000000000e+00) (0, 0, 0.00000000000000000000e+00) (0, 0, 0.00000000000000000000e+00) (0, 0, 0.00000000000000000000e+00) (0, 0, 0.00000000000000000000e+00) (0, 0, 0.00000000000000000000e+00) (0, 0, 0.00000000000000000000e+00) (0, 0, 0.00000000000000000000e+00) (0, 0, 0.00000000000000000000e+00) (0, 0, 0.00000000000000000000e+00) (0, 0, 0.00000000000000000000e+00) (0, 0, 0.00000000000000000000e+00) (18, 6, 5.00000000000000000000e-01) (18, 6, 5.00000000000000000000e-01) (18, 6, 5.00000000000000000000e-01) (18, 6, 5.00000000000000000000e-01) (18, 6, 5.00000000000000000000e-01) (18, 6, 5.00000000000000000000e-01) (18, 6, 5.00000000000000000000e-01) (18, 6, 5.00000000000000000000e-01) (18, 6, 5.00000000000000000000e-01) (18, 6, 5.00000000000000000000e-01) (0, 6, 0.00000000000000000000e+00) (11, 6, 5.00000000000000000000e-01) (0, 6, 0.00000000000000000000e+00) 
connections (connected_to_neuron, weight)=(0, 9.70798172583674414682e+01) (1, 4.37085669513462504732e-01) (2, 3.82400546248673145477e-01) (3, 4.55471809979198893892e-01) (4, 4.51635789151905497896e-01) (5, 1.20947361390488730137e+01) (6, -2.05518626878345234132e+00) (7, 1.67689688516643720106e+00) (8, 9.09495046383024785541e+00) (9, -6.12897419790461792100e-02) (10, -1.52476593243676217249e+00) (11, 6.10312735210300388644e+02) (12, 4.27894676725528199768e+02) (13, 3.28351284351204697476e-01) (14, -9.58556908065672397257e-01) (15, 7.15353781235313679332e-01) (16, 7.69156887312141890334e+00) (17, 1.37057631114568523323e+00) (0, 1.96240657431111955589e+01) (1, 4.63826287091701039422e-01) (2, 4.38162937314240941156e-01) (3, 5.84547966272560892698e-01) (4, 5.21291270405976003843e-01) (5, 2.08686242979514685603e-01) (6, -2.17981720189770866725e+00) (7, -5.79887496280448555552e-01) (8, 5.86581868497672576090e-01) (9, -7.05314886699211163190e-01) (10, 5.18533404765567973449e-01) (11, -9.79195315493240592275e+00) (12, 1.10261264482360421546e+00) (13, 1.16589989334326987747e-01) (14, -1.44675693814944672511e+00) (15, -1.87384226800808684210e-01) (16, 9.24790985206340843128e-01) (17, 1.29102595763319327737e+00) (0, 9.71283843448256476449e+01) (1, 3.76987511271968001036e-01) (2, 3.73798543567195051818e-01) (3, 2.63166831786170341001e-01) (4, 4.55853560919299238829e-01) (5, 1.21364744182127104466e+01) (6, -3.29290518627042150257e+00) (7, 1.75104636917933254026e+00) (8, 9.27093785649420354389e+00) (9, -1.48926380654547263482e+00) (10, -3.67224362550945571115e+00) (11, 6.10219230259896221469e+02) (12, 4.27780029821357686615e+02) (13, -7.32115700616022491154e-01) (14, -1.84239665797997775876e+00) (15, 5.18069410756328618817e-01) (16, 2.47426110029709072080e+01) (17, 1.42020330678054840234e+00) (0, 4.93594681288082597348e+01) (1, 7.37079267984251523815e-02) (2, 5.93903844838956848640e-02) (3, -2.04866083676000440561e-02) (4, 1.80522014981131101452e-02) (5, 1.04927734570134223446e+00) (6, 1.24495532182546980948e+03) (7, 5.55417278755221843767e-01) (8, 7.00268014198430144290e+00) (9, 1.00596872736101725088e-01) (10, -6.86291022915065107579e-02) (11, -1.69910089529329566549e-01) (12, -4.49821967807679357065e+00) (13, 9.10765049599549514348e-01) (14, 5.41924719544880133526e+01) (15, -8.01491664071547482706e-01) (16, 4.45301530459004091256e+00) (17, -7.64156776294493828017e-02) (0, 1.42839798067556564831e+01) (1, 6.12117461127540396504e-01) (2, 5.62114968163272665791e-01) (3, 5.81882535678645895771e-01) (4, 5.38472428185245211019e-01) (5, 1.67428671499063430606e-01) (6, -3.79156969583029024307e+00) (7, 3.71468261143028999349e-01) (8, -3.17154422359681054111e-01) (9, -1.76906168571673982903e+00) (10, -6.91275637355266425743e+00) (11, -9.47361265028801291521e+00) (12, 6.13423634062920553056e-01) (13, -6.08839256707456755180e-01) (14, -1.40639425919187743830e+00) (15, -1.71284432019727494989e+00) (16, 2.35173319425304505614e-01) (17, 1.98767491362603587746e+00) (0, 1.92499981878349437636e+01) (1, 1.07628163037334953489e-01) (2, 1.72463502821957131994e-01) (3, 1.47875245747601080648e-01) (4, 2.73097176191842150317e-01) (5, -5.48547126979278321102e-01) (6, -2.59730162264954511642e+00) (7, 9.03627298343084722765e-02) (8, -3.74143375325210331139e-02) (9, -2.24268146145537317082e+00) (10, 8.52537948956819668922e-01) (11, -3.32006031181890115533e+00) (12, 6.47872258313326288004e-01) (13, -1.27389571321039496432e+00) (14, -1.18778430517526367716e+00) (15, -3.05812981826864227486e+00) (16, -3.86068434148765904368e-01) (17, 1.42202423017106949210e+00) (0, 1.59155446283566774923e+01) (1, 5.13549385806716829350e-01) (2, 6.24271637043155802616e-01) (3, 5.54585052868522665470e-01) (4, 6.71150302728809489139e-01) (5, 3.54656002000409212305e-02) (6, -3.09652704623411656470e+00) (7, -5.09486691563856508580e-01) (8, -4.61530919473181533430e-01) (9, -1.89664999787641286311e+00) (10, -1.70263601898585248406e-01) (11, -9.02295273334103065110e+00) (12, 2.17754827614179857775e-01) (13, -1.14708114904633529108e+00) (14, -2.74236311641134244965e+00) (15, -5.77189661080274474259e-01) (16, 7.75824270345255306847e-02) (17, 2.57809973991619312272e+00) (0, 9.51066549013923179245e+00) (1, 4.96825529804801768741e-01) (2, 5.23899270763967916942e-01) (3, 5.73263316026304869943e-01) (4, 5.87758539786909617320e-01) (5, 4.75007968528333601732e-01) (6, -3.62385829406759274463e+00) (7, 3.93876743535961804099e-01) (8, -1.02286752927002821956e+00) (9, -2.79343925657164504628e+00) (10, -6.82095144109940676458e+00) (11, -1.03125180690281865736e+01) (12, -1.93688551522423324514e+00) (13, -2.61762078058812158732e-02) (14, -3.34608789373564885494e+00) (15, -3.69416288406280046708e-01) (16, -5.82773272055732566299e-02) (17, 6.05593673339085825091e+00) (0, 9.70212777113412840890e+01) (1, 4.65504268660012043846e-01) (2, 4.87342486633720928246e-01) (3, 5.11827411605778381798e-01) (4, 5.54111855580273315880e-01) (5, 5.21271860279461396459e+00) (6, -1.17723240204979684442e+00) (7, 1.30554537486691257797e+00) (8, 9.15970372801901433490e+00) (9, -2.40748352610229698900e-02) (10, -1.48025958195058127131e+00) (11, 6.10343303236306610415e+02) (12, 4.27865349928996522522e+02) (13, 6.99255297666049546734e-01) (14, -3.05654776828776064690e-01) (15, 1.64942434407987836842e-01) (16, 5.24033133698511388587e+00) (17, 3.16058015933596658797e+00) (0, 1.02678734961929016833e+01) (1, 2.13466471022186493611e-01) (2, 2.32248721605358338094e-01) (3, 1.74709079748211149052e-01) (4, 2.26913308685837006307e-01) (5, -1.56107149821593960137e-01) (6, -5.98250783691342435944e-01) (7, 3.43916049341769503034e-01) (8, 6.23436255277835416067e-01) (9, -1.24840192401231142583e+00) (10, -3.64454563484935034623e+00) (11, -1.27070282684391605565e-01) (12, -1.68798050450156900126e+01) (13, -7.79969099108624219774e-01) (14, 1.11977449931664252425e+00) (15, -1.51029806588562065528e+00) (16, -2.05696027914673035264e-01) (17, 6.98665340592224293204e-01) (18, 4.90248153881836068457e-01) (19, -5.77549184828441974915e-01) (20, 4.83727565890345823085e-01) (21, 4.98059017008852744635e-01) (22, -9.70626962557526312692e-02) (23, -8.23982209179211916306e-02) (24, -9.27844528422141628932e-02) (25, -6.84724335905850689521e-01) (26, 4.16531213216114193365e-01) (27, -6.03511850557522988581e-01) (28, 2.27815637386023506217e-01) 
