FANN_FLO_2.1
num_layers=3
learning_rate=0.700000
connection_rate=1.000000
network_type=0
learning_momentum=0.000000
training_algorithm=2
train_error_function=1
train_stop_function=1
cascade_output_change_fraction=0.010000
quickprop_decay=-0.000100
quickprop_mu=1.750000
rprop_increase_factor=1.200000
rprop_decrease_factor=0.500000
rprop_delta_min=0.000000
rprop_delta_max=50.000000
rprop_delta_zero=0.100000
cascade_output_stagnation_epochs=12
cascade_candidate_change_fraction=0.010000
cascade_candidate_stagnation_epochs=12
cascade_max_out_epochs=150
cascade_min_out_epochs=50
cascade_max_cand_epochs=150
cascade_min_cand_epochs=50
cascade_num_candidate_groups=2
bit_fail_limit=1.00000000000000005551e-01
cascade_candidate_limit=1.00000000000000000000e+03
cascade_weight_multiplier=4.00000000000000022204e-01
cascade_activation_functions_count=10
cascade_activation_functions=3 5 7 8 10 11 14 15 16 17 
cascade_activation_steepnesses_count=4
cascade_activation_steepnesses=2.50000000000000000000e-01 5.00000000000000000000e-01 7.50000000000000000000e-01 1.00000000000000000000e+00 
layer_sizes=9 11 2 
scale_included=0
neurons (num_inputs, activation_function, activation_steepness)=(0, 0, 0.00000000000000000000e+00) (0, 0, 0.00000000000000000000e+00) (0, 0, 0.00000000000000000000e+00) (0, 0, 0.00000000000000000000e+00) (0, 0, 0.00000000000000000000e+00) (0, 0, 0.00000000000000000000e+00) (0, 0, 0.00000000000000000000e+00) (0, 0, 0.00000000000000000000e+00) (0, 0, 0.00000000000000000000e+00) (9, 6, 5.00000000000000000000e-01) (9, 6, 5.00000000000000000000e-01) (9, 6, 5.00000000000000000000e-01) (9, 6, 5.00000000000000000000e-01) (9, 6, 5.00000000000000000000e-01) (9, 6, 5.00000000000000000000e-01) (9, 6, 5.00000000000000000000e-01) (9, 6, 5.00000000000000000000e-01) (9, 6, 5.00000000000000000000e-01) (9, 6, 5.00000000000000000000e-01) (0, 6, 0.00000000000000000000e+00) (11, 6, 5.00000000000000000000e-01) (0, 6, 0.00000000000000000000e+00) 
connections (connected_to_neuron, weight)=(0, 1.80825301998391054781e+01) (1, 2.26745562307091197418e-01) (2, 3.50760025582762091645e-01) (3, 2.03212907216997584747e-01) (4, 3.09661967359037726411e-01) (5, 1.61611827106793948250e-01) (6, -1.29483770014708077234e+00) (7, -6.63682459564520410567e+00) (8, 6.46136601118174391800e-01) (0, -3.32516960173275144541e-01) (1, 1.24875033274719424159e-02) (2, -9.03481002892763535028e-03) (3, -5.17749538644722145930e-02) (4, 4.92787534371444679859e-02) (5, 2.56218675808642770697e-01) (6, 9.86601658382927487745e-02) (7, 1.88421988330859435656e-01) (8, -1.00501092963926438872e-01) (0, 2.02302070437689690552e-01) (1, -3.90527212665304074291e-02) (2, 1.17838790967241379554e-02) (3, -1.25793371503136908185e-01) (4, -5.62385210440381963504e-02) (5, 4.01684555466688408831e-01) (6, 6.04323255609921616838e-01) (7, 8.95864237168027266467e-02) (8, 1.02090141610648957315e-01) (0, 1.52531385478581746895e+01) (1, 2.63102681908228164254e-01) (2, 1.77509219917871802208e-01) (3, 2.13632655862190490303e-01) (4, 2.55648122701265523293e-01) (5, -5.07494667561153800506e+00) (6, -5.92733202494339583843e-01) (7, -7.17283075809687531432e-01) (8, 5.34129193342517960552e-01) (0, 1.77472745513132252881e+01) (1, 3.19198491510515713898e-01) (2, 3.66474485483532397279e-01) (3, 2.67182058182125481416e-01) (4, 3.16974224981432406434e-01) (5, 5.67278043351104654946e-01) (6, -7.65704836999170446177e+00) (7, -9.34963445000969395338e-01) (8, 3.08767898826280251523e-01) (0, 1.14282069865804274400e+01) (1, 4.26911645170174880448e-01) (2, 3.51216152842961593095e-01) (3, 3.70515153344594283524e-01) (4, 3.87525767620526595536e-01) (5, 8.87216715651658205388e+00) (6, -2.92997384693493900798e+00) (7, -2.85195850020764263277e+00) (8, -6.04340581456003639316e-02) (0, 9.57321683944886459017e+00) (1, 4.79872360068683001533e-01) (2, 4.38444449740771624580e-01) (3, 3.13029362994555804267e-01) (4, 3.45572571444634768500e-01) (5, 2.65711306320167750528e+00) (6, -5.77880135546984807782e-01) (7, -1.07960144495843923806e+00) (8, -4.65958646469760540132e-01) (0, -1.38213695227014081723e+01) (1, -2.13894414079466188561e-01) (2, -2.86396595013418409081e-01) (3, -2.42266008925714815270e-01) (4, -2.24819848609247530113e-01) (5, 1.73103894346840703200e+00) (6, 2.16741810611296115141e+00) (7, 1.94917630458900403845e+00) (8, -3.84220049222143200662e-01) (0, -1.32867775797891880529e+01) (1, -2.68621790045089126053e-01) (2, -2.11263920002765281936e-01) (3, -2.09742496543712242385e-01) (4, -1.38230460518188158492e-01) (5, 7.68923205932562248144e-01) (6, 2.07495826974663355458e+00) (7, 2.92568079223442456538e+00) (8, -6.25852631251857971506e-01) (0, 3.90656492669681165708e-01) (1, 6.09973107632879735229e-02) (2, 3.21483646687750479476e-02) (3, -4.66431717220063060680e-02) (4, -9.55445718200162268097e-03) (5, 1.96603370065903726438e-01) (6, 1.18743718842797676971e-01) (7, 4.59393898171107040174e-01) (8, 2.94205317814495818929e-02) (9, -6.47150612241725459173e-02) (10, -1.56365232941737625216e-01) (11, 5.31930573510167245543e-02) (12, -1.20833850188229383060e-01) (13, -2.65606625686721914414e-02) (14, 4.61442768770769617959e-01) (15, 4.69875160845854400460e-01) (16, 5.66623537317633152455e-01) (17, 5.34243150130629063099e-01) (18, 1.04645165007051857420e-01) (19, 3.27488039918777229520e-01) 
