FANN_FLO_2.1
num_layers=3
learning_rate=0.700000
connection_rate=1.000000
network_type=0
learning_momentum=0.000000
training_algorithm=2
train_error_function=1
train_stop_function=1
cascade_output_change_fraction=0.010000
quickprop_decay=-0.000100
quickprop_mu=1.750000
rprop_increase_factor=1.200000
rprop_decrease_factor=0.500000
rprop_delta_min=0.000000
rprop_delta_max=50.000000
rprop_delta_zero=0.100000
cascade_output_stagnation_epochs=12
cascade_candidate_change_fraction=0.010000
cascade_candidate_stagnation_epochs=12
cascade_max_out_epochs=150
cascade_min_out_epochs=50
cascade_max_cand_epochs=150
cascade_min_cand_epochs=50
cascade_num_candidate_groups=2
bit_fail_limit=1.00000000000000005551e-01
cascade_candidate_limit=1.00000000000000000000e+03
cascade_weight_multiplier=4.00000000000000022204e-01
cascade_activation_functions_count=10
cascade_activation_functions=3 5 7 8 10 11 14 15 16 17 
cascade_activation_steepnesses_count=4
cascade_activation_steepnesses=2.50000000000000000000e-01 5.00000000000000000000e-01 7.50000000000000000000e-01 1.00000000000000000000e+00 
layer_sizes=22 11 2 
scale_included=0
neurons (num_inputs, activation_function, activation_steepness)=(0, 0, 0.00000000000000000000e+00) (0, 0, 0.00000000000000000000e+00) (0, 0, 0.00000000000000000000e+00) (0, 0, 0.00000000000000000000e+00) (0, 0, 0.00000000000000000000e+00) (0, 0, 0.00000000000000000000e+00) (0, 0, 0.00000000000000000000e+00) (0, 0, 0.00000000000000000000e+00) (0, 0, 0.00000000000000000000e+00) (0, 0, 0.00000000000000000000e+00) (0, 0, 0.00000000000000000000e+00) (0, 0, 0.00000000000000000000e+00) (0, 0, 0.00000000000000000000e+00) (0, 0, 0.00000000000000000000e+00) (0, 0, 0.00000000000000000000e+00) (0, 0, 0.00000000000000000000e+00) (0, 0, 0.00000000000000000000e+00) (0, 0, 0.00000000000000000000e+00) (0, 0, 0.00000000000000000000e+00) (0, 0, 0.00000000000000000000e+00) (0, 0, 0.00000000000000000000e+00) (0, 0, 0.00000000000000000000e+00) (22, 6, 5.00000000000000000000e-01) (22, 6, 5.00000000000000000000e-01) (22, 6, 5.00000000000000000000e-01) (22, 6, 5.00000000000000000000e-01) (22, 6, 5.00000000000000000000e-01) (22, 6, 5.00000000000000000000e-01) (22, 6, 5.00000000000000000000e-01) (22, 6, 5.00000000000000000000e-01) (22, 6, 5.00000000000000000000e-01) (22, 6, 5.00000000000000000000e-01) (0, 6, 0.00000000000000000000e+00) (11, 6, 5.00000000000000000000e-01) (0, 6, 0.00000000000000000000e+00) 
connections (connected_to_neuron, weight)=(0, -4.06640709590296012266e+01) (1, -7.05349405086690833810e-02) (2, -1.38843070415323371902e-01) (3, -2.31750715223615899596e-01) (4, -2.30920787600343957457e-01) (5, 8.93408713085895533901e-01) (6, -9.72407086926970615215e-02) (7, -1.60627135676408849818e-01) (8, -3.52830118542728013442e-02) (9, 7.73629967425413589410e+00) (10, -2.17724607104382600342e-01) (11, -6.64106292422588229130e-02) (12, -1.06218266775734621055e-01) (13, 5.59298673606856908136e-02) (14, -4.78349452865133445423e-02) (15, 5.14551963892583619220e-01) (16, 3.62178603534453608104e-02) (17, 3.82324784686482344043e-01) (18, 3.78808552200669390597e-01) (19, 7.83985335923728432483e-01) (20, 6.83791830910538550592e-02) (21, -4.99858218839789203436e-01) (0, 7.12456633291823737686e-01) (1, 1.91100811824159805274e-01) (2, 2.76496371492700954153e-01) (3, 2.09023369714574996925e-01) (4, 1.67590929433660690284e-01) (5, -1.13338655331960569406e+00) (6, 5.15871776221376698857e-01) (7, 2.30827595710473842949e-01) (8, 5.75963613789440942448e-01) (9, -1.66073820964785312526e+01) (10, 7.06088347292134210775e-01) (11, 1.34466272005450893090e+00) (12, 4.85734055658228580654e-01) (13, 2.61542267892059587808e-01) (14, 4.35367903139126100065e-01) (15, 8.63450097306418640208e-01) (16, 4.56923735464156932640e-01) (17, 4.11049968129678033879e-01) (18, 2.35216533020590451430e-01) (19, 7.69353784229359849434e-01) (20, 4.52932119519911746686e-01) (21, 6.63220532011696062291e-01) (0, 1.41647664025623809536e+00) (1, 1.68365303103036412224e+00) (2, 1.74738349441594631450e+00) (3, 1.85144433800286800640e+00) (4, 1.83634986404485256450e+00) (5, 1.50000000000000000000e+03) (6, 9.43438647485202075416e+00) (7, 1.10742910325317867049e+00) (8, 3.37435102363610073262e-01) (9, -7.63422181879146251049e+01) (10, 6.82418394447917307843e+02) (11, 3.64569183768916673216e+02) (12, 6.31368486347979596118e-01) (13, 1.50000000000000000000e+03) (14, 5.60322865107106427018e+00) (15, 8.67254834425780529727e+01) (16, 1.50000000000000000000e+03) (17, 6.82403424316273344630e+02) (18, 1.01895117396047840685e+01) (19, 1.04005013418811866899e+01) (20, 1.96531957848423211033e+00) (21, 5.14523513975903679096e+00) (0, 8.25528073189308742030e+00) (1, 5.34583866004952334983e-01) (2, 5.11608950202473766744e-01) (3, 4.90138138984450466573e-01) (4, 6.15513845686920579858e-01) (5, 1.50000000000000000000e+03) (6, 1.02786630586703586765e+00) (7, 3.39567989872480779923e+00) (8, 1.08150036591391524032e-01) (9, -7.63422181879146251049e+01) (10, 1.36951636748879224115e+00) (11, 5.34103474614776807528e-01) (12, 1.02508883240819903548e+00) (13, 2.27933269660223691844e+00) (14, 1.23614916801120244827e+00) (15, 1.82097895514587992949e+00) (16, 1.34792525388942130427e+00) (17, 3.04168117309704744144e+00) (18, 2.10769099477201432569e-01) (19, 7.85429204265418401398e-01) (20, 5.25341791843846106502e-01) (21, -7.12152591810746837808e+00) (0, 3.64340498123580447398e+00) (1, 7.25951746596862124150e-01) (2, 7.73664147152472558844e-01) (3, 6.45504564537574210270e-01) (4, 7.55073354138899976995e-01) (5, 1.50000000000000000000e+03) (6, 7.66761905377466579381e-01) (7, 6.10137725698984612066e-01) (8, 9.62304539776101308668e-01) (9, -7.63422181879146251049e+01) (10, 1.50000000000000000000e+03) (11, 1.12816958710711924141e+03) (12, 4.64477446305486707523e-01) (13, 3.21153423778453905868e-01) (14, 1.14362376459720527233e-01) (15, 2.74444392686792770775e-01) (16, 6.26293791753931738953e-01) (17, 3.68504893644366754435e-02) (18, 7.51587218532973611040e-01) (19, 4.40990921232558674703e-01) (20, -3.19887114301205532918e-02) (21, 7.83764018101927972815e-01) (0, 3.04038054627372167360e+00) (1, 3.80088964355631198089e+00) (2, 3.67679422599716509978e+00) (3, 3.73939569545431460540e+00) (4, 3.72100211185856188933e+00) (5, 1.50000000000000000000e+03) (6, 5.13344285688392574230e+01) (7, 4.21396191466529757008e+00) (8, 4.97685405711655182159e+00) (9, -7.63422181879146251049e+01) (10, 1.50000000000000000000e+03) (11, 1.50000000000000000000e+03) (12, 1.14457466045660183340e+00) (13, 1.50000000000000000000e+03) (14, 5.17823414729448785465e+01) (15, 9.27578967988595763927e+02) (16, 5.90393817438090195537e+02) (17, 1.41226907870123773137e+03) (18, 1.36636562201994422594e+02) (19, 4.71320721124644848032e+00) (20, 3.42586589244301862323e+01) (21, 8.08723959687368321170e+00) (0, 1.42464334938099579375e+00) (1, 3.57218518936278983666e-01) (2, 1.60653181457163923840e-01) (3, 2.20777928912283954999e-01) (4, 2.26374700748564777752e-01) (5, 1.50000000000000000000e+03) (6, 2.01932386283869058641e-01) (7, 2.79129470429736403769e-01) (8, 6.20438273414369523273e-01) (9, -7.63422181879146251049e+01) (10, -1.29384389456075714342e-02) (11, 1.00684692009521170597e+00) (12, 5.76331622255708109215e-01) (13, 3.94968464835142696323e-01) (14, 4.61368131303380835107e-01) (15, -1.64055340395598797665e-01) (16, 3.29791772425924667456e-01) (17, -6.23162848035867522611e-01) (18, 1.79244431978624885193e-01) (19, -3.50854362138494690893e-01) (20, 1.07542419533826205669e-01) (21, -3.17199763934684075828e-01) (0, -3.32066098601245300870e+01) (1, -1.25216003302571654565e-01) (2, -2.05536756459710479028e-01) (3, -1.97596456650731444604e-01) (4, -2.63053763453003852657e-01) (5, 7.06932867668046416298e-01) (6, -1.07758207287842369682e-01) (7, 9.68854467284047254916e-02) (8, -2.67923965300280231272e-01) (9, 8.83996655984855017607e+00) (10, -1.83968964127310202761e-01) (11, -9.97730669614081550067e-02) (12, -8.80479752395043058222e-02) (13, 5.59008694141989392890e-01) (14, 8.44377755776380689579e-02) (15, 6.84663548615738193348e-01) (16, 5.09931447854492181371e-01) (17, 4.13394632835132891380e-01) (18, 5.69678372754050865723e-01) (19, 9.93057351406791299908e-01) (20, 3.89364117928196695750e-01) (21, -1.76350126518308325529e+00) (0, 4.42517264390461018131e-01) (1, 2.59252679753882331326e-01) (2, 2.83540320802313727810e-01) (3, 1.85672556269747351942e-01) (4, 3.43214889276606482937e-01) (5, -2.83288093789801420641e+00) (6, 4.76971297505067393097e-01) (7, 3.52163535327031540501e-01) (8, 2.43905195742377003398e+01) (9, -5.06800887171784950169e+02) (10, 1.50000000000000000000e+03) (11, 1.50000000000000000000e+03) (12, 4.66874640652182981704e-01) (13, 3.44885400721784918243e-01) (14, 5.12826445955820275913e-01) (15, 2.42941387078516646270e-01) (16, 6.49228999587737276578e-01) (17, 3.91362205852527622607e-01) (18, 1.79012609024526758716e-01) (19, 3.05353120155666957203e-01) (20, 3.09544801826228954678e-01) (21, 4.63971304447427512763e-01) (0, 3.82990409178267920964e+00) (1, 4.83272459894008632464e-01) (2, 3.85912519484348515153e-01) (3, 3.34523160546608244736e-01) (4, 3.15466467827148766556e-01) (5, 1.50000000000000000000e+03) (6, 2.53248878528480214634e-01) (7, 4.95537899212973809160e-01) (8, 7.53376010186155520287e-01) (9, -7.63422181879146251049e+01) (10, 1.50000000000000000000e+03) (11, 9.04135471235424592606e-01) (12, 4.65987303205570135844e-01) (13, 2.66660820693619071697e-01) (14, 6.70622204910420287305e-03) (15, 3.94696292862240172283e-01) (16, 3.24095259103212518514e-01) (17, 6.12680677215718307721e-03) (18, 6.23170102606289244562e-01) (19, 5.32484424283754198548e-01) (20, -4.53186386696559917464e-02) (21, -8.41520144504638162308e-02) (22, 7.67276184294468421854e-01) (23, -7.88792731373518352100e-01) (24, 7.27434144012346212138e-02) (25, 1.48870620779156775937e-01) (26, 3.38955967093646559629e-01) (27, 3.52190936640317919792e-01) (28, 3.42044647179990557451e-01) (29, 5.23320063138676516701e-01) (30, 3.06823250781848633206e-01) (31, 3.05659772666965257049e-01) (32, 2.14286781896697559047e-01) 
