FANN_FLO_2.1
num_layers=3
learning_rate=0.700000
connection_rate=1.000000
network_type=0
learning_momentum=0.000000
training_algorithm=2
train_error_function=1
train_stop_function=1
cascade_output_change_fraction=0.010000
quickprop_decay=-0.000100
quickprop_mu=1.750000
rprop_increase_factor=1.200000
rprop_decrease_factor=0.500000
rprop_delta_min=0.000000
rprop_delta_max=50.000000
rprop_delta_zero=0.100000
cascade_output_stagnation_epochs=12
cascade_candidate_change_fraction=0.010000
cascade_candidate_stagnation_epochs=12
cascade_max_out_epochs=150
cascade_min_out_epochs=50
cascade_max_cand_epochs=150
cascade_min_cand_epochs=50
cascade_num_candidate_groups=2
bit_fail_limit=1.00000000000000005551e-01
cascade_candidate_limit=1.00000000000000000000e+03
cascade_weight_multiplier=4.00000000000000022204e-01
cascade_activation_functions_count=10
cascade_activation_functions=3 5 7 8 10 11 14 15 16 17 
cascade_activation_steepnesses_count=4
cascade_activation_steepnesses=2.50000000000000000000e-01 5.00000000000000000000e-01 7.50000000000000000000e-01 1.00000000000000000000e+00 
layer_sizes=9 4 2 
scale_included=0
neurons (num_inputs, activation_function, activation_steepness)=(0, 0, 0.00000000000000000000e+00) (0, 0, 0.00000000000000000000e+00) (0, 0, 0.00000000000000000000e+00) (0, 0, 0.00000000000000000000e+00) (0, 0, 0.00000000000000000000e+00) (0, 0, 0.00000000000000000000e+00) (0, 0, 0.00000000000000000000e+00) (0, 0, 0.00000000000000000000e+00) (0, 0, 0.00000000000000000000e+00) (9, 6, 5.00000000000000000000e-01) (9, 6, 5.00000000000000000000e-01) (9, 6, 5.00000000000000000000e-01) (0, 6, 0.00000000000000000000e+00) (4, 4, 5.00000000000000000000e-01) (0, 4, 0.00000000000000000000e+00) 
connections (connected_to_neuron, weight)=(0, -5.26652696852476065459e+00) (1, 1.85762373637408795268e+00) (2, 3.32294743465130615334e+00) (3, 5.47554328834806547377e+00) (4, 7.91141942759718652667e+00) (5, -2.00540149062270689484e+00) (6, -6.25446459738530347039e+00) (7, 3.76218787823271672011e+00) (8, -2.74307690574676188433e+00) (0, 3.31385755990791892600e+01) (1, -1.81295574481563122049e+01) (2, -1.25766769975692564998e+01) (3, 1.50000000000000000000e+03) (4, 5.56718052850020285405e+02) (5, 1.50000000000000000000e+03) (6, 1.50000000000000000000e+03) (7, 1.50000000000000000000e+03) (8, 2.28209511009346721622e+00) (0, 2.46743292461860583842e+01) (1, -7.01727108519996534142e-01) (2, 2.21671846593898216327e+01) (3, 3.54661053938846393407e+00) (4, -1.21395644922823340295e+01) (5, 8.44934978245384016304e+00) (6, 4.15784275284576665399e+01) (7, -8.63120397177608467132e-01) (8, -2.72399082881927645516e+00) (9, 2.58985917812319996756e+01) (10, -8.30299876987656482186e+00) (11, 2.28387465119205153030e+01) (12, -1.43696690721665043533e+00) 
