FANN_FLO_2.1
num_layers=3
learning_rate=0.700000
connection_rate=1.000000
network_type=0
learning_momentum=0.000000
training_algorithm=2
train_error_function=1
train_stop_function=1
cascade_output_change_fraction=0.010000
quickprop_decay=-0.000100
quickprop_mu=1.750000
rprop_increase_factor=1.200000
rprop_decrease_factor=0.500000
rprop_delta_min=0.000000
rprop_delta_max=50.000000
rprop_delta_zero=0.100000
cascade_output_stagnation_epochs=12
cascade_candidate_change_fraction=0.010000
cascade_candidate_stagnation_epochs=12
cascade_max_out_epochs=150
cascade_min_out_epochs=50
cascade_max_cand_epochs=150
cascade_min_cand_epochs=50
cascade_num_candidate_groups=2
bit_fail_limit=1.00000000000000005551e-01
cascade_candidate_limit=1.00000000000000000000e+03
cascade_weight_multiplier=4.00000000000000022204e-01
cascade_activation_functions_count=10
cascade_activation_functions=3 5 7 8 10 11 14 15 16 17 
cascade_activation_steepnesses_count=4
cascade_activation_steepnesses=2.50000000000000000000e-01 5.00000000000000000000e-01 7.50000000000000000000e-01 1.00000000000000000000e+00 
layer_sizes=18 4 2 
scale_included=0
neurons (num_inputs, activation_function, activation_steepness)=(0, 0, 0.00000000000000000000e+00) (0, 0, 0.00000000000000000000e+00) (0, 0, 0.00000000000000000000e+00) (0, 0, 0.00000000000000000000e+00) (0, 0, 0.00000000000000000000e+00) (0, 0, 0.00000000000000000000e+00) (0, 0, 0.00000000000000000000e+00) (0, 0, 0.00000000000000000000e+00) (0, 0, 0.00000000000000000000e+00) (0, 0, 0.00000000000000000000e+00) (0, 0, 0.00000000000000000000e+00) (0, 0, 0.00000000000000000000e+00) (0, 0, 0.00000000000000000000e+00) (0, 0, 0.00000000000000000000e+00) (0, 0, 0.00000000000000000000e+00) (0, 0, 0.00000000000000000000e+00) (0, 0, 0.00000000000000000000e+00) (0, 0, 0.00000000000000000000e+00) (18, 6, 5.00000000000000000000e-01) (18, 6, 5.00000000000000000000e-01) (18, 6, 5.00000000000000000000e-01) (0, 6, 0.00000000000000000000e+00) (4, 4, 5.00000000000000000000e-01) (0, 4, 0.00000000000000000000e+00) 
connections (connected_to_neuron, weight)=(0, 1.02821984611619043903e+01) (1, -2.14082282519293043421e+00) (2, 6.19765860131692463142e+01) (3, -7.43744672507000448292e+00) (4, -2.79233160763448182706e+01) (5, -8.47649986694922752406e+00) (6, 1.39445900144657874975e+00) (7, 1.91529249455075927244e+01) (8, -2.82972377958566632117e+01) (9, -5.95782892067236424793e+00) (10, -1.93781193241908979985e+01) (11, -7.18737724952278824730e+01) (12, -4.44726605199797759838e+01) (13, -4.44406852227265289912e+01) (14, 5.83216590856699190759e-01) (15, -5.77604909327886915094e+01) (16, -5.77631777982495648871e+01) (17, -3.91151950749423482634e+00) (0, 8.56153628382657956308e+01) (1, -1.53974186501886780576e+01) (2, -2.67317024595780772245e+00) (3, 9.65605430513215168276e+00) (4, -7.75030638497604371651e+01) (5, 1.00285250242814370836e+02) (6, -1.92668411716943346335e+01) (7, 2.39119408862486437783e+01) (8, 1.50000000000000000000e+03) (9, 1.50000000000000000000e+03) (10, 1.50000000000000000000e+03) (11, -1.57195711451551609628e+01) (12, -2.52538438890002119308e+01) (13, -2.52883870543111584084e+01) (14, -1.50000000000000000000e+03) (15, 3.69187733543518419310e+01) (16, 3.69082244313495735355e+01) (17, -7.17231963598677069172e+00) (0, 2.20217567158263740623e+01) (1, 2.78944572922853772923e+00) (2, -1.48405020227675290556e+01) (3, -3.00805372900722733931e+00) (4, 2.15432843259204975794e+00) (5, -2.31197015133428829259e+00) (6, -2.17900805880932324499e+00) (7, -7.15004049050430090517e+00) (8, 3.93409094538122161566e+01) (9, 1.09741919832939718304e+01) (10, 3.94230167816134837722e+01) (11, 1.50000000000000000000e+03) (12, 1.50000000000000000000e+03) (13, 1.50000000000000000000e+03) (14, -1.47478227266231769477e+01) (15, 4.71024187276289652004e+01) (16, 4.71540597104080063673e+01) (17, -1.53567872596347937408e-01) (18, 7.12627678394095376291e+00) (19, -3.36866570877902749004e+00) (20, 4.52729793738933494751e+00) (21, -6.68323701689525240255e+00) 
