FANN_FLO_2.1
num_layers=3
learning_rate=0.700000
connection_rate=1.000000
network_type=0
learning_momentum=0.000000
training_algorithm=2
train_error_function=1
train_stop_function=1
cascade_output_change_fraction=0.010000
quickprop_decay=-0.000100
quickprop_mu=1.750000
rprop_increase_factor=1.200000
rprop_decrease_factor=0.500000
rprop_delta_min=0.000000
rprop_delta_max=50.000000
rprop_delta_zero=0.100000
cascade_output_stagnation_epochs=12
cascade_candidate_change_fraction=0.010000
cascade_candidate_stagnation_epochs=12
cascade_max_out_epochs=150
cascade_min_out_epochs=50
cascade_max_cand_epochs=150
cascade_min_cand_epochs=50
cascade_num_candidate_groups=2
bit_fail_limit=1.00000000000000005551e-01
cascade_candidate_limit=1.00000000000000000000e+03
cascade_weight_multiplier=4.00000000000000022204e-01
cascade_activation_functions_count=10
cascade_activation_functions=3 5 7 8 10 11 14 15 16 17 
cascade_activation_steepnesses_count=4
cascade_activation_steepnesses=2.50000000000000000000e-01 5.00000000000000000000e-01 7.50000000000000000000e-01 1.00000000000000000000e+00 
layer_sizes=9 11 2 
scale_included=0
neurons (num_inputs, activation_function, activation_steepness)=(0, 0, 0.00000000000000000000e+00) (0, 0, 0.00000000000000000000e+00) (0, 0, 0.00000000000000000000e+00) (0, 0, 0.00000000000000000000e+00) (0, 0, 0.00000000000000000000e+00) (0, 0, 0.00000000000000000000e+00) (0, 0, 0.00000000000000000000e+00) (0, 0, 0.00000000000000000000e+00) (0, 0, 0.00000000000000000000e+00) (9, 6, 5.00000000000000000000e-01) (9, 6, 5.00000000000000000000e-01) (9, 6, 5.00000000000000000000e-01) (9, 6, 5.00000000000000000000e-01) (9, 6, 5.00000000000000000000e-01) (9, 6, 5.00000000000000000000e-01) (9, 6, 5.00000000000000000000e-01) (9, 6, 5.00000000000000000000e-01) (9, 6, 5.00000000000000000000e-01) (9, 6, 5.00000000000000000000e-01) (0, 6, 0.00000000000000000000e+00) (11, 6, 5.00000000000000000000e-01) (0, 6, 0.00000000000000000000e+00) 
connections (connected_to_neuron, weight)=(0, 1.19721287806817340282e+01) (1, 1.35611074757214289388e-01) (2, 2.06723562222357631901e-01) (3, 1.61412029307718918325e-01) (4, 1.60660794716711685659e-01) (5, -2.89526942412259957749e+00) (6, -2.94447657758477321366e+00) (7, 1.30448714706464574675e-01) (8, 7.12578354844665029511e-01) (0, -1.26152329871570252351e+01) (1, -2.88104612482322896411e-03) (2, 1.18429202846162248686e-01) (3, -5.40078093494251315621e-02) (4, 5.43899799500631789262e-02) (5, 1.97966413136338359458e+00) (6, 1.67399237423444402495e+00) (7, -6.97057922502423155109e-02) (8, -5.82481217282421859238e-01) (0, 8.33791131282095254740e-01) (1, 1.05736266851473881268e+00) (2, 9.38799493313322575005e-01) (3, 8.71592141986380242180e-01) (4, 8.64780016541968010735e-01) (5, -2.44545361251033988026e+00) (6, -4.18383990285637108464e-01) (7, 9.39195795706728731034e-01) (8, -5.90420442669090245191e-02) (0, 8.11630752263214794162e-01) (1, 4.47736730621013157005e-01) (2, 4.67744802878055254691e-01) (3, 4.44955056355151645775e-01) (4, 4.31480837807807438011e-01) (5, 3.49835508694079377889e+00) (6, 2.86667440503543069497e+00) (7, 4.07352086578252148286e+00) (8, -6.78842865801825401384e-01) (0, 1.61328406976275706697e+00) (1, 1.24472860298229281995e+00) (2, 1.25419083288980548474e+00) (3, 1.24647107026649539563e+00) (4, 1.33502408913446490857e+00) (5, -2.91432403925665939326e+00) (6, -1.34269126757359047453e+00) (7, 2.29423290108156452405e+00) (8, -9.55520580933892638154e-03) (0, 1.43403060495476530889e+00) (1, 2.00822812243145243372e-01) (2, 3.41036512691195656255e-02) (3, 1.83799815102260843958e-01) (4, 1.22387175186317712083e-01) (5, -2.32004509595570640457e+00) (6, -4.71564796488054827073e-01) (7, -1.24018085092768001743e-01) (8, 1.57438350484284866893e-01) (0, 4.01743672358239365394e+01) (1, 6.32619763458730499650e-01) (2, 6.33219684208394806291e-01) (3, 5.92968488777639191056e-01) (4, 4.76651939297677851304e-01) (5, -2.83282688405054372538e+00) (6, -3.88144386857993062279e+00) (7, 7.97266216534159521956e+00) (8, 4.57638963030443435276e-01) (0, 1.18981818427630710033e+01) (1, -3.44192132845404369368e-02) (2, -1.26934953525546477537e-02) (3, 1.32967802833032361365e-01) (4, 1.09156581710290676024e-01) (5, -2.31499551036514539248e+00) (6, -2.20498662687515745162e+00) (7, -2.94238164712949445967e-01) (8, 1.41685462763850744672e+00) (0, 1.69040924502664644535e+01) (1, 1.84223920591545153869e+00) (2, 1.79778438546133068066e+00) (3, 1.82036161907386806469e+00) (4, 1.82448993362855937939e+00) (5, -1.88694171091943152518e+00) (6, -5.38960743417201904037e+00) (7, 1.69850789002225854851e+00) (8, 5.82927032412686781798e-03) (0, 1.22617891184401148763e+01) (1, 2.28770667241981445761e-01) (2, 2.07930387484004913778e-01) (3, 2.67369472907951100105e-01) (4, 2.16047526823451935263e-01) (5, -3.16969657923728842519e+00) (6, -2.88295997468448295109e+00) (7, -8.55239629104647403057e-02) (8, 7.01610813914373632194e-01) (9, -2.45837708395648529835e-01) (10, 5.95912224819490465855e-01) (11, 2.82975287861797986100e-01) (12, -1.67865883422592676588e-01) (13, 2.68779864288542447159e-01) (14, 1.74452798656980281877e-02) (15, 3.47539786706302089581e-01) (16, -2.61456151884723264622e-01) (17, 2.64097092567580737921e-01) (18, -2.24839411858007487410e-01) (19, 3.03425606250471657788e-01) 
