FANN_FLO_2.1
num_layers=3
learning_rate=0.700000
connection_rate=1.000000
network_type=0
learning_momentum=0.000000
training_algorithm=2
train_error_function=1
train_stop_function=1
cascade_output_change_fraction=0.010000
quickprop_decay=-0.000100
quickprop_mu=1.750000
rprop_increase_factor=1.200000
rprop_decrease_factor=0.500000
rprop_delta_min=0.000000
rprop_delta_max=50.000000
rprop_delta_zero=0.100000
cascade_output_stagnation_epochs=12
cascade_candidate_change_fraction=0.010000
cascade_candidate_stagnation_epochs=12
cascade_max_out_epochs=150
cascade_min_out_epochs=50
cascade_max_cand_epochs=150
cascade_min_cand_epochs=50
cascade_num_candidate_groups=2
bit_fail_limit=1.00000000000000005551e-01
cascade_candidate_limit=1.00000000000000000000e+03
cascade_weight_multiplier=4.00000000000000022204e-01
cascade_activation_functions_count=10
cascade_activation_functions=3 5 7 8 10 11 14 15 16 17 
cascade_activation_steepnesses_count=4
cascade_activation_steepnesses=2.50000000000000000000e-01 5.00000000000000000000e-01 7.50000000000000000000e-01 1.00000000000000000000e+00 
layer_sizes=15 11 2 
scale_included=0
neurons (num_inputs, activation_function, activation_steepness)=(0, 0, 0.00000000000000000000e+00) (0, 0, 0.00000000000000000000e+00) (0, 0, 0.00000000000000000000e+00) (0, 0, 0.00000000000000000000e+00) (0, 0, 0.00000000000000000000e+00) (0, 0, 0.00000000000000000000e+00) (0, 0, 0.00000000000000000000e+00) (0, 0, 0.00000000000000000000e+00) (0, 0, 0.00000000000000000000e+00) (0, 0, 0.00000000000000000000e+00) (0, 0, 0.00000000000000000000e+00) (0, 0, 0.00000000000000000000e+00) (0, 0, 0.00000000000000000000e+00) (0, 0, 0.00000000000000000000e+00) (0, 0, 0.00000000000000000000e+00) (15, 6, 5.00000000000000000000e-01) (15, 6, 5.00000000000000000000e-01) (15, 6, 5.00000000000000000000e-01) (15, 6, 5.00000000000000000000e-01) (15, 6, 5.00000000000000000000e-01) (15, 6, 5.00000000000000000000e-01) (15, 6, 5.00000000000000000000e-01) (15, 6, 5.00000000000000000000e-01) (15, 6, 5.00000000000000000000e-01) (15, 6, 5.00000000000000000000e-01) (0, 6, 0.00000000000000000000e+00) (11, 6, 5.00000000000000000000e-01) (0, 6, 0.00000000000000000000e+00) 
connections (connected_to_neuron, weight)=(0, 1.10332989179326701468e+00) (1, -6.70426920957342548091e-02) (2, -1.20260179943815579545e-02) (3, 3.36819282104812130554e-03) (4, 1.08409808486007064321e-01) (5, 4.56461447290176958180e-01) (6, 3.57942782580330909337e-01) (7, -3.27548180317158710295e+01) (8, 7.94420804076124920101e-01) (9, -2.51092154499970021675e+00) (10, 3.26333595598253412007e+00) (11, -1.23125751620486560967e+01) (12, -3.30121190929367758216e-02) (13, 1.07573827490721796174e+00) (14, 6.86917170099553886509e-01) (0, 5.94925251120436637819e+00) (1, 4.23357630246387228734e-01) (2, 4.61188094788299307591e-01) (3, 3.60414238744483805821e-01) (4, 4.84504254632697806127e-01) (5, -5.66184511556875991189e-01) (6, -6.96545188591362718356e-01) (7, -3.55747442791602885848e+00) (8, 2.40474580838463403154e-01) (9, -2.80363858772629503946e+00) (10, -1.02613739827443839481e+00) (11, -5.15750337193890828758e+00) (12, -1.19115294280837114016e+00) (13, -5.17932050884135741775e-01) (14, 2.69407416696549883994e-01) (0, 1.45797624755428101295e+00) (1, 4.10564606231445416995e-01) (2, 2.48754934561246976443e-01) (3, 2.84775798362487897464e-01) (4, 2.95516532999271497317e-01) (5, -1.08018288604657571039e-02) (6, 3.95195443686487735135e-01) (7, 1.67395624598630590185e+01) (8, 5.49550049594057177238e-01) (9, 2.34082240534196230897e+01) (10, 6.39480851303076969216e-01) (11, 1.43456793050733146799e+01) (12, -5.52655557629786242657e-01) (13, -3.13932626445811491234e-01) (14, 2.09746979810871342353e-01) (0, 1.43575228814661759458e+01) (1, 5.41621942009929968620e-01) (2, 4.94452007051710551444e-01) (3, 5.23579671915773703361e-01) (4, 5.87788067694906546379e-01) (5, -1.37052780976119970013e+00) (6, -2.06944971683856371314e+00) (7, -3.15263465109960572264e+00) (8, -5.11944055984673407345e-01) (9, -2.82146483027553163225e+00) (10, -3.04293880044108844274e+00) (11, -2.46345150224916453752e+00) (12, -1.19581674371967938697e+00) (13, -5.41091159502556040550e-01) (14, 1.02853335757832220487e+00) (0, 1.39403627888191277151e+01) (1, 4.77702688515947326842e-01) (2, 4.57148749471471771422e-01) (3, 4.23053260982797718626e-01) (4, 5.51756609321401469970e-01) (5, -2.00131284580923951566e+00) (6, -1.21287636268884524426e+00) (7, -3.24650867936035325556e+00) (8, -6.54337146280447923274e-01) (9, -2.56903521859094929880e+00) (10, -9.64584022898605675245e-01) (11, -4.72631582103923086891e+00) (12, -2.38498776411122292984e+00) (13, -6.19908825517066275346e-01) (14, 1.54851717443929381979e+00) (0, 1.62785007376001145118e+00) (1, 3.59402081249359184323e-01) (2, 3.47060447810295158444e-01) (3, 3.80145332096221977292e-01) (4, 3.89451092360618644772e-01) (5, -5.28244456661614014692e-01) (6, 4.06338500667363322627e-01) (7, 1.66263995474346799597e+01) (8, 6.29235795352577120809e-01) (9, 2.35321686116228434571e+01) (10, 5.06055965732074009011e-01) (11, 1.44863882135119972361e+01) (12, -8.10969786029280714779e-01) (13, -2.17034532626193127358e-01) (14, 2.85066052688320303865e-01) (0, 1.57607945371196533912e+00) (1, 3.63533353684547477780e-01) (2, 3.12538190065029197751e-01) (3, 3.84561961768272453366e-01) (4, 3.86546453712585502682e-01) (5, -5.05307654304178899274e-01) (6, 3.81480852950364268672e-01) (7, 1.66425200706490201696e+01) (8, 7.62398055408119112997e-01) (9, 2.35439740863809916505e+01) (10, 1.21263058088074426877e+00) (11, 1.44015521998968658579e+01) (12, -8.65700387638033919124e-01) (13, -2.09031804402392468178e-01) (14, 3.98502788854797396212e-01) (0, -6.53304725343155506811e-02) (1, -2.60261181826874965495e-01) (2, -3.18326715464875453776e-01) (3, -3.69408670897767299479e-01) (4, -2.84969825382516139811e-01) (5, 5.55740517114958865186e-01) (6, 9.94741080409923886241e-03) (7, 5.11400456469411146543e+00) (8, 3.53165623578930165660e-01) (9, 5.49851373263987031059e-01) (10, 5.00455752562443900722e-01) (11, 3.89703914741783474796e+00) (12, 3.04695496885737715509e-01) (13, 1.54568136726460192421e+00) (14, -4.00979335615918086599e-01) (0, 5.85200626665461509646e+00) (1, 2.72305563758969304544e-01) (2, 2.68862140100359914285e-01) (3, 4.06784848045468327982e-01) (4, 2.52013542424797953867e-01) (5, -4.58005220858301587139e-01) (6, -7.76043530759609412328e-01) (7, -3.07400550972970476593e+00) (8, -1.49933329606373799692e+00) (9, -9.74455032095414508397e-01) (10, -9.33115830363528853120e-01) (11, -4.64766008914326977930e+00) (12, -1.26115361365864786514e+00) (13, -2.52740383788409850307e-01) (14, 1.18108097389416610845e+00) (0, -6.65592465843273584092e-01) (1, 6.55992840875733618233e-01) (2, 6.93962832440484178598e-01) (3, 6.90368419040787828500e-01) (4, 7.02917424489606035287e-01) (5, -1.52813908734449332982e+00) (6, -2.19207103222917198959e-01) (7, 1.73568537640865661054e+00) (8, 1.97004428801590331100e-01) (9, 4.14769972802689235181e-01) (10, 5.09316974252345011642e-01) (11, 1.62300017546874286722e+00) (12, 6.41561763355541603282e-01) (13, 3.84860413277562263268e-01) (14, 2.18173861336197827399e+00) (15, -2.36876317926479423859e-01) (16, -2.02053081873986739581e-01) (17, 4.23932646790275147186e-01) (18, -2.87967262957572578408e-01) (19, -2.22333661023487338948e-01) (20, 4.50889339128264954315e-01) (21, 4.27603190222510864960e-01) (22, 4.54362149482482546858e-01) (23, -2.84568154823682084587e-01) (24, -2.08275892696352687983e-01) (25, 4.79228719505081945940e-01) 
