FANN_FLO_2.1
num_layers=3
learning_rate=0.700000
connection_rate=1.000000
network_type=0
learning_momentum=0.000000
training_algorithm=2
train_error_function=1
train_stop_function=1
cascade_output_change_fraction=0.010000
quickprop_decay=-0.000100
quickprop_mu=1.750000
rprop_increase_factor=1.200000
rprop_decrease_factor=0.500000
rprop_delta_min=0.000000
rprop_delta_max=50.000000
rprop_delta_zero=0.100000
cascade_output_stagnation_epochs=12
cascade_candidate_change_fraction=0.010000
cascade_candidate_stagnation_epochs=12
cascade_max_out_epochs=150
cascade_min_out_epochs=50
cascade_max_cand_epochs=150
cascade_min_cand_epochs=50
cascade_num_candidate_groups=2
bit_fail_limit=1.00000000000000005551e-01
cascade_candidate_limit=1.00000000000000000000e+03
cascade_weight_multiplier=4.00000000000000022204e-01
cascade_activation_functions_count=10
cascade_activation_functions=3 5 7 8 10 11 14 15 16 17 
cascade_activation_steepnesses_count=4
cascade_activation_steepnesses=2.50000000000000000000e-01 5.00000000000000000000e-01 7.50000000000000000000e-01 1.00000000000000000000e+00 
layer_sizes=15 11 2 
scale_included=0
neurons (num_inputs, activation_function, activation_steepness)=(0, 0, 0.00000000000000000000e+00) (0, 0, 0.00000000000000000000e+00) (0, 0, 0.00000000000000000000e+00) (0, 0, 0.00000000000000000000e+00) (0, 0, 0.00000000000000000000e+00) (0, 0, 0.00000000000000000000e+00) (0, 0, 0.00000000000000000000e+00) (0, 0, 0.00000000000000000000e+00) (0, 0, 0.00000000000000000000e+00) (0, 0, 0.00000000000000000000e+00) (0, 0, 0.00000000000000000000e+00) (0, 0, 0.00000000000000000000e+00) (0, 0, 0.00000000000000000000e+00) (0, 0, 0.00000000000000000000e+00) (0, 0, 0.00000000000000000000e+00) (15, 6, 5.00000000000000000000e-01) (15, 6, 5.00000000000000000000e-01) (15, 6, 5.00000000000000000000e-01) (15, 6, 5.00000000000000000000e-01) (15, 6, 5.00000000000000000000e-01) (15, 6, 5.00000000000000000000e-01) (15, 6, 5.00000000000000000000e-01) (15, 6, 5.00000000000000000000e-01) (15, 6, 5.00000000000000000000e-01) (15, 6, 5.00000000000000000000e-01) (0, 6, 0.00000000000000000000e+00) (11, 6, 5.00000000000000000000e-01) (0, 6, 0.00000000000000000000e+00) 
connections (connected_to_neuron, weight)=(0, 2.60429579043009395978e-01) (1, 3.49150148835858792351e-02) (2, 1.65006443640299760300e-01) (3, -1.74087809714594463073e-02) (4, 6.86877293196401089714e-02) (5, 1.74955383076884407600e-01) (6, 1.63348851185953380938e-01) (7, 3.04341413838986163398e-01) (8, 5.76497421491511674585e-02) (9, 2.86049250230950846685e+01) (10, 8.26431602018544847477e-02) (11, -2.76102970095836119935e-01) (12, -5.35324367011120516580e-01) (13, -9.31254785284090447206e-01) (14, 1.42972585093768561615e-01) (0, 3.30989962913950019896e+00) (1, 4.12441415238284980749e-01) (2, 3.76444143700504274541e-01) (3, 4.54825384068393678838e-01) (4, 3.24041405218744249517e-01) (5, 7.84005345040861501005e-01) (6, 3.25399043207977023417e-01) (7, -3.14298560370815827092e-01) (8, 1.31500232175440956439e+01) (9, -3.43032425585580957872e+00) (10, 1.03684177280188438708e+00) (11, 5.12545714675167118912e+02) (12, 6.08718438802617356487e+00) (13, 5.27878847784682569966e+00) (14, -3.26100500921853497793e-01) (0, 3.32293500103910499632e+00) (1, 4.18323127078914613897e-01) (2, 3.17151626098060579473e-01) (3, 4.56624445962810487920e-01) (4, 4.31317952918911007298e-01) (5, 7.78088004523817433622e-01) (6, 4.75282499736163877024e-01) (7, -5.85184688092186711117e-01) (8, 1.33132239014358724205e+01) (9, -3.37755300308508488172e+00) (10, 8.99124458737381782036e-01) (11, 5.12462294063249146348e+02) (12, 6.07025158761399552532e+00) (13, 4.52437278410295284914e+00) (14, -4.05489789943345391166e-01) (0, 2.02398962537332405276e+00) (1, 3.38598768519192461213e-01) (2, 2.82155125694304231843e-01) (3, 4.13549210237293962678e-01) (4, 3.31403944002419237336e-01) (5, 4.76542950531412989879e-01) (6, 4.75177774375293515696e-01) (7, 1.61828971648123806637e-02) (8, 2.43840210144393498837e+00) (9, -1.97924769783084864017e+00) (10, 4.31687344858790400526e-01) (11, 5.12563935412743603592e+02) (12, 6.06815751253026292034e+00) (13, 1.38421841139284325095e+01) (14, -4.70622743433348825204e-02) (0, 2.54184758784120834463e-01) (1, 8.44981751841416550697e-01) (2, 7.31953143578877640785e-01) (3, 7.27240330976357651771e-01) (4, 8.39585981768479538978e-01) (5, -1.15662413747780346007e+00) (6, 1.84910384078155765053e+00) (7, 5.20518214769449816259e-01) (8, 2.46321053932553502008e+00) (9, 7.23593895070358206212e-01) (10, -1.63255379374175046969e+00) (11, 3.44395668768751761490e+00) (12, -3.73076105648318412378e+00) (13, -3.58888408306912687351e+00) (14, -2.31901733364693080075e-01) (0, -3.96169378701185470604e+00) (1, -2.39384642752698328927e-01) (2, -2.24386773022702601388e-01) (3, -3.81688206407121033426e-01) (4, -2.47145852955869105294e-01) (5, -1.85707477787548563830e-01) (6, -5.83468670300983260901e-01) (7, 1.91671076291811681713e-01) (8, -4.46941071335738904224e-01) (9, 6.16983771530302327335e+00) (10, 5.30833413891847238908e-01) (11, 6.24348897716473505426e+00) (12, 1.33545531832855912668e+00) (13, 1.42382506550503418197e+00) (14, 8.17817480319938117095e-02) (0, 1.87578401828689789177e-01) (1, 7.09214191257477644115e-01) (2, 9.00129284083367231517e-01) (3, 7.38489407419682386546e-01) (4, 7.16355326890469434886e-01) (5, -1.66672331408126894736e+00) (6, 2.51637516052911980324e+00) (7, 6.23492115504828303685e-01) (8, 2.40505507602909496256e+00) (9, 4.11839167796542338085e-01) (10, -1.62477056707291578341e+00) (11, 3.55993358468159026842e+00) (12, -4.03388642586131229706e+00) (13, -3.25516513091583492567e+00) (14, -1.69032494301948915671e-01) (0, -4.01548469904398341868e+00) (1, -2.54047035201006965455e-01) (2, -2.34113543255740214066e-01) (3, -3.09479406996184425171e-01) (4, -2.31816812379771280961e-01) (5, -1.29969915875078168011e-01) (6, -5.46121183465741455443e-01) (7, 2.68461586968205323522e-01) (8, -9.44035102639048523399e-02) (9, 5.84664962040706281954e+00) (10, -9.55804984371676213950e-02) (11, 5.90542767506084143037e+00) (12, 1.29299955570381852610e+00) (13, 1.26092687832445804474e+00) (14, 1.85400773323978917961e-01) (0, 3.32206636764963203490e+00) (1, 3.35048188912773103887e-01) (2, 4.43537784266376577946e-01) (3, 4.57700116085910768682e-01) (4, 3.70762681114578218633e-01) (5, 8.18963215881887807157e-01) (6, 4.35319924896571841533e-01) (7, -2.91700889815700969976e-01) (8, 8.17333795727970802147e+00) (9, -3.32667792047304722303e+00) (10, 2.68043053430209177179e-01) (11, 5.12466852268853699570e+02) (12, 5.91853262095110732588e+00) (13, 4.61000220215103873045e+00) (14, -4.34486786524899915030e-01) (0, 2.02480257532897800488e+00) (1, 4.14102535055905107697e-01) (2, 2.45295557485848136903e-01) (3, 3.94332940982609625458e-01) (4, 3.01228794561653856476e-01) (5, 4.98121344989454040153e-01) (6, 4.15086077695701327617e-01) (7, -1.71626592968796870542e-01) (8, 2.51118420069091374813e+00) (9, -2.19951157115925477470e+00) (10, 3.22962877402449555220e-01) (11, 5.12546115784624134903e+02) (12, 5.94731268270271140608e+00) (13, 7.75313746097153710934e+00) (14, -7.88630395255184996062e-02) (15, 1.79130284231074077272e-01) (16, 3.04926819957232364544e-01) (17, 2.46719740189051406354e-01) (18, 3.42955402887797133893e-01) (19, -2.75755202449251168861e-01) (20, 6.55660807508334997351e-01) (21, -2.38308554566789621010e-01) (22, 7.13326386529312017615e-01) (23, 2.81070820845102986585e-01) (24, 3.08095626390909982373e-01) (25, 2.93179794889860512175e-01) 
