FANN_FLO_2.1
num_layers=3
learning_rate=0.700000
connection_rate=1.000000
network_type=0
learning_momentum=0.000000
training_algorithm=2
train_error_function=1
train_stop_function=1
cascade_output_change_fraction=0.010000
quickprop_decay=-0.000100
quickprop_mu=1.750000
rprop_increase_factor=1.200000
rprop_decrease_factor=0.500000
rprop_delta_min=0.000000
rprop_delta_max=50.000000
rprop_delta_zero=0.100000
cascade_output_stagnation_epochs=12
cascade_candidate_change_fraction=0.010000
cascade_candidate_stagnation_epochs=12
cascade_max_out_epochs=150
cascade_min_out_epochs=50
cascade_max_cand_epochs=150
cascade_min_cand_epochs=50
cascade_num_candidate_groups=2
bit_fail_limit=1.00000000000000005551e-01
cascade_candidate_limit=1.00000000000000000000e+03
cascade_weight_multiplier=4.00000000000000022204e-01
cascade_activation_functions_count=10
cascade_activation_functions=3 5 7 8 10 11 14 15 16 17 
cascade_activation_steepnesses_count=4
cascade_activation_steepnesses=2.50000000000000000000e-01 5.00000000000000000000e-01 7.50000000000000000000e-01 1.00000000000000000000e+00 
layer_sizes=16 4 2 
scale_included=0
neurons (num_inputs, activation_function, activation_steepness)=(0, 0, 0.00000000000000000000e+00) (0, 0, 0.00000000000000000000e+00) (0, 0, 0.00000000000000000000e+00) (0, 0, 0.00000000000000000000e+00) (0, 0, 0.00000000000000000000e+00) (0, 0, 0.00000000000000000000e+00) (0, 0, 0.00000000000000000000e+00) (0, 0, 0.00000000000000000000e+00) (0, 0, 0.00000000000000000000e+00) (0, 0, 0.00000000000000000000e+00) (0, 0, 0.00000000000000000000e+00) (0, 0, 0.00000000000000000000e+00) (0, 0, 0.00000000000000000000e+00) (0, 0, 0.00000000000000000000e+00) (0, 0, 0.00000000000000000000e+00) (0, 0, 0.00000000000000000000e+00) (16, 6, 5.00000000000000000000e-01) (16, 6, 5.00000000000000000000e-01) (16, 6, 5.00000000000000000000e-01) (0, 6, 0.00000000000000000000e+00) (4, 4, 5.00000000000000000000e-01) (0, 4, 0.00000000000000000000e+00) 
connections (connected_to_neuron, weight)=(0, 1.47302852902067851204e+01) (1, -8.22176944177030932792e+00) (2, 1.27425172117437890407e+00) (3, -3.96851773875151314641e+00) (4, 1.50468723060886166998e+00) (5, -6.86116043357910054823e+00) (6, 1.11417020245771647424e+00) (7, 5.15969452695906327655e-01) (8, 5.27497778364666558559e+00) (9, 1.30511054683605154381e+00) (10, 5.26203890825541886755e+00) (11, -3.38733982955557095806e+01) (12, -2.18809061906500534889e+00) (13, -3.43729518125409727602e+00) (14, -2.88519900860056566216e+00) (15, 4.42976096814825837100e+00) (0, 4.38091027778908248536e+00) (1, -1.80919123901010836519e+00) (2, 2.64217767616282295240e-01) (3, -6.12466080552405367499e-01) (4, 2.59698595342497395855e-01) (5, -4.52841438794904738163e-01) (6, 1.92738071593372417567e-01) (7, -4.05479545112076733560e-01) (8, 3.34290121994986844101e+00) (9, 4.84320453742120349272e-01) (10, 5.49614582371172777364e-01) (11, -1.95900148347321445552e-01) (12, 5.30377002908324457486e-01) (13, 5.75676639262316380830e-01) (14, 5.38011974845408746937e-01) (15, 6.24960839170768278628e-01) (0, 1.34944553208008244383e+01) (1, -6.54013426481363513432e+00) (2, -4.38888006292858900981e-01) (3, -5.13362757006265546522e+00) (4, 1.44292951599662533368e+00) (5, 1.60212232662944202843e+01) (6, -1.46970424800921559694e+01) (7, -4.18679821359891457533e-01) (8, 4.79650983178493550696e+00) (9, 1.64803431333710581619e+00) (10, 3.92564933578834285299e+00) (11, -5.80395143144110470246e+00) (12, 4.42242444726793326737e+00) (13, 1.40231070709658278695e+00) (14, 2.06057197135882752548e+00) (15, 3.92829542123744834825e+00) (16, -2.51417116652401784194e+00) (17, -1.54469906236577344316e+02) (18, -2.91609717796359158015e+00) (19, -1.11075256141680434041e+00) 
