FANN_FLO_2.1
num_layers=3
learning_rate=0.700000
connection_rate=1.000000
network_type=0
learning_momentum=0.000000
training_algorithm=2
train_error_function=1
train_stop_function=1
cascade_output_change_fraction=0.010000
quickprop_decay=-0.000100
quickprop_mu=1.750000
rprop_increase_factor=1.200000
rprop_decrease_factor=0.500000
rprop_delta_min=0.000000
rprop_delta_max=50.000000
rprop_delta_zero=0.100000
cascade_output_stagnation_epochs=12
cascade_candidate_change_fraction=0.010000
cascade_candidate_stagnation_epochs=12
cascade_max_out_epochs=150
cascade_min_out_epochs=50
cascade_max_cand_epochs=150
cascade_min_cand_epochs=50
cascade_num_candidate_groups=2
bit_fail_limit=1.00000000000000005551e-01
cascade_candidate_limit=1.00000000000000000000e+03
cascade_weight_multiplier=4.00000000000000022204e-01
cascade_activation_functions_count=10
cascade_activation_functions=3 5 7 8 10 11 14 15 16 17 
cascade_activation_steepnesses_count=4
cascade_activation_steepnesses=2.50000000000000000000e-01 5.00000000000000000000e-01 7.50000000000000000000e-01 1.00000000000000000000e+00 
layer_sizes=8 11 2 
scale_included=0
neurons (num_inputs, activation_function, activation_steepness)=(0, 0, 0.00000000000000000000e+00) (0, 0, 0.00000000000000000000e+00) (0, 0, 0.00000000000000000000e+00) (0, 0, 0.00000000000000000000e+00) (0, 0, 0.00000000000000000000e+00) (0, 0, 0.00000000000000000000e+00) (0, 0, 0.00000000000000000000e+00) (0, 0, 0.00000000000000000000e+00) (8, 6, 5.00000000000000000000e-01) (8, 6, 5.00000000000000000000e-01) (8, 6, 5.00000000000000000000e-01) (8, 6, 5.00000000000000000000e-01) (8, 6, 5.00000000000000000000e-01) (8, 6, 5.00000000000000000000e-01) (8, 6, 5.00000000000000000000e-01) (8, 6, 5.00000000000000000000e-01) (8, 6, 5.00000000000000000000e-01) (8, 6, 5.00000000000000000000e-01) (0, 6, 0.00000000000000000000e+00) (11, 6, 5.00000000000000000000e-01) (0, 6, 0.00000000000000000000e+00) 
connections (connected_to_neuron, weight)=(0, 2.49945373731301656584e-01) (1, 2.01002270409891770075e-01) (2, 2.20829658636877701472e-01) (3, 1.60828710028956101130e-01) (4, 2.07792725840637848567e-01) (5, -1.16214228723874946070e+00) (6, -1.13309445534578245862e+00) (7, -4.15667927037514095545e-02) (0, 2.32986958223031392912e-01) (1, 2.18958802947828934382e-01) (2, 1.91391122022698090266e-01) (3, 2.49849036762545134716e-01) (4, 1.56583056280443833064e-01) (5, -1.27921872143379111719e+00) (6, -1.24995331396094222498e+00) (7, 9.45981978676187218458e-02) (0, 2.33088662887313502470e-01) (1, -1.85745505662288160065e-02) (2, 7.05717580346737483055e-02) (3, -7.59614033670748811655e-02) (4, -2.21467277081336469391e-02) (5, -7.95926866969325885748e+00) (6, -7.80233383467653140997e+00) (7, -1.05920975543684847686e-01) (0, 1.07255788559415518590e-01) (1, -4.02428468735541791657e-02) (2, 6.62319380327802513519e-03) (3, -3.41937353880729169586e-02) (4, -1.16246920541185523590e-03) (5, -7.92873408561804637884e+00) (6, -7.82581734946229801153e+00) (7, 1.35876634343196252275e-02) (0, 2.97208772497819184721e-01) (1, 1.68877616951296494197e-01) (2, 2.91958928534815309597e-01) (3, 3.04509237835237978054e-01) (4, 2.97092393467257021022e-01) (5, -1.19055251334539313746e+00) (6, -1.28913435642352958155e+00) (7, 1.52068363060699623945e-01) (0, 7.26069605725886746406e-01) (1, 3.39237624351047484250e-01) (2, 3.76642940137647597165e-01) (3, 4.72553221080564467282e-01) (4, 3.50375959221385924192e-01) (5, -2.96977115745924713508e+00) (6, -2.99156467194937469856e+00) (7, 1.96407518892039861802e-01) (0, 3.85763192074941030363e-01) (1, 2.02040713707039520930e-01) (2, 1.78628385493586228083e-01) (3, 1.95380758920738861750e-01) (4, 2.16637365946600601863e-01) (5, -1.28961418126455207300e+00) (6, -1.23277170513502021265e+00) (7, 8.12837942740785301954e-02) (0, -2.98314364407304410953e-01) (1, -9.51904574946299680827e-02) (2, -8.42071990088358729443e-02) (3, -1.17221869023217295513e-01) (4, -5.00592211798564085123e-02) (5, 3.75881602999192843129e+00) (6, 3.70888361346346506764e+00) (7, 3.13081166803376650942e-02) (0, -2.16113982502463913837e-01) (1, -4.35496936158076414225e-02) (2, -1.98250460864676569805e-01) (3, -1.69023192913903330670e-01) (4, -1.43745146186722849713e-01) (5, 3.69794751342755922963e+00) (6, 3.70612218987566599537e+00) (7, -1.16252189309696746244e-01) (0, -5.99814887114720529659e-01) (1, 3.35749121932612859531e-01) (2, 2.46113701341973745151e-01) (3, 3.44504328994380437656e-01) (4, 2.56755041508304082676e-01) (5, 9.45813307035134087641e+00) (6, 9.47964453566239129145e+00) (7, -9.88941807406254702606e-01) (8, -4.60501978711024412272e-02) (9, -4.79510644987956174967e-02) (10, -1.81186926308863072155e-01) (11, -1.69822906377192051064e-01) (12, -4.72081969097987302897e-02) (13, -9.84249184445277341959e-02) (14, -6.94442609862223753092e-02) (15, 4.49060645020702309260e-01) (16, 5.01552429116466469416e-01) (17, 5.18661794322193503426e-01) (18, 6.19614188132010412779e-01) 
