FANN_FLO_2.1
num_layers=3
learning_rate=0.700000
connection_rate=1.000000
network_type=0
learning_momentum=0.000000
training_algorithm=2
train_error_function=1
train_stop_function=1
cascade_output_change_fraction=0.010000
quickprop_decay=-0.000100
quickprop_mu=1.750000
rprop_increase_factor=1.200000
rprop_decrease_factor=0.500000
rprop_delta_min=0.000000
rprop_delta_max=50.000000
rprop_delta_zero=0.100000
cascade_output_stagnation_epochs=12
cascade_candidate_change_fraction=0.010000
cascade_candidate_stagnation_epochs=12
cascade_max_out_epochs=150
cascade_min_out_epochs=50
cascade_max_cand_epochs=150
cascade_min_cand_epochs=50
cascade_num_candidate_groups=2
bit_fail_limit=1.00000000000000005551e-01
cascade_candidate_limit=1.00000000000000000000e+03
cascade_weight_multiplier=4.00000000000000022204e-01
cascade_activation_functions_count=10
cascade_activation_functions=3 5 7 8 10 11 14 15 16 17 
cascade_activation_steepnesses_count=4
cascade_activation_steepnesses=2.50000000000000000000e-01 5.00000000000000000000e-01 7.50000000000000000000e-01 1.00000000000000000000e+00 
layer_sizes=17 11 2 
scale_included=0
neurons (num_inputs, activation_function, activation_steepness)=(0, 0, 0.00000000000000000000e+00) (0, 0, 0.00000000000000000000e+00) (0, 0, 0.00000000000000000000e+00) (0, 0, 0.00000000000000000000e+00) (0, 0, 0.00000000000000000000e+00) (0, 0, 0.00000000000000000000e+00) (0, 0, 0.00000000000000000000e+00) (0, 0, 0.00000000000000000000e+00) (0, 0, 0.00000000000000000000e+00) (0, 0, 0.00000000000000000000e+00) (0, 0, 0.00000000000000000000e+00) (0, 0, 0.00000000000000000000e+00) (0, 0, 0.00000000000000000000e+00) (0, 0, 0.00000000000000000000e+00) (0, 0, 0.00000000000000000000e+00) (0, 0, 0.00000000000000000000e+00) (0, 0, 0.00000000000000000000e+00) (17, 6, 5.00000000000000000000e-01) (17, 6, 5.00000000000000000000e-01) (17, 6, 5.00000000000000000000e-01) (17, 6, 5.00000000000000000000e-01) (17, 6, 5.00000000000000000000e-01) (17, 6, 5.00000000000000000000e-01) (17, 6, 5.00000000000000000000e-01) (17, 6, 5.00000000000000000000e-01) (17, 6, 5.00000000000000000000e-01) (17, 6, 5.00000000000000000000e-01) (0, 6, 0.00000000000000000000e+00) (11, 6, 5.00000000000000000000e-01) (0, 6, 0.00000000000000000000e+00) 
connections (connected_to_neuron, weight)=(0, -1.81564476578169181620e-02) (1, -2.42520803943437786299e-02) (2, -6.83520147934717353655e-02) (3, 1.70574402078825064499e-02) (4, 4.47854911550718062796e-02) (5, 4.07349711673591741157e-01) (6, 7.57409640310261755847e-02) (7, 8.50925629428912033703e-01) (8, 6.21305656419864016371e-01) (9, 8.19141159632158100123e+00) (10, 1.13139973201874050046e-01) (11, 5.74732381644525003317e-01) (12, 1.28872989329074899567e-01) (13, 5.06425517535147862169e-01) (14, 5.74038435728147500292e-01) (15, 1.31422967511389421347e+00) (16, -6.87524841600754138549e-02) (0, 6.71264948713767156674e-02) (1, -6.97838611753407497135e-03) (2, 4.95260720714765304007e-02) (3, -2.75927270189089100805e-02) (4, -1.39769562555865728415e-01) (5, 4.30614795483266366016e-01) (6, 1.93023019349381791399e-01) (7, 9.24529783392970316847e-01) (8, 7.49018740640750246840e-01) (9, 8.22180930950593769069e+00) (10, 9.26524103750210326069e-02) (11, 6.82885071710152224966e-01) (12, 8.80893133801263078508e-02) (13, 8.61646288740631316472e-01) (14, 2.70236267241084904267e-01) (15, 8.60397015126380781957e-01) (16, -8.07383151227333561994e-02) (0, 4.97084184940938048070e-02) (1, 7.11156062895689222714e-02) (2, -9.12282906358804074332e-02) (3, -9.38652001207436886832e-02) (4, -6.05217471604909060257e-02) (5, -1.06829909754403118427e+01) (6, 1.93722291109691635569e-01) (7, 2.26707763071798762411e+00) (8, 2.06612580539355983333e+00) (9, -3.34302633890707889819e+00) (10, 4.93802186320070821135e-02) (11, 5.42309547868815133853e-01) (12, 2.01082736143000456730e-01) (13, 2.81663481394652537304e+00) (14, 1.07039718701471664453e+00) (15, -2.80863773393241018539e+01) (16, 8.62915540489150173498e-02) (0, 2.73678313262417059748e-02) (1, -4.84025989325775202188e-02) (2, -2.39010926934017584045e-02) (3, -6.58610452564492299121e-02) (4, 2.64704573301539902719e-02) (5, -6.71627365041149904101e+00) (6, 2.25189019488898412025e-01) (7, 5.86789091185786260141e-01) (8, 1.32017192883210143783e+00) (9, -5.88268121592394166441e+00) (10, 2.18809715879576788256e-01) (11, 4.05758496658405853896e-01) (12, 2.49059826024897373875e-01) (13, 6.16083015167287695313e-01) (14, 6.39535168330149561555e-01) (15, -2.80022458824125379806e+01) (16, -8.33128419858149837918e-02) (0, -7.36791398699355448709e-02) (1, 2.81948032521750283075e-02) (2, -6.10857052064393557522e-02) (3, -3.58305690145944155667e-02) (4, -3.44498274183724917386e-02) (5, -2.59753926161273041018e+00) (6, 1.30437823700177840669e-01) (7, 7.01925539582046620346e-01) (8, -1.29479174170261029930e-01) (9, -5.08655213762058022731e-01) (10, 3.66047065681229591427e-02) (11, -6.05887344668855298835e-01) (12, 1.78713821026282415616e-01) (13, 1.14733262544634428970e+00) (14, 1.69813110134485567571e+00) (15, 6.83392435973718015418e-01) (16, 1.90415887659690710731e-02) (0, 1.89373592133310637564e+01) (1, 4.37637308707790162465e-01) (2, 5.88877709677772642749e-01) (3, 4.96084014049129162771e-01) (4, 4.25592312684612061879e-01) (5, 6.60636338118336996494e-01) (6, 2.94684969482158665155e-01) (7, -8.94481076776066502676e-02) (8, -1.33087493668329837071e-01) (9, -1.02471092650765562837e+01) (10, -9.18294492880343538044e-02) (11, 5.05996050262617846904e-01) (12, 2.31274701492136980363e+00) (13, 2.60003034478598493706e+00) (14, 1.82884315586502999018e+00) (15, 5.59572942370769155218e-01) (16, 1.23535781905114916412e+00) (0, 2.55313078521015839328e+01) (1, 2.99986900487282326377e-01) (2, 3.35018479922153777917e-01) (3, 2.80653739073612684685e-01) (4, 2.21647673943378947792e-01) (5, -1.12051470885488835272e+00) (6, -4.82695746560302285655e-01) (7, -2.88906347828161758073e+00) (8, -3.34633479766817432122e+00) (9, -1.73151804302001011138e+00) (10, -5.20119860883552442843e-01) (11, -3.57436470483481905092e+00) (12, -6.00844938178725196387e-01) (13, -3.15271637404812477001e+00) (14, -1.20250534084751059538e+00) (15, -1.09025055170805651450e+00) (16, 2.14627481893400728907e+00) (0, -8.82164698331288910094e-02) (1, -3.10883978739542252145e-02) (2, -2.46619815364641399580e-02) (3, 4.73968004450040572562e-02) (4, -1.75985033050340862470e-02) (5, 1.28909772628088975521e-01) (6, 8.05704937038872748278e-02) (7, 9.69823946646738876964e-01) (8, 6.57277916358580904799e-01) (9, 8.17007702269506275172e+00) (10, 1.23645381250503810788e-01) (11, 1.04585779491251962270e+00) (12, 1.95177099319671670807e-01) (13, 7.23284859226549725619e-01) (14, 4.96460822434022952532e-01) (15, 1.27080321009399033194e-01) (16, -1.19499461489329397712e-01) (0, 1.16225444818269657565e-01) (1, -4.28479057807863647489e-02) (2, -7.82768842835368378053e-02) (3, -9.91067928333224518189e-02) (4, -3.52332261462152962483e-02) (5, -6.31291216753391726257e+00) (6, 2.40083205061482340970e-01) (7, 3.37013271254709256830e-01) (8, 1.30193946622699296967e+00) (9, -6.40965687680061435572e+00) (10, 9.98672179850590424621e-02) (11, 4.31792996419984920209e-01) (12, 1.27939812728293300648e-01) (13, 7.30264936991968482971e-01) (14, 6.84351269941670503627e-01) (15, -2.79836302640644163375e+01) (16, 4.27180925638204755934e-02) (0, -4.82765574686572496166e-02) (1, -2.30140636457218591970e-02) (2, -3.99969096077694014069e-02) (3, -5.34875492347492292877e-02) (4, -3.57530887020839766022e-02) (5, -5.50670149721306234625e+00) (6, 1.43996214892885388004e-01) (7, 8.48770810417386611935e-02) (8, 1.23953791941692936796e+00) (9, -5.92678598960766311876e+00) (10, 1.29300973785536871263e-01) (11, 4.68483904546836305016e-01) (12, 2.10262481771714415668e-01) (13, 2.23254138564681320345e-01) (14, 1.54633137653107308185e-02) (15, -2.79458638074604124313e+01) (16, 8.45664840520099492238e-03) (17, 4.52036458815026853664e-01) (18, 4.44174688446438037381e-01) (19, -2.31735283805260289247e-01) (20, -2.56516813374826402327e-01) (21, 3.07713222313870271574e-01) (22, -1.96263840390317634288e-01) (23, -1.62760256817822912545e-01) (24, 4.32949127092338403866e-01) (25, -8.01404461456872302394e-02) (26, -4.30897079786836112447e-01) (27, 3.78343862720252999132e-01) 
