FANN_FLO_2.1
num_layers=3
learning_rate=0.700000
connection_rate=1.000000
network_type=0
learning_momentum=0.000000
training_algorithm=2
train_error_function=1
train_stop_function=1
cascade_output_change_fraction=0.010000
quickprop_decay=-0.000100
quickprop_mu=1.750000
rprop_increase_factor=1.200000
rprop_decrease_factor=0.500000
rprop_delta_min=0.000000
rprop_delta_max=50.000000
rprop_delta_zero=0.100000
cascade_output_stagnation_epochs=12
cascade_candidate_change_fraction=0.010000
cascade_candidate_stagnation_epochs=12
cascade_max_out_epochs=150
cascade_min_out_epochs=50
cascade_max_cand_epochs=150
cascade_min_cand_epochs=50
cascade_num_candidate_groups=2
bit_fail_limit=1.00000000000000005551e-01
cascade_candidate_limit=1.00000000000000000000e+03
cascade_weight_multiplier=4.00000000000000022204e-01
cascade_activation_functions_count=10
cascade_activation_functions=3 5 7 8 10 11 14 15 16 17 
cascade_activation_steepnesses_count=4
cascade_activation_steepnesses=2.50000000000000000000e-01 5.00000000000000000000e-01 7.50000000000000000000e-01 1.00000000000000000000e+00 
layer_sizes=26 11 2 
scale_included=0
neurons (num_inputs, activation_function, activation_steepness)=(0, 0, 0.00000000000000000000e+00) (0, 0, 0.00000000000000000000e+00) (0, 0, 0.00000000000000000000e+00) (0, 0, 0.00000000000000000000e+00) (0, 0, 0.00000000000000000000e+00) (0, 0, 0.00000000000000000000e+00) (0, 0, 0.00000000000000000000e+00) (0, 0, 0.00000000000000000000e+00) (0, 0, 0.00000000000000000000e+00) (0, 0, 0.00000000000000000000e+00) (0, 0, 0.00000000000000000000e+00) (0, 0, 0.00000000000000000000e+00) (0, 0, 0.00000000000000000000e+00) (0, 0, 0.00000000000000000000e+00) (0, 0, 0.00000000000000000000e+00) (0, 0, 0.00000000000000000000e+00) (0, 0, 0.00000000000000000000e+00) (0, 0, 0.00000000000000000000e+00) (0, 0, 0.00000000000000000000e+00) (0, 0, 0.00000000000000000000e+00) (0, 0, 0.00000000000000000000e+00) (0, 0, 0.00000000000000000000e+00) (0, 0, 0.00000000000000000000e+00) (0, 0, 0.00000000000000000000e+00) (0, 0, 0.00000000000000000000e+00) (0, 0, 0.00000000000000000000e+00) (26, 6, 5.00000000000000000000e-01) (26, 6, 5.00000000000000000000e-01) (26, 6, 5.00000000000000000000e-01) (26, 6, 5.00000000000000000000e-01) (26, 6, 5.00000000000000000000e-01) (26, 6, 5.00000000000000000000e-01) (26, 6, 5.00000000000000000000e-01) (26, 6, 5.00000000000000000000e-01) (26, 6, 5.00000000000000000000e-01) (26, 6, 5.00000000000000000000e-01) (0, 6, 0.00000000000000000000e+00) (11, 6, 5.00000000000000000000e-01) (0, 6, 0.00000000000000000000e+00) 
connections (connected_to_neuron, weight)=(0, 3.39177072905001597558e-01) (1, 1.18671404550731718341e-01) (2, 2.89075898359478167254e-01) (3, 2.12083006630599896214e-01) (4, 2.37138117085159277897e-01) (5, -2.26227088480636684409e+00) (6, -9.02634557635426659772e-01) (7, 3.28701906852146663596e+00) (8, 1.92275861439282325094e+00) (9, -1.22801264702581640620e+01) (10, 8.69562420799154800477e-01) (11, 3.45446120505507103804e-01) (12, 1.42926687477583924668e+00) (13, 1.98230674066503298469e+00) (14, -2.71738779802723584567e+00) (15, -1.39825510594866053715e+00) (16, -1.16926656276614449048e+00) (17, 6.66514729492912183506e-02) (18, 3.20800861178208440716e-01) (19, 3.78254334594011476511e-01) (20, -1.27372915731284397367e-01) (21, -1.31125904418222888337e-01) (22, 8.97973445751592130870e-02) (23, 4.36397590222584863540e+00) (24, -1.23051134005059843446e+01) (25, 1.98007528308179053811e-01) (0, 2.02122881119548551965e+01) (1, 3.57430851029524043749e-01) (2, 3.71485328244337387193e-01) (3, 4.83022181259760208238e-01) (4, 4.72853390442499466051e-01) (5, -5.62004391194947316990e+00) (6, -3.94431825782554712490e+00) (7, 1.83860126682996755099e-01) (8, 7.27314174359751053345e+00) (9, -7.46980089503057520517e+00) (10, 6.17193801295197741474e-01) (11, -2.61936223398601730761e-01) (12, 2.61731567385153962579e-01) (13, 5.79397169422824487306e-01) (14, -1.27876951372558361752e-01) (15, -8.29385030404339218535e+00) (16, 1.65065452962971948025e+00) (17, -2.88099511848899370037e-01) (18, -5.18386824341883212242e-01) (19, -2.96649514015629056640e-01) (20, -2.28981207028754574218e-01) (21, -1.08874708870089986767e+00) (22, -3.68198649845332848241e-01) (23, -2.96129265820556719646e+00) (24, -1.62958341345593193950e+00) (25, 4.11899767159317364840e-01) (0, 6.52446082259745452347e+00) (1, 4.31641251854142871114e-01) (2, 2.35747137181005150808e-01) (3, 3.75631258897027697774e-01) (4, 3.22654158882341168813e-01) (5, -2.33172891001673487921e-01) (6, 1.47127758139658215697e+00) (7, 2.21453918192845683466e-01) (8, 3.04291162672823567448e+00) (9, -5.91934381303486745196e+00) (10, 7.54140067990675611043e+00) (11, 6.35156139389492779834e-02) (12, 8.08778248438213331895e+00) (13, 3.60662155927319716398e+01) (14, -1.90901257992182804557e+00) (15, -5.70458035593700696353e+00) (16, 1.75676951877356657405e+02) (17, -5.49084416700870825423e-01) (18, -1.36625958601873098708e-02) (19, -7.16778420496200108225e-01) (20, -7.37720733656593852245e-01) (21, -4.40800661056522158354e-01) (22, -3.63401419190339969312e-01) (23, -1.82960967723954856523e-02) (24, -2.73680144898301447309e-01) (25, -5.21348242250578644552e-02) (0, 4.28079250847739789521e-01) (1, 1.46980582179399743570e-01) (2, 1.82934170963140768640e-01) (3, 1.93003824354978814615e-01) (4, 2.94839186968180289039e-01) (5, -1.81527206977281596600e+00) (6, -8.91408075333515181882e-01) (7, 3.39148146372418413108e+00) (8, 9.74930701790893361469e-01) (9, -1.18805731943527668193e+01) (10, 1.89734356364990874866e+00) (11, -1.54291725281260588831e-01) (12, 1.49719190310346550454e+00) (13, 1.17517087012761933806e+00) (14, -5.14692135734225928445e+01) (15, -1.51691224663962387353e+00) (16, -1.15753098559575851034e+00) (17, 2.47186507892254089813e-02) (18, 3.86844919594725444867e-01) (19, 4.50720900679182356896e-01) (20, 2.32055844579241582482e-01) (21, 2.52106605839421571424e-01) (22, 1.12892099389477959526e-01) (23, 2.30946826075730848871e+00) (24, -8.09613940298275736041e+00) (25, 2.88293556377881898811e-01) (0, 8.14295735938168341317e-02) (1, 2.05963829691984595671e-01) (2, 1.69498996968843934630e-01) (3, 2.27427529330828187559e-01) (4, 1.87371151681520936583e-01) (5, -9.87055463233379115628e-01) (6, -8.19457676560521375286e-01) (7, 1.92296338964414736949e+00) (8, 1.15596372892311038960e+00) (9, -1.11674808202166655491e+01) (10, 9.16212887667273045977e-01) (11, 4.06746984914984788251e-01) (12, 1.95976545237843757796e+00) (13, 1.91858941249323211586e+00) (14, -4.71129673443904639640e+00) (15, -1.37315506104252116337e+00) (16, -1.20874232478786725054e+00) (17, -9.56144192331256741191e-04) (18, 2.24726372845936606115e-01) (19, 2.85559120739698635294e-01) (20, -1.86476496906120586816e-01) (21, -8.92502150326479892772e-02) (22, 1.87334440261944817907e-01) (23, 4.23494623664343272651e+00) (24, -1.14944201233332421452e+01) (25, 1.52370549037662339487e-01) (0, -2.11259164515138220253e+00) (1, -1.92631587572217349846e-01) (2, -1.81795224733472232659e-01) (3, -2.64109671301961612677e-01) (4, -2.16063007898450315514e-01) (5, 1.24419852231610095217e+00) (6, 8.47900952832620791177e-01) (7, -6.86181005779630676100e-02) (8, -1.99798092740482813312e+00) (9, 4.07148837469406910117e+00) (10, -5.65950204157653069537e-01) (11, 5.40936282372738830304e-01) (12, -1.46915526190327189182e-01) (13, -1.56531788747132999395e-01) (14, 2.56251200195745854060e+00) (15, 1.81384898531819138690e+00) (16, 8.71329805187620487494e-01) (17, -2.38662959820605882766e-02) (18, -7.97098458569825557563e-02) (19, 3.83581694632536066014e-02) (20, 3.05268367720815947397e-01) (21, 1.43959991619427879472e-01) (22, 1.92390392339082449968e-01) (23, 5.33580845369018175184e-01) (24, 1.68530339485058644478e+00) (25, -7.02305790062151408248e-02) (0, 1.34121000598525252911e+00) (1, 3.48487478694762375930e-01) (2, 2.58246158263529923538e-01) (3, 2.88794052800978806594e-01) (4, 1.97047953507746786972e-01) (5, 2.88315715844212627772e+00) (6, -5.39124256497892223594e-02) (7, 1.37346584892017431478e+00) (8, 8.09931589214330394100e+00) (9, -3.51762446352990920673e+00) (10, 4.15993232326966300150e+00) (11, -1.73257936049674293733e-01) (12, 5.25511635077969785357e+00) (13, 1.32284266107999548545e+00) (14, -7.97019802019874434862e-01) (15, 4.43292702069640597529e+02) (16, -4.50840772177674864452e+00) (17, 1.03677954622310775079e+00) (18, 3.20510151405184740003e-01) (19, 9.85183558085230837165e-02) (20, -1.41456362734409979431e-01) (21, 7.43310274141406268633e-01) (22, -1.13257576320573739859e-02) (23, -1.05832152481796698540e-01) (24, 1.32920374920095146765e-01) (25, -4.17408645529289301646e-01) (0, 6.58125425900549743119e+00) (1, 4.07833875230989240102e-01) (2, 3.30928743890962329122e-01) (3, 3.10852506272039252888e-01) (4, 3.12812821082315228871e-01) (5, 2.43840409657083068140e+00) (6, 1.32807484337200398805e+00) (7, 2.82103857074242736491e-01) (8, 2.99488928574508328495e+00) (9, -5.93167014591000896218e+00) (10, 7.42078221894138501114e+00) (11, 1.93955642974791092614e-01) (12, 8.28048503002425562158e+00) (13, 3.61336869404812048856e+01) (14, -1.86288210919531271870e+00) (15, -5.73085776394081403140e+00) (16, 1.75738837301314958950e+02) (17, -6.19968612605359625789e-01) (18, -1.15587395242873994250e-01) (19, -4.10589469544121954403e-01) (20, -8.23520629284250071933e-01) (21, -4.69823898983639409721e-01) (22, -3.18390813891280322068e-01) (23, -2.48567050884923590459e-02) (24, 5.15652703682326629675e-02) (25, -5.84306840387480014298e-02) (0, 6.71970112629628357759e-01) (1, 9.64113555421431123182e-02) (2, 2.33920597242315453368e-01) (3, 1.54670693682630644439e-01) (4, 2.31637649940450829344e-01) (5, 1.39473123509635188455e+00) (6, -1.49757875012262364756e+00) (7, 5.89266274738334372429e-01) (8, 4.96415433057132760020e-01) (9, -1.04954323773523072738e+00) (10, -6.79141086561045992376e-01) (11, -1.97287411963832454154e-01) (12, -1.41903492062214264813e+00) (13, -1.27353756545283158808e+00) (14, 2.53059377319918183957e+02) (15, 1.23331100507464830329e+00) (16, 3.96726844865260996897e-01) (17, 2.48975627339438759789e-01) (18, 1.43608453202536179294e-01) (19, 4.53527657202915379653e-01) (20, 2.54485584092221606145e-01) (21, -2.03128627672891859390e-01) (22, 7.11729419634665304989e-03) (23, -4.63739368919833597205e-02) (24, 1.55218297235953395230e+00) (25, -2.57579744873562693774e-02) (0, -2.49679076527801377949e+01) (1, -2.39565142688417942463e-01) (2, -2.04656728801394016681e-01) (3, -1.96475439963007425526e-01) (4, -2.64453680512571731587e-01) (5, 5.14793591994680266311e+00) (6, 1.85619722174781759394e-01) (7, 8.83511077000136535453e-01) (8, -1.70783148984721599994e+00) (9, 1.69952146870369014131e+00) (10, -4.40374489976785091216e-02) (11, 3.97164448589518603860e-01) (12, 1.34035867536357600205e-01) (13, -2.97843284231885829794e-01) (14, 5.25278228056057816531e+00) (15, 1.79647792642994130752e+00) (16, 1.94237299301127319673e+00) (17, 1.19282637638169197736e+00) (18, 8.64429681578770869876e-01) (19, 1.94868704389257718645e+00) (20, 2.12615196828146890695e+00) (21, 2.60217034752541209741e-01) (22, 1.09506534172818192907e+00) (23, 9.35874785090936467391e-01) (24, 2.94502058184870474378e+00) (25, -7.41268290731624257539e-01) (26, -2.05040071335788415263e-01) (27, -5.53093780861301120844e-01) (28, 6.40114482533979956003e-01) (29, -1.99925143447871850322e-01) (30, -2.14102862585427627939e-01) (31, 4.84490448776536908326e-01) (32, 6.06563773482533985515e-01) (33, 6.30880054128218348275e-01) (34, 3.75682878670851094771e-01) (35, 8.50230575346654471325e-01) (36, 2.60831512238302976048e-01) 
