FANN_FLO_2.1
num_layers=3
learning_rate=0.700000
connection_rate=1.000000
network_type=0
learning_momentum=0.000000
training_algorithm=2
train_error_function=1
train_stop_function=1
cascade_output_change_fraction=0.010000
quickprop_decay=-0.000100
quickprop_mu=1.750000
rprop_increase_factor=1.200000
rprop_decrease_factor=0.500000
rprop_delta_min=0.000000
rprop_delta_max=50.000000
rprop_delta_zero=0.100000
cascade_output_stagnation_epochs=12
cascade_candidate_change_fraction=0.010000
cascade_candidate_stagnation_epochs=12
cascade_max_out_epochs=150
cascade_min_out_epochs=50
cascade_max_cand_epochs=150
cascade_min_cand_epochs=50
cascade_num_candidate_groups=2
bit_fail_limit=1.00000000000000005551e-01
cascade_candidate_limit=1.00000000000000000000e+03
cascade_weight_multiplier=4.00000000000000022204e-01
cascade_activation_functions_count=10
cascade_activation_functions=3 5 7 8 10 11 14 15 16 17 
cascade_activation_steepnesses_count=4
cascade_activation_steepnesses=2.50000000000000000000e-01 5.00000000000000000000e-01 7.50000000000000000000e-01 1.00000000000000000000e+00 
layer_sizes=6 4 2 
scale_included=0
neurons (num_inputs, activation_function, activation_steepness)=(0, 0, 0.00000000000000000000e+00) (0, 0, 0.00000000000000000000e+00) (0, 0, 0.00000000000000000000e+00) (0, 0, 0.00000000000000000000e+00) (0, 0, 0.00000000000000000000e+00) (0, 0, 0.00000000000000000000e+00) (6, 6, 5.00000000000000000000e-01) (6, 6, 5.00000000000000000000e-01) (6, 6, 5.00000000000000000000e-01) (0, 6, 0.00000000000000000000e+00) (4, 4, 5.00000000000000000000e-01) (0, 4, 0.00000000000000000000e+00) 
connections (connected_to_neuron, weight)=(0, 4.06341557749072457284e+00) (1, -9.25310913160607539929e-01) (2, 1.09870946688405730640e+01) (3, 1.08747678114455368359e+01) (4, -2.69148594781012242549e+01) (5, -2.28277575965627255172e+00) (0, -1.61020568118141071956e+00) (1, -1.57738359337952749328e+00) (2, -1.04676959698288407630e+00) (3, -1.10870951189919209057e+00) (4, -3.77247099467615010226e+00) (5, 2.27147194951320585687e+00) (0, -3.05882566498774188801e+00) (1, -1.72270706184012345474e+00) (2, 2.19723545158365141106e+00) (3, 2.23667810648485954061e+00) (4, 1.94617660282436349961e-01) (5, 1.60966595926600519739e+00) (6, 1.07971343084754636266e+01) (7, -2.03515129913055865529e+01) (8, -1.49605400231595613292e+01) (9, -1.60135986535187058166e+00) 
