FANN_FLO_2.1
num_layers=3
learning_rate=0.700000
connection_rate=1.000000
network_type=0
learning_momentum=0.000000
training_algorithm=2
train_error_function=1
train_stop_function=1
cascade_output_change_fraction=0.010000
quickprop_decay=-0.000100
quickprop_mu=1.750000
rprop_increase_factor=1.200000
rprop_decrease_factor=0.500000
rprop_delta_min=0.000000
rprop_delta_max=50.000000
rprop_delta_zero=0.100000
cascade_output_stagnation_epochs=12
cascade_candidate_change_fraction=0.010000
cascade_candidate_stagnation_epochs=12
cascade_max_out_epochs=150
cascade_min_out_epochs=50
cascade_max_cand_epochs=150
cascade_min_cand_epochs=50
cascade_num_candidate_groups=2
bit_fail_limit=1.00000000000000005551e-01
cascade_candidate_limit=1.00000000000000000000e+03
cascade_weight_multiplier=4.00000000000000022204e-01
cascade_activation_functions_count=10
cascade_activation_functions=3 5 7 8 10 11 14 15 16 17 
cascade_activation_steepnesses_count=4
cascade_activation_steepnesses=2.50000000000000000000e-01 5.00000000000000000000e-01 7.50000000000000000000e-01 1.00000000000000000000e+00 
layer_sizes=15 4 2 
scale_included=0
neurons (num_inputs, activation_function, activation_steepness)=(0, 0, 0.00000000000000000000e+00) (0, 0, 0.00000000000000000000e+00) (0, 0, 0.00000000000000000000e+00) (0, 0, 0.00000000000000000000e+00) (0, 0, 0.00000000000000000000e+00) (0, 0, 0.00000000000000000000e+00) (0, 0, 0.00000000000000000000e+00) (0, 0, 0.00000000000000000000e+00) (0, 0, 0.00000000000000000000e+00) (0, 0, 0.00000000000000000000e+00) (0, 0, 0.00000000000000000000e+00) (0, 0, 0.00000000000000000000e+00) (0, 0, 0.00000000000000000000e+00) (0, 0, 0.00000000000000000000e+00) (0, 0, 0.00000000000000000000e+00) (15, 6, 5.00000000000000000000e-01) (15, 6, 5.00000000000000000000e-01) (15, 6, 5.00000000000000000000e-01) (0, 6, 0.00000000000000000000e+00) (4, 4, 5.00000000000000000000e-01) (0, 4, 0.00000000000000000000e+00) 
connections (connected_to_neuron, weight)=(0, 2.41805624270563424005e+00) (1, -9.04378228047513887944e-01) (2, -1.70737540981441560106e+00) (3, -6.85014503512493977411e+00) (4, 9.92828573343985887334e-01) (5, 3.97663783984983920661e-01) (6, 1.38584458583206471260e+00) (7, -9.47172278988983484815e-01) (8, -8.27503246826843863460e+00) (9, -6.07756419182227247688e+00) (10, -1.63683274305054360376e+00) (11, -3.99645823588522342007e+00) (12, 5.64704418784888417804e-01) (13, -1.01852698338849356752e+00) (14, 2.03934973966924149025e+00) (0, -1.78178367474449350638e+00) (1, 1.02404351765626966397e+00) (2, 4.73190302844730403820e-01) (3, 7.72320196315278151289e-01) (4, -7.37239101162287663316e-02) (5, 1.02845036909430434524e-01) (6, -5.81076457217481801010e-01) (7, 1.59726013759111107326e+00) (8, -1.22895190252916897133e-01) (9, 6.28751830905639796931e-01) (10, 2.20429614285574004828e-01) (11, 1.02162789297323985949e+00) (12, -1.44596132340964889096e+00) (13, -3.44735262673453313198e+00) (14, -2.58692903662266104892e-01) (0, 9.38902563259585321020e+00) (1, -5.05536628728971848545e+00) (2, -2.27048600344009487983e+00) (3, -5.51819287440856687255e+00) (4, 2.30920321477560985812e+00) (5, -1.27884141207292101328e+00) (6, 6.20214909989774376697e+00) (7, -5.15635039871797928868e+00) (8, -1.31403480377952974756e+00) (9, -5.56338318384097174629e+00) (10, -2.70804863292695463528e+00) (11, -3.54104824048732602648e+00) (12, 1.88938241562160569309e+00) (13, 1.33514308847758667032e-01) (14, 4.22230843198123295679e+00) (15, -3.92330278080297922827e+00) (16, 2.90644314006941351103e-01) (17, -1.14655186749265336488e+01) (18, -1.62708165449137731606e+00) 
