FANN_FLO_2.1
num_layers=3
learning_rate=0.700000
connection_rate=1.000000
network_type=0
learning_momentum=0.000000
training_algorithm=2
train_error_function=1
train_stop_function=1
cascade_output_change_fraction=0.010000
quickprop_decay=-0.000100
quickprop_mu=1.750000
rprop_increase_factor=1.200000
rprop_decrease_factor=0.500000
rprop_delta_min=0.000000
rprop_delta_max=50.000000
rprop_delta_zero=0.100000
cascade_output_stagnation_epochs=12
cascade_candidate_change_fraction=0.010000
cascade_candidate_stagnation_epochs=12
cascade_max_out_epochs=150
cascade_min_out_epochs=50
cascade_max_cand_epochs=150
cascade_min_cand_epochs=50
cascade_num_candidate_groups=2
bit_fail_limit=1.00000000000000005551e-01
cascade_candidate_limit=1.00000000000000000000e+03
cascade_weight_multiplier=4.00000000000000022204e-01
cascade_activation_functions_count=10
cascade_activation_functions=3 5 7 8 10 11 14 15 16 17 
cascade_activation_steepnesses_count=4
cascade_activation_steepnesses=2.50000000000000000000e-01 5.00000000000000000000e-01 7.50000000000000000000e-01 1.00000000000000000000e+00 
layer_sizes=9 11 2 
scale_included=0
neurons (num_inputs, activation_function, activation_steepness)=(0, 0, 0.00000000000000000000e+00) (0, 0, 0.00000000000000000000e+00) (0, 0, 0.00000000000000000000e+00) (0, 0, 0.00000000000000000000e+00) (0, 0, 0.00000000000000000000e+00) (0, 0, 0.00000000000000000000e+00) (0, 0, 0.00000000000000000000e+00) (0, 0, 0.00000000000000000000e+00) (0, 0, 0.00000000000000000000e+00) (9, 6, 5.00000000000000000000e-01) (9, 6, 5.00000000000000000000e-01) (9, 6, 5.00000000000000000000e-01) (9, 6, 5.00000000000000000000e-01) (9, 6, 5.00000000000000000000e-01) (9, 6, 5.00000000000000000000e-01) (9, 6, 5.00000000000000000000e-01) (9, 6, 5.00000000000000000000e-01) (9, 6, 5.00000000000000000000e-01) (9, 6, 5.00000000000000000000e-01) (0, 6, 0.00000000000000000000e+00) (11, 6, 5.00000000000000000000e-01) (0, 6, 0.00000000000000000000e+00) 
connections (connected_to_neuron, weight)=(0, 1.75903607504733744404e-01) (1, -1.78654451047505546946e-01) (2, -1.83432947968568016428e-01) (3, -3.46475878110781079777e-02) (4, -5.28202691427126294621e-02) (5, -2.24869527001205282701e+00) (6, 1.50318168672026128974e+01) (7, 8.31442459192592742134e-01) (8, 2.12869539779622141129e-01) (0, 7.48546499742899884566e-01) (1, 2.64707730184650991134e-01) (2, 1.14879005621529056702e-01) (3, 2.59719387661076106522e-01) (4, 8.77156490789418041842e-02) (5, -3.48330902980983125872e-01) (6, 1.80844796422171860684e+01) (7, -5.77793126422874259163e+00) (8, 1.01934162156444907410e-01) (0, 5.50983448799224095893e+00) (1, 3.48128314240826519654e-01) (2, 2.97346721514119061158e-01) (3, 3.10774321778668316529e-01) (4, 3.92731155379666241334e-01) (5, 1.53936309311338903605e+00) (6, -1.46565865085235635945e+00) (7, 5.45042295640047314009e+01) (8, 2.74833603863807868217e-02) (0, 3.38659928680722033256e-01) (1, 2.96198102322017597920e-01) (2, 4.13103605297004627950e-01) (3, 3.50636052575504231221e-01) (4, 3.51023564722930836446e-01) (5, 1.04473444890742817037e+00) (6, -5.14451055835203874267e+00) (7, 2.51389401040455844338e+01) (8, 6.51481893817302815108e-01) (0, -3.14118612810222295195e+01) (1, -9.12642745776182096051e-02) (2, -1.90155465762138820018e-01) (3, -2.08041448752403712597e-01) (4, -1.04995053867817489390e-01) (5, 3.40899091850141389148e-01) (6, 5.48923324713007976250e-01) (7, 4.83207437383314442059e+00) (8, -1.50315326270859195290e-01) (0, -1.02839781343114888834e-01) (1, 1.45396868729968636175e-02) (2, -7.35263024425129446682e-02) (3, -5.52380626058200999151e-02) (4, 6.34695394281345991183e-03) (5, -3.68972305562345836982e-01) (6, 3.05767646254050173837e+00) (7, -3.89553677560452058515e+01) (8, -4.93302172303361555206e-02) (0, 1.71803214068089571409e-01) (1, 9.22927252154654986782e-02) (2, 8.17121110062904165705e-02) (3, 1.05129822264224959127e-01) (4, 2.00243882041282184048e-02) (5, 4.36945446172464713186e+00) (6, -1.33603302689280833970e-01) (7, 2.26405429312261610164e+01) (8, 4.74671567221328638553e-01) (0, 2.38856015207044158899e+01) (1, 2.54224530665614123492e-01) (2, 3.16801875142790678730e-01) (3, 2.01146628020741374820e-01) (4, 2.68346942274309940846e-01) (5, 5.01213866288035658769e-01) (6, -8.73556194267006147491e-02) (7, -7.36960798795614291379e+00) (8, 1.38059140836182181467e+00) (0, 3.83179462917920909959e+00) (1, 4.58871290295169154128e-01) (2, 4.53523077278182307204e-01) (3, 4.59002360909030238112e-01) (4, 4.90287535100028315505e-01) (5, 6.11091036979536106344e+00) (6, -7.92075083705645965892e+00) (7, -4.29343593740893769706e+00) (8, 3.04545553087148590521e-01) (0, -2.70345568057506895343e+01) (1, -1.57829517521440421124e-01) (2, -1.04477936424791306713e-01) (3, -1.10449397959291442661e-01) (4, -2.02898191310941611309e-01) (5, 6.16216496174705974376e-01) (6, 1.30944453624214118825e+00) (7, 3.34169056633517547183e+00) (8, -2.47194599757965427500e-01) (9, 4.33408854985219860190e-01) (10, 1.88810864370178854710e-01) (11, 3.12754377651920933978e-01) (12, 3.32658688526124068918e-01) (13, 1.34188313327871289182e-01) (14, -5.16583682702361213224e-01) (15, 1.58366641851588135781e-01) (16, -9.56776786083717301068e-02) (17, -2.93674246683747364184e-01) (18, 1.78488638542734057157e-01) (19, -5.99199603107167522165e-02) 
