FANN_FLO_2.1
num_layers=3
learning_rate=0.700000
connection_rate=1.000000
network_type=0
learning_momentum=0.000000
training_algorithm=2
train_error_function=1
train_stop_function=1
cascade_output_change_fraction=0.010000
quickprop_decay=-0.000100
quickprop_mu=1.750000
rprop_increase_factor=1.200000
rprop_decrease_factor=0.500000
rprop_delta_min=0.000000
rprop_delta_max=50.000000
rprop_delta_zero=0.100000
cascade_output_stagnation_epochs=12
cascade_candidate_change_fraction=0.010000
cascade_candidate_stagnation_epochs=12
cascade_max_out_epochs=150
cascade_min_out_epochs=50
cascade_max_cand_epochs=150
cascade_min_cand_epochs=50
cascade_num_candidate_groups=2
bit_fail_limit=1.00000000000000005551e-01
cascade_candidate_limit=1.00000000000000000000e+03
cascade_weight_multiplier=4.00000000000000022204e-01
cascade_activation_functions_count=10
cascade_activation_functions=3 5 7 8 10 11 14 15 16 17 
cascade_activation_steepnesses_count=4
cascade_activation_steepnesses=2.50000000000000000000e-01 5.00000000000000000000e-01 7.50000000000000000000e-01 1.00000000000000000000e+00 
layer_sizes=20 11 2 
scale_included=0
neurons (num_inputs, activation_function, activation_steepness)=(0, 0, 0.00000000000000000000e+00) (0, 0, 0.00000000000000000000e+00) (0, 0, 0.00000000000000000000e+00) (0, 0, 0.00000000000000000000e+00) (0, 0, 0.00000000000000000000e+00) (0, 0, 0.00000000000000000000e+00) (0, 0, 0.00000000000000000000e+00) (0, 0, 0.00000000000000000000e+00) (0, 0, 0.00000000000000000000e+00) (0, 0, 0.00000000000000000000e+00) (0, 0, 0.00000000000000000000e+00) (0, 0, 0.00000000000000000000e+00) (0, 0, 0.00000000000000000000e+00) (0, 0, 0.00000000000000000000e+00) (0, 0, 0.00000000000000000000e+00) (0, 0, 0.00000000000000000000e+00) (0, 0, 0.00000000000000000000e+00) (0, 0, 0.00000000000000000000e+00) (0, 0, 0.00000000000000000000e+00) (0, 0, 0.00000000000000000000e+00) (20, 6, 5.00000000000000000000e-01) (20, 6, 5.00000000000000000000e-01) (20, 6, 5.00000000000000000000e-01) (20, 6, 5.00000000000000000000e-01) (20, 6, 5.00000000000000000000e-01) (20, 6, 5.00000000000000000000e-01) (20, 6, 5.00000000000000000000e-01) (20, 6, 5.00000000000000000000e-01) (20, 6, 5.00000000000000000000e-01) (20, 6, 5.00000000000000000000e-01) (0, 6, 0.00000000000000000000e+00) (11, 6, 5.00000000000000000000e-01) (0, 6, 0.00000000000000000000e+00) 
connections (connected_to_neuron, weight)=(0, 4.41449184923524740043e+00) (1, 4.27838228103953388537e-01) (2, 3.45066159424620655383e-01) (3, 2.48678370771247186921e-01) (4, 3.68784255740481403674e-01) (5, -3.97246739573446783211e+00) (6, 1.05400616665552551154e+01) (7, 7.59450032730603652453e+01) (8, 4.47243877062839634284e-01) (9, -3.83817343837724767042e+00) (10, 1.75430901165263741781e+00) (11, 2.05755538956482825208e-01) (12, -1.40455325888715631955e+00) (13, 8.77298839955139797553e-01) (14, 1.02422476371225507075e-01) (15, -2.09237663106236287947e-01) (16, 4.17139968893400103767e-01) (17, -7.24477654944895910205e-01) (18, -8.81184016375252454623e-01) (19, 2.48189188241582953109e-01) (0, -6.15961334738444854509e+00) (1, -2.78604033560877484277e-01) (2, -2.79446962447291058496e-01) (3, -3.94044625730639141992e-01) (4, -2.68520998926287390862e-01) (5, 4.09830929125928022927e+00) (6, -4.09320288173540625110e+00) (7, 8.63503752712747263409e-01) (8, -5.55396109796628054123e-02) (9, 6.88514270285550633588e+00) (10, -2.14740409293553646819e+00) (11, 8.30842538575833011727e-01) (12, 2.12632766760071145740e+00) (13, -1.44882983772433360237e+00) (14, -7.85293183971337224736e-03) (15, 1.94033634002246768713e-01) (16, 9.97744486791252715996e-02) (17, 1.11048045138251350039e+00) (18, 8.95754822320703025795e-01) (19, -7.51796056730703154969e-01) (0, 4.48829148172492864433e+00) (1, 4.23784039375620869006e-01) (2, 2.70630575177508381213e-01) (3, 3.32026779112654713000e-01) (4, 3.75797353145915058459e-01) (5, -3.90983142263857441634e+00) (6, 1.04944337819884712104e+01) (7, 7.60458270852470832324e+01) (8, 5.50909705767673729682e-01) (9, -3.80580231971250615430e+00) (10, 1.83639008368508904745e+00) (11, 1.28916561321576167432e-01) (12, -1.27041684778218555429e+00) (13, 7.58361302881050747260e-01) (14, 1.42159727027114879405e-01) (15, -1.36370588434119421883e-01) (16, 5.07383870751568322177e-01) (17, -6.58363825332163865589e-01) (18, -8.82546816973396985873e-01) (19, 2.47803650498014504944e-01) (0, 4.77289249672126825175e+00) (1, 4.12276510926163353155e-01) (2, 3.87423579426682151983e-01) (3, 2.84863849016106285283e-01) (4, 4.05079980226433433721e-01) (5, -3.94016907296744900435e+00) (6, 1.05327664454649383430e+01) (7, 7.60918383074487394424e+01) (8, 4.07047260860246895575e-01) (9, -5.89180176304403779852e+00) (10, 1.13614418237743142193e+00) (11, -6.39519391191415320641e-01) (12, -2.28779838206926289246e+00) (13, 4.10613713711230676751e-01) (14, 1.64780364781550392461e-01) (15, -3.89235844866547497922e-01) (16, 5.89193711577827738957e-01) (17, -8.35112279902934129261e-01) (18, -9.73826837746807782992e-01) (19, 3.20750425939900163375e-01) (0, -1.80984659566990586654e+01) (1, -2.46442611578416598261e-01) (2, -3.27110882166337768595e-01) (3, -2.27819803420018923701e-01) (4, -2.13366839352559817256e-01) (5, 2.73588711904959414056e+00) (6, -1.63550031244401306019e+00) (7, 1.47629772513468715545e+00) (8, -8.94031767474390837158e-02) (9, 5.79086589702266163471e+00) (10, -1.11418456803676058087e+00) (11, 6.49603426110372028646e-01) (12, 1.22706384309434213264e+00) (13, -3.69895022321529931553e-01) (14, 1.08177347454766356605e-01) (15, 2.29353043201390743855e-01) (16, 8.23688819326337806626e-02) (17, 1.00038390050717929114e+00) (18, 1.38692750183490298710e+00) (19, -8.56839220828540581998e-01) (0, 3.23461389241956798202e+00) (1, 1.15532988828185678720e+00) (2, 1.09215575229886652231e+00) (3, 1.00400674116376431577e+00) (4, 1.06636259478095651865e+00) (5, 9.48268237607836517178e-01) (6, 2.86817859109953099406e+00) (7, -6.74130220696534543379e+00) (8, 4.19370891560110592433e-01) (9, 3.74221735235858510293e+00) (10, 5.17112452295572677663e-01) (11, 1.41783595546227481066e+00) (12, 8.17591275640569881134e-01) (13, 4.10760715511003904332e-01) (14, 4.04966052460913827904e-01) (15, 4.76499157471336864944e-01) (16, 1.78425740352352590889e-01) (17, -1.74557761045342381412e-02) (18, 7.09529584251769485093e-01) (19, 8.65550425607409579243e-01) (0, 2.12551071560987764331e-01) (1, 7.25669258769605418635e-01) (2, 8.35560136970136202450e-01) (3, 7.09329733189199007626e-01) (4, 9.00503480371091180601e-01) (5, 1.40021937405183805048e+00) (6, -1.72128917151412408337e+00) (7, -2.15058560972020851310e+00) (8, 4.48874210742083556980e-01) (9, 8.99518030246498945246e+00) (10, 6.29816530704265020724e-01) (11, 2.46736740004562893347e+00) (12, 1.39873073816808113357e+00) (13, 7.62267488529314474199e-01) (14, 5.75939093626165576900e-01) (15, 7.05848454533261726596e-01) (16, 5.98269276828822693659e-01) (17, 6.09858284228941838201e-01) (18, 1.26964121775234417555e+00) (19, -4.72412366949299777907e-01) (0, 3.30031917919407069562e+00) (1, 1.15103609354569158540e+00) (2, 1.12962487952186307893e+00) (3, 1.09742146970106779769e+00) (4, 1.21678208799435316756e+00) (5, 1.01843581959151285865e+00) (6, 1.04840636363418626686e+00) (7, -5.36787892688774181948e+00) (8, 4.00056499356556571900e-01) (9, 8.65827924101844637050e+00) (10, 5.89927057474252336533e-01) (11, 1.58376091593560630599e+00) (12, 9.68045720589737257455e-01) (13, 7.02229296638021693866e-01) (14, 6.01544207225416904805e-01) (15, 5.95213631699091472171e-01) (16, 5.43225756529684300489e-01) (17, 3.89926492891945142283e-01) (18, 1.12856523550096943254e+00) (19, 1.30740563735223275232e-01) (0, -7.65216302020517380456e-01) (1, -3.48165286440966059711e-01) (2, -3.53024197478411128071e-01) (3, -2.80344156284449086414e-01) (4, -3.77925721664545466449e-01) (5, -7.77972141124572090121e+02) (6, 6.97941338107919362344e-01) (7, -1.17554215665374117705e+00) (8, -1.63575285235772721615e-01) (9, 7.20250235398488491967e+00) (10, -1.82523067897059343423e+00) (11, -5.05415858963794484282e-01) (12, -5.89185219127182513432e+00) (13, -3.14596401595595942524e+01) (14, -7.49995711079345372951e-01) (15, -7.46459100645743767188e+00) (16, -9.94579535591419650054e-01) (17, -3.63454806245191941461e-01) (18, -3.05464115618647447103e-01) (19, -4.71560339201351763627e-03) (0, 4.69166354734661783521e-01) (1, 1.67054581810324002944e-02) (2, -6.58423927258164898291e-02) (3, 1.00258362608083975709e-01) (4, -3.88534691761644179753e-02) (5, 3.08541043992824759457e+00) (6, -6.45483179006328455785e-01) (7, 1.77807496515654017699e+00) (8, 4.24383807348821251448e-02) (9, -8.85112762610276071484e+00) (10, 1.28800324894563743283e-02) (11, 5.14972480365634144306e-01) (12, 1.88610262425183417001e-01) (13, 3.18779431951284997204e-01) (14, 2.61348988449697450243e-01) (15, 3.96620150134135318609e-01) (16, 3.43422809606816314965e-01) (17, 1.38682700399434000182e+00) (18, 2.66280245854843611308e-01) (19, -5.24811656978331625423e-02) (20, 3.72179296286501037905e-01) (21, 6.41494720601279544425e-01) (22, 4.03055411250986206362e-01) (23, 4.07502931030191528627e-01) (24, 7.14547300363443937954e-01) (25, -1.69335643855932804769e-01) (26, -1.41730280033420169561e-01) (27, -1.03156442003771470217e-01) (28, -2.94081435022424841907e-01) (29, -9.26534875967796600627e-02) (30, 3.30425486199296403189e-01) 
