FANN_FLO_2.1
num_layers=3
learning_rate=0.700000
connection_rate=1.000000
network_type=0
learning_momentum=0.000000
training_algorithm=2
train_error_function=1
train_stop_function=1
cascade_output_change_fraction=0.010000
quickprop_decay=-0.000100
quickprop_mu=1.750000
rprop_increase_factor=1.200000
rprop_decrease_factor=0.500000
rprop_delta_min=0.000000
rprop_delta_max=50.000000
rprop_delta_zero=0.100000
cascade_output_stagnation_epochs=12
cascade_candidate_change_fraction=0.010000
cascade_candidate_stagnation_epochs=12
cascade_max_out_epochs=150
cascade_min_out_epochs=50
cascade_max_cand_epochs=150
cascade_min_cand_epochs=50
cascade_num_candidate_groups=2
bit_fail_limit=1.00000000000000005551e-01
cascade_candidate_limit=1.00000000000000000000e+03
cascade_weight_multiplier=4.00000000000000022204e-01
cascade_activation_functions_count=10
cascade_activation_functions=3 5 7 8 10 11 14 15 16 17 
cascade_activation_steepnesses_count=4
cascade_activation_steepnesses=2.50000000000000000000e-01 5.00000000000000000000e-01 7.50000000000000000000e-01 1.00000000000000000000e+00 
layer_sizes=10 4 2 
scale_included=0
neurons (num_inputs, activation_function, activation_steepness)=(0, 0, 0.00000000000000000000e+00) (0, 0, 0.00000000000000000000e+00) (0, 0, 0.00000000000000000000e+00) (0, 0, 0.00000000000000000000e+00) (0, 0, 0.00000000000000000000e+00) (0, 0, 0.00000000000000000000e+00) (0, 0, 0.00000000000000000000e+00) (0, 0, 0.00000000000000000000e+00) (0, 0, 0.00000000000000000000e+00) (0, 0, 0.00000000000000000000e+00) (10, 6, 5.00000000000000000000e-01) (10, 6, 5.00000000000000000000e-01) (10, 6, 5.00000000000000000000e-01) (0, 6, 0.00000000000000000000e+00) (4, 4, 5.00000000000000000000e-01) (0, 4, 0.00000000000000000000e+00) 
connections (connected_to_neuron, weight)=(0, 1.51339994876989547556e+00) (1, -6.60671291339526511877e-01) (2, -1.83985543434963316756e+00) (3, -1.07114374140617552023e+00) (4, -6.28555640129765391677e-01) (5, 3.66231871074342352212e-01) (6, 1.79950590754840045182e-01) (7, -9.25093476317966345590e-02) (8, -7.92806529063503351296e-01) (9, 1.24933822924745641103e+00) (0, -1.57611164073920129169e+00) (1, 4.33920556841417504046e-01) (2, 1.65725451456293226826e+00) (3, 6.68315433457324581390e-01) (4, 4.59455285789783340888e-01) (5, 8.39178023957046548276e-01) (6, 1.10410583259813344092e-01) (7, 1.08111481812206755571e+00) (8, 7.79127728126660201724e-01) (9, -1.45319495652473773539e+00) (0, -2.69637294777492142472e+00) (1, 8.76771327442681069897e+00) (2, -2.82325768221005324321e+00) (3, 1.77262718052963140491e-02) (4, 8.20709001486001810122e+00) (5, 7.93193213305295863336e+00) (6, -1.50061055166659151894e+00) (7, -6.89382822490855751152e-02) (8, -2.06102600032599982127e-02) (9, -1.12462527146800095323e+00) (10, -2.28556695219661953900e+01) (11, 5.35373978749966639157e+01) (12, 1.07554759099884744700e+01) (13, -4.93534823778930653582e-01) 
