FANN_FLO_2.1
num_layers=3
learning_rate=0.700000
connection_rate=1.000000
network_type=0
learning_momentum=0.000000
training_algorithm=2
train_error_function=1
train_stop_function=1
cascade_output_change_fraction=0.010000
quickprop_decay=-0.000100
quickprop_mu=1.750000
rprop_increase_factor=1.200000
rprop_decrease_factor=0.500000
rprop_delta_min=0.000000
rprop_delta_max=50.000000
rprop_delta_zero=0.100000
cascade_output_stagnation_epochs=12
cascade_candidate_change_fraction=0.010000
cascade_candidate_stagnation_epochs=12
cascade_max_out_epochs=150
cascade_min_out_epochs=50
cascade_max_cand_epochs=150
cascade_min_cand_epochs=50
cascade_num_candidate_groups=2
bit_fail_limit=1.00000000000000005551e-01
cascade_candidate_limit=1.00000000000000000000e+03
cascade_weight_multiplier=4.00000000000000022204e-01
cascade_activation_functions_count=10
cascade_activation_functions=3 5 7 8 10 11 14 15 16 17 
cascade_activation_steepnesses_count=4
cascade_activation_steepnesses=2.50000000000000000000e-01 5.00000000000000000000e-01 7.50000000000000000000e-01 1.00000000000000000000e+00 
layer_sizes=16 11 2 
scale_included=0
neurons (num_inputs, activation_function, activation_steepness)=(0, 0, 0.00000000000000000000e+00) (0, 0, 0.00000000000000000000e+00) (0, 0, 0.00000000000000000000e+00) (0, 0, 0.00000000000000000000e+00) (0, 0, 0.00000000000000000000e+00) (0, 0, 0.00000000000000000000e+00) (0, 0, 0.00000000000000000000e+00) (0, 0, 0.00000000000000000000e+00) (0, 0, 0.00000000000000000000e+00) (0, 0, 0.00000000000000000000e+00) (0, 0, 0.00000000000000000000e+00) (0, 0, 0.00000000000000000000e+00) (0, 0, 0.00000000000000000000e+00) (0, 0, 0.00000000000000000000e+00) (0, 0, 0.00000000000000000000e+00) (0, 0, 0.00000000000000000000e+00) (16, 6, 5.00000000000000000000e-01) (16, 6, 5.00000000000000000000e-01) (16, 6, 5.00000000000000000000e-01) (16, 6, 5.00000000000000000000e-01) (16, 6, 5.00000000000000000000e-01) (16, 6, 5.00000000000000000000e-01) (16, 6, 5.00000000000000000000e-01) (16, 6, 5.00000000000000000000e-01) (16, 6, 5.00000000000000000000e-01) (16, 6, 5.00000000000000000000e-01) (0, 6, 0.00000000000000000000e+00) (11, 6, 5.00000000000000000000e-01) (0, 6, 0.00000000000000000000e+00) 
connections (connected_to_neuron, weight)=(0, -3.89525032141164462285e-02) (1, 4.62853225349799460298e-02) (2, -1.10810377967415649159e-01) (3, 1.02451670111806104305e-04) (4, 2.62972327350989715233e-02) (5, 1.64217304987220674706e-01) (6, 5.53950487819231396358e-02) (7, 5.53802719891550304654e-02) (8, 2.62300818967025839434e-01) (9, 2.98766004455271738660e-01) (10, 1.50458090905019492567e-01) (11, 3.89193998107487393323e-02) (12, 1.29785927113062332650e-01) (13, 8.85327542537157397007e-01) (14, 1.56969785717545440296e-01) (15, -2.52066368976870458507e-01) (0, 5.48794242099673534874e-01) (1, -1.13135340323638242110e-01) (2, 1.03880775366313495012e-02) (3, -1.08203447123956006393e-01) (4, -1.16223997136544507369e-01) (5, -7.79613227749756804164e-02) (6, -4.77280001628374417333e-01) (7, 1.44063506632238436111e-01) (8, 1.12714390695934280062e-01) (9, -3.48964638463345522279e-01) (10, 3.34571858589354509395e-01) (11, -2.10747528723581989407e-01) (12, 7.26439726386398920699e-02) (13, 3.25855663857044881501e-03) (14, 9.55422700830102361591e-02) (15, 2.77697566229320957909e-01) (0, -7.65422953762963931279e-02) (1, -1.99607680520848609906e-02) (2, -4.50692395648793625584e-02) (3, 1.25863929310007678641e-02) (4, -3.41176609477834152928e-02) (5, 3.28673390572356144412e-02) (6, 1.08579954644294401911e-01) (7, 1.24200529039384544722e-02) (8, 1.18150265191575301604e-01) (9, 3.49116029751483092358e-01) (10, 3.69752392338178303977e-01) (11, 7.26242378603921406865e-02) (12, 1.44677806893890370521e-01) (13, 9.16122303749633548620e-01) (14, 2.34086468843041350940e-01) (15, -2.17492955545226129832e-01) (0, 8.95819275757230748525e+00) (1, 6.51232370996350007353e-01) (2, 6.73955732846134858427e-01) (3, 5.22723289096230114836e-01) (4, 6.30436310434216218290e-01) (5, 2.30905058472102242551e-01) (6, -1.90332706406864171633e+00) (7, 1.40387391693571367268e-01) (8, -4.02201929179903938660e+00) (9, 8.55713308728848076612e+00) (10, -2.23358831936364576887e-01) (11, 1.68706023494925277939e-01) (12, 2.60760886214931169036e+01) (13, -6.03927294035353856572e+00) (14, 9.20823641220853972289e-02) (15, -1.68198345385643488470e+00) (0, 1.13175978199265312441e+01) (1, -2.80873119077525212894e-01) (2, -3.50215292713484727116e-01) (3, -2.93958216152033879887e-01) (4, -2.26379997274718219868e-01) (5, -1.83981678408081106291e-01) (6, -2.61815364697347208178e+00) (7, 3.51582001665548038449e-01) (8, -2.50130465801361756562e+00) (9, -6.20315469932839302913e+00) (10, -5.41928036043856753423e+00) (11, -1.57109048282623975368e+00) (12, 1.27031666289260325442e+00) (13, -1.06200674933479852768e+01) (14, -2.49898159095206379154e-02) (15, 5.12666898652026303829e-01) (0, 1.07362873991493884551e-01) (1, 2.69813570079413915515e-02) (2, 2.02739271220771406778e-02) (3, -6.43402013210376058638e-03) (4, -3.66062712970169623627e-02) (5, 9.26164438279359208961e-02) (6, 1.04435966514631412005e-01) (7, 5.02710661471368752684e-02) (8, 1.31983976619642479067e-01) (9, 1.59333827507678105206e-01) (10, 2.15774443898269441267e-01) (11, 1.24944825260843522807e-01) (12, 1.49304539824604176612e-01) (13, 8.48128119820063197665e-01) (14, 1.08972400454102461009e-01) (15, -2.58828910807410161876e-01) (0, 1.17187848585572744753e+01) (1, 1.81575360395891949317e-01) (2, 2.62925426163656827949e-01) (3, 1.74028056361658856055e-01) (4, 1.30635755755884958029e-01) (5, -2.71617765295221358368e-01) (6, -1.12943242834746948589e+00) (7, -1.89034148247815197985e-01) (8, -2.31206671428665799795e+00) (9, -2.92884683431083248095e+00) (10, 2.10824355960428561074e-01) (11, -7.38889692493652439076e-01) (12, -3.32300343459044578154e+00) (13, -5.73366341309373070412e-02) (14, 9.96163875280338256823e-02) (15, 2.71609864633210851270e-01) (0, -1.49846911603158901016e+01) (1, -3.38698617465132204019e-02) (2, -1.39592132813566686955e-02) (3, -1.00490785325252351967e-01) (4, -1.90146803045951717781e-01) (5, 3.16576183121230411710e-02) (6, 4.57899068716602686280e-01) (7, -1.25108721011460755079e-01) (8, 1.39252120742977680834e+00) (9, 3.12030897941884965974e+00) (10, -9.39307762854909994443e-02) (11, 3.10437412562108883129e-01) (12, 3.17834597190503753694e+00) (13, 7.66654639997085607384e-01) (14, -1.57653208772742248200e-01) (15, -3.12042444827752341041e-01) (0, 1.38257198844712436703e+00) (1, 6.25900125858443789895e-01) (2, 4.91371883806842157938e-01) (3, 5.24712151643890178931e-01) (4, 5.57335688528674877418e-01) (5, 3.14040072761502975229e-01) (6, 9.94668007995695546697e-01) (7, 3.42775309586226839542e+00) (8, 3.03427432471245950296e+00) (9, -2.89497364182941696598e+00) (10, 3.32855865593050470608e+00) (11, 6.54713659388445390341e-01) (12, -3.89657357104536439252e+00) (13, 2.04629916567818170847e+00) (14, 9.18175405837752256488e-01) (15, 2.81805265400602300563e-01) (0, -1.59708213483582479597e+01) (1, -5.26986449767004802580e-02) (2, -3.74562397409331018783e-02) (3, -1.25078416596735575439e-01) (4, -1.17977514098967256606e-01) (5, 1.38559582690866850418e-01) (6, 7.83032966760140780593e-01) (7, -4.09032181067884859083e-02) (8, 1.63177448936761759768e+00) (9, 3.34833698167120896727e+00) (10, 4.19564421000678533513e-02) (11, -8.62855659964342214252e-01) (12, 3.30641686398402612213e+00) (13, 8.20832382007653960088e-01) (14, -4.47229974084111692179e-01) (15, -1.76922254496372471921e-01) (16, 2.81688996862578477920e-01) (17, -1.33616372043691117311e-01) (18, 3.45880645270965458860e-01) (19, 6.74317443492035706321e-01) (20, 7.82666828039619844049e-02) (21, 3.55889407032178750612e-01) (22, -2.38243064519557484759e-01) (23, 3.65410169321162936473e-01) (24, -5.15187358650586943454e-02) (25, 6.19536815993985245932e-01) (26, 5.79984373725616841888e-01) 
