FANN_FLO_2.1
num_layers=3
learning_rate=0.700000
connection_rate=1.000000
network_type=0
learning_momentum=0.000000
training_algorithm=2
train_error_function=1
train_stop_function=1
cascade_output_change_fraction=0.010000
quickprop_decay=-0.000100
quickprop_mu=1.750000
rprop_increase_factor=1.200000
rprop_decrease_factor=0.500000
rprop_delta_min=0.000000
rprop_delta_max=50.000000
rprop_delta_zero=0.100000
cascade_output_stagnation_epochs=12
cascade_candidate_change_fraction=0.010000
cascade_candidate_stagnation_epochs=12
cascade_max_out_epochs=150
cascade_min_out_epochs=50
cascade_max_cand_epochs=150
cascade_min_cand_epochs=50
cascade_num_candidate_groups=2
bit_fail_limit=1.00000000000000005551e-01
cascade_candidate_limit=1.00000000000000000000e+03
cascade_weight_multiplier=4.00000000000000022204e-01
cascade_activation_functions_count=10
cascade_activation_functions=3 5 7 8 10 11 14 15 16 17 
cascade_activation_steepnesses_count=4
cascade_activation_steepnesses=2.50000000000000000000e-01 5.00000000000000000000e-01 7.50000000000000000000e-01 1.00000000000000000000e+00 
layer_sizes=20 4 2 
scale_included=0
neurons (num_inputs, activation_function, activation_steepness)=(0, 0, 0.00000000000000000000e+00) (0, 0, 0.00000000000000000000e+00) (0, 0, 0.00000000000000000000e+00) (0, 0, 0.00000000000000000000e+00) (0, 0, 0.00000000000000000000e+00) (0, 0, 0.00000000000000000000e+00) (0, 0, 0.00000000000000000000e+00) (0, 0, 0.00000000000000000000e+00) (0, 0, 0.00000000000000000000e+00) (0, 0, 0.00000000000000000000e+00) (0, 0, 0.00000000000000000000e+00) (0, 0, 0.00000000000000000000e+00) (0, 0, 0.00000000000000000000e+00) (0, 0, 0.00000000000000000000e+00) (0, 0, 0.00000000000000000000e+00) (0, 0, 0.00000000000000000000e+00) (0, 0, 0.00000000000000000000e+00) (0, 0, 0.00000000000000000000e+00) (0, 0, 0.00000000000000000000e+00) (0, 0, 0.00000000000000000000e+00) (20, 6, 5.00000000000000000000e-01) (20, 6, 5.00000000000000000000e-01) (20, 6, 5.00000000000000000000e-01) (0, 6, 0.00000000000000000000e+00) (4, 4, 5.00000000000000000000e-01) (0, 4, 0.00000000000000000000e+00) 
connections (connected_to_neuron, weight)=(0, -6.67928904371596576794e-01) (1, -8.22193354351220584419e+00) (2, -1.90323748241554779881e+00) (3, 2.21765343495423383757e+00) (4, 8.27842748001711534363e-04) (5, -1.61421284632417805227e+00) (6, -1.14513999162392487996e+00) (7, -3.22200425537300816359e+00) (8, -1.31859721900556454977e-02) (9, -2.19002798684574784271e-01) (10, 1.61214015430901191905e+00) (11, -3.80631153985120862515e+00) (12, -4.65658165584967975725e-01) (13, 4.87703575027294267130e+00) (14, 2.69513901869852778859e+00) (15, 4.87957336995677426472e+00) (16, 4.89683298959175417053e+00) (17, 1.04018771272412346995e+00) (18, -3.41600898831617705298e-03) (19, -2.34536527344743117585e-01) (0, -4.17753210568233601663e+00) (1, 1.00671143101344114257e+02) (2, 5.39087861804345891414e+00) (3, -3.73006855278080029503e-01) (4, 3.51690304481550430893e+00) (5, 5.97046685758346962203e-01) (6, 1.95244796092972383583e+00) (7, 1.50000000000000000000e+03) (8, 2.78201711062275158781e+00) (9, 3.46294287539701217682e+00) (10, -1.22300302948200823039e+01) (11, -1.08236761036662912261e+02) (12, 2.27922478350265635072e+02) (13, 6.76109642741265570720e+00) (14, 2.05021824888848680501e+00) (15, 6.92686782800443534569e+00) (16, 6.75313952683665341681e+00) (17, -3.53090471906693181836e+01) (18, -4.31444771196385232770e+01) (19, -3.79092724499916267078e+00) (0, 1.17873132516913847745e+00) (1, 1.30163916044096183988e+00) (2, 1.50000000000000000000e+03) (3, 2.51074078852595472533e-01) (4, 1.50000000000000000000e+03) (5, 1.50000000000000000000e+03) (6, 1.49941686698061334937e+03) (7, 4.80899775382446270644e-01) (8, 1.50000000000000000000e+03) (9, 1.50000000000000000000e+03) (10, -2.91558945275772103400e+01) (11, -1.16078259335393241258e+01) (12, -4.78950162834314738802e+01) (13, -6.28145846833926935204e+00) (14, -7.22366066733728739990e+00) (15, -6.29513443553521323537e+00) (16, -6.33678651836303608036e+00) (17, 6.08467465408696339679e-01) (18, -1.59438077023685420563e+00) (19, -5.94895810436445127145e-01) (20, 1.36572458804258651810e+01) (21, 1.06475618939277172359e+01) (22, 8.82518489725287835768e+00) (23, -8.55258135127361041050e-01) 
