FANN_FLO_2.1
num_layers=3
learning_rate=0.700000
connection_rate=1.000000
network_type=0
learning_momentum=0.000000
training_algorithm=2
train_error_function=1
train_stop_function=1
cascade_output_change_fraction=0.010000
quickprop_decay=-0.000100
quickprop_mu=1.750000
rprop_increase_factor=1.200000
rprop_decrease_factor=0.500000
rprop_delta_min=0.000000
rprop_delta_max=50.000000
rprop_delta_zero=0.100000
cascade_output_stagnation_epochs=12
cascade_candidate_change_fraction=0.010000
cascade_candidate_stagnation_epochs=12
cascade_max_out_epochs=150
cascade_min_out_epochs=50
cascade_max_cand_epochs=150
cascade_min_cand_epochs=50
cascade_num_candidate_groups=2
bit_fail_limit=1.00000000000000005551e-01
cascade_candidate_limit=1.00000000000000000000e+03
cascade_weight_multiplier=4.00000000000000022204e-01
cascade_activation_functions_count=10
cascade_activation_functions=3 5 7 8 10 11 14 15 16 17 
cascade_activation_steepnesses_count=4
cascade_activation_steepnesses=2.50000000000000000000e-01 5.00000000000000000000e-01 7.50000000000000000000e-01 1.00000000000000000000e+00 
layer_sizes=9 4 2 
scale_included=0
neurons (num_inputs, activation_function, activation_steepness)=(0, 0, 0.00000000000000000000e+00) (0, 0, 0.00000000000000000000e+00) (0, 0, 0.00000000000000000000e+00) (0, 0, 0.00000000000000000000e+00) (0, 0, 0.00000000000000000000e+00) (0, 0, 0.00000000000000000000e+00) (0, 0, 0.00000000000000000000e+00) (0, 0, 0.00000000000000000000e+00) (0, 0, 0.00000000000000000000e+00) (9, 6, 5.00000000000000000000e-01) (9, 6, 5.00000000000000000000e-01) (9, 6, 5.00000000000000000000e-01) (0, 6, 0.00000000000000000000e+00) (4, 4, 5.00000000000000000000e-01) (0, 4, 0.00000000000000000000e+00) 
connections (connected_to_neuron, weight)=(0, -9.62365531796434026113e-01) (1, 1.63324946267079340601e+00) (2, 2.23230575687373855587e+00) (3, 5.46300579163915611680e-01) (4, 9.44861109136924254281e-02) (5, 5.65511127523596215383e+01) (6, -1.10714099730906706531e-01) (7, -6.12505496373270230670e-01) (8, -9.25114726150252919545e-01) (0, 1.42200559707535423293e-01) (1, 2.48802713694873944839e-01) (2, 4.28092621128063677283e-01) (3, 2.06072679401062608395e-01) (4, 4.38798153684191283297e-01) (5, 9.77780263815395045413e+00) (6, 3.82468985372037661996e-01) (7, 1.14830285223442400688e-02) (8, -9.88174634711126362308e-03) (0, -2.92795490631211241528e-01) (1, 7.07035487271389095909e-01) (2, 1.03026550815819484264e+00) (3, 2.37428531852388158274e-01) (4, 3.03432098853527509874e-01) (5, 2.36672719425254989289e+01) (6, 9.95561734645067919480e-02) (7, -1.61492096637948723270e-01) (8, -4.08922032741657281996e-01) (9, 5.67007122896130013601e+01) (10, 2.61305803780058798491e-01) (11, 1.21809323327223051336e+00) (12, -1.29820912764557694352e+00) 
