FANN_FLO_2.1
num_layers=3
learning_rate=0.700000
connection_rate=1.000000
network_type=0
learning_momentum=0.000000
training_algorithm=2
train_error_function=1
train_stop_function=1
cascade_output_change_fraction=0.010000
quickprop_decay=-0.000100
quickprop_mu=1.750000
rprop_increase_factor=1.200000
rprop_decrease_factor=0.500000
rprop_delta_min=0.000000
rprop_delta_max=50.000000
rprop_delta_zero=0.100000
cascade_output_stagnation_epochs=12
cascade_candidate_change_fraction=0.010000
cascade_candidate_stagnation_epochs=12
cascade_max_out_epochs=150
cascade_min_out_epochs=50
cascade_max_cand_epochs=150
cascade_min_cand_epochs=50
cascade_num_candidate_groups=2
bit_fail_limit=1.00000000000000005551e-01
cascade_candidate_limit=1.00000000000000000000e+03
cascade_weight_multiplier=4.00000000000000022204e-01
cascade_activation_functions_count=10
cascade_activation_functions=3 5 7 8 10 11 14 15 16 17 
cascade_activation_steepnesses_count=4
cascade_activation_steepnesses=2.50000000000000000000e-01 5.00000000000000000000e-01 7.50000000000000000000e-01 1.00000000000000000000e+00 
layer_sizes=22 11 2 
scale_included=0
neurons (num_inputs, activation_function, activation_steepness)=(0, 0, 0.00000000000000000000e+00) (0, 0, 0.00000000000000000000e+00) (0, 0, 0.00000000000000000000e+00) (0, 0, 0.00000000000000000000e+00) (0, 0, 0.00000000000000000000e+00) (0, 0, 0.00000000000000000000e+00) (0, 0, 0.00000000000000000000e+00) (0, 0, 0.00000000000000000000e+00) (0, 0, 0.00000000000000000000e+00) (0, 0, 0.00000000000000000000e+00) (0, 0, 0.00000000000000000000e+00) (0, 0, 0.00000000000000000000e+00) (0, 0, 0.00000000000000000000e+00) (0, 0, 0.00000000000000000000e+00) (0, 0, 0.00000000000000000000e+00) (0, 0, 0.00000000000000000000e+00) (0, 0, 0.00000000000000000000e+00) (0, 0, 0.00000000000000000000e+00) (0, 0, 0.00000000000000000000e+00) (0, 0, 0.00000000000000000000e+00) (0, 0, 0.00000000000000000000e+00) (0, 0, 0.00000000000000000000e+00) (22, 6, 5.00000000000000000000e-01) (22, 6, 5.00000000000000000000e-01) (22, 6, 5.00000000000000000000e-01) (22, 6, 5.00000000000000000000e-01) (22, 6, 5.00000000000000000000e-01) (22, 6, 5.00000000000000000000e-01) (22, 6, 5.00000000000000000000e-01) (22, 6, 5.00000000000000000000e-01) (22, 6, 5.00000000000000000000e-01) (22, 6, 5.00000000000000000000e-01) (0, 6, 0.00000000000000000000e+00) (11, 6, 5.00000000000000000000e-01) (0, 6, 0.00000000000000000000e+00) 
connections (connected_to_neuron, weight)=(0, 4.62194513850684796097e+00) (1, 3.61973427762518173978e-01) (2, 3.81037891437540299222e-01) (3, 4.22817573477754837796e-01) (4, 3.01488265921602605069e-01) (5, -3.32209931029041038997e+00) (6, 3.22610891787662694696e+02) (7, 8.86280379090723329227e+01) (8, -1.17539539982700258491e+00) (9, 7.06926624006609785056e+01) (10, 9.85646136971998432230e-01) (11, 9.79993793952024350169e-01) (12, -6.01902607944132306272e+00) (13, -3.52171800799388501346e+00) (14, -2.34387817357733396761e+00) (15, 7.68628161110038035986e+02) (16, 8.71458335204890709169e-03) (17, 2.01864052226066803541e+01) (18, 1.76169253995826302628e+01) (19, 9.76282770517961084877e-02) (20, 9.34964517897724611828e-01) (21, -2.36110206868411731662e+00) (0, 3.44650712263002789726e+00) (1, 3.49191555897135408326e-01) (2, 3.14648090074200248445e-01) (3, 4.16660407701868906738e-01) (4, 3.47642729202646882936e-01) (5, -3.71986680682147019539e+00) (6, 3.22743976066763138988e+02) (7, 9.54689385340288243498e-01) (8, -1.09920863555910464093e+00) (9, 1.83175166895934249389e+00) (10, 9.80716170254038344112e-01) (11, 2.44156082887348402366e+00) (12, -2.26998505308249631796e+00) (13, -2.80933458332093977106e+00) (14, -1.47391753075981890575e+00) (15, 1.57439646358459526709e+02) (16, 9.97310350065819584131e-01) (17, 3.85546382151947568673e+01) (18, 3.48067104182175290905e-01) (19, 1.57230550050831252573e-01) (20, 4.45367165723089875051e-01) (21, -2.03228125259720915352e+00) (0, -8.18850937046197557834e+00) (1, -3.85410144846842009358e-02) (2, -1.50673049680511761395e-01) (3, -1.33554111413280773846e-01) (4, -6.20582207959100781713e-02) (5, 1.51294667539393823397e+00) (6, 8.40548397518114276394e-01) (7, 3.80742949062689406414e-01) (8, 1.56867230708774174630e+00) (9, 4.97585935728453387927e-01) (10, -1.14788345048384921032e-01) (11, 1.30023230140234979935e+00) (12, 6.42694837170856514419e-01) (13, 2.15498782519888010256e+00) (14, 2.07908401052416058619e+00) (15, 2.19535773826585778323e+00) (16, 1.44500864394873174135e+00) (17, -6.00930577159019662509e-03) (18, 2.30758405110648073810e-01) (19, 1.04381729311279744521e-01) (20, 2.78605091124196291297e-01) (21, -6.63466653014470164607e-01) (0, 9.90127282623919802163e-01) (1, 1.94103962612031999413e-01) (2, 2.88901070934414139213e-01) (3, 1.55264119487880825066e-01) (4, 2.23667624276756293877e-01) (5, -6.46578612292102228309e+00) (6, 3.22213045492764877054e+02) (7, 7.90680419069801132537e-01) (8, 4.33981396199443469897e+00) (9, 2.05862554536673769690e+00) (10, 7.79581652122443458097e-01) (11, 4.02134799184673568107e+01) (12, -8.67791582683947027022e+00) (13, -7.42685057529537129284e+00) (14, -5.77633415188209653479e+00) (15, -4.80592579759911942006e+00) (16, 7.28703351726853043147e+02) (17, 2.01576782033645258707e+01) (18, 2.53065535030663513183e+00) (19, 3.24034265426721423964e-01) (20, 2.80782426706913446068e-01) (21, 1.13968378085888821794e+00) (0, -9.77793109854074238285e+00) (1, -1.48305272034820578853e-01) (2, -1.15700324348625191440e-01) (3, -8.10298522035446250333e-02) (4, -9.17159070293274009122e-02) (5, 2.40760923479878252706e+00) (6, 8.99714855593052531546e-01) (7, 2.95894078096936297140e-01) (8, 1.69298167551931011410e+00) (9, 5.46050433793359046852e-01) (10, 7.18383244210506616279e-02) (11, 1.85298887001000234243e+00) (12, 3.26471334249438194242e-01) (13, 2.29344349135714953292e+00) (14, 2.28208728651779546581e+00) (15, 2.19512021244512256501e+00) (16, 1.67464616784411179928e+00) (17, 1.54869279081870842019e-01) (18, 5.31616144631586684532e-01) (19, 6.99390613606209576858e-01) (20, 6.40594810711983653206e-01) (21, -9.48132552261534589100e-01) (0, 8.54214275071234396819e+00) (1, 2.82422893468460167732e-01) (2, 2.43374244097789682595e-01) (3, 2.37101358149370083916e-01) (4, 2.16416441623290822793e-01) (5, -7.94627912878413322773e+00) (6, -7.76630987707771280881e-01) (7, 2.32118375429936713017e-01) (8, -1.29163253496671792675e+00) (9, -8.77018865814552683879e-01) (10, 1.88017585622979127580e-01) (11, -7.51353335116841658525e-01) (12, -6.70783548863061440670e+00) (13, -4.14599455267999683628e+00) (14, -4.00750295679530488258e+00) (15, -4.12131991996316493498e+00) (16, -6.32438097050329939286e-01) (17, -7.44022196267468349795e-01) (18, -4.57898026463234353312e-01) (19, -2.04818602975945840416e-01) (20, -5.99766961434298195854e-01) (21, 5.69839578872504248785e-01) (0, -1.49854206112151047137e+01) (1, -1.23395287638484979498e-01) (2, -9.29615136440392481054e-02) (3, -1.04221815425117143514e-03) (4, -3.60559832509155797631e-02) (5, 1.61707753184504365862e+00) (6, 8.39975409192917132906e-01) (7, 3.60021394983270237589e-01) (8, 1.18578136787227017557e+00) (9, 4.34763886522303022453e-01) (10, 4.24711227011430769718e-01) (11, 1.91089323577935332743e+00) (12, -5.96668331226920256594e-02) (13, 7.01954757994803557608e-01) (14, 1.93639370719861081405e+00) (15, 1.93324036621194927932e+00) (16, 1.58416139152574975135e+00) (17, 2.38832126609361788949e-01) (18, 7.60517955918777799340e-01) (19, 1.56794612083393514190e-01) (20, 1.29190035326811880623e+00) (21, -8.03838872433544016083e-01) (0, 8.65660257886495010382e+00) (1, 2.88336867431260579497e-01) (2, 3.89666685799218648345e-01) (3, 2.28426264563656694628e-01) (4, 3.86347586253739827544e-01) (5, -6.17332268306669718072e+00) (6, -5.72167062652617630647e-01) (7, 4.30126909195976458999e-01) (8, -1.26342558943040972341e-01) (9, -8.92439312876999735202e-01) (10, 2.72118203482251796999e-01) (11, -3.14255910398334337152e-01) (12, -9.46226352061326458909e+00) (13, -5.43127389463435683581e+00) (14, -5.00287628423941832523e+00) (15, -4.78475041936210487847e+00) (16, -4.19365977199542938614e-01) (17, -9.41257372997033603390e-01) (18, -9.20754028256739326386e-02) (19, -4.34184468883560326091e-01) (20, -3.16942903265447384342e-01) (21, 4.06065602606120124030e-01) (0, 1.55840978039307440639e+01) (1, 3.87929252589266415630e-01) (2, 3.75214948559324856792e-01) (3, 2.95222378576319444132e-01) (4, 4.80050279999296891642e-01) (5, 1.94745776128480549971e+01) (6, -5.09174395085754305512e+00) (7, -1.89033772495663693336e-01) (8, -3.01736816368201354877e+00) (9, 6.67490102978841148840e-01) (10, 2.45162090794601855714e-01) (11, -1.47349793628455105754e+00) (12, 8.89388712301290951245e+00) (13, 1.19539764603305780355e+01) (14, 1.50000000000000000000e+03) (15, 1.50000000000000000000e+03) (16, -3.24628266931825582020e+00) (17, 9.54528576334747413945e-01) (18, -1.14861310717592890462e+00) (19, -8.74638487862848812426e-02) (20, 1.47284644277725562667e+00) (21, -4.55194056604042218694e-01) (0, 4.20932629200080010712e-01) (1, -4.47179495339278393340e-02) (2, 1.04354731088411381568e-01) (3, -8.22412452642802549452e-02) (4, -4.67065802757624798369e-02) (5, -3.38444718488338236462e-01) (6, -2.40680299167296718466e-01) (7, 3.16137235021261842061e-01) (8, 1.27255325606187158494e-01) (9, 3.43833094629111268858e-01) (10, 2.11311082423224327886e-01) (11, 4.66956035662700996713e-01) (12, -6.31853722100590431410e+00) (13, -6.40294871532982412532e+00) (14, -1.47015445222350786025e+03) (15, -1.48882790288379214871e+03) (16, 4.05812911324830383197e-01) (17, 4.76109165880441165264e-01) (18, 1.02038006735145930781e-01) (19, 1.42274373627641309570e-01) (20, -6.67232135791686720161e-01) (21, 3.51672519641979042238e-01) (22, 1.65064540218505861890e-01) (23, 1.34840519515321666244e-01) (24, 5.54564531319176934332e-01) (25, 1.44749921273384068998e-01) (26, 4.84857196501674803102e-01) (27, -9.99616493244374210159e-02) (28, 4.93190595978545975875e-01) (29, -3.06669819850522218374e-01) (30, 8.54256064923958335910e-01) (31, -4.05689803975170792949e-01) (32, 7.99501534734541219329e-01) 
