FANN_FLO_2.1
num_layers=3
learning_rate=0.700000
connection_rate=1.000000
network_type=0
learning_momentum=0.000000
training_algorithm=2
train_error_function=1
train_stop_function=1
cascade_output_change_fraction=0.010000
quickprop_decay=-0.000100
quickprop_mu=1.750000
rprop_increase_factor=1.200000
rprop_decrease_factor=0.500000
rprop_delta_min=0.000000
rprop_delta_max=50.000000
rprop_delta_zero=0.100000
cascade_output_stagnation_epochs=12
cascade_candidate_change_fraction=0.010000
cascade_candidate_stagnation_epochs=12
cascade_max_out_epochs=150
cascade_min_out_epochs=50
cascade_max_cand_epochs=150
cascade_min_cand_epochs=50
cascade_num_candidate_groups=2
bit_fail_limit=1.00000000000000005551e-01
cascade_candidate_limit=1.00000000000000000000e+03
cascade_weight_multiplier=4.00000000000000022204e-01
cascade_activation_functions_count=10
cascade_activation_functions=3 5 7 8 10 11 14 15 16 17 
cascade_activation_steepnesses_count=4
cascade_activation_steepnesses=2.50000000000000000000e-01 5.00000000000000000000e-01 7.50000000000000000000e-01 1.00000000000000000000e+00 
layer_sizes=14 11 2 
scale_included=0
neurons (num_inputs, activation_function, activation_steepness)=(0, 0, 0.00000000000000000000e+00) (0, 0, 0.00000000000000000000e+00) (0, 0, 0.00000000000000000000e+00) (0, 0, 0.00000000000000000000e+00) (0, 0, 0.00000000000000000000e+00) (0, 0, 0.00000000000000000000e+00) (0, 0, 0.00000000000000000000e+00) (0, 0, 0.00000000000000000000e+00) (0, 0, 0.00000000000000000000e+00) (0, 0, 0.00000000000000000000e+00) (0, 0, 0.00000000000000000000e+00) (0, 0, 0.00000000000000000000e+00) (0, 0, 0.00000000000000000000e+00) (0, 0, 0.00000000000000000000e+00) (14, 6, 5.00000000000000000000e-01) (14, 6, 5.00000000000000000000e-01) (14, 6, 5.00000000000000000000e-01) (14, 6, 5.00000000000000000000e-01) (14, 6, 5.00000000000000000000e-01) (14, 6, 5.00000000000000000000e-01) (14, 6, 5.00000000000000000000e-01) (14, 6, 5.00000000000000000000e-01) (14, 6, 5.00000000000000000000e-01) (14, 6, 5.00000000000000000000e-01) (0, 6, 0.00000000000000000000e+00) (11, 6, 5.00000000000000000000e-01) (0, 6, 0.00000000000000000000e+00) 
connections (connected_to_neuron, weight)=(0, -9.97666024396720030332e-01) (1, -6.06111922410059941746e-02) (2, -1.79643642261319347320e-01) (3, -5.71411588337946835248e-02) (4, -2.37298864975266643462e-01) (5, -1.19160571123153175011e-01) (6, -1.58299245030385088429e-01) (7, 1.37420389125974451439e+00) (8, -1.00696675046712713630e+00) (9, 1.76613365719471282489e-01) (10, 4.54122697186216317533e+00) (11, 9.46582906138446533717e-01) (12, 4.72978693848572184777e+00) (13, -2.76699151093816930747e-01) (0, 9.12175180623858494755e-01) (1, 7.94646638299821850282e-02) (2, 1.68771327551781952225e-01) (3, 2.77709747518895960772e-02) (4, 2.21518592056214630448e-01) (5, 2.04083132371880804357e-01) (6, 3.48041226856770413711e-01) (7, -3.03255147222063659029e+00) (8, -5.63282847374443207400e+00) (9, 7.25758171429653597961e-01) (10, 9.19583433481896750372e-01) (11, 3.19774008738196335866e-01) (12, 3.54846349407702932321e-01) (13, 4.74375483259308894368e-01) (0, -3.10713108154366635105e+00) (1, -4.79016596472706002174e-01) (2, -5.01215243733371895729e-01) (3, -6.36090347564663316504e-01) (4, -4.89127168453182381569e-01) (5, 1.17263052174151938267e+00) (6, -8.22162744402768624896e-02) (7, 3.13794160888447315472e+00) (8, 6.20819396973889858771e+00) (9, -8.04476044975024479067e-02) (10, -1.05474134560108651071e-01) (11, 2.98517689781710893193e-01) (12, 9.82817274325521877953e-02) (13, -8.04665270559803830208e-02) (0, -5.91522446200935525518e-01) (1, -6.60021161626230951081e-02) (2, -6.03619521449457879791e-02) (3, -1.58227190930689515236e-01) (4, -2.11013183553065003517e-01) (5, -2.36765637466628015018e-01) (6, -2.27455918810701512855e-01) (7, 3.35320909541911715834e+00) (8, 3.89436707734260956215e+00) (9, -2.98991032779445886636e-01) (10, 6.83651061443070973134e-01) (11, 1.40399915249242046578e+00) (12, 6.89265582416810573818e-01) (13, -2.98203140096293561889e-01) (0, 5.93127279619968827973e+00) (1, 5.24005198981269071368e-01) (2, 5.67161487545474352068e-01) (3, 5.61575578655703844255e-01) (4, 4.90903454031451469408e-01) (5, 4.28018287213398573865e-01) (6, 3.35889463504448593234e-01) (7, 9.48583883971402741508e+00) (8, 1.32725701847738672967e+01) (9, 4.47206251780917010685e-02) (10, -6.50940141067311683898e-01) (11, 6.78673610152266570950e-01) (12, -2.49314800645120987488e-01) (13, -1.25267563817892946254e-01) (0, 2.39588899107230357544e+00) (1, 5.00233892993089401813e-01) (2, 5.73628348008748845110e-01) (3, 4.28433541850206101032e-01) (4, 4.57060989634153091998e-01) (5, -2.03515017493251271219e+00) (6, 4.00007842075350228406e-01) (7, -6.33733882182931029803e+00) (8, 7.36537768087697441999e-01) (9, 1.00330446934206829468e+00) (10, 1.34479181264540237351e+00) (11, -7.59473228954496315524e-01) (12, 1.31421248585107686147e+00) (13, 1.36434805331363806502e+00) (0, 6.11901294942521142839e-02) (1, 2.99189159128571025015e-01) (2, 1.94176556024456437033e-01) (3, 2.95285412523651591421e-01) (4, 2.23703229281807386419e-01) (5, 2.00237576047042842298e-01) (6, -2.60639674906778008590e-02) (7, 5.55530348041891031130e+00) (8, 1.33015171805090357537e+01) (9, -1.25255650527534619781e-02) (10, -6.23157354429767051940e-01) (11, -4.45769624999101332641e-01) (12, -2.25609266008146597260e-01) (13, 3.03040862587843559672e-02) (0, 2.31695246638310603515e+00) (1, 5.55560317532178715716e-01) (2, 4.93157555059549057574e-01) (3, 4.35389262334462845416e-01) (4, 4.50585146144983017535e-01) (5, -2.10966893373611918960e+00) (6, 3.66050847986816974000e-01) (7, -6.30377877676581466204e+00) (8, 7.79573232564567675240e-01) (9, 8.84896317911763596875e-01) (10, 1.00342103061854936996e+00) (11, -8.52186017737106227266e-01) (12, 1.36879676347113599100e+00) (13, 1.33140850005283528645e+00) (0, 2.19761305606057755213e+00) (1, 5.03170309975836449468e-01) (2, 5.44503732040617527410e-01) (3, 4.97210523501131651525e-01) (4, 4.85016158238146422033e-01) (5, -1.98941825790885329361e+00) (6, 8.37365615253019002218e-02) (7, -5.66923377706330189341e+00) (8, 1.10822150158622800831e+00) (9, 1.12514225561382219531e+00) (10, 1.42140729917128938453e+00) (11, -7.55251161004719340220e-01) (12, 1.26308988140246891696e+00) (13, 7.78591693633067016833e-01) (0, -1.12102773740779065870e-01) (1, 2.36607258008672743932e-01) (2, 1.21746395515157659895e-01) (3, 2.05600146936132405218e-01) (4, 1.86958503709985762731e-01) (5, -2.75629540341016721072e-01) (6, 2.50713155221465129260e-03) (7, 5.52268313983320169314e+00) (8, 1.33435236284202982660e+01) (9, -1.73521927296504008265e-01) (10, -6.06749682113931099181e-01) (11, -3.44435380986268468995e-01) (12, -1.49404161418684289231e-01) (13, -1.05817123743142081638e-02) (14, 4.60975776747964249846e-01) (15, -1.08451760685512460514e-01) (16, 4.16310866669933721251e-01) (17, 5.15599128547306606585e-01) (18, 3.94340821066237190440e-01) (19, -5.23982859827229613403e-02) (20, 4.06429855341414458803e-01) (21, -4.99442882515141600708e-02) (22, -7.50509876143625881406e-02) (23, 4.43876593508224892570e-01) (24, 3.70100093709191280134e-01) 
