FANN_FLO_2.1
num_layers=3
learning_rate=0.700000
connection_rate=1.000000
network_type=0
learning_momentum=0.000000
training_algorithm=2
train_error_function=1
train_stop_function=1
cascade_output_change_fraction=0.010000
quickprop_decay=-0.000100
quickprop_mu=1.750000
rprop_increase_factor=1.200000
rprop_decrease_factor=0.500000
rprop_delta_min=0.000000
rprop_delta_max=50.000000
rprop_delta_zero=0.100000
cascade_output_stagnation_epochs=12
cascade_candidate_change_fraction=0.010000
cascade_candidate_stagnation_epochs=12
cascade_max_out_epochs=150
cascade_min_out_epochs=50
cascade_max_cand_epochs=150
cascade_min_cand_epochs=50
cascade_num_candidate_groups=2
bit_fail_limit=1.00000000000000005551e-01
cascade_candidate_limit=1.00000000000000000000e+03
cascade_weight_multiplier=4.00000000000000022204e-01
cascade_activation_functions_count=10
cascade_activation_functions=3 5 7 8 10 11 14 15 16 17 
cascade_activation_steepnesses_count=4
cascade_activation_steepnesses=2.50000000000000000000e-01 5.00000000000000000000e-01 7.50000000000000000000e-01 1.00000000000000000000e+00 
layer_sizes=11 11 2 
scale_included=0
neurons (num_inputs, activation_function, activation_steepness)=(0, 0, 0.00000000000000000000e+00) (0, 0, 0.00000000000000000000e+00) (0, 0, 0.00000000000000000000e+00) (0, 0, 0.00000000000000000000e+00) (0, 0, 0.00000000000000000000e+00) (0, 0, 0.00000000000000000000e+00) (0, 0, 0.00000000000000000000e+00) (0, 0, 0.00000000000000000000e+00) (0, 0, 0.00000000000000000000e+00) (0, 0, 0.00000000000000000000e+00) (0, 0, 0.00000000000000000000e+00) (11, 6, 5.00000000000000000000e-01) (11, 6, 5.00000000000000000000e-01) (11, 6, 5.00000000000000000000e-01) (11, 6, 5.00000000000000000000e-01) (11, 6, 5.00000000000000000000e-01) (11, 6, 5.00000000000000000000e-01) (11, 6, 5.00000000000000000000e-01) (11, 6, 5.00000000000000000000e-01) (11, 6, 5.00000000000000000000e-01) (11, 6, 5.00000000000000000000e-01) (0, 6, 0.00000000000000000000e+00) (11, 6, 5.00000000000000000000e-01) (0, 6, 0.00000000000000000000e+00) 
connections (connected_to_neuron, weight)=(0, -1.12710268255483936350e+00) (1, -9.03609690152346045622e-01) (2, -9.95442819677530676969e-01) (3, -9.90308855556188971647e-01) (4, -1.02477386304014816965e+00) (5, 2.17678202121298491889e+00) (6, 8.23525293915974065939e-01) (7, -1.94628495049517380444e+00) (8, 3.20382213383269720541e-01) (9, 2.25944267781421048724e+00) (10, -5.52879902587038660200e-03) (0, -1.82420847661391594130e+00) (1, -2.11362651272399504343e-01) (2, -1.36549933536632250863e-01) (3, -1.35604067428691577035e-01) (4, -2.29018470926864226023e-01) (5, 2.22332224075282303133e+00) (6, 2.01859456615683746650e-01) (7, -1.38652868078865371126e-01) (8, 2.60684897030720008626e-01) (9, 3.39627433548231771887e-01) (10, -3.42253572768999800302e-02) (0, 1.02836164609311331297e+00) (1, 5.60642627107735380676e-01) (2, 5.56815651285286650207e-01) (3, 5.21223154890175566223e-01) (4, 6.22654375660057879394e-01) (5, -1.99252784903089508184e+00) (6, -2.04368343687562603606e+00) (7, 4.13415540634171563283e+00) (8, -1.57918067455190525017e+00) (9, -9.26563077126944856232e-01) (10, 1.20156638972746213079e-01) (0, -5.47707778382188337218e+00) (1, -2.27486461674435841429e-01) (2, -2.25316211854680287230e-01) (3, -2.91539684211476690656e-01) (4, -2.13497147237523304808e-01) (5, 1.53670055437464392334e+00) (6, 2.54911553549030389654e-01) (7, 1.37883113064271012327e+00) (8, 7.79979804464994819213e-01) (9, 5.46270400943485112677e-01) (10, -5.50055500621018794716e-02) (0, 1.29132926784123736041e+01) (1, 3.48825691061357245903e-01) (2, 4.65550189631322608452e-01) (3, 4.39238128977159247857e-01) (4, 4.11619959192613349419e-01) (5, 1.42301155712994176206e+00) (6, -1.99155715246739556390e-01) (7, -6.37975547776707241354e+00) (8, -6.30008476888419211015e-01) (9, -6.02635013592671464622e-01) (10, 5.66245621094241147198e-01) (0, -1.84551400787726738173e+00) (1, -2.59805886186686429973e-01) (2, -2.65127590037909421916e-01) (3, -1.94786829985705262080e-01) (4, -3.46657162643996097362e-01) (5, 2.15758493087866609628e+00) (6, 1.57773924188849584693e-01) (7, 4.18722369931912641317e-01) (8, 2.08992722410896114571e-01) (9, 3.71604382502467800453e-01) (10, -9.45888533843831057213e-03) (0, 8.92221570143276188070e-01) (1, 6.33970943766479866355e+00) (2, 6.43880961018448250144e+00) (3, 6.51546288954859154074e+00) (4, 6.40247483479624168723e+00) (5, 3.06634092044669459565e-01) (6, -2.21991497836176909786e+00) (7, -4.40759724324509960525e+00) (8, -5.03974341020280114378e+00) (9, -1.94450504006882329833e+00) (10, -1.90805413325599770857e+00) (0, 1.26552673017232670816e+01) (1, 3.12943506654682568335e-01) (2, 2.24466684874477739875e-01) (3, 2.00540545996609115287e-01) (4, 2.54874016758385169013e-01) (5, 9.99674837898178320073e-03) (6, 3.15896276364585337770e-02) (7, -4.96447880576700217858e+00) (8, -2.77442639195610685210e-01) (9, -8.24112272988598126844e-01) (10, 3.76537703095581599566e-01) (0, -3.26903718102381413146e+00) (1, -1.45986890486394682576e-01) (2, -3.09827094963704752217e-01) (3, -1.71919485620176115681e-01) (4, -3.27278165212785410176e-01) (5, 2.19850141845324342782e+00) (6, 1.97697503086632031533e-01) (7, 3.92369777782841433478e-01) (8, 4.05497775746453514856e-01) (9, 4.43585085231055054056e-01) (10, -2.03531689907439153342e-02) (0, -2.01521839724885287737e+00) (1, -9.44305707596479804167e-01) (2, -8.63448155008493811735e-01) (3, -9.71415293298899085173e-01) (4, -1.03845583357685700143e+00) (5, 1.38181672055916182629e+00) (6, 5.99919615373519371504e-02) (7, -4.22163620125302563313e-01) (8, 1.97372837155414065924e-01) (9, 1.95785924672308431216e-01) (10, 1.78065843946057650315e-01) (11, -5.03008894781211024494e-01) (12, 3.54853464326489564939e-01) (13, 6.13631024551122172817e-01) (14, 2.55479170273585409756e-01) (15, -6.97879637275964137544e-01) (16, 3.31858256867755052610e-01) (17, 1.80606338672727670391e-02) (18, -1.36847996791031822905e-01) (19, 3.38722186046482132138e-01) (20, -5.55322148064711584858e-01) (21, 3.79040905035470720996e-01) 
