FANN_FLO_2.1
num_layers=3
learning_rate=0.700000
connection_rate=1.000000
network_type=0
learning_momentum=0.000000
training_algorithm=2
train_error_function=1
train_stop_function=1
cascade_output_change_fraction=0.010000
quickprop_decay=-0.000100
quickprop_mu=1.750000
rprop_increase_factor=1.200000
rprop_decrease_factor=0.500000
rprop_delta_min=0.000000
rprop_delta_max=50.000000
rprop_delta_zero=0.100000
cascade_output_stagnation_epochs=12
cascade_candidate_change_fraction=0.010000
cascade_candidate_stagnation_epochs=12
cascade_max_out_epochs=150
cascade_min_out_epochs=50
cascade_max_cand_epochs=150
cascade_min_cand_epochs=50
cascade_num_candidate_groups=2
bit_fail_limit=1.00000000000000005551e-01
cascade_candidate_limit=1.00000000000000000000e+03
cascade_weight_multiplier=4.00000000000000022204e-01
cascade_activation_functions_count=10
cascade_activation_functions=3 5 7 8 10 11 14 15 16 17 
cascade_activation_steepnesses_count=4
cascade_activation_steepnesses=2.50000000000000000000e-01 5.00000000000000000000e-01 7.50000000000000000000e-01 1.00000000000000000000e+00 
layer_sizes=15 11 2 
scale_included=0
neurons (num_inputs, activation_function, activation_steepness)=(0, 0, 0.00000000000000000000e+00) (0, 0, 0.00000000000000000000e+00) (0, 0, 0.00000000000000000000e+00) (0, 0, 0.00000000000000000000e+00) (0, 0, 0.00000000000000000000e+00) (0, 0, 0.00000000000000000000e+00) (0, 0, 0.00000000000000000000e+00) (0, 0, 0.00000000000000000000e+00) (0, 0, 0.00000000000000000000e+00) (0, 0, 0.00000000000000000000e+00) (0, 0, 0.00000000000000000000e+00) (0, 0, 0.00000000000000000000e+00) (0, 0, 0.00000000000000000000e+00) (0, 0, 0.00000000000000000000e+00) (0, 0, 0.00000000000000000000e+00) (15, 6, 5.00000000000000000000e-01) (15, 6, 5.00000000000000000000e-01) (15, 6, 5.00000000000000000000e-01) (15, 6, 5.00000000000000000000e-01) (15, 6, 5.00000000000000000000e-01) (15, 6, 5.00000000000000000000e-01) (15, 6, 5.00000000000000000000e-01) (15, 6, 5.00000000000000000000e-01) (15, 6, 5.00000000000000000000e-01) (15, 6, 5.00000000000000000000e-01) (0, 6, 0.00000000000000000000e+00) (11, 6, 5.00000000000000000000e-01) (0, 6, 0.00000000000000000000e+00) 
connections (connected_to_neuron, weight)=(0, 7.02195235913357418411e-01) (1, 9.40568720996242113586e-02) (2, 7.96667574047904836210e-02) (3, 2.43440972089753709939e-01) (4, 8.98959202766280718322e-02) (5, -1.54804351219297231523e+00) (6, -4.73447186121067273290e-02) (7, 9.94911729294587821038e-01) (8, 1.57237359117046726631e+00) (9, -8.90519442839426633718e-01) (10, -3.36491335971476690503e+00) (11, 2.97463702483338510163e+00) (12, -1.21643442561035186600e+00) (13, 1.03458390898176988415e+00) (14, 1.76065459253747613744e-01) (0, -1.19255031500982244808e+00) (1, -6.67887427191774074586e-01) (2, -5.77772386651078884157e-01) (3, -5.90140953939000789674e-01) (4, -4.96848583500425100556e-01) (5, -7.23256269202068202695e-01) (6, 7.54670952924718307919e-01) (7, 3.77707440197350474698e-01) (8, 3.92566520415714381720e-01) (9, -3.19444425300690559855e-01) (10, 8.28957952577152878959e-01) (11, 1.44046041708673411286e-01) (12, 1.16499557143333798415e+00) (13, -2.81477762498734240815e-01) (14, 1.96729515311021940782e+00) (0, 1.28784900375061683864e-01) (1, 3.05413823385051630410e-01) (2, 2.64833707172683618936e-01) (3, 3.12103550691417597207e-01) (4, 2.92363203872255228433e-01) (5, 4.28654124991337481809e-01) (6, 1.17492821477221176529e-01) (7, -2.09609666442452380331e-01) (8, -1.04196648318878692940e+00) (9, -5.38997212696967542556e-01) (10, -4.28735668317840767916e-01) (11, 1.12497955152606388118e+00) (12, 4.52671836989155751407e-01) (13, -2.37562315831158360480e-01) (14, 1.18169638540914623270e+00) (0, 1.67633279315142691424e+00) (1, 6.26170126020068384953e-01) (2, 5.72912541448230006047e-01) (3, 6.35723528682345606633e-01) (4, 5.09825428246612033512e-01) (5, 5.71753712951094228423e-01) (6, 4.09420600107143761726e-02) (7, 1.86025406962159500779e+00) (8, 7.07697198346050826423e-01) (9, 5.04194322634137215289e-01) (10, 1.75255879627849253666e+00) (11, 5.11852641176778311305e-01) (12, 2.24814220987187773915e+00) (13, -1.91856180551689425862e+00) (14, 3.34807391632782752611e-02) (0, 9.03663697452178915626e+00) (1, 1.30370065390340461597e+00) (2, 1.27451798885337463929e+00) (3, 1.25875852822534195496e+00) (4, 1.37350693910590782032e+00) (5, 1.80417922470014708836e+01) (6, 3.31969367160804662564e-01) (7, 4.30252132411926080380e+00) (8, 6.10776455276367813418e-01) (9, -5.91439132923594512725e-01) (10, -1.05801529988231379775e+01) (11, -3.76550835369943159847e-04) (12, -2.77832563348276551096e+00) (13, 2.41534228135685147265e+00) (14, 6.05835867472883315976e-01) (0, 9.49568565958540489191e+00) (1, 4.27050537241588590298e-01) (2, 4.31207156551967618618e-01) (3, 4.82481977714191434536e-01) (4, 3.69893780721317289029e-01) (5, -1.83102115060946446512e+00) (6, 2.34029593180325456991e-01) (7, 4.88896778457325209555e-01) (8, 1.30743714579655279096e+01) (9, -6.20262191892481884459e-01) (10, -5.41055888725134881412e+00) (11, 1.12461328361940160470e+00) (12, -6.88541919274325175948e-01) (13, 3.95538952868631188409e+00) (14, 5.43516035148166598567e-01) (0, 1.21929640576172793054e+00) (1, 5.48400228622819563284e-01) (2, 7.36126145127679265556e-01) (3, 5.43982302549745222464e-01) (4, 6.24814105931188024101e-01) (5, 6.72469516428493396809e-01) (6, 1.90542500590408936390e+00) (7, 1.88523090315334007627e+00) (8, 1.02940768971088014716e+00) (9, 1.21252024479255382516e+00) (10, 2.50124595726008491781e+00) (11, 9.08544139576949461024e-01) (12, 2.63443562419030152810e+00) (13, -1.50873889303388475369e+00) (14, -5.90069336527747290155e-01) (0, 4.11515917484591575715e+00) (1, 4.96586459938956614746e-01) (2, 4.77284464303924016448e-01) (3, 4.14246904913855962249e-01) (4, 4.77844747964812688323e-01) (5, -8.47178939478623105330e-01) (6, 2.89048855990067410371e-01) (7, 7.01653776998697242817e+00) (8, 2.37005307005447862778e-01) (9, -2.28357625894061788685e+00) (10, -5.72048534604517922020e+00) (11, 3.44206561543737921127e+00) (12, -2.44118555788392388450e+00) (13, 4.65427158875451141284e+00) (14, 5.38526737576732306145e-01) (0, -1.19642732090129193523e+01) (1, -2.28811117492352111835e-01) (2, -2.62465837083492969928e-01) (3, -2.03505905948315246601e-01) (4, -2.27009745917950256366e-01) (5, 1.22364622444423765124e+00) (6, 2.29300551574019434442e-01) (7, 9.71423423364040306005e-01) (8, -2.24102312598517316999e-01) (9, 1.28608659229523292211e+00) (10, 6.16647919965144897247e+00) (11, -7.26183230148841230012e-01) (12, 1.87807730007200990308e+00) (13, -2.76579153793146625961e-01) (14, -1.65413586002067236613e+00) (0, 6.76832963644986840279e+00) (1, 2.62281305013523757808e-01) (2, 2.57164402721749008052e-01) (3, 2.79408312259541158351e-01) (4, 3.36325569866524287654e-01) (5, -1.41790775525816115099e+00) (6, -1.90738159538311677355e-02) (7, -4.88838732617652149681e-01) (8, 4.19850973032782237571e-01) (9, -6.03914967825360138320e-01) (10, -3.42663568046735766970e+00) (11, 7.45581259276944074976e-01) (12, -2.18870209792626235767e+00) (13, -1.34893063337411744929e-01) (14, 5.56227660721570482671e-01) (15, -7.98475678974837482782e-02) (16, -1.33336133949543106381e-01) (17, -1.13552776952999520677e-01) (18, -1.17992997555955908551e-01) (19, 4.34671190504581361758e-01) (20, 3.89229358215911980245e-01) (21, -1.09455481558069264714e-01) (22, 4.25563614364396047840e-01) (23, 1.22377080631130130683e+00) (24, -1.58033250293657001606e-01) (25, 3.73621193244599414385e-01) 
