FANN_FLO_2.1
num_layers=3
learning_rate=0.700000
connection_rate=1.000000
network_type=0
learning_momentum=0.000000
training_algorithm=2
train_error_function=1
train_stop_function=1
cascade_output_change_fraction=0.010000
quickprop_decay=-0.000100
quickprop_mu=1.750000
rprop_increase_factor=1.200000
rprop_decrease_factor=0.500000
rprop_delta_min=0.000000
rprop_delta_max=50.000000
rprop_delta_zero=0.100000
cascade_output_stagnation_epochs=12
cascade_candidate_change_fraction=0.010000
cascade_candidate_stagnation_epochs=12
cascade_max_out_epochs=150
cascade_min_out_epochs=50
cascade_max_cand_epochs=150
cascade_min_cand_epochs=50
cascade_num_candidate_groups=2
bit_fail_limit=1.00000000000000005551e-01
cascade_candidate_limit=1.00000000000000000000e+03
cascade_weight_multiplier=4.00000000000000022204e-01
cascade_activation_functions_count=10
cascade_activation_functions=3 5 7 8 10 11 14 15 16 17 
cascade_activation_steepnesses_count=4
cascade_activation_steepnesses=2.50000000000000000000e-01 5.00000000000000000000e-01 7.50000000000000000000e-01 1.00000000000000000000e+00 
layer_sizes=16 11 2 
scale_included=0
neurons (num_inputs, activation_function, activation_steepness)=(0, 0, 0.00000000000000000000e+00) (0, 0, 0.00000000000000000000e+00) (0, 0, 0.00000000000000000000e+00) (0, 0, 0.00000000000000000000e+00) (0, 0, 0.00000000000000000000e+00) (0, 0, 0.00000000000000000000e+00) (0, 0, 0.00000000000000000000e+00) (0, 0, 0.00000000000000000000e+00) (0, 0, 0.00000000000000000000e+00) (0, 0, 0.00000000000000000000e+00) (0, 0, 0.00000000000000000000e+00) (0, 0, 0.00000000000000000000e+00) (0, 0, 0.00000000000000000000e+00) (0, 0, 0.00000000000000000000e+00) (0, 0, 0.00000000000000000000e+00) (0, 0, 0.00000000000000000000e+00) (16, 6, 5.00000000000000000000e-01) (16, 6, 5.00000000000000000000e-01) (16, 6, 5.00000000000000000000e-01) (16, 6, 5.00000000000000000000e-01) (16, 6, 5.00000000000000000000e-01) (16, 6, 5.00000000000000000000e-01) (16, 6, 5.00000000000000000000e-01) (16, 6, 5.00000000000000000000e-01) (16, 6, 5.00000000000000000000e-01) (16, 6, 5.00000000000000000000e-01) (0, 6, 0.00000000000000000000e+00) (11, 6, 5.00000000000000000000e-01) (0, 6, 0.00000000000000000000e+00) 
connections (connected_to_neuron, weight)=(0, 3.72702055538666920942e-01) (1, 2.07646874278687360027e-01) (2, 3.26628764659069925624e-01) (3, 2.36672197967671277263e-01) (4, 2.10980033069752576091e-01) (5, -7.10144091611714545209e-01) (6, -1.54551413384378277804e+00) (7, -1.57317250762149307697e+00) (8, -8.40155010976379790222e-01) (9, -2.75403668699719528234e+00) (10, -5.74680072432563360252e-01) (11, 6.82956831640541862927e-03) (12, 3.41141323479595554025e-02) (13, 1.75807334907379042566e-01) (14, -1.06049318856925411936e+00) (15, -1.97271592770440734599e-01) (0, 3.50798487270758740930e-01) (1, -1.69624855112150862979e-01) (2, -1.54623945545271618274e-01) (3, -1.71244797598437026309e-01) (4, -8.33137159457957299225e-02) (5, -2.32177505453035593064e+00) (6, -4.31641423041529481708e+00) (7, -2.85016933972326613755e+00) (8, 6.77600653357906868024e-01) (9, -8.80763858325031989693e+00) (10, -1.59137211551557862521e-02) (11, 4.63256063671012741079e-01) (12, 3.47977295258798557942e-01) (13, 2.17227988713215774963e-01) (14, -5.55430150647959486321e+00) (15, 5.22192232499231051568e-02) (0, 1.03036087595531817840e+01) (1, 3.46921239784084678437e-01) (2, 2.90602014204584480073e-01) (3, 4.57290866216741864747e-01) (4, 4.61738311490141328797e-01) (5, -4.84989454756904692090e+00) (6, -8.20501835517973177048e-01) (7, -8.99480545394510500046e-01) (8, -8.21588681270969178883e-01) (9, -3.39263289389508182481e+00) (10, -1.22838440739577747784e+00) (11, -1.51305072609956348106e-01) (12, -9.60854778642906470765e-01) (13, -2.44727491709879707571e+00) (14, 6.97031192589810832949e-01) (15, 4.18767774899879374750e-01) (0, 1.47242240786966238630e+01) (1, 3.52660207102934553092e-01) (2, 4.07514585207144341972e-01) (3, 4.25963124285379968192e-01) (4, 3.23568953226248456900e-01) (5, -3.49897310157924534835e+00) (6, -7.88611649455224661409e-01) (7, -8.17780661035959477445e-01) (8, -8.65908197364764875559e-01) (9, -3.26421900433795864060e+00) (10, -1.37913061478203791133e+00) (11, 1.99591656685680657324e-01) (12, -2.41314223564372903885e-01) (13, -4.16441416280377896264e-01) (14, -5.87542944101941633228e-01) (15, 4.20580772591122586945e-01) (0, 2.98079673488140406423e-01) (1, 2.85296170291871598046e-01) (2, 3.57902704057664444726e-01) (3, 2.48885935423344972772e-01) (4, 2.68643146631688534143e-01) (5, 3.52857649646614213168e+00) (6, 4.88245587452071916346e+00) (7, 1.31132847933724705491e+00) (8, -3.64402703008036343846e-01) (9, 1.03647705439431270236e+01) (10, -8.66497929649054920986e-02) (11, -2.73444246405377788811e-01) (12, 6.07940211231270608017e-02) (13, 1.34726273822330877561e-01) (14, 1.04004269116772860571e+01) (15, 3.15850494669669912273e-01) (0, 3.22123747606277766042e-01) (1, 3.58081011352510025780e-01) (2, 2.25665809837550523920e-01) (3, 3.06245548901528885644e-01) (4, 1.99146932241887453241e-01) (5, 3.46338740123222033063e+00) (6, 4.92149125440734636072e+00) (7, 1.25144382684186328270e+00) (8, -3.89484761252801084397e-02) (9, 1.03908013973338206881e+01) (10, -1.22946697051972031467e-01) (11, -2.71695163005605144768e-01) (12, 1.17961580985263908561e-01) (13, 1.94808731781982796827e-01) (14, 1.03329978087200373693e+01) (15, -1.47988223228488480210e-01) (0, 4.78617184086977454083e-01) (1, 2.15238203188685139899e-01) (2, 3.66794501325396260505e-01) (3, 3.66363038203028401618e-01) (4, 3.63961879989412984138e-01) (5, -1.81806472364678572973e+00) (6, -1.14440872894981482411e+00) (7, -1.13959386875069612621e+00) (8, -8.39296968843272317429e-01) (9, -2.46416047423394513061e+00) (10, -4.87953481441542991082e-01) (11, -6.73991055495385849028e-01) (12, -9.43210756388387083771e-02) (13, -1.00440354568734480090e+00) (14, -2.39964490132927821264e+00) (15, -2.56129911298218604365e-01) (0, 2.51920767415762192343e-01) (1, 3.44804106531114151757e-01) (2, 3.12101437029809525292e-01) (3, 2.59747257707089784784e-01) (4, 2.98890037713021805565e-01) (5, 3.45234145356128374615e+00) (6, 4.88408801360744249109e+00) (7, 1.23814117653921473838e+00) (8, -8.71757341518799855340e-02) (9, 1.02572300407988628024e+01) (10, -9.46421797828376210049e-02) (11, -2.79311861593488197641e-01) (12, 9.12928982908287889320e-02) (13, 1.40071528958820745725e-01) (14, 1.04584919386758059545e+01) (15, -2.09767707381282197954e-01) (0, 5.27750551923452659864e-01) (1, 3.14414793286858729182e-01) (2, 1.87282757494984741786e-01) (3, 2.75605784390507868586e-01) (4, 2.47040977362929459193e-01) (5, -1.35008760436692631934e+00) (6, -1.67348887127936207797e+00) (7, -1.30190031219320223599e+00) (8, -8.63249463893955626403e-01) (9, -2.61826015471728634765e+00) (10, -5.84614855414435918846e-01) (11, -6.85976178652887069731e-01) (12, -4.26786471137098333273e-01) (13, -8.80619756112244855828e-01) (14, -2.35360353189110682592e+00) (15, -1.11549548660142633372e-01) (0, 1.03374626480648394988e+01) (1, 4.91155438822570733493e-01) (2, 4.31424331617418221896e-01) (3, 4.83871572417083561923e-01) (4, 4.34195411157670907443e-01) (5, -4.43559040843730922887e+00) (6, -9.09030055938550018979e-01) (7, -9.36998462615796112729e-01) (8, -1.05402053737480283502e+00) (9, -3.40971982074277812913e+00) (10, -1.74637740071231672978e+00) (11, -6.40362823456401386579e-01) (12, -4.58759601212171963525e-01) (13, -7.38747549869338770989e-01) (14, -7.31965623239292151325e-01) (15, 3.79071781834045273829e-01) (16, -2.45403355394161776237e-01) (17, -1.04569925437682134661e-01) (18, -2.86115515437109668717e-01) (19, -2.82711285557730396256e-01) (20, 3.37695691501318173700e-01) (21, 4.21833801781355099969e-01) (22, -2.86421366416127198828e-01) (23, 4.21966869150816159539e-01) (24, -3.15441612534434312476e-01) (25, -3.02040513064844695634e-01) (26, 3.81290647899328427606e-01) 
