FANN_FLO_2.1
num_layers=3
learning_rate=0.700000
connection_rate=1.000000
network_type=0
learning_momentum=0.000000
training_algorithm=2
train_error_function=1
train_stop_function=1
cascade_output_change_fraction=0.010000
quickprop_decay=-0.000100
quickprop_mu=1.750000
rprop_increase_factor=1.200000
rprop_decrease_factor=0.500000
rprop_delta_min=0.000000
rprop_delta_max=50.000000
rprop_delta_zero=0.100000
cascade_output_stagnation_epochs=12
cascade_candidate_change_fraction=0.010000
cascade_candidate_stagnation_epochs=12
cascade_max_out_epochs=150
cascade_min_out_epochs=50
cascade_max_cand_epochs=150
cascade_min_cand_epochs=50
cascade_num_candidate_groups=2
bit_fail_limit=1.00000000000000005551e-01
cascade_candidate_limit=1.00000000000000000000e+03
cascade_weight_multiplier=4.00000000000000022204e-01
cascade_activation_functions_count=10
cascade_activation_functions=3 5 7 8 10 11 14 15 16 17 
cascade_activation_steepnesses_count=4
cascade_activation_steepnesses=2.50000000000000000000e-01 5.00000000000000000000e-01 7.50000000000000000000e-01 1.00000000000000000000e+00 
layer_sizes=13 11 2 
scale_included=0
neurons (num_inputs, activation_function, activation_steepness)=(0, 0, 0.00000000000000000000e+00) (0, 0, 0.00000000000000000000e+00) (0, 0, 0.00000000000000000000e+00) (0, 0, 0.00000000000000000000e+00) (0, 0, 0.00000000000000000000e+00) (0, 0, 0.00000000000000000000e+00) (0, 0, 0.00000000000000000000e+00) (0, 0, 0.00000000000000000000e+00) (0, 0, 0.00000000000000000000e+00) (0, 0, 0.00000000000000000000e+00) (0, 0, 0.00000000000000000000e+00) (0, 0, 0.00000000000000000000e+00) (0, 0, 0.00000000000000000000e+00) (13, 6, 5.00000000000000000000e-01) (13, 6, 5.00000000000000000000e-01) (13, 6, 5.00000000000000000000e-01) (13, 6, 5.00000000000000000000e-01) (13, 6, 5.00000000000000000000e-01) (13, 6, 5.00000000000000000000e-01) (13, 6, 5.00000000000000000000e-01) (13, 6, 5.00000000000000000000e-01) (13, 6, 5.00000000000000000000e-01) (13, 6, 5.00000000000000000000e-01) (0, 6, 0.00000000000000000000e+00) (11, 6, 5.00000000000000000000e-01) (0, 6, 0.00000000000000000000e+00) 
connections (connected_to_neuron, weight)=(0, 1.38139038401332192585e+00) (1, -9.44714263208463467247e-02) (2, -1.52905920160586905610e-01) (3, -7.03941151626661237861e-02) (4, -1.22860548657949208984e-01) (5, 4.74422034168104134189e-01) (6, 1.21756632761682448418e+00) (7, -1.96285897376172036033e+00) (8, 4.90782823120800737460e-01) (9, -4.36737359405835512405e+00) (10, -2.14530298206309227860e-01) (11, -5.68065181119871767668e-03) (12, -1.52426030601129469666e-01) (0, -2.93958681097258445192e+00) (1, -1.63010543679438263398e-01) (2, -5.24827153436762255945e-02) (3, -5.30423210017305774011e-02) (4, -6.42724768273455066003e-02) (5, 1.88517251129610818872e+00) (6, -3.28765610977628075506e-01) (7, -1.16527818634568380851e+00) (8, 8.89662322146631767694e-01) (9, -1.28710398163082961887e+00) (10, 8.87700293777299864750e-02) (11, 3.73026261142880677379e-01) (12, -5.81022564370557922930e-02) (0, 1.71259136716236382014e-01) (1, -1.05124621996809650137e-01) (2, 6.39351463223202937103e-02) (3, 4.95997524166805689450e-02) (4, 3.53971278572781031246e-02) (5, -4.61585814409415373660e-01) (6, -8.22824070668857565636e+00) (7, 3.79289019361950030529e+00) (8, 1.99519977693894512427e-01) (9, 3.41208912825059051954e+00) (10, -2.60455304991606233223e-02) (11, -3.05644597298895870363e-01) (12, 1.09812104082003578198e-01) (0, -1.41973056201962961609e+01) (1, -1.46420998796239987261e-01) (2, -3.26746015989935467694e-02) (3, -4.21155302965796132786e-02) (4, -7.48398958885825443810e-02) (5, 9.53584187654773707266e-01) (6, 7.79470761941337242362e-01) (7, 1.63474474905788880186e+00) (8, 4.85372236704275872299e-01) (9, 1.34961709532617568641e+00) (10, -6.99461209010641266071e-02) (11, -1.15174620963378632199e-01) (12, -4.67825300575024971561e-01) (0, -1.06169148802737201009e+01) (1, 1.42242778431085660495e-02) (2, -1.62739585746618231621e-02) (3, -3.28957494009824713554e-02) (4, -3.68493627418371161308e-02) (5, 2.76554318531531173608e-01) (6, 2.40784179518537166942e+00) (7, 1.95839364159048079372e+00) (8, 2.93638349543895282867e-01) (9, 1.86704735332054982955e+00) (10, 2.80049951669411149868e-02) (11, 2.80230902079874999444e-01) (12, -3.18617985132984182783e+00) (0, 1.07162017809644655175e-01) (1, 6.77119675725947889333e-02) (2, -4.63891368657100636175e-02) (3, -4.37321108132350880315e-02) (4, 2.35859337896358288444e-02) (5, -5.42845512143105057845e-01) (6, -1.17860284954630163412e+01) (7, 4.28712956255996413546e+00) (8, -4.80770032666001434496e-01) (9, 5.66444904396036985617e+00) (10, 2.07226292316717054798e-02) (11, -1.36800759187057918709e-02) (12, 4.11477842687520620202e-02) (0, 8.20155897194946525985e+00) (1, 5.18415606401237738510e-01) (2, 3.95937754593166768569e-01) (3, 3.77632069222006261366e-01) (4, 4.20764460048946797865e-01) (5, 2.80614872589123498514e+00) (6, -4.65022209880179993036e+00) (7, -5.78995934048132654404e-01) (8, 1.62721641902938474189e+00) (9, 2.31432349175418821119e+01) (10, 1.25897248749963375225e+00) (11, 3.12343028583027138012e+00) (12, -1.82677389917172694478e-01) (0, -1.52613962571466910134e+00) (1, -1.62480209475938525143e-01) (2, -2.19961870914880480710e-01) (3, -2.15370756095830645505e-01) (4, -1.50549430853311266842e-01) (5, 1.55980669848533226585e+00) (6, 3.74516484065402721626e+00) (7, -1.26540024166836939656e+01) (8, 6.16444244581340283773e-01) (9, -9.54830637492524303411e+00) (10, -4.29341712088227023258e-02) (11, 9.40319827131633090289e-01) (12, -1.44622704961909459564e-01) (0, 2.53061079063795979494e+00) (1, 5.53443671594723629603e-01) (2, 6.81111504714354332179e-01) (3, 6.21281867306097801418e-01) (4, 6.40653317253454979152e-01) (5, -6.21978756893890860624e+00) (6, 2.04148684545668608337e+01) (7, 6.50692973962200671423e+00) (8, -1.00213285215281922014e+00) (9, 7.51774081220240208978e+00) (10, 5.64725986370162469363e-01) (11, 8.65885214395453850500e-01) (12, -1.33761997942270172146e+00) (0, 3.17967657784022195155e-01) (1, 4.49037217907310437504e-02) (2, 9.29449313692451428714e-02) (3, 9.47135203890205334964e-02) (4, 2.21246780268550755078e-02) (5, 2.48144409275048799524e-01) (6, -7.23634056291565630481e-01) (7, -1.80619271441940321132e+00) (8, -1.02981942232858197928e-01) (9, -1.66602457352187216522e+00) (10, 3.76919336123934523020e-01) (11, 8.19610434146638144881e-02) (12, 2.35605085777412126546e-01) (13, -1.71914904499628790058e-01) (14, -2.06711179675584527660e-01) (15, -2.40509507864367283458e-01) (16, 6.17699924784269494005e-01) (17, 7.27562164401229560795e-01) (18, -4.47881569236756427177e-01) (19, 8.25321305068246413583e-01) (20, -3.69040400998808471034e-01) (21, -2.27978239197586973752e-01) (22, -3.98987769673735670484e-01) (23, 4.68647383607099177194e-01) 
