FANN_FLO_2.1
num_layers=3
learning_rate=0.700000
connection_rate=1.000000
network_type=0
learning_momentum=0.000000
training_algorithm=2
train_error_function=1
train_stop_function=1
cascade_output_change_fraction=0.010000
quickprop_decay=-0.000100
quickprop_mu=1.750000
rprop_increase_factor=1.200000
rprop_decrease_factor=0.500000
rprop_delta_min=0.000000
rprop_delta_max=50.000000
rprop_delta_zero=0.100000
cascade_output_stagnation_epochs=12
cascade_candidate_change_fraction=0.010000
cascade_candidate_stagnation_epochs=12
cascade_max_out_epochs=150
cascade_min_out_epochs=50
cascade_max_cand_epochs=150
cascade_min_cand_epochs=50
cascade_num_candidate_groups=2
bit_fail_limit=1.00000000000000005551e-01
cascade_candidate_limit=1.00000000000000000000e+03
cascade_weight_multiplier=4.00000000000000022204e-01
cascade_activation_functions_count=10
cascade_activation_functions=3 5 7 8 10 11 14 15 16 17 
cascade_activation_steepnesses_count=4
cascade_activation_steepnesses=2.50000000000000000000e-01 5.00000000000000000000e-01 7.50000000000000000000e-01 1.00000000000000000000e+00 
layer_sizes=9 4 2 
scale_included=0
neurons (num_inputs, activation_function, activation_steepness)=(0, 0, 0.00000000000000000000e+00) (0, 0, 0.00000000000000000000e+00) (0, 0, 0.00000000000000000000e+00) (0, 0, 0.00000000000000000000e+00) (0, 0, 0.00000000000000000000e+00) (0, 0, 0.00000000000000000000e+00) (0, 0, 0.00000000000000000000e+00) (0, 0, 0.00000000000000000000e+00) (0, 0, 0.00000000000000000000e+00) (9, 6, 5.00000000000000000000e-01) (9, 6, 5.00000000000000000000e-01) (9, 6, 5.00000000000000000000e-01) (0, 6, 0.00000000000000000000e+00) (4, 4, 5.00000000000000000000e-01) (0, 4, 0.00000000000000000000e+00) 
connections (connected_to_neuron, weight)=(0, -7.09869517233307212312e-02) (1, 1.03385381745935500675e+00) (2, 4.36768885951358321051e-01) (3, 7.76440079280829587027e-03) (4, -6.17467669122507556434e-02) (5, 1.86755078561017390237e-02) (6, -2.24442688100626730474e-02) (7, -4.33846745269572398040e-02) (8, -3.73480600588610434087e-02) (0, -1.20777112424111177091e+00) (1, 5.89726519574846896887e+00) (2, 1.36260257131269019171e-01) (3, -6.98545009303750630281e-01) (4, -6.03097178447904225251e-01) (5, -6.80499501932325001619e-01) (6, -5.76350376415910359285e-01) (7, -1.74591434421137559063e-01) (8, -1.09534696668124009733e+00) (0, -4.16346722570900829030e-01) (1, 2.29525587264758312855e+00) (2, 4.56742327206450138277e-01) (3, -1.29608102053622775696e-01) (4, -2.22659554243306745391e-01) (5, -1.69885829001884092193e-01) (6, -1.63983859032611478668e-01) (7, 8.22902300289401339439e-02) (8, -2.52285420805434812408e-01) (9, 2.60055629056200721116e-01) (10, 5.87310659875597629309e+00) (11, 9.14936911650905404514e-01) (12, -1.11663697093462754850e+00) 
