FANN_FLO_2.1
num_layers=3
learning_rate=0.700000
connection_rate=1.000000
network_type=0
learning_momentum=0.000000
training_algorithm=2
train_error_function=1
train_stop_function=1
cascade_output_change_fraction=0.010000
quickprop_decay=-0.000100
quickprop_mu=1.750000
rprop_increase_factor=1.200000
rprop_decrease_factor=0.500000
rprop_delta_min=0.000000
rprop_delta_max=50.000000
rprop_delta_zero=0.100000
cascade_output_stagnation_epochs=12
cascade_candidate_change_fraction=0.010000
cascade_candidate_stagnation_epochs=12
cascade_max_out_epochs=150
cascade_min_out_epochs=50
cascade_max_cand_epochs=150
cascade_min_cand_epochs=50
cascade_num_candidate_groups=2
bit_fail_limit=1.00000000000000005551e-01
cascade_candidate_limit=1.00000000000000000000e+03
cascade_weight_multiplier=4.00000000000000022204e-01
cascade_activation_functions_count=10
cascade_activation_functions=3 5 7 8 10 11 14 15 16 17 
cascade_activation_steepnesses_count=4
cascade_activation_steepnesses=2.50000000000000000000e-01 5.00000000000000000000e-01 7.50000000000000000000e-01 1.00000000000000000000e+00 
layer_sizes=8 4 2 
scale_included=0
neurons (num_inputs, activation_function, activation_steepness)=(0, 0, 0.00000000000000000000e+00) (0, 0, 0.00000000000000000000e+00) (0, 0, 0.00000000000000000000e+00) (0, 0, 0.00000000000000000000e+00) (0, 0, 0.00000000000000000000e+00) (0, 0, 0.00000000000000000000e+00) (0, 0, 0.00000000000000000000e+00) (0, 0, 0.00000000000000000000e+00) (8, 6, 5.00000000000000000000e-01) (8, 6, 5.00000000000000000000e-01) (8, 6, 5.00000000000000000000e-01) (0, 6, 0.00000000000000000000e+00) (4, 4, 5.00000000000000000000e-01) (0, 4, 0.00000000000000000000e+00) 
connections (connected_to_neuron, weight)=(0, -4.81562810161419196930e+00) (1, 3.22307191248026514430e+00) (2, 2.71649249523021163455e+00) (3, 2.99614160543327701092e+00) (4, 6.63845011716769572985e+00) (5, 6.56851805871413585436e+00) (6, 5.44847627612729379365e+00) (7, -4.79806605124182983246e+00) (0, 8.70900037904217411144e-02) (1, -2.62306628708116218451e-01) (2, -1.92640949083103862893e-01) (3, -1.05253541218785745537e-01) (4, -2.97757089491354709487e-01) (5, -2.97601014729010349136e-01) (6, -7.76592578840600955559e-01) (7, 4.33239109592401527848e-01) (0, 9.94440908007933055401e-01) (1, -1.72136410300861197875e+00) (2, 1.21339244403095958269e-01) (3, -6.25321918478440430533e-01) (4, -1.90820078311312268937e+00) (5, -1.88097423074591230119e+00) (6, -2.13935911549775559237e+00) (7, 1.85578026537038320853e+00) (8, 4.62529582319015641900e+00) (9, -7.71259173047995738592e-01) (10, -1.85817882306696020578e+01) (11, -1.48889261231062852708e+00) 
