FANN_FLO_2.1
num_layers=3
learning_rate=0.700000
connection_rate=1.000000
network_type=0
learning_momentum=0.000000
training_algorithm=2
train_error_function=1
train_stop_function=1
cascade_output_change_fraction=0.010000
quickprop_decay=-0.000100
quickprop_mu=1.750000
rprop_increase_factor=1.200000
rprop_decrease_factor=0.500000
rprop_delta_min=0.000000
rprop_delta_max=50.000000
rprop_delta_zero=0.100000
cascade_output_stagnation_epochs=12
cascade_candidate_change_fraction=0.010000
cascade_candidate_stagnation_epochs=12
cascade_max_out_epochs=150
cascade_min_out_epochs=50
cascade_max_cand_epochs=150
cascade_min_cand_epochs=50
cascade_num_candidate_groups=2
bit_fail_limit=1.00000000000000005551e-01
cascade_candidate_limit=1.00000000000000000000e+03
cascade_weight_multiplier=4.00000000000000022204e-01
cascade_activation_functions_count=10
cascade_activation_functions=3 5 7 8 10 11 14 15 16 17 
cascade_activation_steepnesses_count=4
cascade_activation_steepnesses=2.50000000000000000000e-01 5.00000000000000000000e-01 7.50000000000000000000e-01 1.00000000000000000000e+00 
layer_sizes=13 11 2 
scale_included=0
neurons (num_inputs, activation_function, activation_steepness)=(0, 0, 0.00000000000000000000e+00) (0, 0, 0.00000000000000000000e+00) (0, 0, 0.00000000000000000000e+00) (0, 0, 0.00000000000000000000e+00) (0, 0, 0.00000000000000000000e+00) (0, 0, 0.00000000000000000000e+00) (0, 0, 0.00000000000000000000e+00) (0, 0, 0.00000000000000000000e+00) (0, 0, 0.00000000000000000000e+00) (0, 0, 0.00000000000000000000e+00) (0, 0, 0.00000000000000000000e+00) (0, 0, 0.00000000000000000000e+00) (0, 0, 0.00000000000000000000e+00) (13, 6, 5.00000000000000000000e-01) (13, 6, 5.00000000000000000000e-01) (13, 6, 5.00000000000000000000e-01) (13, 6, 5.00000000000000000000e-01) (13, 6, 5.00000000000000000000e-01) (13, 6, 5.00000000000000000000e-01) (13, 6, 5.00000000000000000000e-01) (13, 6, 5.00000000000000000000e-01) (13, 6, 5.00000000000000000000e-01) (13, 6, 5.00000000000000000000e-01) (0, 6, 0.00000000000000000000e+00) (11, 6, 5.00000000000000000000e-01) (0, 6, 0.00000000000000000000e+00) 
connections (connected_to_neuron, weight)=(0, 1.10495710135684530040e-02) (1, -1.53746682618992158709e-01) (2, -1.08934249197380442209e-01) (3, -1.02065499340431589670e-01) (4, -1.33468497012989406603e-01) (5, 6.51482059107799327258e-01) (6, 3.03469235963148897817e-01) (7, 2.74739785344221232322e+00) (8, -2.02218916426979200551e-01) (9, 1.37918307217690938593e+00) (10, 3.11342957295105693394e-01) (11, 8.23378327303450618935e-01) (12, -3.87332368642176683160e-01) (0, 5.51793400327594163457e+00) (1, 2.65021426831112238975e-01) (2, 3.85166665767059546166e-01) (3, 3.99360200618133764916e-01) (4, 4.36159825180397253686e-01) (5, -2.05060277928219747423e+00) (6, -3.65890693923158938361e+00) (7, 3.79607765386239193184e-01) (8, -3.75202206202153032422e+00) (9, -2.72511180968220534382e+00) (10, -1.37774130782785242388e+00) (11, -4.12341927136177233137e+00) (12, 1.05812887281287104635e+00) (0, 2.00032566761586583226e+00) (1, 6.45547542672846086376e-01) (2, 6.75078708630296953075e-01) (3, 6.56360406380388505809e-01) (4, 5.29245119493696458690e-01) (5, 1.87217327993286062338e+01) (6, 2.25004146325534515327e+00) (7, 8.92559766380819269216e+02) (8, 4.55805658510866340549e+00) (9, 2.50283696426241153432e+00) (10, -9.59844725918540309095e-01) (11, -2.04138999297658685350e+00) (12, 6.80168993620528627986e-01) (0, 1.86718435859296216783e+00) (1, 6.72108430367204912059e-01) (2, 6.06995861929151891978e-01) (3, 6.34367261033747076304e-01) (4, 6.78708750706407792919e-01) (5, 3.16736478214788697017e+00) (6, 1.82912694293031452553e+00) (7, 8.92506974375578352010e+02) (8, 4.53107695988359626682e+00) (9, 2.47652713133184665395e+00) (10, -9.83157022636899191603e-01) (11, -1.93277769401113297398e+00) (12, 7.79137514381065043878e-01) (0, 2.01346852198268755352e-01) (1, 1.77769336748209300092e-01) (2, 9.08263324678805356038e-02) (3, 1.97489920902338328412e-01) (4, 7.61812365532782559407e-02) (5, -1.17570864636704941475e+00) (6, -7.37872233899632301579e-01) (7, 3.72489593918791513261e+02) (8, 1.34262250530132609683e+00) (9, -2.82120429748662981950e+00) (10, -3.38447778481844596676e-01) (11, -1.91189861907998825963e+00) (12, 2.22113908572805912600e-01) (0, 1.39107614415779430317e+01) (1, 2.80293603522979939413e-01) (2, 2.34419723136627483617e-01) (3, 2.39526641650402244421e-01) (4, 1.63724524064266602208e-01) (5, -2.76145072695743731828e+00) (6, -1.67730795766926399359e+00) (7, -1.61466861236564107607e+00) (8, -1.83641761012556048449e+00) (9, -1.96908193816054688519e+00) (10, -1.27904732652204589094e+00) (11, -1.57886085521440033830e+00) (12, 2.47491011925173376440e+00) (0, 1.90804740315291776476e+00) (1, 6.12656969528887151988e-01) (2, 6.46172519725057847850e-01) (3, 5.78366886776182420604e-01) (4, 5.95056410830709703319e-01) (5, 4.30803722691558732549e+01) (6, 1.47621700374905562292e+00) (7, 8.92529405086072870290e+02) (8, 3.02312006988196513291e+00) (9, 2.37414284719316714956e+00) (10, -5.37818498365718045129e-01) (11, -2.03838677569667581224e+00) (12, 8.46509208668423052124e-01) (0, 1.91779468482348813829e+00) (1, 1.24949578012234163715e+00) (2, 1.23763365114933443500e+00) (3, 1.19575865383154322785e+00) (4, 1.27514394189125490620e+00) (5, 1.87295253019702840902e+01) (6, 3.58289898346695423470e+00) (7, 8.92463974515679069555e+02) (8, 4.50916194877567377830e+00) (9, 2.39014458580105060292e+00) (10, -8.35175848346718985304e-01) (11, -2.01065875455180886888e+00) (12, 7.25041158346786174249e-01) (0, 1.30782764674445264319e+01) (1, 2.49726683210133970636e-01) (2, 3.12603079091309909998e-01) (3, 1.67865895043611101922e-01) (4, 3.38298000704049528498e-01) (5, -2.85809942004215411515e+00) (6, -2.92121629655496306555e+00) (7, -7.62530414472353590405e-01) (8, -3.78348956328895313916e+00) (9, -1.99954159547198639935e+00) (10, -1.13646721725436017358e+00) (11, -2.80361424729782449106e+00) (12, 2.46688117988539312719e+00) (0, 5.93302778061778468555e+00) (1, 3.47023880734739831322e-01) (2, 2.75678670659361524375e-01) (3, 4.37706044569311669701e-01) (4, 3.42210865273771813744e-01) (5, -2.77395274904501132340e+00) (6, -1.40645815736661039530e+00) (7, -2.41256971245451445895e+00) (8, -1.32878420667975172265e+00) (9, -1.21739183407524431679e+00) (10, -1.15228041518924917419e+00) (11, -1.94691160535962404232e+00) (12, 9.39850783010321322308e-01) (13, 4.98139990561185963536e-01) (14, -3.13939529902107883341e-01) (15, 2.24194031170462659830e-01) (16, 2.15339858046626142496e-01) (17, 3.59970651715797618220e-01) (18, -3.24852007963085498421e-01) (19, 2.99142498484705920969e-01) (20, 2.30296317449664167398e-01) (21, -2.79453103540401204263e-01) (22, -1.88730115410528892506e-01) (23, 2.37963365303381274574e-01) 
