FANN_FLO_2.1
num_layers=3
learning_rate=0.700000
connection_rate=1.000000
network_type=0
learning_momentum=0.000000
training_algorithm=2
train_error_function=1
train_stop_function=1
cascade_output_change_fraction=0.010000
quickprop_decay=-0.000100
quickprop_mu=1.750000
rprop_increase_factor=1.200000
rprop_decrease_factor=0.500000
rprop_delta_min=0.000000
rprop_delta_max=50.000000
rprop_delta_zero=0.100000
cascade_output_stagnation_epochs=12
cascade_candidate_change_fraction=0.010000
cascade_candidate_stagnation_epochs=12
cascade_max_out_epochs=150
cascade_min_out_epochs=50
cascade_max_cand_epochs=150
cascade_min_cand_epochs=50
cascade_num_candidate_groups=2
bit_fail_limit=1.00000000000000005551e-01
cascade_candidate_limit=1.00000000000000000000e+03
cascade_weight_multiplier=4.00000000000000022204e-01
cascade_activation_functions_count=10
cascade_activation_functions=3 5 7 8 10 11 14 15 16 17 
cascade_activation_steepnesses_count=4
cascade_activation_steepnesses=2.50000000000000000000e-01 5.00000000000000000000e-01 7.50000000000000000000e-01 1.00000000000000000000e+00 
layer_sizes=11 4 2 
scale_included=0
neurons (num_inputs, activation_function, activation_steepness)=(0, 0, 0.00000000000000000000e+00) (0, 0, 0.00000000000000000000e+00) (0, 0, 0.00000000000000000000e+00) (0, 0, 0.00000000000000000000e+00) (0, 0, 0.00000000000000000000e+00) (0, 0, 0.00000000000000000000e+00) (0, 0, 0.00000000000000000000e+00) (0, 0, 0.00000000000000000000e+00) (0, 0, 0.00000000000000000000e+00) (0, 0, 0.00000000000000000000e+00) (0, 0, 0.00000000000000000000e+00) (11, 6, 5.00000000000000000000e-01) (11, 6, 5.00000000000000000000e-01) (11, 6, 5.00000000000000000000e-01) (0, 6, 0.00000000000000000000e+00) (4, 4, 5.00000000000000000000e-01) (0, 4, 0.00000000000000000000e+00) 
connections (connected_to_neuron, weight)=(0, 3.21341203379594242406e+00) (1, -2.93987496767593770031e+00) (2, -6.16835999453312799901e-01) (3, -2.13049450919049698783e+00) (4, 1.13520624544471537831e-01) (5, -5.58630827033764765233e-01) (6, -7.10925090277439997166e-01) (7, -9.08129342735651823304e-01) (8, -1.39150565216505883726e+00) (9, 8.82415231768634011900e-01) (10, 2.94581924780184456480e+00) (0, -1.20928543570622326619e-01) (1, 4.77500461044113644338e-01) (2, 8.74698013955291231447e-01) (3, 6.71186246886439463744e-01) (4, -7.08372427069043353320e-02) (5, 5.95070426640695537834e-01) (6, -5.33213449560498570223e-02) (7, 3.46191900031601940135e-01) (8, 4.17665824057154189131e-01) (9, 1.03569612512654798953e-01) (10, -3.86668538842920104376e-03) (0, -1.04886978900453264885e+00) (1, 2.00538969978057446397e+00) (2, 9.38876013560678845948e-01) (3, 1.34910223450871580297e+00) (4, -2.74595297399337634481e-01) (5, 2.73445790384244880045e-01) (6, -2.46342084828193530477e-01) (7, 9.69473432105559473904e-01) (8, -1.24779211978644621189e-02) (9, -8.66737881695087697409e-02) (10, -6.13361719611540956443e-01) (11, -1.00650659049009654211e+01) (12, 1.59994421785332241459e-01) (13, 2.04740054378465385909e+00) (14, -1.77248050341455698486e+00) 
