FANN_FLO_2.1
num_layers=3
learning_rate=0.700000
connection_rate=1.000000
network_type=0
learning_momentum=0.000000
training_algorithm=2
train_error_function=1
train_stop_function=1
cascade_output_change_fraction=0.010000
quickprop_decay=-0.000100
quickprop_mu=1.750000
rprop_increase_factor=1.200000
rprop_decrease_factor=0.500000
rprop_delta_min=0.000000
rprop_delta_max=50.000000
rprop_delta_zero=0.100000
cascade_output_stagnation_epochs=12
cascade_candidate_change_fraction=0.010000
cascade_candidate_stagnation_epochs=12
cascade_max_out_epochs=150
cascade_min_out_epochs=50
cascade_max_cand_epochs=150
cascade_min_cand_epochs=50
cascade_num_candidate_groups=2
bit_fail_limit=1.00000000000000005551e-01
cascade_candidate_limit=1.00000000000000000000e+03
cascade_weight_multiplier=4.00000000000000022204e-01
cascade_activation_functions_count=10
cascade_activation_functions=3 5 7 8 10 11 14 15 16 17 
cascade_activation_steepnesses_count=4
cascade_activation_steepnesses=2.50000000000000000000e-01 5.00000000000000000000e-01 7.50000000000000000000e-01 1.00000000000000000000e+00 
layer_sizes=18 11 2 
scale_included=0
neurons (num_inputs, activation_function, activation_steepness)=(0, 0, 0.00000000000000000000e+00) (0, 0, 0.00000000000000000000e+00) (0, 0, 0.00000000000000000000e+00) (0, 0, 0.00000000000000000000e+00) (0, 0, 0.00000000000000000000e+00) (0, 0, 0.00000000000000000000e+00) (0, 0, 0.00000000000000000000e+00) (0, 0, 0.00000000000000000000e+00) (0, 0, 0.00000000000000000000e+00) (0, 0, 0.00000000000000000000e+00) (0, 0, 0.00000000000000000000e+00) (0, 0, 0.00000000000000000000e+00) (0, 0, 0.00000000000000000000e+00) (0, 0, 0.00000000000000000000e+00) (0, 0, 0.00000000000000000000e+00) (0, 0, 0.00000000000000000000e+00) (0, 0, 0.00000000000000000000e+00) (0, 0, 0.00000000000000000000e+00) (18, 6, 5.00000000000000000000e-01) (18, 6, 5.00000000000000000000e-01) (18, 6, 5.00000000000000000000e-01) (18, 6, 5.00000000000000000000e-01) (18, 6, 5.00000000000000000000e-01) (18, 6, 5.00000000000000000000e-01) (18, 6, 5.00000000000000000000e-01) (18, 6, 5.00000000000000000000e-01) (18, 6, 5.00000000000000000000e-01) (18, 6, 5.00000000000000000000e-01) (0, 6, 0.00000000000000000000e+00) (11, 6, 5.00000000000000000000e-01) (0, 6, 0.00000000000000000000e+00) 
connections (connected_to_neuron, weight)=(0, -2.14473250257984604517e+00) (1, -9.28818625789768759216e-02) (2, -5.68578583580144347742e-02) (3, -5.85855138879902981319e-02) (4, -9.76167065483219686950e-02) (5, -1.39632054092520802024e-01) (6, 1.01084588999144076027e+00) (7, 9.11122560091131283855e+00) (8, -1.99781294792922226033e-01) (9, 1.04323440688587232295e-01) (10, 5.85040624603326217534e-02) (11, 7.46421369662580991289e-02) (12, 4.89399422781169393670e-02) (13, -4.35085237463607998887e-01) (14, 2.24143972366565830123e-01) (15, 2.44018684898296589481e-01) (16, 9.25730077877496837502e-02) (17, -1.23492734879208887477e+00) (0, -1.13983349758979302102e+00) (1, -2.98455549144851298160e-02) (2, 7.93073358273400502716e-02) (3, -7.73764444255935074368e-02) (4, 8.11002286410226064239e-02) (5, 4.69649890788819690535e-01) (6, 6.66624167203481388100e-01) (7, 6.94114910949746821700e+00) (8, -2.61426487248252181761e-01) (9, -1.67745965846969879998e+00) (10, -1.31078640516006122985e-01) (11, -1.54020501449604352295e+00) (12, -4.74610626366809174037e-01) (13, -1.40965455830747710131e+00) (14, -8.10685720697640199717e+00) (15, -1.15138952900948510205e+00) (16, -1.10768294695228544655e-01) (17, -1.21035155948863248909e+00) (0, -9.01678048304979462557e+00) (1, -2.75947347871886294879e-01) (2, -2.29696304194556083500e-01) (3, -1.98324762873278409581e-01) (4, -3.05299223057852786578e-01) (5, 1.79693905416380195206e-01) (6, -1.36579999079704271026e+03) (7, 4.95179750164654652878e-01) (8, 5.05603416418274220767e-01) (9, 4.97399888944833445947e-01) (10, 4.72414271743423763716e-01) (11, 5.90463486036698959047e-01) (12, 1.23383906500852802424e+00) (13, 3.41146046516048073727e-01) (14, 1.17132705366292916294e-01) (15, 1.02329430838416080007e+00) (16, 1.24335215241592046513e-03) (17, 4.59993666551093838279e+00) (0, -7.68098922634569021284e+01) (1, 3.28039217543798292120e-02) (2, -8.23125701594156489183e-02) (3, 2.05316234183508007638e-02) (4, 3.18242151093679273566e-02) (5, 4.89763470740895989763e+00) (6, 4.44123577148225301414e+00) (7, 3.52809939222630353228e+00) (8, 8.51022140281468941758e-01) (9, 3.56437292310819164864e-01) (10, 4.90400604662174610660e-01) (11, 6.17209197491683081438e+00) (12, -3.23322556240971531460e-02) (13, 1.72485061537740635984e+00) (14, 1.44619803804352065058e+00) (15, 7.87033765203872914817e-01) (16, 2.04219170232662738940e+00) (17, -8.50924734902408275161e+00) (0, -8.21765045859440057541e+00) (1, -3.34715174897544431865e-01) (2, -3.37099573030107069194e-01) (3, -2.40059731914632368266e-01) (4, -1.83506084992520857035e-01) (5, 1.38867727683864905508e+00) (6, -1.36579999079704271026e+03) (7, 6.97069039229087650256e+00) (8, -3.80578173305241518332e-01) (9, -2.95776010063348096524e-02) (10, 8.55550447908170336175e-02) (11, -2.65042582537729920489e+01) (12, -1.63715743384174161612e+00) (13, -3.11120710265680860962e-02) (14, -7.73272254697541239210e-02) (15, 7.04393680754184792203e-02) (16, -1.99969224015968349839e+00) (17, -1.79255014160558268088e+00) (0, 6.68151594194994302711e+00) (1, 2.67735257904327239586e+00) (2, 2.67831996242797698571e+00) (3, 2.71591502587592881213e+00) (4, 2.58173131357229035387e+00) (5, 1.06482753473330831184e+03) (6, 1.39079999079704271026e+03) (7, 4.64293742023196429614e+01) (8, 1.31802292303182131405e+01) (9, 4.21485088332308355241e-01) (10, 1.11874405450459257771e+00) (11, 9.84423383510663363438e+00) (12, 3.49632559146894339452e-01) (13, -6.30715587081118922441e+00) (14, 1.36430180157168123856e+00) (15, -1.95866337390038203203e+00) (16, 7.95633346424246568063e+00) (17, 2.90125279855437145926e+00) (0, -6.16134474362162176675e+00) (1, -4.39496437570590037236e-01) (2, -4.71933847776192627599e-01) (3, -3.97198269626635458440e-01) (4, -4.53704579284924525151e-01) (5, -8.73061098223893054637e+02) (6, -1.36579999079704271026e+03) (7, 8.29255221020908095397e+00) (8, -8.01131584310243560765e-01) (9, -5.24720575066021988064e-01) (10, -2.27255316805598239771e-01) (11, -2.65528767194349946124e+01) (12, -3.21633406445329494971e+00) (13, -1.36272866818791305032e-01) (14, -5.11031579931910950876e-01) (15, 2.82049599326266546562e-02) (16, -7.74033930518714829994e-01) (17, -2.81859852346395989287e+00) (0, -3.24137144476023522088e+01) (1, -7.31288830927623451084e-02) (2, -1.43850107043148434105e-01) (3, -7.67811577013744056552e-02) (4, -1.93727571814419186058e-01) (5, 2.65612531798882933742e+00) (6, 2.43158078383540354750e+00) (7, 7.57515629730880268866e-01) (8, 2.43883219476388107827e-01) (9, 5.18088075350131127550e-01) (10, 1.09332133045154944462e+00) (11, 2.06230686255824702258e+00) (12, -3.15432187017120613248e-01) (13, 7.87415343666812872492e-01) (14, 2.23212848629207005757e+00) (15, -4.89014543478214769312e-02) (16, 3.36146583020942635311e-01) (17, -3.45735364142235601648e+00) (0, 6.77175241950378659084e+00) (1, 2.52826318918967274385e+00) (2, 2.62679629056954366817e+00) (3, 2.46249621390605000215e+00) (4, 2.58213724225068119722e+00) (5, 1.06494426018927788391e+03) (6, 1.39079999079704271026e+03) (7, 4.63970914400902003649e+01) (8, 1.31892529861070162411e+01) (9, 3.96587460799826208024e-01) (10, 8.64178534843636936280e-01) (11, 9.82144759780719134312e+00) (12, 4.94060383912337697243e-01) (13, 4.25060209217936613157e+00) (14, 9.45828256856128035679e-01) (15, -2.73686806522831505006e+00) (16, 8.17212603966141415412e+00) (17, 4.31374221024136605962e+00) (0, -1.49696489398793044501e+01) (1, -8.72723013267015235161e-02) (2, -1.28196485351035532885e-01) (3, -1.30915127705047068529e-01) (4, -1.49800680588195206377e-01) (5, 9.65270839754506448926e-01) (6, 2.45599941729446191729e+00) (7, 5.35281321999774917231e+00) (8, 1.24220943434827771346e-01) (9, 3.96038660567915590249e-01) (10, 2.70261538371598553088e-01) (11, 1.06988689915080015247e+00) (12, -3.41195928345680132843e-01) (13, 6.86353604499383318505e-01) (14, 5.04562985659813389994e-01) (15, 2.08029893865635057137e-01) (16, -1.12771863881442252486e-01) (17, -1.65894966720352443623e+00) (18, 4.21564080716386180292e-01) (19, -4.74744761619156463439e-01) (20, -2.16008506584412063312e-01) (21, 6.03197536118929567017e-01) (22, -2.20357588792282593770e-01) (23, 4.69747934221172225300e-01) (24, -3.78482921650488246534e-01) (25, 4.98812629915444949447e-01) (26, 4.53662905572795760456e-01) (27, 1.00793534076336110950e+00) (28, 4.20532336299196340956e-01) 
