FANN_FLO_2.1
num_layers=3
learning_rate=0.700000
connection_rate=1.000000
network_type=0
learning_momentum=0.000000
training_algorithm=2
train_error_function=1
train_stop_function=1
cascade_output_change_fraction=0.010000
quickprop_decay=-0.000100
quickprop_mu=1.750000
rprop_increase_factor=1.200000
rprop_decrease_factor=0.500000
rprop_delta_min=0.000000
rprop_delta_max=50.000000
rprop_delta_zero=0.100000
cascade_output_stagnation_epochs=12
cascade_candidate_change_fraction=0.010000
cascade_candidate_stagnation_epochs=12
cascade_max_out_epochs=150
cascade_min_out_epochs=50
cascade_max_cand_epochs=150
cascade_min_cand_epochs=50
cascade_num_candidate_groups=2
bit_fail_limit=1.00000000000000005551e-01
cascade_candidate_limit=1.00000000000000000000e+03
cascade_weight_multiplier=4.00000000000000022204e-01
cascade_activation_functions_count=10
cascade_activation_functions=3 5 7 8 10 11 14 15 16 17 
cascade_activation_steepnesses_count=4
cascade_activation_steepnesses=2.50000000000000000000e-01 5.00000000000000000000e-01 7.50000000000000000000e-01 1.00000000000000000000e+00 
layer_sizes=27 11 2 
scale_included=0
neurons (num_inputs, activation_function, activation_steepness)=(0, 0, 0.00000000000000000000e+00) (0, 0, 0.00000000000000000000e+00) (0, 0, 0.00000000000000000000e+00) (0, 0, 0.00000000000000000000e+00) (0, 0, 0.00000000000000000000e+00) (0, 0, 0.00000000000000000000e+00) (0, 0, 0.00000000000000000000e+00) (0, 0, 0.00000000000000000000e+00) (0, 0, 0.00000000000000000000e+00) (0, 0, 0.00000000000000000000e+00) (0, 0, 0.00000000000000000000e+00) (0, 0, 0.00000000000000000000e+00) (0, 0, 0.00000000000000000000e+00) (0, 0, 0.00000000000000000000e+00) (0, 0, 0.00000000000000000000e+00) (0, 0, 0.00000000000000000000e+00) (0, 0, 0.00000000000000000000e+00) (0, 0, 0.00000000000000000000e+00) (0, 0, 0.00000000000000000000e+00) (0, 0, 0.00000000000000000000e+00) (0, 0, 0.00000000000000000000e+00) (0, 0, 0.00000000000000000000e+00) (0, 0, 0.00000000000000000000e+00) (0, 0, 0.00000000000000000000e+00) (0, 0, 0.00000000000000000000e+00) (0, 0, 0.00000000000000000000e+00) (0, 0, 0.00000000000000000000e+00) (27, 6, 5.00000000000000000000e-01) (27, 6, 5.00000000000000000000e-01) (27, 6, 5.00000000000000000000e-01) (27, 6, 5.00000000000000000000e-01) (27, 6, 5.00000000000000000000e-01) (27, 6, 5.00000000000000000000e-01) (27, 6, 5.00000000000000000000e-01) (27, 6, 5.00000000000000000000e-01) (27, 6, 5.00000000000000000000e-01) (27, 6, 5.00000000000000000000e-01) (0, 6, 0.00000000000000000000e+00) (11, 6, 5.00000000000000000000e-01) (0, 6, 0.00000000000000000000e+00) 
connections (connected_to_neuron, weight)=(0, 1.47347829600221036372e+00) (1, 4.26700559513164434655e-01) (2, 4.74772934870315577172e-01) (3, 4.89197556929183874352e-01) (4, 3.81709006683422003015e-01) (5, -6.53281002557617312965e-02) (6, -2.36619368644423067050e-01) (7, 5.62572346163305592182e-02) (8, -3.25246998202291304203e-01) (9, -8.04981543871029536774e+00) (10, 1.25624207305409463231e-01) (11, 1.91574420204649986665e-01) (12, 9.24526303188304282576e-02) (13, 3.34969223897545326230e-02) (14, 1.47816557742070531223e-01) (15, -1.42080691250204060871e-01) (16, 1.76358195224728502015e-02) (17, -9.23072906765081370395e+02) (18, -1.73760347931078140693e-01) (19, -5.88714244327569602433e+00) (20, -9.06303413897043164127e-01) (21, -4.68236041141996683912e-01) (22, -5.09398857405952976141e-02) (23, -6.50824390432423971475e+00) (24, -2.93455158202988730665e-01) (25, -2.28514776333638203187e-01) (26, 3.15842812621098423254e-01) (0, -6.37792257903058490420e-01) (1, 3.54110152694324595291e-02) (2, -8.39047122272451768865e-03) (3, 9.66604065624277093705e-03) (4, 3.05313320132831814147e-02) (5, -1.56384249707076844471e-01) (6, 5.89095026191050696873e-01) (7, 1.14027470354849752576e-01) (8, 1.17196165296695617442e-01) (9, -1.13371044908953999553e+00) (10, -3.25397176932349652123e-02) (11, 5.12515249850560739020e+00) (12, -7.79204424813957491347e-02) (13, -8.40633008735227754693e-02) (14, -5.08680811727221307561e-02) (15, 7.82081275540231546373e-01) (16, -6.08767908165141896637e-02) (17, 1.58989109752130652886e+00) (18, 1.25652608220029632369e-01) (19, 1.50000000000000000000e+03) (20, 4.84966368836762196093e-01) (21, 2.40768958206961092294e-01) (22, 8.36430080244632501163e-01) (23, 7.91069148951118905622e-01) (24, 6.19446320753437751350e-01) (25, 2.05635741884928169299e+00) (26, -1.48668442246549237229e-01) (0, 3.51349514945525065457e+00) (1, 4.32791667496645326985e-01) (2, 4.44106260752165193928e-01) (3, 4.34166061198198671711e-01) (4, 4.85706465756380323384e-01) (5, 2.47705674298841842074e+02) (6, 1.27052245314999201486e-01) (7, 7.84965939709022508808e-01) (8, 2.48149590161705813074e+00) (9, -1.97308728715467984749e+00) (10, 1.95447459882725549374e-01) (11, -1.80940046689906397503e+00) (12, -1.56879216758690587241e+00) (13, 1.22104391152457525394e+00) (14, 1.31459630457202725218e+00) (15, 5.10219503338451563224e-01) (16, 1.60324546592201788719e+00) (17, 2.13158014098569159600e+00) (18, 1.30924619510525586108e-01) (19, 1.50000000000000000000e+03) (20, -5.13102895622921661989e-02) (21, 5.80069310709991764474e-02) (22, -4.09510335102664033147e-02) (23, 4.45356899666991934428e-01) (24, 4.03242532828371025300e-01) (25, -1.39260204013332583584e-01) (26, -1.66738974568524178643e+00) (0, -6.86113687055556309424e-01) (1, 1.07874339228721232570e-02) (2, 3.70980715161414870140e-02) (3, -8.39144299024490863959e-02) (4, -2.52158502334503507869e-02) (5, 2.29779339743061486456e-02) (6, 2.06466450971609621901e-01) (7, -2.10927824481281750435e-01) (8, 2.05264615272241435218e-01) (9, -2.29424838725575019893e+00) (10, -9.92425944188988495842e-02) (11, 1.50000000000000000000e+03) (12, -9.62675301632836682986e-02) (13, -1.78776082945930531176e-01) (14, -2.11073099542612857560e-02) (15, 7.10824282351852354545e-01) (16, 3.76046009132059641522e-02) (17, 3.27198152906494565961e-01) (18, 3.87984817394992742567e-01) (19, 8.51327443447404519361e-01) (20, 4.17530357296402920841e-01) (21, 1.65107970189382835535e-01) (22, 6.16561403260142859573e-01) (23, 7.44041261305695367234e-01) (24, 3.14073697780926086587e-01) (25, 1.55862898072137578964e+00) (26, -1.27382100900823358458e-01) (0, 2.47219999367196768825e-01) (1, 3.43833481084911685155e-02) (2, 2.78133143794147968952e-02) (3, 7.80359198462574205069e-02) (4, 5.97006519448368411229e-02) (5, 7.47225312787035689244e-02) (6, 5.56857688712537268749e-01) (7, 2.88121327678721617094e-01) (8, 8.57802047353017238507e-01) (9, -1.50000000000000000000e+03) (10, 4.62425920270041201920e-01) (11, 2.97186055614199995389e+00) (12, 7.15397112718614142102e-02) (13, 1.09820719680361056358e-01) (14, 1.66355214254527983275e-01) (15, 1.00429302251445152702e-03) (16, 9.14448331461971269940e-02) (17, -9.23104740696885073703e+02) (18, 6.59394154140576005396e-01) (19, -6.26253762508240097162e+00) (20, -5.85034149890683655149e-02) (21, 6.00607029304449202556e-01) (22, -5.25034673807373494792e-02) (23, -2.72904750632788761777e+00) (24, -1.82937609298171460770e-02) (25, -4.39905067678569572376e-02) (26, 3.16696533278581437987e-01) (0, 4.55797632780084072124e+00) (1, 4.22842590337660306776e-01) (2, 5.49487689709331372789e-01) (3, 3.73923333561089032973e-01) (4, 5.48243159627582410387e-01) (5, 2.45212961412736291322e+02) (6, 9.05120292511466750796e-01) (7, 1.38896302195584042671e+00) (8, 1.00454129163347971598e+01) (9, -1.58585552022526510285e+00) (10, 4.39623130858899457962e+00) (11, -1.55846027837176048791e+00) (12, 1.92994928474120630568e+00) (13, 2.53059955455967582338e+01) (14, 2.69945708935250516802e+00) (15, 1.23698046462568478354e+00) (16, 3.88114383330526235838e+00) (17, 7.92471368675881926436e+00) (18, 7.45312166797451047806e-01) (19, -3.54259292360380584341e+00) (20, 9.56383940337571569756e-01) (21, 1.42555526028778167813e+00) (22, 1.43380819244984958338e+00) (23, -1.57640727564084287549e-01) (24, 1.00800133263482361023e+00) (25, 5.59838260539296417306e-01) (26, -1.82913958277513000183e+00) (0, 1.42451600351564966473e+00) (1, 1.66170207665537555952e-01) (2, 6.70546422463403346548e-02) (3, 2.05019211278532703657e-01) (4, 1.16439124451254427672e-01) (5, 1.46112071356083644824e-01) (6, -3.21558055973978462738e-01) (7, 2.62218095530426381634e-02) (8, -6.73105667185307954270e-01) (9, 4.44452059286307061825e+01) (10, 3.75719163444419024245e-02) (11, 5.98734520917092005732e-01) (12, 1.80753759633749427893e-01) (13, 7.30234932154958434752e-03) (14, -2.78129615024744272778e-02) (15, -3.14254519504321649936e-01) (16, -2.84660763200322963762e-01) (17, 1.22449863697722776124e+03) (18, -2.96408683426099495151e-01) (19, 1.50000000000000000000e+03) (20, -3.32872366772616778974e-01) (21, -4.06889221817468504927e-01) (22, 1.17563663571624496540e-01) (23, 1.50000000000000000000e+03) (24, -1.00878234457676296820e+00) (25, -1.58324559778006901389e+00) (26, -4.85844317161308880682e-03) (0, 1.78580547372095221892e-01) (1, -7.99103850556140762884e-03) (2, 1.29688821490280548065e-01) (3, 4.73794413165973885005e-02) (4, 1.17603637035362640351e-01) (5, 1.40932078500364099671e-01) (6, 1.60238108358199571324e-01) (7, 5.24920466724379808365e-02) (8, 8.38945816795660936904e-02) (9, -3.69500447966727429971e+00) (10, 1.33901817897319058703e-01) (11, 9.47915790968343996425e-01) (12, -1.87832596140435036103e-02) (13, 6.21059763190716929149e-02) (14, 2.35552329828629364306e-01) (15, 1.64341921190034358224e-02) (16, -5.76247810316753497628e-03) (17, -9.23187663643546784442e+02) (18, 2.86075401265386657090e-02) (19, -3.37215677244468103879e+00) (20, -3.70422993656415594499e-02) (21, 2.10121440688255875506e-02) (22, 4.59410226598218410232e-02) (23, -6.09401124695605833637e+00) (24, -3.44814942346663849682e-02) (25, 7.41275438694219634961e-01) (26, 4.09661800877210435790e-01) (0, 2.90497143042002026192e-01) (1, 1.25826275809070325939e-01) (2, 1.20653747482558942883e-01) (3, 1.02868757112285380551e-01) (4, 1.72066717310210975933e-01) (5, 1.66487620131644531440e-01) (6, 8.71646236223125869813e-02) (7, -2.41948071851014606670e-02) (8, -5.40028449813399064050e-02) (9, -4.27488174194280112772e+00) (10, 2.09077054078490531808e-01) (11, 1.35141872975791077494e+00) (12, 2.99273929289931399367e-02) (13, 1.29715442001102687630e-01) (14, 9.06120514505173585418e-02) (15, -5.71961706300962852145e-02) (16, 1.27519622682604000241e-01) (17, -9.23131765323616946262e+02) (18, -1.77129609802833334897e-02) (19, -2.97354819331113962022e+00) (20, -1.30041535370706201613e-01) (21, 1.45358039890019340862e-02) (22, 5.62583772234119608435e-02) (23, -2.67983113203055323126e+00) (24, -9.25553140875889357453e-02) (25, -8.08512654919953527299e-02) (26, 4.28442178722471034291e-01) (0, -7.00356885970434328570e-01) (1, 1.29215339242739202241e-02) (2, 3.07168135463518621187e-02) (3, -4.01132363148252579083e-04) (4, -8.29067980826573847075e-02) (5, -1.00811620732162349201e-01) (6, 4.77617688357195369075e-01) (7, -2.51791695963085870869e-01) (8, 6.42114723408552939832e-02) (9, 7.58154500437600797902e-01) (10, 1.93425865579590246235e-02) (11, 1.24701669604052245433e+00) (12, -9.17600518646963514424e-02) (13, -9.05329910437371043752e-02) (14, 4.27064905872395240982e-03) (15, 8.12391194141044770127e-01) (16, 1.82589746781977174672e-02) (17, 8.39924865105130258325e-02) (18, 2.49626571536788660621e-01) (19, 1.03726385941296239679e+00) (20, 3.89368441811475229919e-01) (21, 1.99063865267128575764e-01) (22, 7.08689196375752117341e-01) (23, 4.65000557708591999440e-01) (24, 2.88031249013692258742e-01) (25, 1.79305439494906959652e+00) (26, -9.29931954716985004206e-02) (27, -2.39926746833071052878e-01) (28, 4.62068982669970873545e-01) (29, 8.93415784818817337865e-02) (30, 3.49277876952790722331e-01) (31, -1.53138450445065660288e-01) (32, 7.39941913138373458247e-02) (33, 5.67997032493991804714e-01) (34, -2.11864329358541741977e-01) (35, -2.65803128304989755293e-01) (36, 3.81031348942380443390e-01) (37, 3.26598188850197423960e-01) 
