FANN_FLO_2.1
num_layers=3
learning_rate=0.700000
connection_rate=1.000000
network_type=0
learning_momentum=0.000000
training_algorithm=2
train_error_function=1
train_stop_function=1
cascade_output_change_fraction=0.010000
quickprop_decay=-0.000100
quickprop_mu=1.750000
rprop_increase_factor=1.200000
rprop_decrease_factor=0.500000
rprop_delta_min=0.000000
rprop_delta_max=50.000000
rprop_delta_zero=0.100000
cascade_output_stagnation_epochs=12
cascade_candidate_change_fraction=0.010000
cascade_candidate_stagnation_epochs=12
cascade_max_out_epochs=150
cascade_min_out_epochs=50
cascade_max_cand_epochs=150
cascade_min_cand_epochs=50
cascade_num_candidate_groups=2
bit_fail_limit=1.00000000000000005551e-01
cascade_candidate_limit=1.00000000000000000000e+03
cascade_weight_multiplier=4.00000000000000022204e-01
cascade_activation_functions_count=10
cascade_activation_functions=3 5 7 8 10 11 14 15 16 17 
cascade_activation_steepnesses_count=4
cascade_activation_steepnesses=2.50000000000000000000e-01 5.00000000000000000000e-01 7.50000000000000000000e-01 1.00000000000000000000e+00 
layer_sizes=16 11 2 
scale_included=0
neurons (num_inputs, activation_function, activation_steepness)=(0, 0, 0.00000000000000000000e+00) (0, 0, 0.00000000000000000000e+00) (0, 0, 0.00000000000000000000e+00) (0, 0, 0.00000000000000000000e+00) (0, 0, 0.00000000000000000000e+00) (0, 0, 0.00000000000000000000e+00) (0, 0, 0.00000000000000000000e+00) (0, 0, 0.00000000000000000000e+00) (0, 0, 0.00000000000000000000e+00) (0, 0, 0.00000000000000000000e+00) (0, 0, 0.00000000000000000000e+00) (0, 0, 0.00000000000000000000e+00) (0, 0, 0.00000000000000000000e+00) (0, 0, 0.00000000000000000000e+00) (0, 0, 0.00000000000000000000e+00) (0, 0, 0.00000000000000000000e+00) (16, 6, 5.00000000000000000000e-01) (16, 6, 5.00000000000000000000e-01) (16, 6, 5.00000000000000000000e-01) (16, 6, 5.00000000000000000000e-01) (16, 6, 5.00000000000000000000e-01) (16, 6, 5.00000000000000000000e-01) (16, 6, 5.00000000000000000000e-01) (16, 6, 5.00000000000000000000e-01) (16, 6, 5.00000000000000000000e-01) (16, 6, 5.00000000000000000000e-01) (0, 6, 0.00000000000000000000e+00) (11, 6, 5.00000000000000000000e-01) (0, 6, 0.00000000000000000000e+00) 
connections (connected_to_neuron, weight)=(0, 4.13942698495688016225e-02) (1, -6.88987339799883580227e-02) (2, -5.62538917129519477900e-02) (3, -2.35962982242586931381e-02) (4, -6.99807967012407994289e-02) (5, -5.12765008577780873056e-02) (6, -1.09897302833321122706e-01) (7, -9.28563045995431726731e-03) (8, 5.41151499536013957936e+00) (9, 1.53766758075531782129e-02) (10, 3.68019372397786614926e+00) (11, -7.97992969181483102759e-01) (12, 1.54755593194263081636e-02) (13, -2.71002783513153676365e-02) (14, 8.43905295072146371949e-02) (15, -4.91222334003032112815e-01) (0, 1.41300537116528568404e+00) (1, -8.62865292632970071196e-01) (2, -8.42867904508504128813e-01) (3, -6.77873612547311044096e-01) (4, -8.59674492085370278716e-01) (5, 9.52041415195348066092e-03) (6, 9.66606645558628213566e-02) (7, -1.31194895344230420819e-02) (8, -1.89646484201806631020e+00) (9, 8.99405899907840672425e-02) (10, 5.34623811507022050904e+00) (11, -1.02402902491210548441e-01) (12, 5.75300093332337336705e-01) (13, -1.78475682265952367844e-01) (14, -2.15412530928187767598e-01) (15, -5.55513579398349763294e-02) (0, 4.76192803909379414051e+00) (1, 7.94286958681230809143e-02) (2, 1.68129407595265539799e-01) (3, 1.24062073211539322659e-01) (4, 2.03573689590562018070e-01) (5, 2.35560319115047850369e-01) (6, 7.41150317425250254599e-02) (7, 1.73466821675972715511e-01) (8, -6.20337490241600481022e-02) (9, 2.30427323867117644918e-01) (10, -8.69248448375566873381e+00) (11, 6.01693932545410916646e+01) (12, 2.75513508133248263832e-01) (13, 2.95492066904037842257e-01) (14, -1.23081966065420628231e-01) (15, 6.48849789241347368884e-02) (0, -1.42259634187333755539e-01) (1, 4.44902098557864389416e-01) (2, 4.41462389013682565686e-01) (3, 4.92904796085272989270e-01) (4, 3.99334139010821653759e-01) (5, -1.20926945332773572161e+00) (6, -4.61948270530473992235e-01) (7, 4.50068060900816468983e-02) (8, 2.32135204670503814128e+00) (9, -3.28889208970438218227e-01) (10, -2.10352236611270537736e+00) (11, 1.64311767925055196571e+00) (12, -5.38337092864142885418e-01) (13, 4.56732219580781029222e-02) (14, -1.73652941269045374417e-01) (15, -3.58287746850672272902e-01) (0, 1.33925444270879184794e-01) (1, -3.30847020214083548106e-02) (2, -2.13816578453066702403e-02) (3, -1.52994372225332575521e-01) (4, -6.82622010772707676907e-02) (5, 8.13129957824182750259e-03) (6, -7.53547208232124704486e-02) (7, -1.32329689140488732102e-01) (8, 4.91931401048870942105e+00) (9, 7.63086403163068006938e-03) (10, 1.38493713810101137796e+00) (11, -8.78510808821862165807e-01) (12, -3.15134037806344205479e-02) (13, -9.69236626362884601260e-02) (14, -5.94697241815887872596e-02) (15, -3.25944402918558084892e-01) (0, 7.21270727015327017817e-01) (1, 2.03864288384332487114e-01) (2, 1.20305825824155734893e-01) (3, 2.75921643322848200719e-02) (4, 6.65007837659262884822e-02) (5, 1.65633323190184311713e-01) (6, 2.81223564869214848194e-01) (7, 1.77381182998730624334e-01) (8, -1.86753877695412984217e+00) (9, 2.73854465986939299427e-01) (10, 5.03282824786844695808e+00) (11, -1.46282213995413790109e+00) (12, 1.49969988877585086451e-01) (13, 1.88660491469938629283e-01) (14, -8.24277142147355479374e-02) (15, 2.20104506720812442833e-01) (0, 1.67519937163390970625e+01) (1, 7.37023803873353533511e-01) (2, 7.47100796087079577212e-01) (3, 7.35972012861066393619e-01) (4, 7.20576580150418810611e-01) (5, 9.27876149343518585866e-01) (6, -8.99439215869081487575e-01) (7, -1.07186178102144147317e+00) (8, 1.34448336756205422127e+00) (9, -2.73756190285798450823e-01) (10, -1.07347563881073710945e+01) (11, -5.14363378120031966567e-01) (12, 2.23114240232717801760e-02) (13, 1.10455433716847670200e-01) (14, -4.38339840309244999084e-01) (15, 6.03493014315752279719e-02) (0, -2.96971716320799883349e-01) (1, 1.45537265813189820030e-01) (2, 6.04079749940217639037e-02) (3, 1.68993355011779089470e-01) (4, 5.52775126455606058418e-02) (5, 1.70491050159637502759e-01) (6, 1.47815296149796132630e-01) (7, 1.47479331754300557744e-01) (8, -2.60243543549546263449e-01) (9, 1.03934010846539290340e-01) (10, -7.13869290339368678389e+00) (11, 7.10889207795213735608e+01) (12, 1.13967919815698426333e-01) (13, 2.25104995315264733158e-01) (14, 3.28767355759460033759e-01) (15, 2.05939695781888088000e-01) (0, 2.15537895185618877392e+00) (1, 4.07460063646670367365e-01) (2, 3.55240583370562579280e-01) (3, 3.40021356891032244807e-01) (4, 3.82613524745341104794e-01) (5, 5.82384976413854893451e-01) (6, 2.67387754006128686157e-01) (7, 6.69686470562087299285e-01) (8, -2.10423931022330146234e+00) (9, 8.16843453236082317481e-01) (10, 3.43859287110669242793e+00) (11, 1.10207156081987500684e-01) (12, 6.91386656305496782871e-01) (13, 1.28021977953327437127e+00) (14, 4.46607316309742985450e-01) (15, 6.29332781525082374241e-02) (0, 2.75701266256968358093e+00) (1, 1.81969536469499849896e-02) (2, 1.63208401017002485700e-01) (3, 1.19518472068123160490e-01) (4, 1.68627416901401899763e-01) (5, 1.01007780945361128055e-01) (6, -3.13666159717103709692e-01) (7, 1.11930548499980533905e-01) (8, 2.06744645690092911094e-02) (9, 5.79043553884819095501e-01) (10, -9.08551697131997215706e+00) (11, 1.44357736248455353234e+02) (12, 2.94166223794121162172e-01) (13, -2.62891329954143937453e-01) (14, -1.82174944093692614544e+00) (15, 1.22281741346839042950e-01) (16, 7.16167876841210859773e-01) (17, 6.62545556593470974516e-02) (18, 8.12339929888128142732e-02) (19, -1.72889823182501400911e-01) (20, 3.80754838849660992572e-01) (21, 2.19697962771712995700e-01) (22, -5.12312119409329413955e-01) (23, 8.33885941568513699984e-01) (24, 2.47049374812377126043e-01) (25, 7.66294145776270918535e-02) (26, 1.80998082832327822356e-01) 
