FANN_FLO_2.1
num_layers=3
learning_rate=0.700000
connection_rate=1.000000
network_type=0
learning_momentum=0.000000
training_algorithm=2
train_error_function=1
train_stop_function=1
cascade_output_change_fraction=0.010000
quickprop_decay=-0.000100
quickprop_mu=1.750000
rprop_increase_factor=1.200000
rprop_decrease_factor=0.500000
rprop_delta_min=0.000000
rprop_delta_max=50.000000
rprop_delta_zero=0.100000
cascade_output_stagnation_epochs=12
cascade_candidate_change_fraction=0.010000
cascade_candidate_stagnation_epochs=12
cascade_max_out_epochs=150
cascade_min_out_epochs=50
cascade_max_cand_epochs=150
cascade_min_cand_epochs=50
cascade_num_candidate_groups=2
bit_fail_limit=1.00000000000000005551e-01
cascade_candidate_limit=1.00000000000000000000e+03
cascade_weight_multiplier=4.00000000000000022204e-01
cascade_activation_functions_count=10
cascade_activation_functions=3 5 7 8 10 11 14 15 16 17 
cascade_activation_steepnesses_count=4
cascade_activation_steepnesses=2.50000000000000000000e-01 5.00000000000000000000e-01 7.50000000000000000000e-01 1.00000000000000000000e+00 
layer_sizes=21 11 2 
scale_included=0
neurons (num_inputs, activation_function, activation_steepness)=(0, 0, 0.00000000000000000000e+00) (0, 0, 0.00000000000000000000e+00) (0, 0, 0.00000000000000000000e+00) (0, 0, 0.00000000000000000000e+00) (0, 0, 0.00000000000000000000e+00) (0, 0, 0.00000000000000000000e+00) (0, 0, 0.00000000000000000000e+00) (0, 0, 0.00000000000000000000e+00) (0, 0, 0.00000000000000000000e+00) (0, 0, 0.00000000000000000000e+00) (0, 0, 0.00000000000000000000e+00) (0, 0, 0.00000000000000000000e+00) (0, 0, 0.00000000000000000000e+00) (0, 0, 0.00000000000000000000e+00) (0, 0, 0.00000000000000000000e+00) (0, 0, 0.00000000000000000000e+00) (0, 0, 0.00000000000000000000e+00) (0, 0, 0.00000000000000000000e+00) (0, 0, 0.00000000000000000000e+00) (0, 0, 0.00000000000000000000e+00) (0, 0, 0.00000000000000000000e+00) (21, 6, 5.00000000000000000000e-01) (21, 6, 5.00000000000000000000e-01) (21, 6, 5.00000000000000000000e-01) (21, 6, 5.00000000000000000000e-01) (21, 6, 5.00000000000000000000e-01) (21, 6, 5.00000000000000000000e-01) (21, 6, 5.00000000000000000000e-01) (21, 6, 5.00000000000000000000e-01) (21, 6, 5.00000000000000000000e-01) (21, 6, 5.00000000000000000000e-01) (0, 6, 0.00000000000000000000e+00) (11, 6, 5.00000000000000000000e-01) (0, 6, 0.00000000000000000000e+00) 
connections (connected_to_neuron, weight)=(0, 6.21629446714987654588e-01) (1, 1.70335489118374310002e-02) (2, 3.98249354007617229617e-03) (3, 6.60044568383967023006e-02) (4, 1.06017532551564343940e-02) (5, -1.61363688858688382466e-02) (6, 6.69518536345771898138e-03) (7, 5.84873287683475850951e-02) (8, -5.62779513339540926609e+02) (9, 6.58821741680837014155e-02) (10, 4.75962449977391433009e+00) (11, 1.05035680399460755463e-02) (12, 1.66132413915593801779e-01) (13, -3.83396544805190753191e-01) (14, 2.28183307274896947370e-02) (15, -1.36562124449267439236e-02) (16, 2.49791337627947640510e-01) (17, 3.86489858806980779438e-01) (18, -2.03508572639807550075e+00) (19, 1.62841503552656335918e-01) (20, 7.99302409518071188543e-02) (0, 4.75214533882197809334e-01) (1, 3.85690189892840956665e-02) (2, -2.90936157159082595114e-03) (3, -8.15210111444402002467e-02) (4, -2.73901626472878509388e-02) (5, 7.15973985598072903969e-02) (6, 2.96192328751862798963e-01) (7, 1.42522055906572131523e-01) (8, -8.03348934805275348481e+02) (9, -5.46796759709284874162e-02) (10, 4.91987763390650290063e+00) (11, 1.24553931670154299782e-01) (12, 1.61510191908292938257e-01) (13, 1.98731597572110896266e-01) (14, 1.25553896952645238638e-01) (15, 1.22208544248554026868e-01) (16, 8.84368105361410111742e-02) (17, 3.84861795024183606095e-01) (18, -1.04683169753527449686e+00) (19, 8.65757484896403362029e-02) (20, -1.70039796308275661940e-02) (0, 4.10163326427216146097e-01) (1, 1.33022625663604086854e-02) (2, -2.50587801716004796027e-02) (3, -1.61024067856994940184e-01) (4, -9.02104120037234141760e-02) (5, 1.03292216065268116498e-01) (6, 1.41489099063243639609e-01) (7, -7.87742122843446967995e-02) (8, 1.22598338858607593949e+01) (9, 2.37813756680080090611e-01) (10, -3.23700713035423532915e+01) (11, 9.33122727103857518838e-02) (12, -7.22270048412068932375e-02) (13, -5.53222317046605637642e-03) (14, -4.11802526691315215479e-03) (15, -2.21005950268954934335e-02) (16, -1.21833862908876947029e-01) (17, -2.46578420030579031907e-01) (18, 5.24308719103318776611e-01) (19, -3.42300048186592598132e-02) (20, -9.65046579201311038876e-02) (0, 5.22647329060823895297e-01) (1, 7.77211498986188908944e-01) (2, 6.63028631876413587776e-01) (3, 7.07779519777004484382e-01) (4, 7.17900600801412824836e-01) (5, 2.28518417490855690888e-01) (6, -2.09902814808304238881e+00) (7, 1.93573826325826245376e-02) (8, -3.68502689218854184716e+00) (9, 4.51684947506435785503e-01) (10, 1.19982544128068635558e+00) (11, -3.38034962765543189889e+00) (12, -3.51691468894077430285e-01) (13, 1.02598299645883586639e-01) (14, -1.03405809457126585116e+00) (15, 1.42631353430270405025e-02) (16, 3.20200919927811966659e-01) (17, 3.68573987124478197330e-01) (18, 2.77825366769469095374e+00) (19, -2.39164551129515468020e+00) (20, 2.17890409082890235126e+00) (0, 7.48839974329812751996e-01) (1, 7.28273598091876972482e-02) (2, -4.43582626445017461081e-02) (3, -4.77657409770212773581e-02) (4, 1.27606970804013397647e-02) (5, 5.21823935187453943896e-03) (6, 4.10367516280871202916e-02) (7, 1.16929621932687938246e-01) (8, -5.62768731596908537540e+02) (9, 2.25518388543579528793e-01) (10, 4.89525569572862817580e+00) (11, -1.63210751044610101468e-02) (12, 2.13362434081037222189e-01) (13, -3.44396920254848137866e-01) (14, 4.95977797598432454396e-02) (15, -7.24958798217500005601e-02) (16, 3.84915901798785708987e-01) (17, 4.22991549552334256123e-01) (18, -2.09687357010229957766e+00) (19, 3.41114762594238660198e-02) (20, -3.93515462131679497060e-02) (0, 8.47714199282643932065e+00) (1, 5.95247274651084623542e-01) (2, 6.59236951186214170662e-01) (3, 7.86480820192847485117e-01) (4, 7.78990468396697277598e-01) (5, -2.12641971313135780264e+00) (6, -3.00274048899700840565e+00) (7, -2.41110235565132169366e-01) (8, -3.54098736669388625131e-01) (9, -4.54778606455014600130e+00) (10, -2.01756021013907016481e+00) (11, -3.12506124565887954958e+00) (12, -1.68317352484506965737e+00) (13, -2.24714512379811148790e+00) (14, -2.43962174057928082860e+00) (15, 4.11208298833001695272e-01) (16, 1.44825576365582042726e+00) (17, -9.45341731581965660780e-02) (18, 1.02495135749708410344e+01) (19, 6.48372500066017209974e-01) (20, 3.06945327669942358284e+00) (0, 1.64775197498825654030e+00) (1, 3.47580954919727957986e-01) (2, 3.46983209739597953103e-01) (3, 2.99040966223152793191e-01) (4, 3.86552915464314139626e-01) (5, -2.35381662136391639484e-01) (6, 1.65433998860672448750e+00) (7, 1.24765858851797278861e-01) (8, -1.68697096539325350761e+01) (9, 5.92161108620047754725e-02) (10, 1.58553236738918599258e+01) (11, -3.66525787766267097112e-01) (12, -1.26018596769486207476e-01) (13, -4.68645287965377854711e-01) (14, 9.06882290638898913571e-01) (15, 1.93969053443590139230e-01) (16, 9.29368494171873699150e-02) (17, -7.90410990418511094635e-02) (18, 6.11238977015465145826e-01) (19, 5.78398116914361826169e-01) (20, -1.00460733044213226806e-01) (0, 4.63688347749848739365e-01) (1, -1.63233922086869959189e-01) (2, -1.17162415050184071097e-01) (3, -1.24169619046365531378e-01) (4, -5.28620344030014260861e-02) (5, 7.12738233014743038929e-02) (6, 3.49507396410272896947e-01) (7, -1.50552446754195545786e-01) (8, 2.02496633874813491971e+00) (9, 2.13981861176378657108e-01) (10, -2.01578306237583493310e-01) (11, 4.78301097019227933194e-02) (12, 6.72694790776974943514e-02) (13, 4.09690111337686069248e-01) (14, 6.20608168873717502834e-01) (15, -1.91673463776234814793e-01) (16, -1.15231747949694707245e-01) (17, 5.24803554258169380198e-01) (18, 8.02085327248646784426e-01) (19, -2.98963374315714854046e-02) (20, -5.93774587064882730658e-01) (0, 7.49018554079171727800e-01) (1, -3.14269900369330140721e-02) (2, 1.08241754020483679777e-01) (3, -6.81606583344624844534e-02) (4, 2.71643944037273724068e-02) (5, 5.81564200147850138278e-02) (6, -1.82604087466994080557e-01) (7, 1.12181864390724639335e-02) (8, -6.76547351098154836624e-02) (9, 8.28934201623509302193e-03) (10, -3.14803086137646695453e-02) (11, -5.86402732045181937504e-02) (12, 6.41438759995607149511e-02) (13, 2.65449232837198234591e-01) (14, 1.56965400890396705735e-01) (15, -3.70454366077055050055e-02) (16, 3.18141802825051389636e-01) (17, 3.77931934297668248313e-01) (18, -7.96773832510671575768e-01) (19, 1.09957236270684613477e-01) (20, 8.30402673152681319868e-02) (0, -5.12281785954600277222e-01) (1, -7.95879726094452372154e-02) (2, -8.88094221038071146568e-02) (3, -6.78953927737916407281e-02) (4, -9.95625451032778469029e-03) (5, -2.52117965292774137698e-01) (6, -6.64989620715433327192e-01) (7, 4.39421043265292715629e-02) (8, -5.22073931396245640713e+01) (9, -9.46246090256530336671e-02) (10, 6.59758168446620274494e-01) (11, -4.14615919758406642481e-02) (12, -1.53910043240420318922e-01) (13, -1.55515262246829433224e-01) (14, -7.49313953698138301984e-02) (15, -7.77940936547081574037e-02) (16, -2.58185584953213331273e-04) (17, 3.33938404695969748293e-01) (18, -8.77610929620026181119e-01) (19, -4.60536270789144511206e-02) (20, 1.86923879440795526197e-01) (21, -1.42648621579254675229e-01) (22, -6.95115287115946056673e-01) (23, -7.92581652066490449648e-01) (24, -2.04616578340573479489e-01) (25, -1.27049322657203894726e-01) (26, -1.23094643146320403826e-01) (27, 4.54553118030251113169e-01) (28, 4.66989819708297615453e-01) (29, -1.36268321569341682720e-01) (30, -1.34846479915123218518e-01) (31, 3.73649253335129161169e-01) 
