FANN_FLO_2.1
num_layers=3
learning_rate=0.700000
connection_rate=1.000000
network_type=0
learning_momentum=0.000000
training_algorithm=2
train_error_function=1
train_stop_function=1
cascade_output_change_fraction=0.010000
quickprop_decay=-0.000100
quickprop_mu=1.750000
rprop_increase_factor=1.200000
rprop_decrease_factor=0.500000
rprop_delta_min=0.000000
rprop_delta_max=50.000000
rprop_delta_zero=0.100000
cascade_output_stagnation_epochs=12
cascade_candidate_change_fraction=0.010000
cascade_candidate_stagnation_epochs=12
cascade_max_out_epochs=150
cascade_min_out_epochs=50
cascade_max_cand_epochs=150
cascade_min_cand_epochs=50
cascade_num_candidate_groups=2
bit_fail_limit=1.00000000000000005551e-01
cascade_candidate_limit=1.00000000000000000000e+03
cascade_weight_multiplier=4.00000000000000022204e-01
cascade_activation_functions_count=10
cascade_activation_functions=3 5 7 8 10 11 14 15 16 17 
cascade_activation_steepnesses_count=4
cascade_activation_steepnesses=2.50000000000000000000e-01 5.00000000000000000000e-01 7.50000000000000000000e-01 1.00000000000000000000e+00 
layer_sizes=13 4 2 
scale_included=0
neurons (num_inputs, activation_function, activation_steepness)=(0, 0, 0.00000000000000000000e+00) (0, 0, 0.00000000000000000000e+00) (0, 0, 0.00000000000000000000e+00) (0, 0, 0.00000000000000000000e+00) (0, 0, 0.00000000000000000000e+00) (0, 0, 0.00000000000000000000e+00) (0, 0, 0.00000000000000000000e+00) (0, 0, 0.00000000000000000000e+00) (0, 0, 0.00000000000000000000e+00) (0, 0, 0.00000000000000000000e+00) (0, 0, 0.00000000000000000000e+00) (0, 0, 0.00000000000000000000e+00) (0, 0, 0.00000000000000000000e+00) (13, 6, 5.00000000000000000000e-01) (13, 6, 5.00000000000000000000e-01) (13, 6, 5.00000000000000000000e-01) (0, 6, 0.00000000000000000000e+00) (4, 4, 5.00000000000000000000e-01) (0, 4, 0.00000000000000000000e+00) 
connections (connected_to_neuron, weight)=(0, 2.72221797302869417123e+00) (1, -3.33491768810366462361e+00) (2, -1.75559212563097855053e+00) (3, 4.70497911509452970691e-01) (4, -2.97306567364849727575e-01) (5, 5.48054861014395724994e-02) (6, -9.52825163474669944996e-01) (7, 8.04301154086021319323e-01) (8, 2.36853743208659067720e-01) (9, -2.81551892161065397957e+00) (10, 1.96916865518417938397e+00) (11, 2.07101366629925376373e+00) (12, 2.54463847144303523251e+00) (0, -1.40380327263665694026e+00) (1, 1.34878708695841442733e+00) (2, 1.23666583745098734859e+00) (3, 1.01367391130472728200e+00) (4, 1.66234747453880937762e+00) (5, 8.42191985144938426444e-01) (6, 1.78962962018180427037e+00) (7, 1.87406499892325939527e-01) (8, 1.55150728565603168718e+00) (9, 3.15862624109769773995e+00) (10, -1.61739746756558866458e+00) (11, -1.34792378770754006645e+00) (12, -1.68651439457027474411e+00) (0, -7.28771578343400339151e-01) (1, 1.43871056383779660770e+00) (2, 6.49856356071508267647e-01) (3, 3.78799802071681346316e-01) (4, 9.03356926519474523474e-01) (5, 6.36352259149182919451e-01) (6, 4.10202124592925709834e-01) (7, 4.04082803395828693560e-01) (8, -3.38874834444578665327e-01) (9, 1.27120165898288717266e+00) (10, -5.26254019555707941436e-01) (11, -5.45808151984484291042e-01) (12, -7.98239957364091257119e-01) (13, -5.27280575081530145098e+00) (14, 6.40608882459129880260e+00) (15, 1.39961349864024042766e+00) (16, -2.04279488875938008974e+00) 
