FANN_FLO_2.1
num_layers=3
learning_rate=0.700000
connection_rate=1.000000
network_type=0
learning_momentum=0.000000
training_algorithm=2
train_error_function=1
train_stop_function=1
cascade_output_change_fraction=0.010000
quickprop_decay=-0.000100
quickprop_mu=1.750000
rprop_increase_factor=1.200000
rprop_decrease_factor=0.500000
rprop_delta_min=0.000000
rprop_delta_max=50.000000
rprop_delta_zero=0.100000
cascade_output_stagnation_epochs=12
cascade_candidate_change_fraction=0.010000
cascade_candidate_stagnation_epochs=12
cascade_max_out_epochs=150
cascade_min_out_epochs=50
cascade_max_cand_epochs=150
cascade_min_cand_epochs=50
cascade_num_candidate_groups=2
bit_fail_limit=1.00000000000000005551e-01
cascade_candidate_limit=1.00000000000000000000e+03
cascade_weight_multiplier=4.00000000000000022204e-01
cascade_activation_functions_count=10
cascade_activation_functions=3 5 7 8 10 11 14 15 16 17 
cascade_activation_steepnesses_count=4
cascade_activation_steepnesses=2.50000000000000000000e-01 5.00000000000000000000e-01 7.50000000000000000000e-01 1.00000000000000000000e+00 
layer_sizes=13 4 2 
scale_included=0
neurons (num_inputs, activation_function, activation_steepness)=(0, 0, 0.00000000000000000000e+00) (0, 0, 0.00000000000000000000e+00) (0, 0, 0.00000000000000000000e+00) (0, 0, 0.00000000000000000000e+00) (0, 0, 0.00000000000000000000e+00) (0, 0, 0.00000000000000000000e+00) (0, 0, 0.00000000000000000000e+00) (0, 0, 0.00000000000000000000e+00) (0, 0, 0.00000000000000000000e+00) (0, 0, 0.00000000000000000000e+00) (0, 0, 0.00000000000000000000e+00) (0, 0, 0.00000000000000000000e+00) (0, 0, 0.00000000000000000000e+00) (13, 6, 5.00000000000000000000e-01) (13, 6, 5.00000000000000000000e-01) (13, 6, 5.00000000000000000000e-01) (0, 6, 0.00000000000000000000e+00) (4, 4, 5.00000000000000000000e-01) (0, 4, 0.00000000000000000000e+00) 
connections (connected_to_neuron, weight)=(0, -1.06773558806965485068e+00) (1, 2.45481242719753339543e+02) (2, 4.92393243830470161981e+00) (3, -1.03329413728265806505e+00) (4, -7.19751691988342434669e-01) (5, 3.44354094444645841833e+00) (6, 4.86852582462696081844e-01) (7, -7.97700942718178929169e-01) (8, 3.75629296330354633948e-01) (9, 3.61946955208007736804e-01) (10, -5.37407608638323236461e-03) (11, -1.47123693767535757004e-01) (12, -1.15459039610216729344e+00) (0, 1.85132920851802412754e-01) (1, 1.77313970010518993092e+01) (2, 8.39216324450323902795e-01) (3, 2.59880883647349070209e-01) (4, 2.21521026470318932455e-01) (5, 2.29961770038528828808e-01) (6, 4.05875251829548422400e-01) (7, 1.74706767524797912383e-01) (8, 1.60910082377391933095e-01) (9, 6.62238476601242909148e-02) (10, 1.32454976161199416973e-01) (11, 1.13545001188594188446e-01) (12, 6.76335544491764029118e-02) (0, -3.88442383364148713376e-03) (1, 4.26605285279680614963e+01) (2, 5.27816044768361347650e+00) (3, -2.30602475766990451522e-02) (4, -7.15547707635935531512e-02) (5, 5.39877502672436393460e-01) (6, 1.93971887715825075382e-01) (7, -1.53567201400740066530e-01) (8, 8.32276684025949231582e-01) (9, 4.28005786201065219210e-01) (10, 2.83528684915236972586e-01) (11, -5.52121800010118082835e-03) (12, -2.22221249073276325148e-02) (13, 3.29144625974079048092e+01) (14, 7.29055013789202538410e-02) (15, 7.77460631894488218840e-01) (16, -1.17402636807749383152e+00) 
